################################################################################
# Neural network connection values (weights and biases).
################################################################################
# Col  Name       Description
################################################################################
# 1    connection Neural network connection value.
# 2    t          Connection type (a = weight, b = bias).
# 3    index      Index enumerating weights.
# 4    l_s        Starting point layer (end point layer for biases).
# 5    n_s        Starting point neuron in starting layer (end point neuron for biases).
# 6    l_e        End point layer.
# 7    n_e        End point neuron in end layer.
################################################################################
#                      1 2         3     4     5     6     7
#             connection t     index   l_s   n_s   l_e   n_e
############################################################
 -5.8918876717610150E-03 a         1     0     1     1     1
  2.8162422784576976E-02 a         2     0     1     1     2
 -6.0541228159169758E-01 a         3     0     1     1     3
  6.9980379347075201E-03 a         4     0     1     1     4
  1.7618727874071147E-01 a         5     0     1     1     5
 -1.3424035362611109E+00 a         6     0     1     1     6
 -3.0199573605787533E-01 a         7     0     1     1     7
  1.7605428583174693E-01 a         8     0     1     1     8
  1.4658339481614643E-01 a         9     0     1     1     9
  2.2714728789459929E-01 a        10     0     1     1    10
  4.1748310883655833E-02 a        11     0     1     1    11
  7.8003668874740106E-01 a        12     0     1     1    12
  8.5170952615468337E-02 a        13     0     1     1    13
 -8.5849262157665737E-02 a        14     0     1     1    14
 -2.9410493250865061E-01 a        15     0     1     1    15
 -4.8249277045317973E-01 a        16     0     1     1    16
 -3.4985441153690944E-01 a        17     0     1     1    17
 -5.4380041457864137E-01 a        18     0     1     1    18
  4.8371670795391614E-01 a        19     0     1     1    19
 -2.7962934345830456E-02 a        20     0     1     1    20
  2.6184912877317096E-01 a        21     0     1     1    21
  1.3344811896677941E-01 a        22     0     1     1    22
  2.7046075516384849E-01 a        23     0     1     1    23
  2.4279486238599005E-01 a        24     0     1     1    24
  2.5444190050663146E-01 a        25     0     1     1    25
  2.1225191172780838E-01 a        26     0     2     1     1
  3.4011892312760755E-01 a        27     0     2     1     2
  7.1216174426639534E-01 a        28     0     2     1     3
  2.7791000106818015E-01 a        29     0     2     1     4
  5.6141825455378347E-01 a        30     0     2     1     5
  2.7207081923118148E-01 a        31     0     2     1     6
 -4.2569802559308828E-01 a        32     0     2     1     7
  6.9112436746024020E-02 a        33     0     2     1     8
  5.1699453829976860E-01 a        34     0     2     1     9
 -5.0114427023541033E-02 a        35     0     2     1    10
  1.0930890888352607E-01 a        36     0     2     1    11
  1.1206163471816105E-01 a        37     0     2     1    12
  2.0766457780085004E-01 a        38     0     2     1    13
 -3.5223311854317019E-01 a        39     0     2     1    14
 -1.1721155163895951E-01 a        40     0     2     1    15
  1.0265628135417849E-01 a        41     0     2     1    16
 -1.5430776908402280E-01 a        42     0     2     1    17
 -6.7767245510946733E-02 a        43     0     2     1    18
  3.0669781867504503E-01 a        44     0     2     1    19
  1.6006468129934648E-01 a        45     0     2     1    20
 -1.7979904131308788E-01 a        46     0     2     1    21
 -2.8548002520275279E-01 a        47     0     2     1    22
  2.1730413707418847E-01 a        48     0     2     1    23
 -3.2575439133566853E-01 a        49     0     2     1    24
  8.2223987861225196E-04 a        50     0     2     1    25
 -3.3115635519288517E-01 a        51     0     3     1     1
 -3.5420440447167634E-01 a        52     0     3     1     2
  7.6627213330420163E-01 a        53     0     3     1     3
 -3.2522998660491764E-01 a        54     0     3     1     4
  4.9759343588142541E-01 a        55     0     3     1     5
 -4.2800122379830191E-01 a        56     0     3     1     6
  1.4168705277138835E-01 a        57     0     3     1     7
 -3.3883326340774239E-01 a        58     0     3     1     8
 -2.5379293022381755E-01 a        59     0     3     1     9
 -1.4249305811560686E-01 a        60     0     3     1    10
  1.3420069786496744E-02 a        61     0     3     1    11
 -1.2177117946506791E-01 a        62     0     3     1    12
  5.9158319619828337E-01 a        63     0     3     1    13
  3.1694070430207089E-01 a        64     0     3     1    14
  2.5008783863860634E-01 a        65     0     3     1    15
  3.8395744752927491E-01 a        66     0     3     1    16
  1.5553149050955561E-01 a        67     0     3     1    17
  4.6677730885028701E-01 a        68     0     3     1    18
 -2.2949773658457548E-01 a        69     0     3     1    19
 -3.5256911125430945E-01 a        70     0     3     1    20
 -2.0410733323814878E-01 a        71     0     3     1    21
 -3.2491485938347275E-01 a        72     0     3     1    22
 -2.4553464283999593E-01 a        73     0     3     1    23
 -4.9211412313374286E-01 a        74     0     3     1    24
  1.8101334403869895E-01 a        75     0     3     1    25
  7.1525475782323655E-01 a        76     0     4     1     1
 -1.5878960241599391E-02 a        77     0     4     1     2
 -6.6164836043961772E-01 a        78     0     4     1     3
 -1.3732001797312321E-01 a        79     0     4     1     4
 -5.1007091749844102E-01 a        80     0     4     1     5
 -5.5674567494643834E-01 a        81     0     4     1     6
 -6.7749932842469190E-02 a        82     0     4     1     7
  4.4334996546187451E-02 a        83     0     4     1     8
  1.8889524992560417E-02 a        84     0     4     1     9
 -8.0659155270220273E-02 a        85     0     4     1    10
 -8.9594938936531032E-01 a        86     0     4     1    11
 -8.0450805209555790E-02 a        87     0     4     1    12
  2.6254610623555219E-01 a        88     0     4     1    13
  1.7103773838052125E-01 a        89     0     4     1    14
 -2.8454743428822854E-01 a        90     0     4     1    15
  3.3496800688705403E-01 a        91     0     4     1    16
 -2.6042854936528487E-01 a        92     0     4     1    17
  2.3441520478093891E-01 a        93     0     4     1    18
  2.4631685888328175E-01 a        94     0     4     1    19
 -5.0313200290510951E-01 a        95     0     4     1    20
 -1.0367893573104411E-01 a        96     0     4     1    21
  8.5651015608732173E-01 a        97     0     4     1    22
  3.1705551936899695E-01 a        98     0     4     1    23
 -2.6495125886084803E-01 a        99     0     4     1    24
 -2.7634783512244504E-01 a       100     0     4     1    25
 -9.0801259244153096E-02 a       101     0     5     1     1
 -9.4993862774322479E-02 a       102     0     5     1     2
 -4.5411476938471168E-01 a       103     0     5     1     3
  1.4481391565409102E-01 a       104     0     5     1     4
 -4.7123341795872420E-01 a       105     0     5     1     5
  1.3581178596789436E+00 a       106     0     5     1     6
 -1.0350529412906163E-01 a       107     0     5     1     7
 -3.1395653849450168E-03 a       108     0     5     1     8
 -1.7974565279342469E-01 a       109     0     5     1     9
 -1.8886069313860779E-01 a       110     0     5     1    10
 -1.9116402676338452E-02 a       111     0     5     1    11
 -8.6432230493580148E-02 a       112     0     5     1    12
  6.1991827025804185E-02 a       113     0     5     1    13
 -2.2355655010303402E-01 a       114     0     5     1    14
  1.5875640964442089E-01 a       115     0     5     1    15
 -4.8276785561986446E-01 a       116     0     5     1    16
  2.9865259889405327E-01 a       117     0     5     1    17
  7.8777202201643026E-02 a       118     0     5     1    18
 -6.9062833143382052E-01 a       119     0     5     1    19
  3.8998329929293518E-01 a       120     0     5     1    20
 -7.1360234345310032E-03 a       121     0     5     1    21
  6.4036946767004624E-02 a       122     0     5     1    22
  1.1416213896832464E-01 a       123     0     5     1    23
  7.2731188346521791E-01 a       124     0     5     1    24
 -2.7589177427024664E-01 a       125     0     5     1    25
  1.7655793716283796E-02 a       126     0     6     1     1
  4.4456925043613293E-01 a       127     0     6     1     2
  4.4685349831493282E-01 a       128     0     6     1     3
  3.4323074485405952E-01 a       129     0     6     1     4
  5.8585479226665869E-02 a       130     0     6     1     5
  2.0865195348911167E-01 a       131     0     6     1     6
 -5.7184021518349770E-01 a       132     0     6     1     7
  2.1583785431847505E-01 a       133     0     6     1     8
  2.1841925622681718E-01 a       134     0     6     1     9
 -1.0352109532271923E-02 a       135     0     6     1    10
  1.6429783719089319E-01 a       136     0     6     1    11
 -5.5135059332138546E-02 a       137     0     6     1    12
  1.8639580638534536E-01 a       138     0     6     1    13
 -4.8788090800108802E-01 a       139     0     6     1    14
  1.7085643389112062E-01 a       140     0     6     1    15
  3.4049316861210666E-01 a       141     0     6     1    16
  2.2609931524879381E-01 a       142     0     6     1    17
 -2.9903468895874735E-01 a       143     0     6     1    18
  1.3246196197008722E-01 a       144     0     6     1    19
  5.5559498927140592E-02 a       145     0     6     1    20
  3.1384096153486418E-01 a       146     0     6     1    21
 -5.2635159195762060E-02 a       147     0     6     1    22
  2.5018823402573959E-01 a       148     0     6     1    23
 -5.0403697324610330E-01 a       149     0     6     1    24
 -1.2884194919048439E-01 a       150     0     6     1    25
 -2.2095821289676965E-01 a       151     0     7     1     1
  1.0091300681770267E-01 a       152     0     7     1     2
  2.2704224163681977E-01 a       153     0     7     1     3
 -4.0615042006964841E-01 a       154     0     7     1     4
  2.7404376930356633E-01 a       155     0     7     1     5
 -7.4491546098465200E-01 a       156     0     7     1     6
  1.3885341421567951E-01 a       157     0     7     1     7
 -8.6974755279712934E-02 a       158     0     7     1     8
  2.0250923091572787E-01 a       159     0     7     1     9
  5.7896694774849333E-01 a       160     0     7     1    10
  2.9128393857167184E-01 a       161     0     7     1    11
  5.1977799986254025E-01 a       162     0     7     1    12
  1.5778887851604312E-01 a       163     0     7     1    13
  3.6154805169430415E-01 a       164     0     7     1    14
 -2.5879163499513480E-01 a       165     0     7     1    15
  6.9573381475647525E-02 a       166     0     7     1    16
 -3.0949796488699505E-01 a       167     0     7     1    17
  8.0962985021929029E-02 a       168     0     7     1    18
  3.0290125289182823E-01 a       169     0     7     1    19
 -8.5987586338426986E-02 a       170     0     7     1    20
  1.6941133415036558E-01 a       171     0     7     1    21
 -3.2327758571980886E-01 a       172     0     7     1    22
  1.1774955547270917E-01 a       173     0     7     1    23
 -1.6516006237263556E-01 a       174     0     7     1    24
  1.2653414856534123E-01 a       175     0     7     1    25
  3.6813052988857853E-01 a       176     0     8     1     1
 -1.4777744110489532E-01 a       177     0     8     1     2
 -5.8306832984509527E-01 a       178     0     8     1     3
  1.4700133497641642E-02 a       179     0     8     1     4
 -2.9361597431174141E-01 a       180     0     8     1     5
 -1.4174276740526540E-01 a       181     0     8     1     6
 -3.9287826012349569E-01 a       182     0     8     1     7
  3.7551665827792574E-01 a       183     0     8     1     8
  2.8401100639518645E-02 a       184     0     8     1     9
 -2.8283448860811816E-01 a       185     0     8     1    10
  1.3984282807889609E-01 a       186     0     8     1    11
 -2.4385273367353183E-01 a       187     0     8     1    12
 -5.2414171990186109E-01 a       188     0     8     1    13
  3.7154027138498341E-01 a       189     0     8     1    14
 -2.6117272921903106E-01 a       190     0     8     1    15
  1.5384177514265232E-01 a       191     0     8     1    16
 -1.2647549427890536E-01 a       192     0     8     1    17
  4.3619868840628212E-02 a       193     0     8     1    18
 -3.9076457701839463E-02 a       194     0     8     1    19
 -6.2997604861592982E-01 a       195     0     8     1    20
 -3.3581626208115706E-01 a       196     0     8     1    21
  2.0018471635533450E-01 a       197     0     8     1    22
 -8.0780643446098574E-02 a       198     0     8     1    23
  5.0207965834360613E-01 a       199     0     8     1    24
 -1.6011175646273834E-01 a       200     0     8     1    25
 -1.6199581054640785E-01 a       201     0     9     1     1
 -3.3274163158774034E-01 a       202     0     9     1     2
  7.0086331756826267E-03 a       203     0     9     1     3
  2.1984009512072902E-01 a       204     0     9     1     4
  1.5830312366707622E-01 a       205     0     9     1     5
 -3.5556698519061888E-02 a       206     0     9     1     6
 -2.1704625534984506E-01 a       207     0     9     1     7
  2.6778652534451417E-02 a       208     0     9     1     8
 -2.6924144818577084E-01 a       209     0     9     1     9
 -3.2753401733440912E-01 a       210     0     9     1    10
 -1.4447554668698451E-01 a       211     0     9     1    11
  2.1896351017166332E-02 a       212     0     9     1    12
  5.3994213059118989E-01 a       213     0     9     1    13
 -2.0393649776515821E-01 a       214     0     9     1    14
  2.2462400945955638E-01 a       215     0     9     1    15
 -2.2727746137239824E-01 a       216     0     9     1    16
  3.2233337247039634E-01 a       217     0     9     1    17
  2.1437962107424660E-01 a       218     0     9     1    18
 -5.6764823852570212E-01 a       219     0     9     1    19
 -9.5124752092840478E-03 a       220     0     9     1    20
 -4.8815012619070071E-02 a       221     0     9     1    21
 -5.5553930069194991E-02 a       222     0     9     1    22
 -1.1438407307083658E-01 a       223     0     9     1    23
 -3.5180148921088916E-01 a       224     0     9     1    24
  1.3922728243967619E-01 a       225     0     9     1    25
  2.4192477738584395E-01 a       226     0    10     1     1
  3.0916148671237459E-01 a       227     0    10     1     2
  2.3973585814750778E-01 a       228     0    10     1     3
  2.0570603578154378E-01 a       229     0    10     1     4
 -5.0722081425399530E-02 a       230     0    10     1     5
  7.8518117104895702E-02 a       231     0    10     1     6
  5.8171776486913976E-02 a       232     0    10     1     7
  2.6411836838274183E-01 a       233     0    10     1     8
 -4.1316906871763794E-02 a       234     0    10     1     9
 -5.4984996364166289E-02 a       235     0    10     1    10
 -4.5225854438025975E-01 a       236     0    10     1    11
 -3.1018408424080729E-01 a       237     0    10     1    12
  1.1857101242018589E-01 a       238     0    10     1    13
 -4.9021006407709283E-01 a       239     0    10     1    14
  1.5647048789750276E-01 a       240     0    10     1    15
  3.3959851948990721E-01 a       241     0    10     1    16
  4.0064983894133543E-01 a       242     0    10     1    17
  1.8762862751955021E-02 a       243     0    10     1    18
  5.8005961578136511E-01 a       244     0    10     1    19
  5.3981829927673045E-02 a       245     0    10     1    20
 -4.6811016228742439E-02 a       246     0    10     1    21
  1.9901945837183913E-01 a       247     0    10     1    22
  1.3166928906802192E-01 a       248     0    10     1    23
 -1.1778075254185585E-01 a       249     0    10     1    24
 -5.3957754664456389E-02 a       250     0    10     1    25
 -1.9779138899486934E-01 a       251     0    11     1     1
  8.2725492364739708E-02 a       252     0    11     1     2
 -1.1002260415125770E-02 a       253     0    11     1     3
 -4.8708480637724330E-02 a       254     0    11     1     4
 -6.6248720905815019E-03 a       255     0    11     1     5
  1.0418564009775158E-01 a       256     0    11     1     6
 -1.0911387336555674E-01 a       257     0    11     1     7
  1.4003344310268531E-01 a       258     0    11     1     8
  1.8539803363975468E-02 a       259     0    11     1     9
  2.8249467599764455E-01 a       260     0    11     1    10
  1.4334805018557187E-01 a       261     0    11     1    11
  3.2304367609708035E-01 a       262     0    11     1    12
  1.6887567925659161E-01 a       263     0    11     1    13
  2.0366757275863007E-01 a       264     0    11     1    14
 -9.4240041341260156E-02 a       265     0    11     1    15
  9.6204180460889716E-03 a       266     0    11     1    16
 -3.4371676397667789E-01 a       267     0    11     1    17
 -2.5342989250289133E-01 a       268     0    11     1    18
 -2.3829439371789859E-01 a       269     0    11     1    19
  1.1745438976596549E-01 a       270     0    11     1    20
  1.8915507111846461E-02 a       271     0    11     1    21
  3.7405704490237682E-02 a       272     0    11     1    22
  8.1086195372584824E-02 a       273     0    11     1    23
  2.6247611244735403E-01 a       274     0    11     1    24
  7.1396795992940243E-02 a       275     0    11     1    25
  1.7012345175873167E-01 a       276     0    12     1     1
 -7.3550540580844745E-02 a       277     0    12     1     2
 -3.7863316270337743E-01 a       278     0    12     1     3
 -2.0685150430766370E-02 a       279     0    12     1     4
 -1.4207131846913362E-01 a       280     0    12     1     5
 -8.0181320248930738E-02 a       281     0    12     1     6
 -4.1131165604969398E-02 a       282     0    12     1     7
 -3.4277367366615930E-01 a       283     0    12     1     8
  1.7692627198714017E-01 a       284     0    12     1     9
 -8.4538942162668662E-02 a       285     0    12     1    10
  2.4649903352883126E-01 a       286     0    12     1    11
 -2.4169819421489236E-01 a       287     0    12     1    12
 -4.8465244321285753E-02 a       288     0    12     1    13
 -7.0574941866436945E-03 a       289     0    12     1    14
 -1.7111585554553627E-01 a       290     0    12     1    15
  1.4108494370604030E-01 a       291     0    12     1    16
  3.4444083029367085E-02 a       292     0    12     1    17
  3.5895553979249534E-01 a       293     0    12     1    18
  2.2593538312950309E-01 a       294     0    12     1    19
 -1.3370443993669157E-01 a       295     0    12     1    20
  7.3239307281034102E-02 a       296     0    12     1    21
 -4.5560375393019693E-02 a       297     0    12     1    22
  5.4768233044990226E-02 a       298     0    12     1    23
  1.6689905461181126E-01 a       299     0    12     1    24
 -2.5381840062061040E-01 a       300     0    12     1    25
 -4.0609454819056132E-02 a       301     0    13     1     1
 -2.1645154320393536E-01 a       302     0    13     1     2
  1.1857010996249036E-01 a       303     0    13     1     3
  4.9869619352853889E-03 a       304     0    13     1     4
  1.5118290492007788E-01 a       305     0    13     1     5
 -3.7322573705117318E-01 a       306     0    13     1     6
  4.1715381729597351E-02 a       307     0    13     1     7
 -3.6972805167753357E-02 a       308     0    13     1     8
 -6.1846565458075813E-02 a       309     0    13     1     9
 -2.5551080809844479E-01 a       310     0    13     1    10
 -1.0276240424857468E-01 a       311     0    13     1    11
  4.2007821528941058E-02 a       312     0    13     1    12
  1.6600659614670546E-01 a       313     0    13     1    13
  5.2505286446265675E-02 a       314     0    13     1    14
  7.3792042377731085E-02 a       315     0    13     1    15
 -2.4152102222246991E-01 a       316     0    13     1    16
  2.7536649938337935E-02 a       317     0    13     1    17
 -1.6475478696432760E-01 a       318     0    13     1    18
  3.5476235161181612E-02 a       319     0    13     1    19
 -1.0878399763272073E-01 a       320     0    13     1    20
  9.6504607679034071E-03 a       321     0    13     1    21
 -1.9904246133529602E-01 a       322     0    13     1    22
 -1.0432256857928962E-01 a       323     0    13     1    23
 -2.1334649086894689E-01 a       324     0    13     1    24
  7.4497399011119320E-02 a       325     0    13     1    25
  1.8142962019012274E-01 a       326     0    14     1     1
  2.5092549826920219E-01 a       327     0    14     1     2
  1.4490422492217420E-01 a       328     0    14     1     3
 -1.7608772191257879E-01 a       329     0    14     1     4
 -8.7858175943180253E-02 a       330     0    14     1     5
  2.4856268504166013E-01 a       331     0    14     1     6
 -7.7994684573529566E-02 a       332     0    14     1     7
  9.2567553561159421E-02 a       333     0    14     1     8
 -8.1947349481168108E-02 a       334     0    14     1     9
  1.4957124713817774E-01 a       335     0    14     1    10
 -2.1809584815432273E-01 a       336     0    14     1    11
 -2.0715148282763535E-01 a       337     0    14     1    12
 -2.6331235377614870E-01 a       338     0    14     1    13
 -1.9367748621855091E-01 a       339     0    14     1    14
  8.7019689248843207E-02 a       340     0    14     1    15
  2.1219261607384929E-01 a       341     0    14     1    16
  1.2580079695884971E-01 a       342     0    14     1    17
  9.9186188527032759E-02 a       343     0    14     1    18
  9.4498422476194860E-02 a       344     0    14     1    19
  2.5494654088231688E-02 a       345     0    14     1    20
 -8.5202855464005939E-02 a       346     0    14     1    21
  4.2918856537906412E-02 a       347     0    14     1    22
  5.7663848220653555E-02 a       348     0    14     1    23
  5.4431977230719027E-02 a       349     0    14     1    24
  1.1185227373392670E-01 a       350     0    14     1    25
 -8.5519113891116952E-02 a       351     0    15     1     1
  1.4543804212630421E-01 a       352     0    15     1     2
  1.6587355813183713E-02 a       353     0    15     1     3
  8.3993504205668118E-02 a       354     0    15     1     4
 -4.0144615372537516E-02 a       355     0    15     1     5
  3.2823279241354181E-01 a       356     0    15     1     6
 -2.8579373039984157E-01 a       357     0    15     1     7
  2.6345194923039400E-01 a       358     0    15     1     8
  5.1357912484658638E-02 a       359     0    15     1     9
  1.6632236090848018E-01 a       360     0    15     1    10
  7.1537491408703469E-02 a       361     0    15     1    11
  2.0506169212275038E-01 a       362     0    15     1    12
  2.0575802224346101E-01 a       363     0    15     1    13
  2.0933573656911567E-01 a       364     0    15     1    14
 -1.1497153704047672E-01 a       365     0    15     1    15
 -3.1915250914751545E-02 a       366     0    15     1    16
 -7.5423043546220370E-02 a       367     0    15     1    17
 -5.2258400046341844E-02 a       368     0    15     1    18
 -1.1534424336435248E-01 a       369     0    15     1    19
  2.1709747624156167E-01 a       370     0    15     1    20
  2.6189556607641482E-02 a       371     0    15     1    21
  1.2790961363560738E-01 a       372     0    15     1    22
  1.4992196092662646E-01 a       373     0    15     1    23
  9.9249437863052736E-02 a       374     0    15     1    24
 -3.2378743569478674E-02 a       375     0    15     1    25
  2.4191740669316231E-01 a       376     0    16     1     1
  4.9745008314584532E-02 a       377     0    16     1     2
 -1.7751027746549000E-01 a       378     0    16     1     3
  4.1409305641981892E-02 a       379     0    16     1     4
 -1.0301066160987389E-01 a       380     0    16     1     5
 -1.1746711907227944E-01 a       381     0    16     1     6
  2.2280516609070142E-01 a       382     0    16     1     7
 -4.2034892270924284E-01 a       383     0    16     1     8
  1.3881835887240360E-01 a       384     0    16     1     9
 -4.4311890829680241E-02 a       385     0    16     1    10
  1.4088167069846888E-01 a       386     0    16     1    11
 -8.6404299751497105E-02 a       387     0    16     1    12
  4.5830565853796024E-01 a       388     0    16     1    13
 -2.0742179693012258E-01 a       389     0    16     1    14
  4.0132272347202923E-02 a       390     0    16     1    15
  2.9610065528909013E-01 a       391     0    16     1    16
 -3.0980392292596793E-02 a       392     0    16     1    17
  2.3588461154370738E-01 a       393     0    16     1    18
  3.9444631429392286E-02 a       394     0    16     1    19
 -2.7074567518488601E-01 a       395     0    16     1    20
  1.3681638171982483E-01 a       396     0    16     1    21
 -7.9969110670840032E-02 a       397     0    16     1    22
 -2.6892529354276079E-02 a       398     0    16     1    23
 -1.8446194063581298E-01 a       399     0    16     1    24
 -6.1011871334137942E-02 a       400     0    16     1    25
  6.1051435506663927E-02 a       401     0    17     1     1
 -9.1051374876838467E-02 a       402     0    17     1     2
  1.8672904699941241E-02 a       403     0    17     1     3
 -7.7547222352461462E-02 a       404     0    17     1     4
  5.3593951831310035E-02 a       405     0    17     1     5
 -2.2396639095055318E-01 a       406     0    17     1     6
 -1.4952762567868608E-01 a       407     0    17     1     7
 -3.7808573485194036E-02 a       408     0    17     1     8
 -6.0225329270671653E-02 a       409     0    17     1     9
 -9.9501260053838136E-02 a       410     0    17     1    10
  5.0716192043353016E-02 a       411     0    17     1    11
 -1.5729788428571953E-01 a       412     0    17     1    12
 -9.1006431727272852E-02 a       413     0    17     1    13
  5.9429629033495492E-03 a       414     0    17     1    14
  1.7587002208749130E-02 a       415     0    17     1    15
 -9.9622019674194831E-02 a       416     0    17     1    16
  1.2135982989677203E-01 a       417     0    17     1    17
 -6.5108331765972713E-03 a       418     0    17     1    18
  1.4937005202792286E-01 a       419     0    17     1    19
 -1.0157615937733068E-01 a       420     0    17     1    20
 -4.0755440885555209E-02 a       421     0    17     1    21
 -6.8402277999433284E-02 a       422     0    17     1    22
 -7.7379435307024069E-02 a       423     0    17     1    23
 -8.7373824496722319E-02 a       424     0    17     1    24
 -1.3073094147477268E-03 a       425     0    17     1    25
 -2.2549384680977072E-01 a       426     0    18     1     1
 -1.1895650910096774E-01 a       427     0    18     1     2
  4.7444616314047769E-02 a       428     0    18     1     3
  3.6323658233851468E-02 a       429     0    18     1     4
  6.4425047397492441E-02 a       430     0    18     1     5
  3.3707642473092179E-02 a       431     0    18     1     6
  1.3303445936565805E-01 a       432     0    18     1     7
  4.0961964348799819E-02 a       433     0    18     1     8
 -1.3298989847746959E-01 a       434     0    18     1     9
  9.8577104775164362E-02 a       435     0    18     1    10
 -1.1202267574480078E-01 a       436     0    18     1    11
 -3.2121140868624325E-02 a       437     0    18     1    12
 -3.6492336640410183E-01 a       438     0    18     1    13
  1.1422561920696130E-02 a       439     0    18     1    14
 -7.4432507755005945E-03 a       440     0    18     1    15
 -1.5760979733778321E-01 a       441     0    18     1    16
 -5.8580543200819964E-02 a       442     0    18     1    17
 -1.3482240351190192E-01 a       443     0    18     1    18
  5.2594136289806429E-02 a       444     0    18     1    19
  1.5778828208590409E-01 a       445     0    18     1    20
 -1.0092461798962626E-01 a       446     0    18     1    21
  1.2562268449479000E-01 a       447     0    18     1    22
 -5.5402535252173805E-02 a       448     0    18     1    23
  3.0599422766968987E-01 a       449     0    18     1    24
  9.8443150445663014E-03 a       450     0    18     1    25
 -7.5878140032349592E-02 a       451     0    19     1     1
 -4.7309883239091161E-02 a       452     0    19     1     2
 -2.6656433511680063E-02 a       453     0    19     1     3
  7.3321552407390772E-02 a       454     0    19     1     4
  2.5506611502688500E-02 a       455     0    19     1     5
  1.1151741255549534E-01 a       456     0    19     1     6
  1.3354523658384890E-01 a       457     0    19     1     7
  1.4407236632790116E-01 a       458     0    19     1     8
 -4.0660447682762432E-02 a       459     0    19     1     9
  5.7831057279646589E-02 a       460     0    19     1    10
  6.8660434765354217E-02 a       461     0    19     1    11
  3.7995387210326341E-03 a       462     0    19     1    12
  7.9590157642403972E-02 a       463     0    19     1    13
  2.9929754540824749E-03 a       464     0    19     1    14
 -6.2264126588239495E-02 a       465     0    19     1    15
 -1.5956830040146913E-01 a       466     0    19     1    16
  3.8312600744892525E-02 a       467     0    19     1    17
 -3.4057602999464712E-02 a       468     0    19     1    18
  1.1214469531184233E-01 a       469     0    19     1    19
  1.0803287201171595E-01 a       470     0    19     1    20
 -4.0125992282717550E-02 a       471     0    19     1    21
  1.2936016261706187E-01 a       472     0    19     1    22
  3.4915916780740186E-02 a       473     0    19     1    23
  3.6794415592066913E-02 a       474     0    19     1    24
 -5.6387466452626482E-02 a       475     0    19     1    25
  1.6966184436294396E-01 a       476     0    20     1     1
  1.7258039325660290E-02 a       477     0    20     1     2
 -7.8075269818376827E-02 a       478     0    20     1     3
 -1.7227529293705038E-02 a       479     0    20     1     4
 -5.2452009674337434E-02 a       480     0    20     1     5
 -6.5044345508802476E-02 a       481     0    20     1     6
  1.0528054606769344E-01 a       482     0    20     1     7
 -1.5256486812168479E-01 a       483     0    20     1     8
  1.0635161886832769E-02 a       484     0    20     1     9
 -4.0489498650403077E-02 a       485     0    20     1    10
  8.7649892743166952E-02 a       486     0    20     1    11
 -6.0036824371363928E-02 a       487     0    20     1    12
  4.2005278657413081E-01 a       488     0    20     1    13
 -1.4751657772471399E-01 a       489     0    20     1    14
  6.7909691650122062E-02 a       490     0    20     1    15
  1.4705669845922109E-01 a       491     0    20     1    16
 -6.0690963055203176E-02 a       492     0    20     1    17
  1.1925711783766472E-02 a       493     0    20     1    18
  4.3088642247712125E-02 a       494     0    20     1    19
 -2.3374110493374539E-01 a       495     0    20     1    20
  8.8266213146440571E-03 a       496     0    20     1    21
 -6.3569403392082377E-02 a       497     0    20     1    22
 -4.7941949077177429E-02 a       498     0    20     1    23
 -1.5658149039298708E-01 a       499     0    20     1    24
  3.8993191236211533E-02 a       500     0    20     1    25
 -1.6045618107215229E-01 a       501     0    21     1     1
  1.3833846719701881E-01 a       502     0    21     1     2
 -3.4927772509420019E-01 a       503     0    21     1     3
 -2.3456676054462150E-01 a       504     0    21     1     4
 -1.9458045104129648E-01 a       505     0    21     1     5
 -5.4743350283612446E-01 a       506     0    21     1     6
  6.6331576076632495E-02 a       507     0    21     1     7
 -1.7517926865837033E-01 a       508     0    21     1     8
  2.1148748342390425E-01 a       509     0    21     1     9
  5.9554755683632887E-02 a       510     0    21     1    10
 -1.4597753861579013E-01 a       511     0    21     1    11
 -3.1761366930350626E-01 a       512     0    21     1    12
  4.6140968479262112E-01 a       513     0    21     1    13
 -1.4035999283831346E-01 a       514     0    21     1    14
  1.3580218334814395E-01 a       515     0    21     1    15
  1.2835842874144998E-02 a       516     0    21     1    16
  1.5150771473965980E-02 a       517     0    21     1    17
 -4.6555454957013225E-03 a       518     0    21     1    18
  5.8556733402722383E-01 a       519     0    21     1    19
 -3.6854173744686425E-01 a       520     0    21     1    20
 -2.7659460234264843E-01 a       521     0    21     1    21
  6.4889549771438876E-02 a       522     0    21     1    22
 -1.7981857634171688E-01 a       523     0    21     1    23
  1.3924836567244650E-01 a       524     0    21     1    24
  3.7873734179608987E-02 a       525     0    21     1    25
  2.6954126684330298E-01 a       526     0    22     1     1
 -1.3512820496439035E-01 a       527     0    22     1     2
 -2.1792434186304357E-01 a       528     0    22     1     3
 -1.8812643871998661E-01 a       529     0    22     1     4
  2.4180852929299487E-01 a       530     0    22     1     5
  3.4812553930493456E-01 a       531     0    22     1     6
 -9.3734666662190924E-01 a       532     0    22     1     7
  5.2509882980855194E-01 a       533     0    22     1     8
  2.6917901763578717E-01 a       534     0    22     1     9
  1.2380786137279533E-02 a       535     0    22     1    10
 -2.0590482045387046E-01 a       536     0    22     1    11
  2.8160656558485191E-02 a       537     0    22     1    12
 -4.1264832583735445E-01 a       538     0    22     1    13
 -6.8463925049140306E-01 a       539     0    22     1    14
 -6.9827830750798991E-01 a       540     0    22     1    15
  3.2556930597531752E-01 a       541     0    22     1    16
 -8.0963960660958267E-01 a       542     0    22     1    17
 -5.1148871009521024E-01 a       543     0    22     1    18
 -8.4332273791361045E-02 a       544     0    22     1    19
 -4.9500969657506416E-01 a       545     0    22     1    20
 -7.7482668783401307E-02 a       546     0    22     1    21
  3.9205471950130577E-01 a       547     0    22     1    22
  6.1565607892145313E-01 a       548     0    22     1    23
 -2.5236763443488303E-01 a       549     0    22     1    24
  4.6276848303938412E-02 a       550     0    22     1    25
 -4.3880886130766183E-01 a       551     0    23     1     1
 -1.9462418268609527E-01 a       552     0    23     1     2
  3.9719506019015366E-01 a       553     0    23     1     3
  1.5981242547045538E-01 a       554     0    23     1     4
  1.1380812895878256E-01 a       555     0    23     1     5
  4.1098874803409319E-01 a       556     0    23     1     6
  7.2355420646127921E-01 a       557     0    23     1     7
 -1.6055653926379287E-01 a       558     0    23     1     8
 -5.6643606273225089E-01 a       559     0    23     1     9
  3.4442656813882055E-01 a       560     0    23     1    10
  3.9814596822703463E-01 a       561     0    23     1    11
  2.6623807982108963E-02 a       562     0    23     1    12
  2.9705545634491831E-01 a       563     0    23     1    13
  6.5835152674371678E-01 a       564     0    23     1    14
  5.4586387720582485E-01 a       565     0    23     1    15
 -8.4836907011780294E-01 a       566     0    23     1    16
  6.9227701683993181E-01 a       567     0    23     1    17
  2.1023172701912479E-01 a       568     0    23     1    18
  1.3366405481978811E-02 a       569     0    23     1    19
  1.0333869346070750E+00 a       570     0    23     1    20
  1.0583221389688260E-01 a       571     0    23     1    21
 -1.6072936102302343E-01 a       572     0    23     1    22
 -3.9981367935130557E-01 a       573     0    23     1    23
 -2.2067570304080096E-02 a       574     0    23     1    24
  4.0278666008367334E-03 a       575     0    23     1    25
 -1.2989154569679512E-01 a       576     0    24     1     1
 -1.2494733124772772E-01 a       577     0    24     1     2
  5.5146838436829804E-01 a       578     0    24     1     3
  5.8177230469681873E-02 a       579     0    24     1     4
 -9.2640550629668666E-02 a       580     0    24     1     5
  3.0412938060532452E-01 a       581     0    24     1     6
  4.4896096356271356E-02 a       582     0    24     1     7
  2.1181060686668765E-01 a       583     0    24     1     8
  4.2197670564718827E-02 a       584     0    24     1     9
 -4.8440088820815663E-01 a       585     0    24     1    10
  1.0537350277915293E-01 a       586     0    24     1    11
  1.7801293940242843E-01 a       587     0    24     1    12
 -1.5624768807019010E-01 a       588     0    24     1    13
  4.2096767709265531E-01 a       589     0    24     1    14
 -8.8863140084565986E-02 a       590     0    24     1    15
 -3.7267536631502324E-01 a       591     0    24     1    16
  1.5727929271361646E-01 a       592     0    24     1    17
  5.1162444766870270E-02 a       593     0    24     1    18
  1.5277423252806896E-01 a       594     0    24     1    19
  6.4985304388709697E-01 a       595     0    24     1    20
  1.8279242712504129E-01 a       596     0    24     1    21
 -2.1972938691483060E-01 a       597     0    24     1    22
 -2.7547231951210404E-02 a       598     0    24     1    23
  3.5747415256349063E-01 a       599     0    24     1    24
 -4.1811381137624996E-02 a       600     0    24     1    25
  3.1889244603394140E-01 a       601     0    25     1     1
  7.4134960052323140E-01 a       602     0    25     1     2
 -4.2154666240037469E-01 a       603     0    25     1     3
 -6.0326631361738360E-02 a       604     0    25     1     4
  1.0786897427550395E-01 a       605     0    25     1     5
 -1.6514218180959619E+00 a       606     0    25     1     6
  5.0370030627206075E-01 a       607     0    25     1     7
 -2.0371937728240333E-01 a       608     0    25     1     8
 -1.2194511215769085E-01 a       609     0    25     1     9
  3.4540781275173710E-01 a       610     0    25     1    10
  1.5949022680537819E-01 a       611     0    25     1    11
  7.8570450462149249E-02 a       612     0    25     1    12
 -3.5111281327344651E-01 a       613     0    25     1    13
  4.8986344452992892E-01 a       614     0    25     1    14
 -2.4553561174890362E-01 a       615     0    25     1    15
  2.3412081049814898E-01 a       616     0    25     1    16
  2.2468128522081374E-01 a       617     0    25     1    17
  1.6929262386702199E-01 a       618     0    25     1    18
 -2.6347163139000790E-02 a       619     0    25     1    19
  7.1547921188260255E-01 a       620     0    25     1    20
  4.2529506521554614E-02 a       621     0    25     1    21
 -3.2571130670224258E-01 a       622     0    25     1    22
  3.6688066037881167E-01 a       623     0    25     1    23
 -1.2809749740656254E-01 a       624     0    25     1    24
  1.5325994865803980E-01 a       625     0    25     1    25
 -3.0887752470532476E-01 a       626     0    26     1     1
 -5.6259962859297841E-01 a       627     0    26     1     2
 -1.1252830312738496E-01 a       628     0    26     1     3
 -2.3079625623218695E-02 a       629     0    26     1     4
  1.1870376475205784E-01 a       630     0    26     1     5
  6.3089326842088881E-03 a       631     0    26     1     6
  3.2370428504010490E-01 a       632     0    26     1     7
 -4.1900434633853362E-01 a       633     0    26     1     8
  1.4603974500801836E-02 a       634     0    26     1     9
 -1.0029542906639909E-01 a       635     0    26     1    10
  1.2387047989304538E-01 a       636     0    26     1    11
 -2.1174217557382038E-01 a       637     0    26     1    12
 -2.6513564425322494E-01 a       638     0    26     1    13
 -6.0489663690086803E-01 a       639     0    26     1    14
  9.1377706485382570E-02 a       640     0    26     1    15
 -9.6919484782142906E-02 a       641     0    26     1    16
 -2.9167201223504541E-01 a       642     0    26     1    17
  2.1389001744832870E-02 a       643     0    26     1    18
 -1.0942925277187281E-01 a       644     0    26     1    19
 -4.5516027361141809E-01 a       645     0    26     1    20
 -1.5273398851322012E-01 a       646     0    26     1    21
  1.3771127369721098E-01 a       647     0    26     1    22
 -5.5297251865428909E-01 a       648     0    26     1    23
 -1.1362116513274688E-01 a       649     0    26     1    24
 -4.3612404088544998E-02 a       650     0    26     1    25
 -1.3188620666409190E-02 a       651     0    27     1     1
 -4.0686914608311208E-03 a       652     0    27     1     2
  5.9434357012930136E-03 a       653     0    27     1     3
  1.3015074023536669E-01 a       654     0    27     1     4
 -3.1206321228599634E-02 a       655     0    27     1     5
 -1.5465169386673555E-01 a       656     0    27     1     6
 -1.3910072783346175E-01 a       657     0    27     1     7
 -1.8063871751562927E-01 a       658     0    27     1     8
  6.4230964773901222E-02 a       659     0    27     1     9
  8.8033027373955366E-02 a       660     0    27     1    10
 -2.2649455205595276E-02 a       661     0    27     1    11
 -6.2521434732994610E-02 a       662     0    27     1    12
 -2.4632441096771182E-01 a       663     0    27     1    13
 -1.0148845913836670E-01 a       664     0    27     1    14
 -2.2429011995178137E-02 a       665     0    27     1    15
  1.1988821178924434E-01 a       666     0    27     1    16
  4.1888978579358520E-02 a       667     0    27     1    17
  2.3637246760789227E-01 a       668     0    27     1    18
  6.9925003869006810E-02 a       669     0    27     1    19
  1.0015222866117136E-01 a       670     0    27     1    20
  1.2134259403332290E-01 a       671     0    27     1    21
 -1.6460955385112003E-01 a       672     0    27     1    22
 -1.0788480233525925E-01 a       673     0    27     1    23
 -4.8541870797964806E-02 a       674     0    27     1    24
  1.6968551407001652E-04 a       675     0    27     1    25
 -7.3346961341713576E-02 a       676     0    28     1     1
 -5.7177309766305820E-02 a       677     0    28     1     2
 -6.0822288236143281E-02 a       678     0    28     1     3
  1.4546348193194533E-01 a       679     0    28     1     4
  2.9653217128183525E-02 a       680     0    28     1     5
 -1.1440421335217987E-01 a       681     0    28     1     6
 -8.9701437080400397E-03 a       682     0    28     1     7
  4.2273369235490937E-02 a       683     0    28     1     8
 -6.4770635057362219E-02 a       684     0    28     1     9
 -1.9093927568000854E-01 a       685     0    28     1    10
  2.1404456008849343E-01 a       686     0    28     1    11
 -3.2182685568323564E-02 a       687     0    28     1    12
 -6.0706280655548006E-01 a       688     0    28     1    13
  2.2328339896390142E-01 a       689     0    28     1    14
 -4.1134174418924876E-02 a       690     0    28     1    15
 -1.6400960021946392E-01 a       691     0    28     1    16
 -1.7486630722875385E-01 a       692     0    28     1    17
 -2.0933576376025215E-01 a       693     0    28     1    18
  8.3314719736890294E-02 a       694     0    28     1    19
  1.1291637201144156E-01 a       695     0    28     1    20
 -8.6755710220845619E-02 a       696     0    28     1    21
  5.0453985847605215E-02 a       697     0    28     1    22
  8.3148840366654760E-03 a       698     0    28     1    23
 -1.4832540371594863E-01 a       699     0    28     1    24
 -2.2925631630436216E-02 a       700     0    28     1    25
 -2.0879568070331442E-01 a       701     0    29     1     1
 -1.3618581929253637E-01 a       702     0    29     1     2
 -2.7949517420181896E-01 a       703     0    29     1     3
 -1.9744629516029927E-01 a       704     0    29     1     4
  1.3286018844641478E-01 a       705     0    29     1     5
 -6.6591530252870720E-03 a       706     0    29     1     6
  8.0725148649949549E-02 a       707     0    29     1     7
 -1.8130398986601320E-01 a       708     0    29     1     8
  2.2390689691557848E-02 a       709     0    29     1     9
  1.2591086147721725E-01 a       710     0    29     1    10
 -1.6621854911963141E-01 a       711     0    29     1    11
 -1.4320561587347339E-01 a       712     0    29     1    12
 -2.6758067426013620E-02 a       713     0    29     1    13
 -4.3961263334914097E-01 a       714     0    29     1    14
 -7.1536626285091443E-02 a       715     0    29     1    15
  2.6481393001048043E-01 a       716     0    29     1    16
 -1.0622993221340685E-01 a       717     0    29     1    17
  2.4537396727554991E-01 a       718     0    29     1    18
 -3.6997621595816038E-01 a       719     0    29     1    19
 -1.3412472782515128E-01 a       720     0    29     1    20
 -2.6650839930961023E-01 a       721     0    29     1    21
  1.7792164334677753E-02 a       722     0    29     1    22
 -2.7631374844135281E-01 a       723     0    29     1    23
  2.7504023870560116E-02 a       724     0    29     1    24
  1.6929168678104300E-02 a       725     0    29     1    25
 -2.0956799477943613E-02 a       726     0    30     1     1
 -6.4953502478758543E-02 a       727     0    30     1     2
 -2.0270790628081109E-01 a       728     0    30     1     3
  1.1522692741366612E-01 a       729     0    30     1     4
 -7.3532036553159583E-02 a       730     0    30     1     5
  2.8458328382964709E-01 a       731     0    30     1     6
  3.8508047854520208E-02 a       732     0    30     1     7
 -9.5402676299506231E-02 a       733     0    30     1     8
  3.2711773462563772E-02 a       734     0    30     1     9
  3.4173601509894380E-01 a       735     0    30     1    10
  4.8924396357064873E-02 a       736     0    30     1    11
  3.6395381564675788E-01 a       737     0    30     1    12
  2.0016407248056106E-01 a       738     0    30     1    13
  1.2385591789967627E-01 a       739     0    30     1    14
  1.5734467535108387E-01 a       740     0    30     1    15
  8.5329841031110340E-02 a       741     0    30     1    16
 -3.1515659155827697E-01 a       742     0    30     1    17
 -4.0884012742578324E-01 a       743     0    30     1    18
 -2.7665968864503654E-01 a       744     0    30     1    19
 -7.1460482081473675E-01 a       745     0    30     1    20
  4.1229959633051837E-02 a       746     0    30     1    21
  4.3687648105362814E-01 a       747     0    30     1    22
 -8.1551498314781895E-02 a       748     0    30     1    23
 -2.1518536972319452E-01 a       749     0    30     1    24
 -3.8449047535991310E-01 a       750     0    30     1    25
  2.8321814016220070E-01 a       751     0    31     1     1
 -1.1884634507375649E-01 a       752     0    31     1     2
  7.3876129383767875E-01 a       753     0    31     1     3
 -3.4008257713570367E-01 a       754     0    31     1     4
  1.9809886590727377E-01 a       755     0    31     1     5
  1.0383281137032581E+00 a       756     0    31     1     6
  5.6306654085567531E-01 a       757     0    31     1     7
 -5.9808206554974021E-02 a       758     0    31     1     8
 -3.4993145758102237E-02 a       759     0    31     1     9
 -4.7199847962045205E-01 a       760     0    31     1    10
 -1.8192983426771889E-01 a       761     0    31     1    11
  7.3797178435941302E-02 a       762     0    31     1    12
 -3.7981115361567241E-01 a       763     0    31     1    13
 -1.8602475619363504E-01 a       764     0    31     1    14
  5.9680656890255712E-01 a       765     0    31     1    15
  7.3126588485094984E-02 a       766     0    31     1    16
  9.8819228230060507E-02 a       767     0    31     1    17
 -2.0704441432132428E-01 a       768     0    31     1    18
 -6.4652821309630515E-01 a       769     0    31     1    19
  4.5211939298939235E-01 a       770     0    31     1    20
 -1.7510925343929486E-02 a       771     0    31     1    21
  1.6875967095649780E-01 a       772     0    31     1    22
 -8.5225571310421433E-01 a       773     0    31     1    23
  1.1860961369973130E-01 a       774     0    31     1    24
  7.8311771951233844E-01 a       775     0    31     1    25
 -1.4900242643378742E-02 a       776     0    32     1     1
  2.0682917865284672E-01 a       777     0    32     1     2
 -1.5025124602156017E-02 a       778     0    32     1     3
  1.3921537285044441E-01 a       779     0    32     1     4
 -7.5861831462365317E-02 a       780     0    32     1     5
 -6.5686758054918831E-02 a       781     0    32     1     6
 -1.8474531695971513E-01 a       782     0    32     1     7
  2.8221006114283392E-01 a       783     0    32     1     8
 -4.9728188755281712E-02 a       784     0    32     1     9
  1.1883169975436929E-01 a       785     0    32     1    10
 -8.0849141669235597E-02 a       786     0    32     1    11
  1.8420580916960153E-02 a       787     0    32     1    12
 -2.5719175260104887E-01 a       788     0    32     1    13
  3.1070476913954298E-01 a       789     0    32     1    14
 -8.2500361291234156E-02 a       790     0    32     1    15
 -1.1664306534103080E-02 a       791     0    32     1    16
  9.2290652143503196E-02 a       792     0    32     1    17
 -1.0760733313849503E-01 a       793     0    32     1    18
  1.2976451531675488E-02 a       794     0    32     1    19
 -1.9074894442797172E-01 a       795     0    32     1    20
  6.0862212080892979E-02 a       796     0    32     1    21
 -1.1479252913150732E-01 a       797     0    32     1    22
  4.9490021153326463E-01 a       798     0    32     1    23
  2.0900552867989582E-02 a       799     0    32     1    24
 -1.2929972220060243E-01 a       800     0    32     1    25
 -1.3652981376238575E+00 b       801     1     1
 -4.9928276194682852E-01 b       802     1     2
 -1.1578439129000027E+00 b       803     1     3
 -9.3365367685275158E-01 b       804     1     4
  7.9292265617116731E-01 b       805     1     5
 -1.6866442434190585E+00 b       806     1     6
  1.7636008653729842E+00 b       807     1     7
  1.0374576139160652E+00 b       808     1     8
  5.6711094395121042E-01 b       809     1     9
  3.2994164990362385E-01 b       810     1    10
  9.9197394690714846E-01 b       811     1    11
 -2.1362052167312706E-01 b       812     1    12
 -1.5470800148009993E+00 b       813     1    13
  6.5607337189390036E-01 b       814     1    14
 -7.9581643758293441E-01 b       815     1    15
 -5.6404957047874837E-01 b       816     1    16
 -5.6776251145126487E-02 b       817     1    17
 -3.5271471213187619E-02 b       818     1    18
  3.8245413369792108E-01 b       819     1    19
  1.0953645779568235E+00 b       820     1    20
  2.7528952543125840E-01 b       821     1    21
 -9.9665799724263693E-01 b       822     1    22
 -1.4307285073258738E+00 b       823     1    23
  1.4525912578178368E+00 b       824     1    24
 -1.3699048675574849E-01 b       825     1    25
  4.6706177698526735E-01 a       826     1     1     2     1
 -2.0005434513302531E-01 a       827     1     1     2     2
 -9.6324834367234957E-01 a       828     1     1     2     3
  2.0660899045035033E-01 a       829     1     1     2     4
  4.3123721591307040E-01 a       830     1     1     2     5
 -2.6828618313686209E-01 a       831     1     1     2     6
  6.1266047529298762E-01 a       832     1     1     2     7
  1.4517690418377441E-01 a       833     1     1     2     8
  1.6098689855691556E-01 a       834     1     1     2     9
 -1.2888101227385809E-01 a       835     1     1     2    10
  3.9476478630172723E-01 a       836     1     1     2    11
  3.2717646105222997E-01 a       837     1     1     2    12
 -9.7833059721698368E-02 a       838     1     1     2    13
 -1.4097758744139708E-02 a       839     1     1     2    14
 -7.4110884909111510E-02 a       840     1     1     2    15
 -2.5981268401590590E-01 a       841     1     1     2    16
 -5.8331076050967851E-02 a       842     1     1     2    17
  3.1750046950060595E-01 a       843     1     1     2    18
  2.1714860336595732E-01 a       844     1     1     2    19
 -4.1791563578449722E-02 a       845     1     1     2    20
  2.8871166822186162E-01 a       846     1     1     2    21
 -6.3141924197376506E-02 a       847     1     1     2    22
 -6.6733594410831820E-01 a       848     1     1     2    23
 -7.3976541366990345E-01 a       849     1     1     2    24
  3.3557437019809074E-02 a       850     1     1     2    25
  4.3610676706773382E-01 a       851     1     2     2     1
 -4.8258778855147788E-01 a       852     1     2     2     2
  7.5810268586616089E-02 a       853     1     2     2     3
  2.3680343612784552E-01 a       854     1     2     2     4
  1.2560056288645777E-01 a       855     1     2     2     5
 -3.0459827696468011E-01 a       856     1     2     2     6
 -1.9540449368206255E-02 a       857     1     2     2     7
 -2.8293399363415173E-01 a       858     1     2     2     8
 -3.9966345606714260E-01 a       859     1     2     2     9
  1.8308817302146119E-01 a       860     1     2     2    10
 -4.0580149500797036E-01 a       861     1     2     2    11
 -3.8030189229990424E-01 a       862     1     2     2    12
  5.4726432354732302E-01 a       863     1     2     2    13
 -6.6662700483767734E-01 a       864     1     2     2    14
  2.3725238782135291E-01 a       865     1     2     2    15
 -7.3625765930032960E-01 a       866     1     2     2    16
 -3.6417556449792321E-01 a       867     1     2     2    17
 -1.0285180755855511E-01 a       868     1     2     2    18
  2.4145197521747741E-01 a       869     1     2     2    19
  4.2683627966128057E-01 a       870     1     2     2    20
 -2.8602060732455636E-01 a       871     1     2     2    21
 -3.3501536625583811E-01 a       872     1     2     2    22
  3.7732112200686602E-01 a       873     1     2     2    23
  5.2309288455611025E-01 a       874     1     2     2    24
 -2.3203810226004018E-01 a       875     1     2     2    25
  5.6383154179781259E-01 a       876     1     3     2     1
  3.6644664911456737E-01 a       877     1     3     2     2
  3.0414587562052300E-02 a       878     1     3     2     3
 -1.2436957299017029E+00 a       879     1     3     2     4
  5.2373970884410304E-01 a       880     1     3     2     5
  4.4968178041983042E-01 a       881     1     3     2     6
 -5.4299949182070972E-01 a       882     1     3     2     7
 -3.3612962644208833E-01 a       883     1     3     2     8
 -1.1107577393777583E-01 a       884     1     3     2     9
  3.0927327485798489E-01 a       885     1     3     2    10
 -3.0580661581976021E-01 a       886     1     3     2    11
  4.6439466648926814E-01 a       887     1     3     2    12
 -3.4724916941163592E-01 a       888     1     3     2    13
 -9.4331836237533440E-02 a       889     1     3     2    14
  3.1483615424754413E-01 a       890     1     3     2    15
  6.3871589906505055E-01 a       891     1     3     2    16
  5.4955482237661391E-01 a       892     1     3     2    17
  4.2181177042164730E-01 a       893     1     3     2    18
  2.2704367286356486E-01 a       894     1     3     2    19
  2.0158097558955229E-01 a       895     1     3     2    20
  1.2972676876145317E-01 a       896     1     3     2    21
  1.3698669955285267E-01 a       897     1     3     2    22
  7.3259056966188202E-02 a       898     1     3     2    23
  2.9393383832890069E-01 a       899     1     3     2    24
  4.8368320062759829E-01 a       900     1     3     2    25
  1.3476287920179458E-01 a       901     1     4     2     1
 -2.1070448771549932E-01 a       902     1     4     2     2
 -2.6238843740135015E-01 a       903     1     4     2     3
 -2.9186732105903701E-01 a       904     1     4     2     4
 -4.7454076556944069E-01 a       905     1     4     2     5
  6.5383942459634802E-04 a       906     1     4     2     6
 -2.1895323808686448E-01 a       907     1     4     2     7
 -3.4716776316290651E-02 a       908     1     4     2     8
  1.3880918120885849E-01 a       909     1     4     2     9
 -6.5734743378464744E-02 a       910     1     4     2    10
  2.5804101662633327E-01 a       911     1     4     2    11
  4.5772644497274589E-01 a       912     1     4     2    12
 -1.7307786841567935E-01 a       913     1     4     2    13
  2.0648680982272921E-01 a       914     1     4     2    14
  2.6186403236643918E-01 a       915     1     4     2    15
  1.0530229151429110E-01 a       916     1     4     2    16
  4.3245149105222924E-01 a       917     1     4     2    17
  2.0752961630035111E-01 a       918     1     4     2    18
  3.4356064234395672E-01 a       919     1     4     2    19
  4.3718946561322963E-01 a       920     1     4     2    20
 -2.3653659849908643E-01 a       921     1     4     2    21
 -2.7485620010047429E-01 a       922     1     4     2    22
 -2.8479420746767714E-01 a       923     1     4     2    23
 -1.1958537512183132E-01 a       924     1     4     2    24
 -3.0591442715254086E-01 a       925     1     4     2    25
 -6.6224114084399166E-01 a       926     1     5     2     1
  4.3151127673370832E-01 a       927     1     5     2     2
 -1.2145743142128911E-01 a       928     1     5     2     3
  3.2585472218417255E-01 a       929     1     5     2     4
  2.4721749544096780E-01 a       930     1     5     2     5
  1.4840275491180593E-01 a       931     1     5     2     6
  1.5459602815337878E-01 a       932     1     5     2     7
 -1.0280553285321876E-01 a       933     1     5     2     8
 -1.2374265314244252E-01 a       934     1     5     2     9
  2.9420543210479187E-02 a       935     1     5     2    10
 -2.3323734799461890E-01 a       936     1     5     2    11
  1.4323327115808646E-01 a       937     1     5     2    12
 -1.0854084170372531E-01 a       938     1     5     2    13
 -3.3775279349515269E-01 a       939     1     5     2    14
 -4.3996890308036309E-02 a       940     1     5     2    15
  1.5631830699561575E-02 a       941     1     5     2    16
  2.3845790853764040E-01 a       942     1     5     2    17
  5.7724950545060050E-01 a       943     1     5     2    18
 -1.3202701964950622E-01 a       944     1     5     2    19
  1.4155780262900940E-02 a       945     1     5     2    20
 -1.6668366474558816E-01 a       946     1     5     2    21
 -1.7495632810991746E-01 a       947     1     5     2    22
 -1.8051513315276127E-01 a       948     1     5     2    23
 -1.2798010547381827E-01 a       949     1     5     2    24
 -4.9486341687505569E-01 a       950     1     5     2    25
  4.4860149135886029E-01 a       951     1     6     2     1
 -4.7727588251110503E-01 a       952     1     6     2     2
  3.0838708397508791E-01 a       953     1     6     2     3
  6.4415672704997684E-01 a       954     1     6     2     4
  3.0304313435048800E-03 a       955     1     6     2     5
 -3.9208419696611541E-01 a       956     1     6     2     6
 -6.3112595664775961E-01 a       957     1     6     2     7
  6.5407574886449116E-01 a       958     1     6     2     8
 -1.6366615767751994E-01 a       959     1     6     2     9
  6.4294736748642056E-01 a       960     1     6     2    10
 -3.8176528197311735E-03 a       961     1     6     2    11
 -3.1105536071215053E-03 a       962     1     6     2    12
  1.7642735626992523E-01 a       963     1     6     2    13
  5.6188591455192527E-01 a       964     1     6     2    14
 -6.5976405554870998E-01 a       965     1     6     2    15
  1.1439496725779286E+00 a       966     1     6     2    16
 -7.0565852698533688E-02 a       967     1     6     2    17
  9.4998620424760882E-01 a       968     1     6     2    18
 -7.0595195269065314E-01 a       969     1     6     2    19
 -3.6137930336037410E-01 a       970     1     6     2    20
  1.7974953381890613E-01 a       971     1     6     2    21
  4.4283811055792703E-02 a       972     1     6     2    22
 -8.2729009989557824E-03 a       973     1     6     2    23
 -5.5117590277198247E-01 a       974     1     6     2    24
 -9.6330635488274463E-01 a       975     1     6     2    25
  4.4792512423481068E-01 a       976     1     7     2     1
 -2.4835051337399037E-03 a       977     1     7     2     2
 -8.4201381966405767E-02 a       978     1     7     2     3
 -1.6056541374958988E-01 a       979     1     7     2     4
 -2.7592917852799642E-01 a       980     1     7     2     5
 -1.9355936080406533E-01 a       981     1     7     2     6
 -2.5606710257473492E-01 a       982     1     7     2     7
 -4.2398500239559489E-01 a       983     1     7     2     8
  1.0953836949676581E-01 a       984     1     7     2     9
  3.6715964243619092E-01 a       985     1     7     2    10
 -3.3778094474902204E-01 a       986     1     7     2    11
  1.4982794352345974E-01 a       987     1     7     2    12
 -2.0217114896471428E-01 a       988     1     7     2    13
  2.9743274034398648E-01 a       989     1     7     2    14
  4.4830816456830819E-01 a       990     1     7     2    15
 -1.3540908928485484E-01 a       991     1     7     2    16
  5.6656619358777849E-01 a       992     1     7     2    17
 -2.0680861700477318E-01 a       993     1     7     2    18
 -1.8080129307034876E-01 a       994     1     7     2    19
  9.5626595596636693E-02 a       995     1     7     2    20
 -1.4106951748417448E-01 a       996     1     7     2    21
 -4.7163730798300058E-01 a       997     1     7     2    22
  2.8875976775556250E-01 a       998     1     7     2    23
  3.6843211119923211E-02 a       999     1     7     2    24
 -1.3765084538740588E-01 a      1000     1     7     2    25
 -1.2740181964947739E-01 a      1001     1     8     2     1
  3.2110522371714850E-01 a      1002     1     8     2     2
 -5.6850447013845817E-01 a      1003     1     8     2     3
 -4.1740200503823566E-01 a      1004     1     8     2     4
  6.6668809862585099E-01 a      1005     1     8     2     5
 -1.8604145799479188E-01 a      1006     1     8     2     6
  2.1262534930437177E-01 a      1007     1     8     2     7
 -1.9184691261624312E-01 a      1008     1     8     2     8
 -6.0408624306104897E-01 a      1009     1     8     2     9
 -3.9745558854945490E-01 a      1010     1     8     2    10
 -4.3612310640019242E-01 a      1011     1     8     2    11
  1.6074322519918635E-01 a      1012     1     8     2    12
 -4.5561358913791872E-01 a      1013     1     8     2    13
 -5.1563778930534640E-02 a      1014     1     8     2    14
  2.4234543820475049E-01 a      1015     1     8     2    15
  4.1263709958057147E-03 a      1016     1     8     2    16
  4.8465608955309866E-02 a      1017     1     8     2    17
 -1.1151332139474122E-01 a      1018     1     8     2    18
 -2.5434523018653993E-01 a      1019     1     8     2    19
  1.2942929268766470E-01 a      1020     1     8     2    20
  1.5895631578911076E-01 a      1021     1     8     2    21
  6.8873068140218852E-01 a      1022     1     8     2    22
 -1.1838962597201227E-01 a      1023     1     8     2    23
  1.7251127442634345E-01 a      1024     1     8     2    24
  6.4750154924877279E-01 a      1025     1     8     2    25
 -3.3869560539366383E-01 a      1026     1     9     2     1
  2.8172910721124800E-01 a      1027     1     9     2     2
  3.8389148397520578E-01 a      1028     1     9     2     3
  1.9449905837467010E-01 a      1029     1     9     2     4
  2.0515350669080369E-02 a      1030     1     9     2     5
  1.3795554201788141E-01 a      1031     1     9     2     6
  1.7919147686761616E-01 a      1032     1     9     2     7
  2.9905254082077720E-01 a      1033     1     9     2     8
  3.8153550452244972E-01 a      1034     1     9     2     9
  5.7253458327718165E-01 a      1035     1     9     2    10
 -3.2587376626712927E-01 a      1036     1     9     2    11
  6.3591528244470918E-01 a      1037     1     9     2    12
  1.8427662902249517E-01 a      1038     1     9     2    13
  3.0062351124905625E-02 a      1039     1     9     2    14
  1.0050612290714471E-01 a      1040     1     9     2    15
 -2.4611172817798901E-01 a      1041     1     9     2    16
 -6.9168138452546685E-02 a      1042     1     9     2    17
 -5.7378905163083260E-01 a      1043     1     9     2    18
 -1.3919492305998635E-01 a      1044     1     9     2    19
 -4.5112092813150201E-01 a      1045     1     9     2    20
  1.5050874508820266E-02 a      1046     1     9     2    21
  7.0646374888603580E-01 a      1047     1     9     2    22
 -6.0117679998640172E-01 a      1048     1     9     2    23
 -2.2635783224101697E-01 a      1049     1     9     2    24
 -2.0305955217504285E-01 a      1050     1     9     2    25
 -3.0641378818243270E-01 a      1051     1    10     2     1
  1.4940768462218917E-01 a      1052     1    10     2     2
  1.8085627389268180E-01 a      1053     1    10     2     3
 -3.2821620739703244E-01 a      1054     1    10     2     4
  6.0074494913046039E-01 a      1055     1    10     2     5
 -3.8634725890953625E-01 a      1056     1    10     2     6
 -4.8586987314862262E-01 a      1057     1    10     2     7
  1.6468305546497003E-01 a      1058     1    10     2     8
 -1.4685071256842519E-01 a      1059     1    10     2     9
 -1.4153267973047015E-01 a      1060     1    10     2    10
  6.5854055071634179E-02 a      1061     1    10     2    11
  5.6288484128872163E-01 a      1062     1    10     2    12
  6.8041089690926049E-01 a      1063     1    10     2    13
  3.8417781631629783E-01 a      1064     1    10     2    14
  3.8663190649574797E-02 a      1065     1    10     2    15
 -4.6995090641919629E-01 a      1066     1    10     2    16
  1.8626363076306443E-01 a      1067     1    10     2    17
 -4.9470337940418585E-01 a      1068     1    10     2    18
 -1.4836729449500094E-01 a      1069     1    10     2    19
  2.0970330866181397E-01 a      1070     1    10     2    20
  2.6006752735114341E-01 a      1071     1    10     2    21
 -1.0761166533694888E-01 a      1072     1    10     2    22
  2.6037170893530792E-01 a      1073     1    10     2    23
 -4.7971545774966684E-01 a      1074     1    10     2    24
 -1.0476041356322603E-01 a      1075     1    10     2    25
 -5.5279204432430906E-01 a      1076     1    11     2     1
  3.9803081132502177E-01 a      1077     1    11     2     2
  3.1876381120480424E-01 a      1078     1    11     2     3
 -4.0384439444773423E-01 a      1079     1    11     2     4
  3.6839241393606226E-02 a      1080     1    11     2     5
  2.9038263566848871E-01 a      1081     1    11     2     6
 -1.5954992263003009E-01 a      1082     1    11     2     7
 -3.9859628368490496E-01 a      1083     1    11     2     8
 -5.9515264016281814E-02 a      1084     1    11     2     9
 -3.7937401406420102E-01 a      1085     1    11     2    10
 -5.0198109222958631E-01 a      1086     1    11     2    11
 -1.9080434310950675E-01 a      1087     1    11     2    12
 -1.5472986310888037E-01 a      1088     1    11     2    13
  8.1683077636986859E-02 a      1089     1    11     2    14
 -2.3362493780876273E-01 a      1090     1    11     2    15
 -2.3154033224771833E-01 a      1091     1    11     2    16
  1.1333349206838386E-01 a      1092     1    11     2    17
 -5.0615056385099944E-01 a      1093     1    11     2    18
  4.9452971074296226E-01 a      1094     1    11     2    19
  8.1994135330546808E-02 a      1095     1    11     2    20
  3.8507912250399939E-01 a      1096     1    11     2    21
 -6.0912637119144825E-02 a      1097     1    11     2    22
  3.2904993981801071E-02 a      1098     1    11     2    23
  8.0323996729523978E-02 a      1099     1    11     2    24
 -8.4876841190710636E-02 a      1100     1    11     2    25
  1.6156136347203531E-01 a      1101     1    12     2     1
 -8.4519687759861989E-02 a      1102     1    12     2     2
  9.8176367374879885E-03 a      1103     1    12     2     3
 -4.0800172340557234E-01 a      1104     1    12     2     4
 -1.1691852368448016E-02 a      1105     1    12     2     5
  2.1560966543341067E-01 a      1106     1    12     2     6
 -1.4535352445744302E-02 a      1107     1    12     2     7
  1.5447415398296840E-01 a      1108     1    12     2     8
  1.0775427452650578E-01 a      1109     1    12     2     9
 -2.8700840518018328E-01 a      1110     1    12     2    10
  3.4652041411702311E-01 a      1111     1    12     2    11
  9.6154153322380698E-02 a      1112     1    12     2    12
 -4.9030177474738845E-01 a      1113     1    12     2    13
 -7.0214104230841489E-03 a      1114     1    12     2    14
 -3.9058997784488769E-01 a      1115     1    12     2    15
 -1.5540856660404481E-01 a      1116     1    12     2    16
  3.1174274301809829E-01 a      1117     1    12     2    17
  3.9615773465797655E-04 a      1118     1    12     2    18
  5.6534960669412138E-01 a      1119     1    12     2    19
  4.5877534528286557E-01 a      1120     1    12     2    20
 -1.2745529847428316E-01 a      1121     1    12     2    21
 -4.2059484211927828E-01 a      1122     1    12     2    22
 -9.2045073040855602E-02 a      1123     1    12     2    23
  5.8099803023076579E-01 a      1124     1    12     2    24
 -4.9448326186794803E-02 a      1125     1    12     2    25
 -4.1101110749001923E-01 a      1126     1    13     2     1
 -4.5349946066926616E-01 a      1127     1    13     2     2
  3.3348176655968248E-01 a      1128     1    13     2     3
  3.2187536414852308E-01 a      1129     1    13     2     4
 -2.5831669815391423E-01 a      1130     1    13     2     5
  1.2715245145296411E-01 a      1131     1    13     2     6
 -1.5973051649089567E-01 a      1132     1    13     2     7
 -1.2529205229322876E-01 a      1133     1    13     2     8
 -5.1940883507245246E-02 a      1134     1    13     2     9
 -3.2649046412275773E-01 a      1135     1    13     2    10
 -1.6236971515621956E-01 a      1136     1    13     2    11
 -2.1789527420933274E-02 a      1137     1    13     2    12
 -2.0006138918852501E-01 a      1138     1    13     2    13
 -1.5986901133298079E-01 a      1139     1    13     2    14
  1.7419522774706128E-01 a      1140     1    13     2    15
  9.9416408508021720E-02 a      1141     1    13     2    16
 -1.6492387050906696E-01 a      1142     1    13     2    17
  4.9367371891598227E-01 a      1143     1    13     2    18
 -3.0690544681292276E-01 a      1144     1    13     2    19
  5.1678687487868170E-02 a      1145     1    13     2    20
 -4.1547532085411162E-02 a      1146     1    13     2    21
 -4.1630689529839326E-01 a      1147     1    13     2    22
 -5.8468344994070276E-01 a      1148     1    13     2    23
 -1.8417301006594777E-01 a      1149     1    13     2    24
 -1.9036619379869965E-01 a      1150     1    13     2    25
  6.1033312393388084E-01 a      1151     1    14     2     1
  5.2110631725430789E-01 a      1152     1    14     2     2
  1.6752259577248696E-01 a      1153     1    14     2     3
  2.5685361042341992E-01 a      1154     1    14     2     4
 -1.9622516237730445E-01 a      1155     1    14     2     5
 -3.9198145534620082E-01 a      1156     1    14     2     6
  6.6194488316965616E-01 a      1157     1    14     2     7
  5.5099160488344656E-01 a      1158     1    14     2     8
  7.3825507114835792E-02 a      1159     1    14     2     9
 -1.0369167661974758E-01 a      1160     1    14     2    10
  3.4092712443150527E-02 a      1161     1    14     2    11
 -3.1495298900571650E-01 a      1162     1    14     2    12
  1.7715604825238404E-01 a      1163     1    14     2    13
 -3.8165997387827505E-01 a      1164     1    14     2    14
 -7.4368066186418036E-01 a      1165     1    14     2    15
  8.3676169196931938E-02 a      1166     1    14     2    16
  3.5456992199652498E-01 a      1167     1    14     2    17
 -6.6461022128603342E-01 a      1168     1    14     2    18
 -2.5161961638490210E-01 a      1169     1    14     2    19
  4.8690404064357268E-01 a      1170     1    14     2    20
 -2.9519815201234872E-01 a      1171     1    14     2    21
  7.0075155390123250E-03 a      1172     1    14     2    22
 -4.2845776413251052E-01 a      1173     1    14     2    23
 -2.0483258475948066E-01 a      1174     1    14     2    24
  5.2978516842063880E-02 a      1175     1    14     2    25
 -2.2732699393489800E-01 a      1176     1    15     2     1
 -1.5344259687381603E-01 a      1177     1    15     2     2
  1.8752308826040925E-01 a      1178     1    15     2     3
  1.1565951638830474E-01 a      1179     1    15     2     4
  2.8314831932322410E-01 a      1180     1    15     2     5
  1.2785350678953430E-01 a      1181     1    15     2     6
 -5.7344989393605983E-01 a      1182     1    15     2     7
  5.9041302516684802E-01 a      1183     1    15     2     8
 -5.2072815746622336E-01 a      1184     1    15     2     9
 -4.4699212455419407E-01 a      1185     1    15     2    10
  3.1434599254553791E-01 a      1186     1    15     2    11
  1.7818946781604242E-02 a      1187     1    15     2    12
 -5.6952583593510175E-01 a      1188     1    15     2    13
 -2.2275901020319948E-02 a      1189     1    15     2    14
  1.9939422688685787E-01 a      1190     1    15     2    15
 -3.6378444419596451E-01 a      1191     1    15     2    16
 -2.0792301442522365E-01 a      1192     1    15     2    17
  4.9636066575627324E-01 a      1193     1    15     2    18
  1.7035610601778911E-01 a      1194     1    15     2    19
 -2.0177041922497718E-01 a      1195     1    15     2    20
  9.2029810736003559E-01 a      1196     1    15     2    21
 -4.0086412871944678E-02 a      1197     1    15     2    22
 -7.6965371921942360E-02 a      1198     1    15     2    23
 -3.4079385962286207E-01 a      1199     1    15     2    24
  4.8944764876904112E-01 a      1200     1    15     2    25
 -6.4048605012219401E-02 a      1201     1    16     2     1
  5.5379329781581399E-01 a      1202     1    16     2     2
 -4.5802956545103139E-03 a      1203     1    16     2     3
 -1.4728402864432244E-01 a      1204     1    16     2     4
  4.0751191432654527E-01 a      1205     1    16     2     5
  4.3862501733538584E-01 a      1206     1    16     2     6
  1.5104493548784850E-01 a      1207     1    16     2     7
 -4.1538534202986221E-01 a      1208     1    16     2     8
  3.0855088274564746E-01 a      1209     1    16     2     9
  1.4958916786044679E-01 a      1210     1    16     2    10
 -2.2776944695572435E-01 a      1211     1    16     2    11
 -4.4486761938389030E-01 a      1212     1    16     2    12
  3.1732648086151011E-01 a      1213     1    16     2    13
 -8.1888367767634279E-02 a      1214     1    16     2    14
 -2.1298040629575399E-01 a      1215     1    16     2    15
 -7.5850766307116568E-02 a      1216     1    16     2    16
  3.2441241817211852E-01 a      1217     1    16     2    17
 -6.1103630622726546E-01 a      1218     1    16     2    18
  7.7082155161356906E-03 a      1219     1    16     2    19
  8.9905654644858876E-02 a      1220     1    16     2    20
  1.1655978178506952E-01 a      1221     1    16     2    21
 -1.6124841440685939E-01 a      1222     1    16     2    22
 -5.1614009180120202E-01 a      1223     1    16     2    23
 -3.8410841784263350E-02 a      1224     1    16     2    24
 -3.6076560925583909E-02 a      1225     1    16     2    25
  5.4712880062604906E-02 a      1226     1    17     2     1
 -2.2888529272726352E-01 a      1227     1    17     2     2
  4.1682775017388679E-01 a      1228     1    17     2     3
  2.9842022982692246E-01 a      1229     1    17     2     4
  1.1004992550874056E-01 a      1230     1    17     2     5
  1.2605221778001205E-01 a      1231     1    17     2     6
  1.6244159411104614E-01 a      1232     1    17     2     7
  7.1917876637192749E-02 a      1233     1    17     2     8
  4.7393165479545279E-01 a      1234     1    17     2     9
 -5.7098516311267311E-01 a      1235     1    17     2    10
 -2.9737128714215205E-01 a      1236     1    17     2    11
  2.4231720859039182E-01 a      1237     1    17     2    12
  2.6302912494062430E-01 a      1238     1    17     2    13
 -3.8607283164058198E-01 a      1239     1    17     2    14
 -6.6160443478056302E-02 a      1240     1    17     2    15
 -2.2190751707442896E-01 a      1241     1    17     2    16
  2.2509882287608263E-01 a      1242     1    17     2    17
 -4.8551560347630474E-02 a      1243     1    17     2    18
  2.9931162677727391E-01 a      1244     1    17     2    19
  4.1839224250280971E-01 a      1245     1    17     2    20
  4.8766856884784868E-02 a      1246     1    17     2    21
  3.3354758364475462E-01 a      1247     1    17     2    22
 -4.6882995712386744E-01 a      1248     1    17     2    23
 -4.1552439935695606E-01 a      1249     1    17     2    24
 -4.9062434077725414E-01 a      1250     1    17     2    25
 -3.6983626716713497E-01 a      1251     1    18     2     1
  2.5906122767227752E-01 a      1252     1    18     2     2
  1.3510143797385210E-01 a      1253     1    18     2     3
 -1.5409512485503526E-01 a      1254     1    18     2     4
 -2.0547523252019242E-01 a      1255     1    18     2     5
 -6.2494084796180467E-02 a      1256     1    18     2     6
  1.8544151782283300E-01 a      1257     1    18     2     7
  3.8587896714106701E-01 a      1258     1    18     2     8
 -3.3300495255426338E-01 a      1259     1    18     2     9
 -3.5159802916750860E-01 a      1260     1    18     2    10
  4.5064902027076065E-01 a      1261     1    18     2    11
 -6.1310226262156618E-02 a      1262     1    18     2    12
 -3.5993698725435570E-02 a      1263     1    18     2    13
  3.5700375435318366E-01 a      1264     1    18     2    14
 -4.5615665652142190E-01 a      1265     1    18     2    15
  6.5188823263894569E-01 a      1266     1    18     2    16
 -1.3076465505949189E-01 a      1267     1    18     2    17
 -7.1888600335814720E-02 a      1268     1    18     2    18
 -1.2470958151230457E-01 a      1269     1    18     2    19
  7.8775654050192934E-02 a      1270     1    18     2    20
  1.0663928532574936E-01 a      1271     1    18     2    21
  8.5114037095335771E-02 a      1272     1    18     2    22
 -4.4446274811035530E-01 a      1273     1    18     2    23
 -2.3768806736677314E-01 a      1274     1    18     2    24
  2.7552894660814603E-01 a      1275     1    18     2    25
 -3.8108610861097009E-01 a      1276     1    19     2     1
  2.4750420786313350E-02 a      1277     1    19     2     2
 -2.8375944659096880E-01 a      1278     1    19     2     3
 -2.3108955455795835E-01 a      1279     1    19     2     4
  3.7733620715611399E-01 a      1280     1    19     2     5
 -3.6530695151179743E-01 a      1281     1    19     2     6
  3.3439509792402694E-01 a      1282     1    19     2     7
  2.3327743039493257E-01 a      1283     1    19     2     8
 -9.2080459191540273E-02 a      1284     1    19     2     9
 -6.5253168051015420E-01 a      1285     1    19     2    10
  2.2920540680120377E-01 a      1286     1    19     2    11
 -4.9233069244641009E-01 a      1287     1    19     2    12
  1.6946370566780630E-01 a      1288     1    19     2    13
 -2.2548503066682979E-01 a      1289     1    19     2    14
 -1.4477798135542727E-01 a      1290     1    19     2    15
 -9.5766686330946080E-02 a      1291     1    19     2    16
  2.8483936870610460E-01 a      1292     1    19     2    17
 -1.6434966493345551E-01 a      1293     1    19     2    18
 -7.9102031212729712E-02 a      1294     1    19     2    19
  4.3232074633671935E-01 a      1295     1    19     2    20
  1.5239607857296722E-01 a      1296     1    19     2    21
 -2.2503214065817578E-01 a      1297     1    19     2    22
 -2.1720616030138221E-01 a      1298     1    19     2    23
  6.1678706032999936E-02 a      1299     1    19     2    24
  1.7642501181788012E-01 a      1300     1    19     2    25
  1.7587551188974732E-01 a      1301     1    20     2     1
  4.5084346923782481E-01 a      1302     1    20     2     2
 -3.4481620989927818E-02 a      1303     1    20     2     3
  6.7970100683964541E-01 a      1304     1    20     2     4
 -2.6606722604932709E-01 a      1305     1    20     2     5
 -5.0419872020560075E-01 a      1306     1    20     2     6
 -8.7596397195051939E-02 a      1307     1    20     2     7
 -1.6562943466034721E-01 a      1308     1    20     2     8
 -1.6276159503527179E-01 a      1309     1    20     2     9
 -7.3194266168471092E-02 a      1310     1    20     2    10
 -5.1799999652947837E-01 a      1311     1    20     2    11
 -1.8495714597642934E-01 a      1312     1    20     2    12
  2.0830081341682269E-01 a      1313     1    20     2    13
 -2.5929955523841908E-01 a      1314     1    20     2    14
  3.1080869336160888E-02 a      1315     1    20     2    15
 -5.8333152215739770E-01 a      1316     1    20     2    16
  2.8250258756079039E-01 a      1317     1    20     2    17
  2.3128824494621747E-01 a      1318     1    20     2    18
  7.6133814517738513E-02 a      1319     1    20     2    19
  6.6607935387057304E-01 a      1320     1    20     2    20
 -7.7047398039432446E-02 a      1321     1    20     2    21
 -3.7560449977936797E-02 a      1322     1    20     2    22
 -7.5517025451007735E-01 a      1323     1    20     2    23
 -3.7617486001621836E-01 a      1324     1    20     2    24
  1.3107804078965424E-01 a      1325     1    20     2    25
  6.1309342644607212E-01 a      1326     1    21     2     1
  2.3360696378502484E-03 a      1327     1    21     2     2
 -3.7529551284093488E-01 a      1328     1    21     2     3
  2.3416151051555831E-01 a      1329     1    21     2     4
  3.9581093766426306E-01 a      1330     1    21     2     5
  4.3134138532703209E-01 a      1331     1    21     2     6
 -2.8996950882238470E-01 a      1332     1    21     2     7
  1.5332625596144814E-01 a      1333     1    21     2     8
  2.9901060698296233E-01 a      1334     1    21     2     9
  8.7207885573650079E-01 a      1335     1    21     2    10
  7.4618408528782640E-02 a      1336     1    21     2    11
 -1.3527616958872210E-02 a      1337     1    21     2    12
 -2.7317237272543893E-01 a      1338     1    21     2    13
  1.2074466119635792E-01 a      1339     1    21     2    14
  1.9343020652799814E-01 a      1340     1    21     2    15
  1.8325555471384181E-01 a      1341     1    21     2    16
  1.4307291616457593E-01 a      1342     1    21     2    17
  5.9086419449474714E-01 a      1343     1    21     2    18
 -2.8715952048752058E-01 a      1344     1    21     2    19
 -3.4700850957150781E-01 a      1345     1    21     2    20
  1.5949287294775075E-01 a      1346     1    21     2    21
 -4.9825805668273340E-02 a      1347     1    21     2    22
 -3.0377922433067855E-01 a      1348     1    21     2    23
  7.5531109424503237E-02 a      1349     1    21     2    24
  1.8297845053125761E-01 a      1350     1    21     2    25
 -1.6017546009087791E-01 a      1351     1    22     2     1
 -2.0327215820664990E-01 a      1352     1    22     2     2
 -2.1781306536439562E-01 a      1353     1    22     2     3
 -6.0485950650405754E-02 a      1354     1    22     2     4
  1.6554174188916232E-01 a      1355     1    22     2     5
  2.3969130033366592E-01 a      1356     1    22     2     6
  6.8163256298039043E-01 a      1357     1    22     2     7
  2.3240520409010815E-01 a      1358     1    22     2     8
  3.1489649615921445E-01 a      1359     1    22     2     9
 -5.3435040652333432E-01 a      1360     1    22     2    10
 -2.4383424742617088E-01 a      1361     1    22     2    11
 -1.9848681573714658E-01 a      1362     1    22     2    12
  4.9526833922974134E-01 a      1363     1    22     2    13
  1.2446606428866717E-01 a      1364     1    22     2    14
 -9.3698820436621769E-02 a      1365     1    22     2    15
  3.1716191653439185E-01 a      1366     1    22     2    16
  1.2857231583034451E-01 a      1367     1    22     2    17
  2.7534946975700164E-02 a      1368     1    22     2    18
 -1.5623616645606139E-01 a      1369     1    22     2    19
 -4.0250484198706266E-01 a      1370     1    22     2    20
 -1.0839374246011359E-02 a      1371     1    22     2    21
  4.9002841313892487E-01 a      1372     1    22     2    22
  2.7056323049094316E-02 a      1373     1    22     2    23
  1.1293442171461751E-01 a      1374     1    22     2    24
  4.0633582871546031E-01 a      1375     1    22     2    25
  1.5779488524018162E-01 a      1376     1    23     2     1
 -9.3973912951994601E-02 a      1377     1    23     2     2
  4.9946504831282884E-01 a      1378     1    23     2     3
 -5.8638404369436314E-01 a      1379     1    23     2     4
  3.1279939685529301E-01 a      1380     1    23     2     5
 -4.0221742823761419E-01 a      1381     1    23     2     6
  4.4212782751712376E-01 a      1382     1    23     2     7
 -3.4686372713383962E-01 a      1383     1    23     2     8
  1.8711128960108442E-01 a      1384     1    23     2     9
  3.7975363867686618E-01 a      1385     1    23     2    10
 -4.7319537694357311E-01 a      1386     1    23     2    11
  1.9286685356598937E-01 a      1387     1    23     2    12
 -5.4216753686309807E-02 a      1388     1    23     2    13
 -3.1005831324070976E-01 a      1389     1    23     2    14
  8.0250098707760439E-02 a      1390     1    23     2    15
 -2.3573144822039385E-01 a      1391     1    23     2    16
  2.9328513627829800E-01 a      1392     1    23     2    17
 -1.3945468180378129E-01 a      1393     1    23     2    18
 -4.0604631070412948E-02 a      1394     1    23     2    19
  3.6390069573109030E-02 a      1395     1    23     2    20
  4.3832727593702697E-01 a      1396     1    23     2    21
  5.2341050680400525E-01 a      1397     1    23     2    22
 -2.4587818068505299E-01 a      1398     1    23     2    23
  2.3863558232915250E-01 a      1399     1    23     2    24
  6.4767623630626880E-02 a      1400     1    23     2    25
 -4.4361152236041207E-01 a      1401     1    24     2     1
  2.9238413156516757E-01 a      1402     1    24     2     2
 -5.6520779680744371E-01 a      1403     1    24     2     3
 -1.4489623753481723E-01 a      1404     1    24     2     4
 -4.4051445250452598E-01 a      1405     1    24     2     5
 -6.1665777615359196E-01 a      1406     1    24     2     6
  4.8059587525851427E-01 a      1407     1    24     2     7
 -2.2049871507838772E-01 a      1408     1    24     2     8
 -3.6178448134531677E-01 a      1409     1    24     2     9
 -1.8987023277452612E-02 a      1410     1    24     2    10
 -2.5738813726771237E-01 a      1411     1    24     2    11
  3.9613147195878806E-01 a      1412     1    24     2    12
 -5.8433463559059107E-01 a      1413     1    24     2    13
  5.9734304639613356E-01 a      1414     1    24     2    14
  1.0714908377419166E-01 a      1415     1    24     2    15
  3.1465670766706905E-01 a      1416     1    24     2    16
 -2.5509739976147899E-01 a      1417     1    24     2    17
 -2.9596355811334535E-01 a      1418     1    24     2    18
 -3.1715495114199813E-02 a      1419     1    24     2    19
 -4.3392479761206554E-01 a      1420     1    24     2    20
 -3.2789546065207048E-01 a      1421     1    24     2    21
 -4.4555820096405283E-02 a      1422     1    24     2    22
 -8.5513520356507278E-02 a      1423     1    24     2    23
  6.5429998751055082E-02 a      1424     1    24     2    24
 -8.3334652732330997E-02 a      1425     1    24     2    25
  2.3480161350072851E-01 a      1426     1    25     2     1
  2.7663928030081703E-01 a      1427     1    25     2     2
  2.5228741382788581E-02 a      1428     1    25     2     3
 -5.2857677040589503E-02 a      1429     1    25     2     4
 -1.4783258713681616E-01 a      1430     1    25     2     5
  3.7665751932457053E-01 a      1431     1    25     2     6
 -6.4573843703442912E-01 a      1432     1    25     2     7
  2.4603584406486176E-01 a      1433     1    25     2     8
  3.5562472157225211E-01 a      1434     1    25     2     9
  1.0106829066479116E-01 a      1435     1    25     2    10
  2.5149013986304908E-01 a      1436     1    25     2    11
 -3.7637941770291616E-01 a      1437     1    25     2    12
  1.2803713221805678E-02 a      1438     1    25     2    13
  3.6070369583439515E-01 a      1439     1    25     2    14
  5.4166599504016193E-02 a      1440     1    25     2    15
  1.6092538976140872E-01 a      1441     1    25     2    16
  4.8655848362361109E-01 a      1442     1    25     2    17
  2.8556827280658903E-01 a      1443     1    25     2    18
 -1.2970367510604494E-01 a      1444     1    25     2    19
 -7.9843412184307239E-02 a      1445     1    25     2    20
 -9.5551124274812632E-02 a      1446     1    25     2    21
 -4.3083636311477697E-01 a      1447     1    25     2    22
  3.8935632009311705E-01 a      1448     1    25     2    23
  1.4449477623312151E-02 a      1449     1    25     2    24
  6.4861535644839019E-01 a      1450     1    25     2    25
 -8.4754315409131831E-01 b      1451     2     1
  6.4749780933506040E-01 b      1452     2     2
  1.1304810307808135E+00 b      1453     2     3
  7.0336824298291656E-01 b      1454     2     4
 -5.7220001641822382E-01 b      1455     2     5
  4.7038139464262746E-01 b      1456     2     6
  2.9893470517469284E-01 b      1457     2     7
  1.2810681689843244E+00 b      1458     2     8
  1.9755446093727175E-01 b      1459     2     9
  7.8285450376154564E-01 b      1460     2    10
 -1.1336585115323805E+00 b      1461     2    11
  1.8016964843737968E-01 b      1462     2    12
 -1.4385689907517489E+00 b      1463     2    13
 -1.3082756247977518E+00 b      1464     2    14
 -4.4455195524660368E-01 b      1465     2    15
  6.3070591563111997E-02 b      1466     2    16
 -1.0956782815027613E+00 b      1467     2    17
  1.1493642872811618E+00 b      1468     2    18
  1.2092769756478101E+00 b      1469     2    19
 -9.6076587367674260E-01 b      1470     2    20
  1.0317149358003999E+00 b      1471     2    21
  4.9948626014560932E-01 b      1472     2    22
  1.5347813916955969E-01 b      1473     2    23
  6.5522550767905530E-01 b      1474     2    24
 -1.0798326551601032E+00 b      1475     2    25
  1.9822989148096065E-01 a      1476     2     1     3     1
  6.2033962204676253E-02 a      1477     2     2     3     1
 -3.5014541883763323E-01 a      1478     2     3     3     1
 -4.7697275789353688E-01 a      1479     2     4     3     1
 -6.2279046254387149E-01 a      1480     2     5     3     1
 -2.8970516079070774E-01 a      1481     2     6     3     1
 -1.8176103369276714E-01 a      1482     2     7     3     1
 -6.4806539719634360E-01 a      1483     2     8     3     1
  9.4092145106971792E-01 a      1484     2     9     3     1
  2.9455065090394774E-02 a      1485     2    10     3     1
  9.1373586235229509E-02 a      1486     2    11     3     1
  3.9637446766691753E-01 a      1487     2    12     3     1
  3.5539048890614655E-02 a      1488     2    13     3     1
 -3.0831327339450487E-01 a      1489     2    14     3     1
 -6.5568314482486434E-01 a      1490     2    15     3     1
  8.0287180620759668E-01 a      1491     2    16     3     1
 -7.2789886398719084E-01 a      1492     2    17     3     1
  1.1754982380609924E+00 a      1493     2    18     3     1
 -6.6892411399921792E-01 a      1494     2    19     3     1
  4.0480539270429294E-01 a      1495     2    20     3     1
  5.6431563214485703E-01 a      1496     2    21     3     1
 -9.1562863817798115E-02 a      1497     2    22     3     1
  8.2531575985311870E-02 a      1498     2    23     3     1
  2.4913629373648247E-01 a      1499     2    24     3     1
  4.4660192916646702E-01 a      1500     2    25     3     1
  7.5838827036029441E-02 b      1501     3     1
