################################################################################
# Neural network connection values (weights and biases).
################################################################################
# Col  Name       Description
################################################################################
# 1    connection Neural network connection value.
# 2    t          Connection type (a = weight, b = bias).
# 3    index      Index enumerating weights.
# 4    l_s        Starting point layer (end point layer for biases).
# 5    n_s        Starting point neuron in starting layer (end point neuron for biases).
# 6    l_e        End point layer.
# 7    n_e        End point neuron in end layer.
################################################################################
#                      1 2         3     4     5     6     7
#             connection t     index   l_s   n_s   l_e   n_e
############################################################
 -3.3377921890927470E-01 a         1     0     1     1     1
 -1.4541584774294350E-01 a         2     0     1     1     2
  2.3840015037891185E-01 a         3     0     1     1     3
 -3.2736062989438047E-01 a         4     0     1     1     4
  1.4097741952163695E-01 a         5     0     1     1     5
 -9.3826848270373506E-02 a         6     0     1     1     6
 -2.1813216332824025E-02 a         7     0     1     1     7
  7.8806554267243575E-02 a         8     0     1     1     8
 -1.1937772914790983E-01 a         9     0     1     1     9
 -2.0885223896182700E-01 a        10     0     1     1    10
  3.7519255247779812E-02 a        11     0     1     1    11
 -1.9292743102302334E-01 a        12     0     1     1    12
 -6.5842184581878607E-04 a        13     0     1     1    13
 -1.5746632710939965E-01 a        14     0     1     1    14
 -2.4089879719945725E-01 a        15     0     1     1    15
 -1.2324779257093978E-01 a        16     0     1     1    16
 -1.0215523789351171E-01 a        17     0     1     1    17
 -2.3236105542050575E-01 a        18     0     1     1    18
  3.1974644512105438E-01 a        19     0     1     1    19
 -1.8051361814405328E-01 a        20     0     1     1    20
  1.8181613702096150E-01 a        21     0     1     1    21
  4.2610165098838922E-02 a        22     0     1     1    22
 -4.3727863739562411E-01 a        23     0     1     1    23
 -1.5822475869856956E-02 a        24     0     1     1    24
  2.5099201019907230E-01 a        25     0     1     1    25
  1.1876003583992578E-01 a        26     0     2     1     1
  3.2638001932682403E-02 a        27     0     2     1     2
  4.3965890990105838E-02 a        28     0     2     1     3
  1.2573523740754278E-01 a        29     0     2     1     4
  1.0945749786593911E-01 a        30     0     2     1     5
  1.3196603205375521E-01 a        31     0     2     1     6
  1.4407436903526441E-01 a        32     0     2     1     7
 -1.2833807397239300E-01 a        33     0     2     1     8
 -2.5383954762775390E-01 a        34     0     2     1     9
  8.7967498981608341E-02 a        35     0     2     1    10
  1.0533787722739330E-01 a        36     0     2     1    11
 -1.7727134755298708E-02 a        37     0     2     1    12
  1.7971855835509812E-01 a        38     0     2     1    13
 -2.1730148522515341E-01 a        39     0     2     1    14
  2.6255571318734055E-02 a        40     0     2     1    15
 -1.1039704100796052E-01 a        41     0     2     1    16
 -3.2466251512761590E-01 a        42     0     2     1    17
  6.2554068920107661E-02 a        43     0     2     1    18
  5.4564621450128865E-02 a        44     0     2     1    19
 -8.5656389625845489E-03 a        45     0     2     1    20
 -2.0585786344338584E-02 a        46     0     2     1    21
 -1.7286249941861609E-01 a        47     0     2     1    22
  4.9197077886882337E-02 a        48     0     2     1    23
 -7.6986280315813824E-02 a        49     0     2     1    24
  5.0775002636855651E-02 a        50     0     2     1    25
  3.3977385363011120E-01 a        51     0     3     1     1
  1.9604551759792230E-01 a        52     0     3     1     2
  4.1765706673271681E-02 a        53     0     3     1     3
 -9.8129834408566236E-02 a        54     0     3     1     4
 -5.3850748448316232E-01 a        55     0     3     1     5
  3.6054368958028760E-01 a        56     0     3     1     6
 -2.1078181716916777E-01 a        57     0     3     1     7
  5.7569835981935637E-02 a        58     0     3     1     8
 -4.9772359724592714E-02 a        59     0     3     1     9
  2.1317162221453248E-01 a        60     0     3     1    10
  2.7019144244841614E-01 a        61     0     3     1    11
  1.4939960964332971E-01 a        62     0     3     1    12
  1.8190129416316345E-01 a        63     0     3     1    13
 -3.8034931942468930E-02 a        64     0     3     1    14
 -2.5493903591158501E-01 a        65     0     3     1    15
  3.8782279722922064E-01 a        66     0     3     1    16
 -2.1374731734030497E-02 a        67     0     3     1    17
  1.8188384609335448E-01 a        68     0     3     1    18
 -6.5597202417937051E-01 a        69     0     3     1    19
 -1.8789684804952872E-01 a        70     0     3     1    20
 -3.0409494635471829E-01 a        71     0     3     1    21
 -3.2572066306456970E-01 a        72     0     3     1    22
  1.0514018941794410E+00 a        73     0     3     1    23
  7.4552271402637915E-01 a        74     0     3     1    24
 -1.8728486093503380E-01 a        75     0     3     1    25
  6.3058104735469300E-02 a        76     0     4     1     1
  3.0891334959272393E-01 a        77     0     4     1     2
 -8.2002391241381058E-03 a        78     0     4     1     3
  2.3230156180946239E-02 a        79     0     4     1     4
 -3.1739131313129187E-01 a        80     0     4     1     5
 -1.2005542654218995E-01 a        81     0     4     1     6
  1.3335757383211214E-01 a        82     0     4     1     7
  2.6026551644553531E-01 a        83     0     4     1     8
  1.8902613093837956E-01 a        84     0     4     1     9
 -2.9460146813299071E-01 a        85     0     4     1    10
 -1.8254725915409833E-01 a        86     0     4     1    11
  1.5693116198641868E-01 a        87     0     4     1    12
  4.6404992070530787E-01 a        88     0     4     1    13
  4.9327258006660119E-01 a        89     0     4     1    14
  2.8057867444385581E-01 a        90     0     4     1    15
  2.3061262687811901E-01 a        91     0     4     1    16
 -8.5285864893597865E-02 a        92     0     4     1    17
 -1.8784922582677921E-01 a        93     0     4     1    18
  3.6794832578008099E-02 a        94     0     4     1    19
  1.1488387275191717E-01 a        95     0     4     1    20
 -5.9784294963593033E-02 a        96     0     4     1    21
 -4.4295286642093618E-02 a        97     0     4     1    22
 -2.5919111232191461E-01 a        98     0     4     1    23
  9.6729660433597583E-02 a        99     0     4     1    24
 -4.0369174144681713E-01 a       100     0     4     1    25
 -7.3957350186601523E-01 a       101     0     5     1     1
  5.9031193099332142E-02 a       102     0     5     1     2
  1.6758710551429030E-02 a       103     0     5     1     3
  1.8699555904944723E-01 a       104     0     5     1     4
  6.2388470203320989E-01 a       105     0     5     1     5
  2.1973176208385389E-01 a       106     0     5     1     6
 -9.3963708896756371E-02 a       107     0     5     1     7
  5.0419322036877867E-01 a       108     0     5     1     8
  3.9234704248215874E-01 a       109     0     5     1     9
 -8.2475733239814886E-02 a       110     0     5     1    10
 -3.2723809506298429E-01 a       111     0     5     1    11
 -2.8485295227503826E-01 a       112     0     5     1    12
  1.6110845373252353E-01 a       113     0     5     1    13
 -1.4821824224036126E-01 a       114     0     5     1    14
 -5.0419520047779687E-01 a       115     0     5     1    15
 -1.7646705308644084E-01 a       116     0     5     1    16
 -2.6542287792640656E-01 a       117     0     5     1    17
  9.4921639952345357E-02 a       118     0     5     1    18
 -2.9383283321174824E-03 a       119     0     5     1    19
 -3.9863633650414448E-01 a       120     0     5     1    20
 -1.2684198391897311E-01 a       121     0     5     1    21
 -1.0870398535725363E-01 a       122     0     5     1    22
 -3.9417363604403188E-01 a       123     0     5     1    23
 -1.9528189655454445E-01 a       124     0     5     1    24
 -3.5752871559079508E-01 a       125     0     5     1    25
  3.2693921934787940E-01 a       126     0     6     1     1
  4.8448908324267537E-01 a       127     0     6     1     2
  1.5879656640688639E-01 a       128     0     6     1     3
  3.3080956262126893E-01 a       129     0     6     1     4
 -1.4236335678038464E-01 a       130     0     6     1     5
  1.0211342940108970E-02 a       131     0     6     1     6
 -1.2738724086950640E-01 a       132     0     6     1     7
 -1.1509840230487241E-01 a       133     0     6     1     8
 -2.6487625553595118E-01 a       134     0     6     1     9
  1.0325180795258479E-01 a       135     0     6     1    10
 -1.2517156112798394E-01 a       136     0     6     1    11
 -3.0083822821649381E-01 a       137     0     6     1    12
  2.2391768116304570E-01 a       138     0     6     1    13
 -3.5667413866960618E-01 a       139     0     6     1    14
 -1.2983687479887826E-01 a       140     0     6     1    15
  2.7037648203520215E-01 a       141     0     6     1    16
  1.3013800059125669E-01 a       142     0     6     1    17
 -1.5090079353377223E-01 a       143     0     6     1    18
  1.0235234356219296E-02 a       144     0     6     1    19
 -5.2860598737238829E-01 a       145     0     6     1    20
  1.6174726141391460E-01 a       146     0     6     1    21
 -4.5948088995762520E-01 a       147     0     6     1    22
  2.0465381391399559E-01 a       148     0     6     1    23
 -1.5477889025756297E-01 a       149     0     6     1    24
 -4.1071910665283727E-02 a       150     0     6     1    25
 -6.9669680374239110E-02 a       151     0     7     1     1
 -3.8267861803497422E-01 a       152     0     7     1     2
 -2.0145731464419510E-03 a       153     0     7     1     3
 -1.3464819868203551E-01 a       154     0     7     1     4
 -3.3003946729380235E-01 a       155     0     7     1     5
  7.1120070413553116E-02 a       156     0     7     1     6
 -2.4722159890667384E-02 a       157     0     7     1     7
 -4.1846896185794108E-01 a       158     0     7     1     8
 -3.1127330762028588E-01 a       159     0     7     1     9
  6.8775549735783981E-02 a       160     0     7     1    10
 -4.6018808154348723E-01 a       161     0     7     1    11
 -3.0729578512188719E-02 a       162     0     7     1    12
 -7.9911563454516266E-03 a       163     0     7     1    13
 -4.6720779847202681E-01 a       164     0     7     1    14
  1.3310754665803382E-01 a       165     0     7     1    15
 -1.7005131876343771E-01 a       166     0     7     1    16
 -3.6943067967724513E-01 a       167     0     7     1    17
  1.7036242808526897E-01 a       168     0     7     1    18
 -5.3565023031367609E-01 a       169     0     7     1    19
  3.1774429132483700E-01 a       170     0     7     1    20
  2.9032876699900384E-01 a       171     0     7     1    21
 -1.1628018292246420E-01 a       172     0     7     1    22
  9.3362922417424088E-01 a       173     0     7     1    23
  6.5119523932537593E-01 a       174     0     7     1    24
 -2.4241548903415780E-01 a       175     0     7     1    25
  1.7329501091227323E-01 a       176     0     8     1     1
 -1.4591331173688452E-01 a       177     0     8     1     2
 -6.0422468662750167E-02 a       178     0     8     1     3
 -1.3633070522787052E-01 a       179     0     8     1     4
 -4.4857142526827765E-01 a       180     0     8     1     5
 -1.3174975998860775E-01 a       181     0     8     1     6
 -1.5346896475881036E-01 a       182     0     8     1     7
  5.0898465387983392E-02 a       183     0     8     1     8
 -1.7794437715225414E-01 a       184     0     8     1     9
 -1.0257230186742629E-01 a       185     0     8     1    10
  1.6946016363416350E-01 a       186     0     8     1    11
 -9.1107987237439656E-03 a       187     0     8     1    12
  3.8757386958519124E-01 a       188     0     8     1    13
  2.5188338339219524E-01 a       189     0     8     1    14
  1.0395337333928054E-01 a       190     0     8     1    15
  9.6708735498241091E-02 a       191     0     8     1    16
 -3.4716908650278433E-01 a       192     0     8     1    17
  2.5443313222849756E-01 a       193     0     8     1    18
  3.3056224059596362E-01 a       194     0     8     1    19
  1.1805482874527731E-01 a       195     0     8     1    20
 -2.6226687866316234E-01 a       196     0     8     1    21
  4.2612790257317318E-02 a       197     0     8     1    22
 -4.5777543296869166E-01 a       198     0     8     1    23
 -2.5588829249624545E-01 a       199     0     8     1    24
 -5.9969992808078720E-03 a       200     0     8     1    25
  5.9086741408042848E-02 a       201     0     9     1     1
  3.5077379826792204E-01 a       202     0     9     1     2
  5.3023694744518707E-02 a       203     0     9     1     3
 -5.5917370493990627E-02 a       204     0     9     1     4
  2.7223092874479465E-01 a       205     0     9     1     5
 -1.1791250333014898E-01 a       206     0     9     1     6
 -3.9087845771178263E-02 a       207     0     9     1     7
 -3.4660192817154262E-01 a       208     0     9     1     8
  1.7171926432997106E-01 a       209     0     9     1     9
 -6.1125713695575458E-03 a       210     0     9     1    10
 -1.0214315930134521E-02 a       211     0     9     1    11
 -1.3621082408118992E-01 a       212     0     9     1    12
  1.0593018036741832E-01 a       213     0     9     1    13
  1.2257249222912378E-01 a       214     0     9     1    14
 -2.5404348017203221E-01 a       215     0     9     1    15
 -5.7186290662691451E-02 a       216     0     9     1    16
  9.4187314612581230E-02 a       217     0     9     1    17
  1.5147142849460558E-02 a       218     0     9     1    18
  5.0689615953948546E-02 a       219     0     9     1    19
 -5.1684101570427232E-01 a       220     0     9     1    20
 -2.6963374652166444E-01 a       221     0     9     1    21
  2.4704783644749836E-01 a       222     0     9     1    22
 -1.7201837755927804E-01 a       223     0     9     1    23
 -5.7662050630770532E-02 a       224     0     9     1    24
 -2.5296095942436492E-01 a       225     0     9     1    25
 -7.2550313083937848E-02 a       226     0    10     1     1
  1.6721764225721088E-02 a       227     0    10     1     2
  8.2974286088176558E-02 a       228     0    10     1     3
  3.6240324206326030E-02 a       229     0    10     1     4
 -4.0256144273014249E-01 a       230     0    10     1     5
  2.3167356564222505E-01 a       231     0    10     1     6
  1.9654814972564524E-01 a       232     0    10     1     7
 -2.2342477510056460E-01 a       233     0    10     1     8
  9.8840604144695629E-03 a       234     0    10     1     9
 -1.7261231609348063E-01 a       235     0    10     1    10
  2.4109885538366183E-01 a       236     0    10     1    11
  5.2783726592749831E-02 a       237     0    10     1    12
 -3.7295034773140757E-02 a       238     0    10     1    13
  2.4474799134833272E-01 a       239     0    10     1    14
  3.5761311188648459E-01 a       240     0    10     1    15
  4.5186066257725332E-01 a       241     0    10     1    16
 -2.9122576697393071E-01 a       242     0    10     1    17
  5.3201259996649673E-02 a       243     0    10     1    18
  1.5463365853452603E-02 a       244     0    10     1    19
  3.9966401710116124E-02 a       245     0    10     1    20
  3.8957493746627173E-02 a       246     0    10     1    21
 -1.9445864135132496E-01 a       247     0    10     1    22
  4.4905502748466698E-02 a       248     0    10     1    23
  1.1745199911917245E-01 a       249     0    10     1    24
 -2.0436839469197945E-01 a       250     0    10     1    25
 -2.3712095773880815E-01 a       251     0    11     1     1
 -2.9319897422161628E-01 a       252     0    11     1     2
 -4.4907868705450351E-04 a       253     0    11     1     3
  1.8975996248180335E-01 a       254     0    11     1     4
 -5.6459898194312436E-02 a       255     0    11     1     5
  1.3585734407869324E-02 a       256     0    11     1     6
 -1.3790627919856965E-01 a       257     0    11     1     7
  1.2281707868252995E-01 a       258     0    11     1     8
 -7.8364530695919657E-02 a       259     0    11     1     9
  2.8194345837834889E-01 a       260     0    11     1    10
 -1.6219658095457329E-01 a       261     0    11     1    11
 -1.2565434758153771E-01 a       262     0    11     1    12
  7.5332890209315134E-02 a       263     0    11     1    13
 -3.4139566400467802E-01 a       264     0    11     1    14
  3.2642197704185333E-01 a       265     0    11     1    15
 -2.8227152376514369E-01 a       266     0    11     1    16
  1.3310155284218054E-02 a       267     0    11     1    17
  1.5950158360284331E-01 a       268     0    11     1    18
 -2.0834187405661805E-01 a       269     0    11     1    19
  2.8690584153588555E-01 a       270     0    11     1    20
 -4.1143147007983036E-02 a       271     0    11     1    21
 -2.4796633330648457E-01 a       272     0    11     1    22
  4.5028777824945782E-01 a       273     0    11     1    23
  4.3305027347425945E-01 a       274     0    11     1    24
  9.2948694035124776E-03 a       275     0    11     1    25
  1.8389266764699555E-01 a       276     0    12     1     1
  1.9147286709238745E-01 a       277     0    12     1     2
 -1.0349295736301237E-01 a       278     0    12     1     3
  1.7735994425410094E-02 a       279     0    12     1     4
  3.9051940478965604E-02 a       280     0    12     1     5
  2.1592009420695094E-01 a       281     0    12     1     6
  1.9146217348496092E-01 a       282     0    12     1     7
  2.2453237140245913E-01 a       283     0    12     1     8
 -1.3581234889712812E-01 a       284     0    12     1     9
 -2.6531797875992946E-01 a       285     0    12     1    10
  6.9570754041184124E-02 a       286     0    12     1    11
 -2.2063205528097557E-01 a       287     0    12     1    12
  3.9590798150500567E-01 a       288     0    12     1    13
 -9.6336728488103762E-02 a       289     0    12     1    14
 -2.0482525712375493E-01 a       290     0    12     1    15
  3.1882053407315686E-01 a       291     0    12     1    16
  9.6272486382667208E-02 a       292     0    12     1    17
  1.8773794790414619E-01 a       293     0    12     1    18
  8.9127609898680876E-02 a       294     0    12     1    19
 -2.3233883994151297E-01 a       295     0    12     1    20
 -7.2899823656941101E-02 a       296     0    12     1    21
  1.9623307789935807E-01 a       297     0    12     1    22
 -3.0089880467333602E-01 a       298     0    12     1    23
 -5.4478962787139007E-01 a       299     0    12     1    24
 -1.2521767957124522E-01 a       300     0    12     1    25
 -1.3277815347447305E-01 a       301     0    13     1     1
  2.3157457756664607E-01 a       302     0    13     1     2
 -4.0182676129299133E-01 a       303     0    13     1     3
 -3.0672779362937219E-01 a       304     0    13     1     4
  1.8545684450054077E-02 a       305     0    13     1     5
 -2.5127603317541392E-01 a       306     0    13     1     6
  1.5004635825193011E-01 a       307     0    13     1     7
  1.1024667398297217E-01 a       308     0    13     1     8
  6.7819463388357634E-02 a       309     0    13     1     9
  1.0717209163455549E-01 a       310     0    13     1    10
  1.3527452166344026E-01 a       311     0    13     1    11
  1.4720266895354039E-01 a       312     0    13     1    12
  4.0028213469585829E-02 a       313     0    13     1    13
  9.1548179683465694E-02 a       314     0    13     1    14
 -2.4307604557202597E-01 a       315     0    13     1    15
 -8.1475249622004572E-02 a       316     0    13     1    16
  2.3772845588074326E-02 a       317     0    13     1    17
 -2.9509770875614955E-01 a       318     0    13     1    18
  9.6128299670903486E-02 a       319     0    13     1    19
 -1.8856367575869928E-01 a       320     0    13     1    20
  4.1442894857275014E-01 a       321     0    13     1    21
 -4.3233374221581600E-01 a       322     0    13     1    22
 -1.4001548421221655E-01 a       323     0    13     1    23
  9.4515501286251188E-03 a       324     0    13     1    24
 -5.2235074837878759E-02 a       325     0    13     1    25
 -2.6014754987185973E-02 a       326     0    14     1     1
  1.0828280434074114E-01 a       327     0    14     1     2
  2.7878185299404390E-01 a       328     0    14     1     3
 -1.5811549804040214E-02 a       329     0    14     1     4
  3.6878855089211897E-02 a       330     0    14     1     5
  9.6724791955650008E-02 a       331     0    14     1     6
 -2.7497651308282361E-01 a       332     0    14     1     7
 -2.0279517449471554E-01 a       333     0    14     1     8
  6.4359171505966581E-02 a       334     0    14     1     9
 -6.5242525008166838E-02 a       335     0    14     1    10
 -3.6536140852233046E-01 a       336     0    14     1    11
 -1.2987083619407808E-01 a       337     0    14     1    12
 -3.3586223707295354E-01 a       338     0    14     1    13
  6.3727190586832239E-03 a       339     0    14     1    14
  7.0718796026180433E-02 a       340     0    14     1    15
  5.7869928351947653E-02 a       341     0    14     1    16
  6.9662307122730638E-03 a       342     0    14     1    17
 -1.4682877374192368E-01 a       343     0    14     1    18
 -3.6380531745047386E-02 a       344     0    14     1    19
 -5.3576488465860439E-02 a       345     0    14     1    20
 -3.9052638466000947E-02 a       346     0    14     1    21
  1.4259594963388567E-01 a       347     0    14     1    22
 -3.0474256310748793E-02 a       348     0    14     1    23
  1.7097622836078588E-01 a       349     0    14     1    24
 -9.5693611330130754E-02 a       350     0    14     1    25
  1.7196249063557806E-01 a       351     0    15     1     1
 -2.3869542734267890E-01 a       352     0    15     1     2
  2.3910922743542892E-01 a       353     0    15     1     3
  1.4108427808451329E-01 a       354     0    15     1     4
 -1.8264115381298521E-01 a       355     0    15     1     5
 -3.1938172069257315E-01 a       356     0    15     1     6
 -3.1546651517773727E-01 a       357     0    15     1     7
 -4.6884846904910883E-02 a       358     0    15     1     8
 -4.0726265090906655E-02 a       359     0    15     1     9
  1.3461956564391139E-01 a       360     0    15     1    10
  1.5205775689569062E-01 a       361     0    15     1    11
  1.8015604042856284E-01 a       362     0    15     1    12
  1.5591775385853757E-01 a       363     0    15     1    13
  4.1873636734287477E-02 a       364     0    15     1    14
  2.6597036292355214E-01 a       365     0    15     1    15
  1.2949829231676391E-01 a       366     0    15     1    16
  3.3037208869232626E-01 a       367     0    15     1    17
  1.2916719947634189E-01 a       368     0    15     1    18
 -9.0021432552010852E-02 a       369     0    15     1    19
  2.8397617113460916E-01 a       370     0    15     1    20
 -1.8373212635681965E-01 a       371     0    15     1    21
  2.2276140929021279E-01 a       372     0    15     1    22
  2.7029382644355349E-01 a       373     0    15     1    23
  1.0504634767562097E-01 a       374     0    15     1    24
  6.0423718399204407E-02 a       375     0    15     1    25
  1.2400437323791144E-01 a       376     0    16     1     1
 -4.9367701051935130E-02 a       377     0    16     1     2
  1.9324423099985125E-01 a       378     0    16     1     3
  1.8728830864865331E-01 a       379     0    16     1     4
  1.9797551256888556E-02 a       380     0    16     1     5
 -5.1946384758207953E-02 a       381     0    16     1     6
  3.0395495736596972E-01 a       382     0    16     1     7
  1.0046544727719595E-01 a       383     0    16     1     8
 -3.8741329843860993E-02 a       384     0    16     1     9
 -3.1131566031716906E-01 a       385     0    16     1    10
  1.3654373252423577E-01 a       386     0    16     1    11
  6.4509409883156996E-02 a       387     0    16     1    12
  5.5697068405787940E-02 a       388     0    16     1    13
  9.7434415429960314E-02 a       389     0    16     1    14
 -1.1651273658720099E-01 a       390     0    16     1    15
  1.0087426448605419E-01 a       391     0    16     1    16
 -2.4216827804826219E-01 a       392     0    16     1    17
  2.8599016685144257E-01 a       393     0    16     1    18
  7.8474789316292912E-02 a       394     0    16     1    19
  5.7672630641974566E-02 a       395     0    16     1    20
 -2.8340464309098329E-01 a       396     0    16     1    21
  1.1024565373090706E-01 a       397     0    16     1    22
 -1.8350189435253769E-01 a       398     0    16     1    23
 -3.6542611226465110E-01 a       399     0    16     1    24
 -2.9235810735790350E-02 a       400     0    16     1    25
 -2.1230700136096345E-01 a       401     0    17     1     1
  2.3101083371673448E-01 a       402     0    17     1     2
 -4.2309740699958559E-01 a       403     0    17     1     3
 -1.6910806356489022E-01 a       404     0    17     1     4
  6.8323904253389689E-02 a       405     0    17     1     5
  2.6250433240651089E-01 a       406     0    17     1     6
  2.2019649715419592E-01 a       407     0    17     1     7
  1.9196172443640450E-01 a       408     0    17     1     8
  7.5432032226158935E-02 a       409     0    17     1     9
  1.1757868805845899E-01 a       410     0    17     1    10
 -1.2425257952749072E-01 a       411     0    17     1    11
 -1.0031425971646922E-01 a       412     0    17     1    12
  8.0767595929009742E-02 a       413     0    17     1    13
 -1.4133754276951889E-02 a       414     0    17     1    14
 -1.6340904448428059E-01 a       415     0    17     1    15
 -1.5350107916656139E-01 a       416     0    17     1    16
 -8.3894842641855510E-02 a       417     0    17     1    17
 -2.5253528291697841E-01 a       418     0    17     1    18
  4.8425604018683599E-03 a       419     0    17     1    19
 -2.1709571993661256E-01 a       420     0    17     1    20
  2.0335874728071440E-01 a       421     0    17     1    21
 -1.5276975308140500E-01 a       422     0    17     1    22
 -6.7717839813524930E-02 a       423     0    17     1    23
  4.8625702609034109E-03 a       424     0    17     1    24
 -6.5013273195013696E-02 a       425     0    17     1    25
 -1.9543795735291952E-01 a       426     0    18     1     1
 -1.3472850428651961E-01 a       427     0    18     1     2
 -1.5844061725068820E-01 a       428     0    18     1     3
 -1.1685890633778706E-01 a       429     0    18     1     4
 -2.5945425738565779E-02 a       430     0    18     1     5
 -3.0176584432736153E-01 a       431     0    18     1     6
 -3.8458627107128474E-01 a       432     0    18     1     7
  1.4525877921169741E-01 a       433     0    18     1     8
  9.4304443709694402E-02 a       434     0    18     1     9
  2.3486363699643470E-01 a       435     0    18     1    10
 -1.0777299762964605E-01 a       436     0    18     1    11
  5.0079249638568142E-02 a       437     0    18     1    12
 -1.1850180341960066E-01 a       438     0    18     1    13
 -6.1890069226352672E-02 a       439     0    18     1    14
  5.9376422395164439E-03 a       440     0    18     1    15
 -7.1883587071389518E-02 a       441     0    18     1    16
  1.4390007301217253E-01 a       442     0    18     1    17
 -2.1273172238225399E-01 a       443     0    18     1    18
 -5.8601336233342710E-02 a       444     0    18     1    19
  4.4730613679447098E-03 a       445     0    18     1    20
  2.9923581873761856E-01 a       446     0    18     1    21
 -4.5090101999444042E-02 a       447     0    18     1    22
  6.9394295231865077E-02 a       448     0    18     1    23
  2.2076682672586448E-01 a       449     0    18     1    24
  1.8100885814115147E-01 a       450     0    18     1    25
  8.5408460410612633E-02 a       451     0    19     1     1
 -2.3728112914862456E-01 a       452     0    19     1     2
  1.7495386774994295E-01 a       453     0    19     1     3
  1.4497725427546035E-01 a       454     0    19     1     4
 -1.6758910074547016E-02 a       455     0    19     1     5
  1.9832606966732988E-01 a       456     0    19     1     6
 -1.0325804415383558E-01 a       457     0    19     1     7
 -2.5008474519828477E-01 a       458     0    19     1     8
 -9.8533164701576317E-02 a       459     0    19     1     9
 -1.6306682261422376E-01 a       460     0    19     1    10
  3.2785648983392418E-01 a       461     0    19     1    11
 -1.6057879469118083E-01 a       462     0    19     1    12
 -4.8438076074079614E-02 a       463     0    19     1    13
  2.5388487220939785E-02 a       464     0    19     1    14
  7.6391000354269281E-02 a       465     0    19     1    15
  2.5685207864037440E-01 a       466     0    19     1    16
  3.1180229620934086E-02 a       467     0    19     1    17
  2.8378612833575911E-01 a       468     0    19     1    18
  3.7279771716742349E-02 a       469     0    19     1    19
 -2.9097050162882099E-02 a       470     0    19     1    20
 -3.3723294649372815E-01 a       471     0    19     1    21
  4.7892725085572983E-02 a       472     0    19     1    22
  6.7673201735654567E-02 a       473     0    19     1    23
  2.4308139864494448E-02 a       474     0    19     1    24
  9.8843573276151593E-04 a       475     0    19     1    25
 -5.5321359111867155E-02 a       476     0    20     1     1
  9.7406377005555302E-03 a       477     0    20     1     2
  4.0582904426692282E-02 a       478     0    20     1     3
  4.1719264089630219E-02 a       479     0    20     1     4
  8.2143340685858754E-02 a       480     0    20     1     5
  1.1356338397529123E-01 a       481     0    20     1     6
  1.5262183959756634E-01 a       482     0    20     1     7
 -1.2602431910278694E-01 a       483     0    20     1     8
  4.1419479320530576E-02 a       484     0    20     1     9
 -9.9733218652100039E-02 a       485     0    20     1    10
  2.8375027690294784E-02 a       486     0    20     1    11
 -3.2276943202936413E-02 a       487     0    20     1    12
 -1.6684720609554188E-01 a       488     0    20     1    13
 -9.2346458320392372E-02 a       489     0    20     1    14
  5.5586360174758542E-02 a       490     0    20     1    15
 -7.5484436405497179E-02 a       491     0    20     1    16
 -9.5172630860677940E-02 a       492     0    20     1    17
  1.4456332298181379E-01 a       493     0    20     1    18
  1.6330760131051933E-02 a       494     0    20     1    19
  6.2532458055280987E-02 a       495     0    20     1    20
  4.4829686779470843E-02 a       496     0    20     1    21
  7.3740760481725107E-02 a       497     0    20     1    22
 -1.4083484147462491E-01 a       498     0    20     1    23
 -1.1585648092700002E-01 a       499     0    20     1    24
 -1.6455117040028178E-01 a       500     0    20     1    25
  6.1153506632856536E-01 a       501     0    21     1     1
  1.1761510167978974E-01 a       502     0    21     1     2
 -2.2576318490659889E-03 a       503     0    21     1     3
  1.8168337690910186E-01 a       504     0    21     1     4
  4.6583942719851728E-03 a       505     0    21     1     5
 -2.7833099777821041E-01 a       506     0    21     1     6
 -6.5346676462423564E-02 a       507     0    21     1     7
 -3.2107732717989312E-01 a       508     0    21     1     8
 -3.5840968993026423E-01 a       509     0    21     1     9
  6.9570604640785350E-02 a       510     0    21     1    10
 -2.3009039322330838E-01 a       511     0    21     1    11
  4.1353665843843264E-02 a       512     0    21     1    12
 -6.7117805697388414E-02 a       513     0    21     1    13
  6.2272644956082912E-01 a       514     0    21     1    14
  1.0292170708622543E-01 a       515     0    21     1    15
 -6.9090032168949289E-01 a       516     0    21     1    16
  1.7505246578016601E-01 a       517     0    21     1    17
 -4.0766969262952374E-01 a       518     0    21     1    18
  1.0773577028108412E+00 a       519     0    21     1    19
  4.9674517961151610E-01 a       520     0    21     1    20
 -2.4011600247011555E-01 a       521     0    21     1    21
 -1.2165108966917462E-01 a       522     0    21     1    22
 -2.5675996884741586E-01 a       523     0    21     1    23
 -9.2142729767391116E-02 a       524     0    21     1    24
  7.3189541564461902E-01 a       525     0    21     1    25
  4.7464250701594829E-01 a       526     0    22     1     1
  3.7459251209559001E-02 a       527     0    22     1     2
 -4.0430529828760392E-01 a       528     0    22     1     3
  4.9743601390611969E-01 a       529     0    22     1     4
  4.6919518591340775E-01 a       530     0    22     1     5
 -6.9245494636306937E-01 a       531     0    22     1     6
  4.5246654127329416E-01 a       532     0    22     1     7
 -8.8406575995161815E-02 a       533     0    22     1     8
  5.2294892844174809E-02 a       534     0    22     1     9
 -8.1204653882394451E-01 a       535     0    22     1    10
 -3.5892731446242465E-01 a       536     0    22     1    11
  4.2485561912249953E-01 a       537     0    22     1    12
 -4.2200105508761304E-01 a       538     0    22     1    13
 -4.2430248323480324E-01 a       539     0    22     1    14
  4.7980446264629678E-01 a       540     0    22     1    15
  9.6783518134445856E-02 a       541     0    22     1    16
  1.7474861507007677E-01 a       542     0    22     1    17
 -3.9741582800154218E-01 a       543     0    22     1    18
 -7.4420445139976099E-01 a       544     0    22     1    19
  8.8166382006606061E-03 a       545     0    22     1    20
 -2.9309846599641370E-01 a       546     0    22     1    21
  6.4262381808694991E-01 a       547     0    22     1    22
 -2.6800853852042750E-01 a       548     0    22     1    23
 -1.9162661964993061E-01 a       549     0    22     1    24
 -5.7404408993357947E-01 a       550     0    22     1    25
 -9.0717710363423437E-02 a       551     0    23     1     1
 -7.8175606138979392E-02 a       552     0    23     1     2
 -2.3458377032554484E-01 a       553     0    23     1     3
 -2.1226904363189519E-01 a       554     0    23     1     4
 -9.8504107364516036E-02 a       555     0    23     1     5
  2.9142773851690368E-01 a       556     0    23     1     6
  5.8330343625885205E-02 a       557     0    23     1     7
  4.0047872787234032E-04 a       558     0    23     1     8
 -2.3735533747089016E-01 a       559     0    23     1     9
  1.6938860113704307E-01 a       560     0    23     1    10
  1.6100410088629839E-02 a       561     0    23     1    11
 -4.9403717785014276E-02 a       562     0    23     1    12
  9.4354899584875182E-02 a       563     0    23     1    13
 -8.7312416406121016E-02 a       564     0    23     1    14
  1.0591937413018346E-02 a       565     0    23     1    15
 -4.1168880919798956E-01 a       566     0    23     1    16
  5.3476415925099396E-01 a       567     0    23     1    17
 -3.4241945966310550E-01 a       568     0    23     1    18
  2.2743978376832691E-01 a       569     0    23     1    19
  5.4358783909191778E-02 a       570     0    23     1    20
  6.1103335452301022E-01 a       571     0    23     1    21
  1.8135739187310115E-01 a       572     0    23     1    22
 -1.6611119660984705E-01 a       573     0    23     1    23
 -6.8073406684520013E-02 a       574     0    23     1    24
  1.2320758498402273E-01 a       575     0    23     1    25
 -3.7090029532562035E-01 a       576     0    24     1     1
  2.5876943012540693E-01 a       577     0    24     1     2
  7.6910695624051240E-01 a       578     0    24     1     3
 -3.9095982994454787E-01 a       579     0    24     1     4
 -8.7655983577707297E-01 a       580     0    24     1     5
  3.5651925828682451E-01 a       581     0    24     1     6
 -5.6753096601989539E-01 a       582     0    24     1     7
  3.2323643935228635E-01 a       583     0    24     1     8
  2.2964110892762823E-01 a       584     0    24     1     9
 -2.4520249201468672E-01 a       585     0    24     1    10
  5.3059573267644253E-02 a       586     0    24     1    11
 -2.3727973236604386E-01 a       587     0    24     1    12
 -4.6442414418018607E-01 a       588     0    24     1    13
 -9.0179045545896286E-02 a       589     0    24     1    14
  4.0481493211390529E-01 a       590     0    24     1    15
 -2.3935420876045491E-01 a       591     0    24     1    16
 -3.0440636254345699E-01 a       592     0    24     1    17
  3.6364972717432026E-01 a       593     0    24     1    18
 -1.2452149122941791E-01 a       594     0    24     1    19
  2.7916022264965884E-01 a       595     0    24     1    20
  5.6426202713007738E-02 a       596     0    24     1    21
 -1.9274385023787047E-01 a       597     0    24     1    22
 -2.1567678724530831E-02 a       598     0    24     1    23
  3.0939864145356266E-01 a       599     0    24     1    24
 -1.8040679415331634E-01 a       600     0    24     1    25
 -4.0772779652667607E-01 a       601     0    25     1     1
  2.2796953024458716E-01 a       602     0    25     1     2
  9.5511535796423588E-02 a       603     0    25     1     3
 -2.3894299936527938E-01 a       604     0    25     1     4
  1.0154992502187168E+00 a       605     0    25     1     5
 -5.2196232733751480E-01 a       606     0    25     1     6
 -3.8000890001119891E-01 a       607     0    25     1     7
 -3.3906828254758081E-01 a       608     0    25     1     8
 -4.0548163565759632E-01 a       609     0    25     1     9
  7.4204911942165741E-01 a       610     0    25     1    10
  6.1143597469650557E-01 a       611     0    25     1    11
  3.9700927303317696E-01 a       612     0    25     1    12
 -3.4698314391010304E-01 a       613     0    25     1    13
  1.1353099229988536E-01 a       614     0    25     1    14
 -3.1988788829116177E-01 a       615     0    25     1    15
  4.7892098973965747E-01 a       616     0    25     1    16
 -1.8722156260432629E-01 a       617     0    25     1    17
  4.5651519543022911E-01 a       618     0    25     1    18
  6.2048353808964662E-01 a       619     0    25     1    19
 -7.0184170516748873E-03 a       620     0    25     1    20
  1.2047183506244408E-01 a       621     0    25     1    21
  1.4561511578200539E-01 a       622     0    25     1    22
 -5.5658722623482412E-02 a       623     0    25     1    23
  2.6670718635886603E-01 a       624     0    25     1    24
  3.0389301063879032E-01 a       625     0    25     1    25
 -4.7944850667273359E-02 a       626     0    26     1     1
 -3.0898091543932849E-01 a       627     0    26     1     2
  8.3503181102753454E-02 a       628     0    26     1     3
 -1.3507084324047203E-01 a       629     0    26     1     4
  7.7472757018588564E-02 a       630     0    26     1     5
  1.8036621376177925E-01 a       631     0    26     1     6
 -1.6496006864047355E-01 a       632     0    26     1     7
 -1.4948527489962107E-01 a       633     0    26     1     8
  3.1748230461127713E-01 a       634     0    26     1     9
 -1.0972808939105311E-01 a       635     0    26     1    10
  2.8391853240476109E-02 a       636     0    26     1    11
 -3.2224666956198661E-01 a       637     0    26     1    12
 -3.4995501932588358E-01 a       638     0    26     1    13
 -5.9586810771942673E-02 a       639     0    26     1    14
 -4.6549634608865814E-01 a       640     0    26     1    15
  2.9277445684153186E-01 a       641     0    26     1    16
 -1.7670401821588216E-02 a       642     0    26     1    17
 -1.5940235125451843E-01 a       643     0    26     1    18
 -2.7477884929081137E-01 a       644     0    26     1    19
 -1.5033105874954233E-01 a       645     0    26     1    20
  9.8941658787109366E-02 a       646     0    26     1    21
 -3.6705225041034328E-01 a       647     0    26     1    22
  5.4404222129265234E-01 a       648     0    26     1    23
 -2.8491149305750457E-03 a       649     0    26     1    24
  2.2247035930495496E-01 a       650     0    26     1    25
 -2.7381341320642882E-01 a       651     0    27     1     1
 -2.7785880216140124E-01 a       652     0    27     1     2
  4.1323023449943619E-01 a       653     0    27     1     3
  3.5202537132160913E-02 a       654     0    27     1     4
 -1.8497616314753437E-01 a       655     0    27     1     5
 -5.8256873707916712E-03 a       656     0    27     1     6
 -7.9497714833184685E-02 a       657     0    27     1     7
 -2.6200638469913584E-01 a       658     0    27     1     8
  1.2708717964301389E-01 a       659     0    27     1     9
  6.3198097031866657E-02 a       660     0    27     1    10
 -3.4289965665058936E-01 a       661     0    27     1    11
  2.3533347647767663E-01 a       662     0    27     1    12
  1.5158130828244560E-02 a       663     0    27     1    13
 -9.0052498829365744E-03 a       664     0    27     1    14
  1.0036032807865693E-01 a       665     0    27     1    15
 -2.9065922793312532E-01 a       666     0    27     1    16
  1.5369727673793468E-01 a       667     0    27     1    17
 -4.7155256334671086E-03 a       668     0    27     1    18
  8.6161519635128525E-02 a       669     0    27     1    19
  2.1762032125542255E-01 a       670     0    27     1    20
  1.9427350594565840E-02 a       671     0    27     1    21
 -3.8703759080343059E-01 a       672     0    27     1    22
 -4.3250492650085973E-02 a       673     0    27     1    23
 -1.6420680262996479E-01 a       674     0    27     1    24
 -3.8893456657712400E-01 a       675     0    27     1    25
  8.0720807547795440E-02 a       676     0    28     1     1
  1.1615630213222305E-01 a       677     0    28     1     2
 -6.4200934004429611E-02 a       678     0    28     1     3
 -2.2926079678551597E-01 a       679     0    28     1     4
  3.2017776204795739E-01 a       680     0    28     1     5
 -3.8316396299086564E-02 a       681     0    28     1     6
  3.6687290158472002E-01 a       682     0    28     1     7
  2.1563082410963319E-01 a       683     0    28     1     8
 -3.0882967349235957E-01 a       684     0    28     1     9
 -7.8891224008395655E-02 a       685     0    28     1    10
  1.8606611315658595E-02 a       686     0    28     1    11
 -3.3202176713485282E-01 a       687     0    28     1    12
  1.5954957888866972E-01 a       688     0    28     1    13
 -4.6635913266767470E-02 a       689     0    28     1    14
 -4.4695511681119300E-02 a       690     0    28     1    15
  4.2716426565383847E-01 a       691     0    28     1    16
  4.0385489998744850E-01 a       692     0    28     1    17
 -1.5988902592835415E-02 a       693     0    28     1    18
 -1.5685591649107250E-01 a       694     0    28     1    19
  1.2951112249638391E-02 a       695     0    28     1    20
  7.3245275958398137E-02 a       696     0    28     1    21
  2.1502190794206708E-02 a       697     0    28     1    22
  9.6828076687875186E-02 a       698     0    28     1    23
 -2.9610773183731228E-02 a       699     0    28     1    24
  3.0060193683196879E-01 a       700     0    28     1    25
  1.2369851795523573E-01 a       701     0    29     1     1
  2.0085152653544169E-01 a       702     0    29     1     2
 -8.0145928757069884E-02 a       703     0    29     1     3
 -2.8273998125374949E-01 a       704     0    29     1     4
 -1.9770201502275064E-01 a       705     0    29     1     5
  3.2848999773640419E-01 a       706     0    29     1     6
  2.5482395627687388E-01 a       707     0    29     1     7
 -1.3985827628055721E-02 a       708     0    29     1     8
 -1.1291559062482835E-02 a       709     0    29     1     9
 -2.0604228958784726E-01 a       710     0    29     1    10
 -2.1666571906318166E-01 a       711     0    29     1    11
  2.0795827158090369E-01 a       712     0    29     1    12
 -2.8492054447823101E-01 a       713     0    29     1    13
  1.0165018917211475E-01 a       714     0    29     1    14
  8.4585110039469502E-02 a       715     0    29     1    15
  2.3334237606274333E-01 a       716     0    29     1    16
 -8.7109521093862580E-02 a       717     0    29     1    17
  7.6500200275720062E-02 a       718     0    29     1    18
 -1.4787425990948181E-02 a       719     0    29     1    19
 -6.5818286608209792E-02 a       720     0    29     1    20
 -1.0415461996908935E-01 a       721     0    29     1    21
  2.3366387154467169E-01 a       722     0    29     1    22
  9.9685204900536381E-02 a       723     0    29     1    23
 -6.8273958668271392E-02 a       724     0    29     1    24
 -1.4405081064426535E-02 a       725     0    29     1    25
  4.1213179171821007E-01 a       726     0    30     1     1
  2.6210583290371568E-03 a       727     0    30     1     2
  3.7397536673015107E-03 a       728     0    30     1     3
 -1.5323317139363446E-01 a       729     0    30     1     4
 -5.1844335698301540E-02 a       730     0    30     1     5
  8.1179430366984162E-02 a       731     0    30     1     6
  2.3153482325899646E-01 a       732     0    30     1     7
 -1.7838334849634280E-01 a       733     0    30     1     8
 -1.5936440637976651E-01 a       734     0    30     1     9
  6.7356907899494348E-03 a       735     0    30     1    10
 -2.0720125369450326E-01 a       736     0    30     1    11
  3.1018721407454986E-01 a       737     0    30     1    12
  3.5187830845324605E-02 a       738     0    30     1    13
  1.8640238212604973E-01 a       739     0    30     1    14
 -2.9374405361801609E-01 a       740     0    30     1    15
 -1.3293352074727247E-01 a       741     0    30     1    16
  1.8722779850079527E-01 a       742     0    30     1    17
 -1.9625703838479036E-01 a       743     0    30     1    18
  1.1622085002179978E-01 a       744     0    30     1    19
  9.2449099916072169E-02 a       745     0    30     1    20
 -2.5527668800364278E-02 a       746     0    30     1    21
 -9.6496891157747608E-02 a       747     0    30     1    22
 -2.2226452684823572E-01 a       748     0    30     1    23
  7.5059132814419879E-02 a       749     0    30     1    24
 -1.1120444664353675E-02 a       750     0    30     1    25
 -3.1368828492359058E-01 a       751     0    31     1     1
 -2.8634002940418019E-01 a       752     0    31     1     2
  3.2115137819795758E-01 a       753     0    31     1     3
  7.5229551211064627E-01 a       754     0    31     1     4
  2.1802250741156998E-01 a       755     0    31     1     5
 -2.1038250790753107E-01 a       756     0    31     1     6
  1.9949643976103401E-01 a       757     0    31     1     7
  9.6228232225337351E-01 a       758     0    31     1     8
  9.1863102291008303E-01 a       759     0    31     1     9
  6.7972710108478038E-02 a       760     0    31     1    10
  2.7319113018752350E-01 a       761     0    31     1    11
  2.2906285444044577E-01 a       762     0    31     1    12
  3.2767461666238135E-01 a       763     0    31     1    13
  2.2270706824557734E-01 a       764     0    31     1    14
 -2.3736876777477003E-01 a       765     0    31     1    15
 -2.4070135832217837E-01 a       766     0    31     1    16
  6.6477449334631664E-02 a       767     0    31     1    17
 -1.1897057553541850E-01 a       768     0    31     1    18
 -1.9715339566041684E-02 a       769     0    31     1    19
 -2.2019302955862183E-01 a       770     0    31     1    20
 -4.8570924673378574E-01 a       771     0    31     1    21
 -3.8720399525665744E-01 a       772     0    31     1    22
 -2.5781161338702935E-01 a       773     0    31     1    23
 -9.4575790454934461E-01 a       774     0    31     1    24
  6.1969868940588613E-01 a       775     0    31     1    25
  3.3595738963168059E-01 a       776     0    32     1     1
  2.8544669291918696E-02 a       777     0    32     1     2
  8.6264933910526531E-02 a       778     0    32     1     3
  1.1188807410622353E-01 a       779     0    32     1     4
  6.9368492822379632E-03 a       780     0    32     1     5
  3.8088658805717829E-01 a       781     0    32     1     6
  2.3479601170703296E-01 a       782     0    32     1     7
 -1.7002772899383448E-01 a       783     0    32     1     8
 -2.9648303061274339E-01 a       784     0    32     1     9
 -6.3168496027430202E-02 a       785     0    32     1    10
  3.6151932143758572E-02 a       786     0    32     1    11
 -9.4244934373532161E-07 a       787     0    32     1    12
  1.3976706928473493E-02 a       788     0    32     1    13
 -6.7649187877158470E-02 a       789     0    32     1    14
  2.3998653569096062E-01 a       790     0    32     1    15
 -7.2637335629471528E-02 a       791     0    32     1    16
 -1.5320666304369485E-01 a       792     0    32     1    17
  1.0756773975552965E-01 a       793     0    32     1    18
  2.7800600231111642E-02 a       794     0    32     1    19
  2.0746764577655991E-01 a       795     0    32     1    20
  1.1263187551354231E-01 a       796     0    32     1    21
  4.0699273707946787E-01 a       797     0    32     1    22
 -1.6770539025423187E-01 a       798     0    32     1    23
 -2.3950757923113207E-02 a       799     0    32     1    24
 -1.2063237348357501E-01 a       800     0    32     1    25
 -1.3955905715856802E+00 b       801     1     1
 -1.1147735678576878E+00 b       802     1     2
 -4.1873350995220815E-01 b       803     1     3
  5.7676142898806204E-01 b       804     1     4
 -1.0697827784200210E-01 b       805     1     5
  1.5392112648574283E+00 b       806     1     6
  7.3180233199078737E-01 b       807     1     7
 -1.3966487273827286E+00 b       808     1     8
 -6.1604601682363058E-01 b       809     1     9
 -9.7660966389500470E-01 b       810     1    10
  1.0142325668349113E+00 b       811     1    11
  6.1014757567380791E-02 b       812     1    12
  1.5778731108714319E+00 b       813     1    13
  2.9931950747044228E-01 b       814     1    14
 -2.4021979862858980E-01 b       815     1    15
  7.4807426468968974E-01 b       816     1    16
 -1.2862470623730859E+00 b       817     1    17
 -4.5017587972364570E-01 b       818     1    18
 -1.0323555931972832E-01 b       819     1    19
  7.0371799043151972E-01 b       820     1    20
 -7.4344529435968443E-01 b       821     1    21
  1.5736910506084143E+00 b       822     1    22
 -1.2965891786846768E+00 b       823     1    23
  1.1716046397249447E+00 b       824     1    24
 -9.0481909174300368E-01 b       825     1    25
  1.0784682980227679E-01 a       826     1     1     2     1
  5.1906542373389974E-01 a       827     1     1     2     2
  3.7863035484022134E-01 a       828     1     1     2     3
 -4.2313940621961693E-01 a       829     1     1     2     4
  1.6991646247202777E-01 a       830     1     1     2     5
  2.0533161740115058E-01 a       831     1     1     2     6
  3.4460000879703290E-01 a       832     1     1     2     7
 -2.9719692461683567E-01 a       833     1     1     2     8
 -3.1255393513537350E-01 a       834     1     1     2     9
 -2.8130815618605354E-01 a       835     1     1     2    10
  2.4559038333317335E-01 a       836     1     1     2    11
  1.8838436228721034E-01 a       837     1     1     2    12
 -3.7882726531188410E-01 a       838     1     1     2    13
  1.6376298007966703E-01 a       839     1     1     2    14
  3.7608239005735888E-01 a       840     1     1     2    15
 -3.2566322864437153E-01 a       841     1     1     2    16
 -1.4008601725335706E-01 a       842     1     1     2    17
 -3.8736317446883155E-02 a       843     1     1     2    18
  1.3969771690980723E-02 a       844     1     1     2    19
  1.4721154446081988E-01 a       845     1     1     2    20
  3.6262162587504937E-01 a       846     1     1     2    21
 -4.5521941644620151E-01 a       847     1     1     2    22
 -3.1911865039685072E-01 a       848     1     1     2    23
  1.6849923902650796E-01 a       849     1     1     2    24
 -1.8026127757758742E-01 a       850     1     1     2    25
 -5.5803769356918463E-02 a       851     1     2     2     1
 -2.9610420670584214E-01 a       852     1     2     2     2
  1.1662416108467365E-01 a       853     1     2     2     3
 -8.3504351535823598E-02 a       854     1     2     2     4
  1.2753099517088518E-01 a       855     1     2     2     5
  4.5216946651645579E-02 a       856     1     2     2     6
  3.8497278188512690E-01 a       857     1     2     2     7
 -7.4460312715343024E-01 a       858     1     2     2     8
 -3.6916807486041192E-01 a       859     1     2     2     9
  1.7523198734239889E-01 a       860     1     2     2    10
 -6.2782362617894261E-01 a       861     1     2     2    11
 -5.8671179674674745E-01 a       862     1     2     2    12
 -7.0502767237695094E-02 a       863     1     2     2    13
  1.4633632406773103E-01 a       864     1     2     2    14
 -1.6192018201654734E-01 a       865     1     2     2    15
  7.9608840008477552E-02 a       866     1     2     2    16
  3.7894791949038537E-01 a       867     1     2     2    17
 -2.5874490482558471E-01 a       868     1     2     2    18
  2.9241137851067711E-01 a       869     1     2     2    19
 -2.7738276346520979E-01 a       870     1     2     2    20
  1.5768356643253826E-02 a       871     1     2     2    21
 -1.6523083370157657E-01 a       872     1     2     2    22
  2.4626880091000039E-01 a       873     1     2     2    23
  3.2937472240183385E-01 a       874     1     2     2    24
  7.8054744559616904E-02 a       875     1     2     2    25
  3.3009490757545046E-01 a       876     1     3     2     1
  1.8595177056590077E-02 a       877     1     3     2     2
 -1.4226078600862427E-01 a       878     1     3     2     3
  4.9403948356260434E-02 a       879     1     3     2     4
 -2.5236108329204804E-01 a       880     1     3     2     5
 -3.2480334563378938E-01 a       881     1     3     2     6
 -4.5391207276202472E-01 a       882     1     3     2     7
  6.0690523979052424E-01 a       883     1     3     2     8
  3.1462731634930297E-01 a       884     1     3     2     9
  2.1452982693126216E-01 a       885     1     3     2    10
  1.6185775388071200E-01 a       886     1     3     2    11
  1.5996466007173052E-01 a       887     1     3     2    12
  3.3634713210324874E-01 a       888     1     3     2    13
 -1.7838825409911049E-01 a       889     1     3     2    14
  3.0775012500026472E-01 a       890     1     3     2    15
 -3.0337374028254743E-01 a       891     1     3     2    16
 -1.6204888620273664E-01 a       892     1     3     2    17
 -3.1432189868965266E-01 a       893     1     3     2    18
 -1.8118571056361082E-01 a       894     1     3     2    19
  9.8891102201382211E-02 a       895     1     3     2    20
 -9.1838106308301706E-02 a       896     1     3     2    21
 -2.0958907201958751E-01 a       897     1     3     2    22
 -3.6484050286406999E-02 a       898     1     3     2    23
 -1.3336867039965628E-01 a       899     1     3     2    24
  4.3867111567943123E-02 a       900     1     3     2    25
 -5.2921765832984399E-03 a       901     1     4     2     1
  2.8331050100199695E-01 a       902     1     4     2     2
  1.9302411533789829E-01 a       903     1     4     2     3
  4.2110607094004415E-01 a       904     1     4     2     4
 -1.3204352815138967E-01 a       905     1     4     2     5
  1.7286312119494782E-01 a       906     1     4     2     6
  2.5866584131243120E-01 a       907     1     4     2     7
 -3.4165218821507876E-01 a       908     1     4     2     8
 -6.8129640826494739E-02 a       909     1     4     2     9
  3.1575564261496554E-02 a       910     1     4     2    10
  9.5382032175880968E-02 a       911     1     4     2    11
  6.2346813583113114E-01 a       912     1     4     2    12
  2.5444628597179164E-01 a       913     1     4     2    13
  1.1804056932908481E-01 a       914     1     4     2    14
  4.1729893242471439E-01 a       915     1     4     2    15
 -9.8737335095336928E-02 a       916     1     4     2    16
  1.0732428103462593E-01 a       917     1     4     2    17
 -3.5100296689058968E-01 a       918     1     4     2    18
  3.1636153356444841E-01 a       919     1     4     2    19
  4.2701683665951379E-01 a       920     1     4     2    20
  2.1345587232531202E-01 a       921     1     4     2    21
  5.3706772142276660E-01 a       922     1     4     2    22
 -3.3650819849279284E-01 a       923     1     4     2    23
  2.3959321143212003E-02 a       924     1     4     2    24
 -2.0748235494950074E-02 a       925     1     4     2    25
 -2.1262721957979971E-01 a       926     1     5     2     1
 -4.3163746829800209E-01 a       927     1     5     2     2
 -2.3564299840268721E-01 a       928     1     5     2     3
 -3.3392620904834874E-01 a       929     1     5     2     4
 -3.7211346168011855E-01 a       930     1     5     2     5
 -3.6590840311721373E-01 a       931     1     5     2     6
 -1.7371149448832421E-01 a       932     1     5     2     7
 -1.9167641986112002E-01 a       933     1     5     2     8
 -4.6531016521756369E-02 a       934     1     5     2     9
  4.2058864151626629E-01 a       935     1     5     2    10
 -6.1109568173229245E-01 a       936     1     5     2    11
 -2.9844884729007848E-01 a       937     1     5     2    12
  3.8595188617483001E-01 a       938     1     5     2    13
 -1.2716305746061352E-01 a       939     1     5     2    14
  4.1045455269347786E-01 a       940     1     5     2    15
  5.4380890990244797E-02 a       941     1     5     2    16
 -2.7784786754595447E-01 a       942     1     5     2    17
 -5.5986830600553913E-02 a       943     1     5     2    18
  6.8549189811907094E-02 a       944     1     5     2    19
 -2.4656224899672405E-01 a       945     1     5     2    20
 -4.4899084680732571E-01 a       946     1     5     2    21
 -2.8269689034646828E-01 a       947     1     5     2    22
  2.3161926094523111E-01 a       948     1     5     2    23
 -7.9874305433565651E-01 a       949     1     5     2    24
 -2.2325230288250844E-01 a       950     1     5     2    25
  3.6494159521519670E-01 a       951     1     6     2     1
  3.2073731380716408E-01 a       952     1     6     2     2
  8.7183860802121871E-02 a       953     1     6     2     3
 -3.1575327684184035E-01 a       954     1     6     2     4
 -2.7451139230804378E-01 a       955     1     6     2     5
 -1.3462796842680211E-01 a       956     1     6     2     6
  7.9931832824025506E-01 a       957     1     6     2     7
  4.6439218412928515E-02 a       958     1     6     2     8
 -4.8499099745450480E-01 a       959     1     6     2     9
  6.1244919168745615E-01 a       960     1     6     2    10
 -1.8979974546587647E-01 a       961     1     6     2    11
 -5.1604270392144136E-01 a       962     1     6     2    12
 -1.9196107887680253E-01 a       963     1     6     2    13
  5.2182998228325261E-01 a       964     1     6     2    14
  3.0136218665250608E-01 a       965     1     6     2    15
  3.9074622705580452E-02 a       966     1     6     2    16
 -3.5539143774788479E-01 a       967     1     6     2    17
 -2.3772168365881044E-01 a       968     1     6     2    18
 -2.2429611268770391E-01 a       969     1     6     2    19
 -2.7301906069062959E-01 a       970     1     6     2    20
  5.3185792477022009E-01 a       971     1     6     2    21
 -3.0679019047926737E-01 a       972     1     6     2    22
  1.4527993641050532E-01 a       973     1     6     2    23
  5.5944940301243573E-01 a       974     1     6     2    24
 -7.1449158392259116E-01 a       975     1     6     2    25
 -1.5982133922479347E-01 a       976     1     7     2     1
 -8.7213149647384094E-02 a       977     1     7     2     2
  4.2018566708029267E-02 a       978     1     7     2     3
 -6.7777410243422076E-01 a       979     1     7     2     4
 -2.2366701398778727E-01 a       980     1     7     2     5
 -3.5013093438925186E-01 a       981     1     7     2     6
 -5.6540188512773559E-01 a       982     1     7     2     7
  1.9747117463270664E-01 a       983     1     7     2     8
  3.9152376721128368E-01 a       984     1     7     2     9
 -2.5204944227858861E-01 a       985     1     7     2    10
  1.8730600091010027E-01 a       986     1     7     2    11
  2.6705626341423438E-01 a       987     1     7     2    12
  3.7450904790014949E-01 a       988     1     7     2    13
 -1.9054345501532524E-01 a       989     1     7     2    14
 -1.5669150381462686E-03 a       990     1     7     2    15
 -2.8909027227894157E-01 a       991     1     7     2    16
  4.4220953457990303E-01 a       992     1     7     2    17
 -6.2832024126908881E-01 a       993     1     7     2    18
  4.7691574157457794E-01 a       994     1     7     2    19
 -4.8684398011233032E-01 a       995     1     7     2    20
  2.9391247228445755E-01 a       996     1     7     2    21
 -1.1674666025324541E-01 a       997     1     7     2    22
 -2.7021899282465844E-01 a       998     1     7     2    23
 -7.1953213832124485E-01 a       999     1     7     2    24
  5.4836968432177036E-01 a      1000     1     7     2    25
 -3.7741721974789677E-01 a      1001     1     8     2     1
  2.4736350279241384E-01 a      1002     1     8     2     2
 -5.8176893630436467E-02 a      1003     1     8     2     3
 -3.0075388873232678E-01 a      1004     1     8     2     4
 -6.7997620571969830E-01 a      1005     1     8     2     5
  2.7120431796707412E-01 a      1006     1     8     2     6
  6.8225603363572335E-02 a      1007     1     8     2     7
  3.7316171037135581E-01 a      1008     1     8     2     8
  5.8414278686306254E-01 a      1009     1     8     2     9
  4.6804523392929298E-01 a      1010     1     8     2    10
 -2.8127409648785670E-02 a      1011     1     8     2    11
 -2.1235107622061124E-02 a      1012     1     8     2    12
 -1.7694484953951367E-01 a      1013     1     8     2    13
  1.0761049369990021E-01 a      1014     1     8     2    14
  2.6355529887423507E-01 a      1015     1     8     2    15
 -2.7601972881290004E-01 a      1016     1     8     2    16
 -1.3634301522905951E-01 a      1017     1     8     2    17
 -5.1110621233212661E-01 a      1018     1     8     2    18
 -1.8458989939840242E-01 a      1019     1     8     2    19
  2.3791175252878113E-01 a      1020     1     8     2    20
  5.7535889452636879E-01 a      1021     1     8     2    21
 -4.2067796473986635E-01 a      1022     1     8     2    22
  1.8951143257167694E-02 a      1023     1     8     2    23
  2.2733745327250018E-01 a      1024     1     8     2    24
 -1.1202258858848552E-01 a      1025     1     8     2    25
  3.3952808065307855E-01 a      1026     1     9     2     1
  2.9266806802464504E-02 a      1027     1     9     2     2
  6.0022207864965271E-01 a      1028     1     9     2     3
  2.9795786951984121E-01 a      1029     1     9     2     4
  2.5408461739375082E-01 a      1030     1     9     2     5
  1.1978348468648767E-01 a      1031     1     9     2     6
 -2.4219112048923003E-01 a      1032     1     9     2     7
 -2.0799470787587476E-01 a      1033     1     9     2     8
 -6.5951154630642295E-01 a      1034     1     9     2     9
 -3.3935954444439359E-01 a      1035     1     9     2    10
  3.7293921057229790E-01 a      1036     1     9     2    11
 -4.2833171785153096E-01 a      1037     1     9     2    12
  3.5726917299551665E-02 a      1038     1     9     2    13
 -4.2684532782540592E-02 a      1039     1     9     2    14
  3.7925404093941611E-01 a      1040     1     9     2    15
  3.6686071728079439E-01 a      1041     1     9     2    16
  1.9649707046858697E-01 a      1042     1     9     2    17
  7.1991584706431244E-01 a      1043     1     9     2    18
  6.0462255469484673E-02 a      1044     1     9     2    19
  7.5233907539877254E-01 a      1045     1     9     2    20
 -4.3120916775877599E-01 a      1046     1     9     2    21
 -4.8312334298479381E-01 a      1047     1     9     2    22
 -2.5786659308596310E-01 a      1048     1     9     2    23
 -2.0284438068209812E-01 a      1049     1     9     2    24
  2.7759240596436169E-01 a      1050     1     9     2    25
 -1.0124185413332301E-01 a      1051     1    10     2     1
  2.1760894242883513E-01 a      1052     1    10     2     2
  5.0086896776818723E-01 a      1053     1    10     2     3
 -1.5783623948117920E-01 a      1054     1    10     2     4
  1.9302425992652103E-01 a      1055     1    10     2     5
 -2.2001887523738808E-01 a      1056     1    10     2     6
  3.6549184158946729E-01 a      1057     1    10     2     7
  3.0863636105331906E-02 a      1058     1    10     2     8
  1.8397626199572004E-01 a      1059     1    10     2     9
 -1.2971804200808831E-01 a      1060     1    10     2    10
 -4.6006638482063739E-02 a      1061     1    10     2    11
 -3.4409980822679187E-01 a      1062     1    10     2    12
 -1.1223051387144767E-01 a      1063     1    10     2    13
 -7.2897249469643474E-02 a      1064     1    10     2    14
  6.6038651060661507E-02 a      1065     1    10     2    15
  1.7055562421060533E-01 a      1066     1    10     2    16
 -7.7779706496318352E-02 a      1067     1    10     2    17
  2.6500474934179169E-01 a      1068     1    10     2    18
  3.5550308199983283E-01 a      1069     1    10     2    19
 -3.6292970245433293E-01 a      1070     1    10     2    20
  5.2914237855456503E-01 a      1071     1    10     2    21
  2.2981616554839793E-01 a      1072     1    10     2    22
  3.0621604215688286E-01 a      1073     1    10     2    23
  3.5329132157240195E-01 a      1074     1    10     2    24
 -6.2358856345380687E-01 a      1075     1    10     2    25
 -9.1621075448546377E-02 a      1076     1    11     2     1
 -1.9705258198707787E-01 a      1077     1    11     2     2
 -3.2314517205310922E-01 a      1078     1    11     2     3
  3.2579561412281532E-01 a      1079     1    11     2     4
 -1.2358587397212492E-01 a      1080     1    11     2     5
 -2.4081322601629196E-01 a      1081     1    11     2     6
  2.5307933550589096E-01 a      1082     1    11     2     7
  2.0765498388192291E-01 a      1083     1    11     2     8
  3.5799415657540479E-01 a      1084     1    11     2     9
  9.6247164760004764E-02 a      1085     1    11     2    10
 -2.6763229242164260E-01 a      1086     1    11     2    11
 -5.9100979423666200E-01 a      1087     1    11     2    12
  3.2133403803515076E-01 a      1088     1    11     2    13
 -4.8241026720143881E-01 a      1089     1    11     2    14
  4.3230942146995917E-02 a      1090     1    11     2    15
  4.1962094871177419E-01 a      1091     1    11     2    16
  3.1191850317571401E-01 a      1092     1    11     2    17
  1.6510415490702514E-02 a      1093     1    11     2    18
 -2.3302601595058675E-01 a      1094     1    11     2    19
  7.1794732826602994E-02 a      1095     1    11     2    20
 -5.5995338132962091E-01 a      1096     1    11     2    21
  2.2563842740466114E-01 a      1097     1    11     2    22
  1.2774737011457675E-02 a      1098     1    11     2    23
  4.6108028705372028E-01 a      1099     1    11     2    24
  2.8695702029345249E-01 a      1100     1    11     2    25
 -1.0140574532468447E-01 a      1101     1    12     2     1
 -3.8416421085189514E-02 a      1102     1    12     2     2
 -3.7683624638656565E-01 a      1103     1    12     2     3
  1.4567702773555802E-01 a      1104     1    12     2     4
 -4.5075262467932871E-02 a      1105     1    12     2     5
 -2.4099894948812473E-02 a      1106     1    12     2     6
 -6.0436352076372053E-02 a      1107     1    12     2     7
 -3.1280368817048387E-01 a      1108     1    12     2     8
  9.5676790048328214E-02 a      1109     1    12     2     9
  7.3752978180328541E-02 a      1110     1    12     2    10
 -4.4850869602799964E-01 a      1111     1    12     2    11
 -5.7783057382485792E-01 a      1112     1    12     2    12
  1.1419485876293806E-01 a      1113     1    12     2    13
  1.5586645919346021E-01 a      1114     1    12     2    14
  9.4644819674391867E-02 a      1115     1    12     2    15
  2.0027251808142434E-02 a      1116     1    12     2    16
  1.6238046340529172E-01 a      1117     1    12     2    17
  2.3795206625311514E-02 a      1118     1    12     2    18
  2.3041159751547116E-01 a      1119     1    12     2    19
  1.3894575169069151E-01 a      1120     1    12     2    20
 -7.4650111232672206E-02 a      1121     1    12     2    21
  2.8027903313351116E-01 a      1122     1    12     2    22
  1.7651967122695258E-01 a      1123     1    12     2    23
  3.4782971859964967E-01 a      1124     1    12     2    24
 -2.6516048128895203E-01 a      1125     1    12     2    25
 -1.8455279182511769E-01 a      1126     1    13     2     1
 -2.9379037530600743E-01 a      1127     1    13     2     2
  3.4046170077894435E-02 a      1128     1    13     2     3
 -5.3439741550931197E-01 a      1129     1    13     2     4
 -1.2268147849429441E-01 a      1130     1    13     2     5
 -3.7513652289958005E-01 a      1131     1    13     2     6
 -6.3920223293190115E-01 a      1132     1    13     2     7
  6.2055205963366805E-02 a      1133     1    13     2     8
 -5.5178800258360905E-01 a      1134     1    13     2     9
  1.4685112409326770E-01 a      1135     1    13     2    10
  8.5913796146805471E-02 a      1136     1    13     2    11
  4.5140701594382887E-01 a      1137     1    13     2    12
  5.0162738839113430E-01 a      1138     1    13     2    13
  5.6365673017285922E-01 a      1139     1    13     2    14
  3.2365489850035171E-02 a      1140     1    13     2    15
 -5.3618449354675146E-01 a      1141     1    13     2    16
 -1.8912226112997252E-01 a      1142     1    13     2    17
 -1.7881452047518345E-03 a      1143     1    13     2    18
 -4.1928713943761448E-01 a      1144     1    13     2    19
 -1.6782023729133119E-01 a      1145     1    13     2    20
 -2.8266764947473833E-01 a      1146     1    13     2    21
  4.4658405081892322E-01 a      1147     1    13     2    22
  9.4468228840768109E-02 a      1148     1    13     2    23
  5.0445114917508682E-01 a      1149     1    13     2    24
 -1.7566502155381483E-01 a      1150     1    13     2    25
 -3.3483235367603181E-01 a      1151     1    14     2     1
  4.4876634053352260E-01 a      1152     1    14     2     2
  4.0847192878977029E-01 a      1153     1    14     2     3
  2.3861690895221149E-01 a      1154     1    14     2     4
 -4.6693643995551254E-01 a      1155     1    14     2     5
 -4.5961811537999020E-01 a      1156     1    14     2     6
  1.5563450813272262E-01 a      1157     1    14     2     7
 -5.6476943525290824E-01 a      1158     1    14     2     8
  2.5099603990655261E-01 a      1159     1    14     2     9
  5.1948949338909001E-01 a      1160     1    14     2    10
 -6.4243224837106805E-01 a      1161     1    14     2    11
  1.3270966109957769E-01 a      1162     1    14     2    12
 -5.6480881620565548E-01 a      1163     1    14     2    13
 -4.5601754469498673E-01 a      1164     1    14     2    14
 -3.2421485207092388E-01 a      1165     1    14     2    15
  1.7010100534110364E-01 a      1166     1    14     2    16
  2.3314502982686988E-01 a      1167     1    14     2    17
 -2.1642408719937792E-01 a      1168     1    14     2    18
 -1.3334504801975813E-01 a      1169     1    14     2    19
 -7.9289779327815579E-01 a      1170     1    14     2    20
  2.0926795570029477E-01 a      1171     1    14     2    21
  1.5450294605656087E-01 a      1172     1    14     2    22
 -1.6038151730645650E-01 a      1173     1    14     2    23
 -3.4407073982148284E-01 a      1174     1    14     2    24
 -2.7076901094204242E-01 a      1175     1    14     2    25
 -1.0433206442215824E-01 a      1176     1    15     2     1
  1.6209130957243958E-01 a      1177     1    15     2     2
 -3.2680528998542444E-02 a      1178     1    15     2     3
  7.5239641990021436E-02 a      1179     1    15     2     4
 -2.4019471355146041E-01 a      1180     1    15     2     5
  3.7330405441263720E-01 a      1181     1    15     2     6
  1.1321611640915361E-01 a      1182     1    15     2     7
  4.2098842920895824E-01 a      1183     1    15     2     8
 -2.1507255449010743E-01 a      1184     1    15     2     9
  2.0726039827177792E-01 a      1185     1    15     2    10
 -1.2099019249452762E-01 a      1186     1    15     2    11
  4.4860809319653250E-02 a      1187     1    15     2    12
 -3.5477031456470864E-01 a      1188     1    15     2    13
 -2.7168079802298117E-01 a      1189     1    15     2    14
 -3.8124398767049539E-02 a      1190     1    15     2    15
 -3.9542570691464267E-02 a      1191     1    15     2    16
 -4.0154813889937156E-02 a      1192     1    15     2    17
  1.9166941529662537E-01 a      1193     1    15     2    18
 -1.3015776322310202E-01 a      1194     1    15     2    19
  1.2901641260277927E-01 a      1195     1    15     2    20
 -4.0893823401283963E-01 a      1196     1    15     2    21
 -1.6144933254694385E-01 a      1197     1    15     2    22
 -7.4796749222346845E-02 a      1198     1    15     2    23
 -1.3492688810746025E-02 a      1199     1    15     2    24
  1.4543788284318640E-01 a      1200     1    15     2    25
  3.6925411044371505E-02 a      1201     1    16     2     1
 -3.0570887842330929E-01 a      1202     1    16     2     2
  2.9779058553915772E-01 a      1203     1    16     2     3
 -9.3453699671761412E-02 a      1204     1    16     2     4
  4.2065901000844724E-01 a      1205     1    16     2     5
  1.3322590349518765E-01 a      1206     1    16     2     6
  3.9352688048323349E-02 a      1207     1    16     2     7
  7.1500410342941267E-01 a      1208     1    16     2     8
  5.8182235516652125E-01 a      1209     1    16     2     9
 -2.9799761692475329E-01 a      1210     1    16     2    10
  4.8697604554511520E-01 a      1211     1    16     2    11
 -1.3008368376101731E-01 a      1212     1    16     2    12
 -6.0302214973557408E-02 a      1213     1    16     2    13
  5.7172925138226072E-01 a      1214     1    16     2    14
  1.5137053139559895E-01 a      1215     1    16     2    15
  1.7808928887701830E-01 a      1216     1    16     2    16
 -4.2987566862168020E-01 a      1217     1    16     2    17
  4.2794618193513340E-01 a      1218     1    16     2    18
 -1.3259992842549417E-01 a      1219     1    16     2    19
  3.1334357776255518E-02 a      1220     1    16     2    20
  3.3264860334871377E-01 a      1221     1    16     2    21
  5.8883035562627817E-01 a      1222     1    16     2    22
  3.2481655487448816E-02 a      1223     1    16     2    23
  6.2467756279421416E-02 a      1224     1    16     2    24
 -5.3882159832434898E-02 a      1225     1    16     2    25
  2.5963431358041605E-01 a      1226     1    17     2     1
 -3.3827909881794835E-02 a      1227     1    17     2     2
 -2.9204054731080192E-01 a      1228     1    17     2     3
 -1.9249026961283336E-01 a      1229     1    17     2     4
  4.2392301144961714E-01 a      1230     1    17     2     5
 -1.1318796183406081E-02 a      1231     1    17     2     6
 -3.5944901903862481E-01 a      1232     1    17     2     7
  3.9145557986737006E-01 a      1233     1    17     2     8
  1.0219086771491132E-01 a      1234     1    17     2     9
 -1.0101655842733871E-01 a      1235     1    17     2    10
 -7.3535527890542451E-01 a      1236     1    17     2    11
 -6.8383333303377227E-03 a      1237     1    17     2    12
  2.8019106572418945E-01 a      1238     1    17     2    13
  7.8370399184116546E-01 a      1239     1    17     2    14
 -4.6527031880019254E-01 a      1240     1    17     2    15
 -4.6459493503095750E-01 a      1241     1    17     2    16
  6.0651625814233112E-01 a      1242     1    17     2    17
 -3.4376068228077050E-01 a      1243     1    17     2    18
 -3.9923135301896173E-01 a      1244     1    17     2    19
  3.1897861184358403E-02 a      1245     1    17     2    20
 -2.6780172247353073E-01 a      1246     1    17     2    21
 -2.0939588356416888E-01 a      1247     1    17     2    22
 -2.6702515865652948E-03 a      1248     1    17     2    23
 -7.3977452694699436E-02 a      1249     1    17     2    24
 -1.5188189063085067E-01 a      1250     1    17     2    25
  6.6998630503763512E-01 a      1251     1    18     2     1
 -6.6619058537068718E-02 a      1252     1    18     2     2
  1.6547194833647066E-01 a      1253     1    18     2     3
 -1.7270596098231719E-01 a      1254     1    18     2     4
  3.2314737196583071E-01 a      1255     1    18     2     5
 -4.4073079678281885E-01 a      1256     1    18     2     6
 -1.9505534101066055E-01 a      1257     1    18     2     7
 -3.0615869938263618E-01 a      1258     1    18     2     8
  7.0641288691031451E-02 a      1259     1    18     2     9
  3.0770865703520323E-01 a      1260     1    18     2    10
 -1.4826351232877144E-01 a      1261     1    18     2    11
 -3.1166600287294943E-01 a      1262     1    18     2    12
  1.7098864600837851E-01 a      1263     1    18     2    13
  6.8887519477988479E-01 a      1264     1    18     2    14
  1.2134170249100627E-02 a      1265     1    18     2    15
 -2.3642175981149888E-01 a      1266     1    18     2    16
  2.7525676677176997E-02 a      1267     1    18     2    17
 -8.7800947867047077E-02 a      1268     1    18     2    18
 -4.7997656561419100E-01 a      1269     1    18     2    19
 -1.2602702511551056E-01 a      1270     1    18     2    20
  3.4719123354075382E-01 a      1271     1    18     2    21
 -3.4926570848532085E-01 a      1272     1    18     2    22
  3.2111717754835328E-01 a      1273     1    18     2    23
  2.4310250252937904E-01 a      1274     1    18     2    24
 -4.6231995495665601E-01 a      1275     1    18     2    25
  1.8498742777700694E-01 a      1276     1    19     2     1
 -3.9920567004125695E-01 a      1277     1    19     2     2
 -4.6457457276711284E-01 a      1278     1    19     2     3
 -5.8606139013690946E-02 a      1279     1    19     2     4
  1.3597715074405875E-01 a      1280     1    19     2     5
 -6.7438663893753026E-02 a      1281     1    19     2     6
  1.7988131991183073E-01 a      1282     1    19     2     7
  3.2308324952037870E-01 a      1283     1    19     2     8
 -9.3919599610200369E-02 a      1284     1    19     2     9
 -2.7239777881057964E-01 a      1285     1    19     2    10
 -6.9154963290545407E-02 a      1286     1    19     2    11
  9.1116896564877883E-02 a      1287     1    19     2    12
  4.6344364155037010E-01 a      1288     1    19     2    13
  4.0937346258779744E-01 a      1289     1    19     2    14
 -1.7077243216956184E-01 a      1290     1    19     2    15
  7.5277387123576678E-02 a      1291     1    19     2    16
 -3.0897876087077464E-01 a      1292     1    19     2    17
  1.3788311104921563E-03 a      1293     1    19     2    18
  3.6587357068529841E-01 a      1294     1    19     2    19
 -3.5709702492524409E-01 a      1295     1    19     2    20
  5.0969992631568672E-01 a      1296     1    19     2    21
 -2.7236830168756698E-01 a      1297     1    19     2    22
  4.7099705267745201E-01 a      1298     1    19     2    23
 -5.7563495906678874E-01 a      1299     1    19     2    24
  2.6695338599994383E-02 a      1300     1    19     2    25
  1.3532734831589224E-01 a      1301     1    20     2     1
 -5.1519735172293957E-01 a      1302     1    20     2     2
  3.1940257974861958E-01 a      1303     1    20     2     3
 -3.5055303369824549E-02 a      1304     1    20     2     4
  2.6566151510489966E-01 a      1305     1    20     2     5
 -1.4530099247908362E-01 a      1306     1    20     2     6
 -4.3240214548937184E-01 a      1307     1    20     2     7
  5.2521371857017329E-01 a      1308     1    20     2     8
  5.3607720577840001E-01 a      1309     1    20     2     9
  4.3696162041712394E-02 a      1310     1    20     2    10
 -1.1422475100809816E-01 a      1311     1    20     2    11
 -3.3717474633934308E-01 a      1312     1    20     2    12
  2.3596360002194336E-01 a      1313     1    20     2    13
  1.9175634159900930E-02 a      1314     1    20     2    14
  6.2130290076704342E-01 a      1315     1    20     2    15
  2.4207856416434964E-01 a      1316     1    20     2    16
 -3.0322233660656328E-01 a      1317     1    20     2    17
 -2.5314753210831398E-01 a      1318     1    20     2    18
  5.4083057762771658E-01 a      1319     1    20     2    19
 -1.6410433574999936E-01 a      1320     1    20     2    20
 -9.7824870784178952E-02 a      1321     1    20     2    21
 -1.8562385183421748E-01 a      1322     1    20     2    22
 -1.2216898581146847E-01 a      1323     1    20     2    23
  1.7985768437321123E-01 a      1324     1    20     2    24
  1.9681781428369383E-01 a      1325     1    20     2    25
  2.9797775164662460E-01 a      1326     1    21     2     1
  2.3675396576673358E-01 a      1327     1    21     2     2
  3.6885577304868583E-01 a      1328     1    21     2     3
 -6.5072060399897855E-03 a      1329     1    21     2     4
  2.1828994850003633E-01 a      1330     1    21     2     5
 -1.6476594019537241E-01 a      1331     1    21     2     6
 -1.7197509925871537E-01 a      1332     1    21     2     7
 -4.3479417143309124E-01 a      1333     1    21     2     8
  2.8854262119755469E-01 a      1334     1    21     2     9
  3.3475068102724598E-01 a      1335     1    21     2    10
  1.2244142820676772E-01 a      1336     1    21     2    11
  4.9310376831293379E-01 a      1337     1    21     2    12
 -1.0332016986658496E-01 a      1338     1    21     2    13
  4.2536436145280376E-01 a      1339     1    21     2    14
 -1.6620198757424046E-01 a      1340     1    21     2    15
 -1.6316796114834796E-02 a      1341     1    21     2    16
 -2.0347528187329994E-01 a      1342     1    21     2    17
 -8.4282123415387072E-02 a      1343     1    21     2    18
 -1.7258838104971072E-02 a      1344     1    21     2    19
 -4.1955016985519022E-01 a      1345     1    21     2    20
  4.0939973215449305E-01 a      1346     1    21     2    21
  2.4890433963257566E-01 a      1347     1    21     2    22
 -3.2963510988941305E-02 a      1348     1    21     2    23
 -1.4511067248539072E-01 a      1349     1    21     2    24
 -1.9947668021659604E-01 a      1350     1    21     2    25
 -5.5310327796681713E-01 a      1351     1    22     2     1
 -4.4286391800857006E-01 a      1352     1    22     2     2
 -2.8033244653475058E-02 a      1353     1    22     2     3
 -3.2286426425182529E-01 a      1354     1    22     2     4
 -3.0605015680071168E-01 a      1355     1    22     2     5
 -8.9471043203902229E-02 a      1356     1    22     2     6
 -5.7172447383818481E-01 a      1357     1    22     2     7
 -6.3532430457884115E-01 a      1358     1    22     2     8
  3.8542239807565171E-01 a      1359     1    22     2     9
 -2.8659476191670097E-01 a      1360     1    22     2    10
  4.8758294446721563E-02 a      1361     1    22     2    11
 -4.0114993125483128E-01 a      1362     1    22     2    12
  3.8346022420115078E-01 a      1363     1    22     2    13
  5.7969295934297616E-01 a      1364     1    22     2    14
 -1.2978558122085024E-01 a      1365     1    22     2    15
  1.9418184108076514E-01 a      1366     1    22     2    16
  4.1881975841968111E-01 a      1367     1    22     2    17
 -4.6189562608519874E-01 a      1368     1    22     2    18
  9.2664693615161930E-01 a      1369     1    22     2    19
 -4.0790008926973942E-01 a      1370     1    22     2    20
  7.8123853697138673E-02 a      1371     1    22     2    21
  1.6154784416897192E-01 a      1372     1    22     2    22
  2.5604163461664520E-01 a      1373     1    22     2    23
 -5.1141686584614454E-01 a      1374     1    22     2    24
 -2.6398684129238742E-01 a      1375     1    22     2    25
  2.8774949065564781E-01 a      1376     1    23     2     1
 -4.8786505977369338E-01 a      1377     1    23     2     2
  1.7930051471109865E-01 a      1378     1    23     2     3
 -4.9462787792946439E-01 a      1379     1    23     2     4
 -2.4071783285644072E-01 a      1380     1    23     2     5
  5.1984922309268988E-01 a      1381     1    23     2     6
  3.8314204127351409E-01 a      1382     1    23     2     7
 -4.1662791647114072E-01 a      1383     1    23     2     8
 -3.2490868892098712E-01 a      1384     1    23     2     9
  2.0454258911558981E-01 a      1385     1    23     2    10
 -1.6762541505753195E-01 a      1386     1    23     2    11
 -9.2812376866613658E-02 a      1387     1    23     2    12
  6.2886105269174497E-01 a      1388     1    23     2    13
 -1.3652277930340809E-01 a      1389     1    23     2    14
 -4.2056055835133388E-01 a      1390     1    23     2    15
  5.2416567650703150E-01 a      1391     1    23     2    16
  1.1740474667096390E-01 a      1392     1    23     2    17
  4.1033374245295606E-01 a      1393     1    23     2    18
  1.2095687512616569E-01 a      1394     1    23     2    19
  1.5065610672027036E-01 a      1395     1    23     2    20
 -2.7353404865501518E-01 a      1396     1    23     2    21
 -1.3958558135139532E-01 a      1397     1    23     2    22
  3.3902649879208746E-01 a      1398     1    23     2    23
  2.6433363487140515E-01 a      1399     1    23     2    24
  7.6711527760269363E-02 a      1400     1    23     2    25
 -2.0978892992368145E-01 a      1401     1    24     2     1
 -4.8835691996250014E-01 a      1402     1    24     2     2
  2.1323344433716890E-01 a      1403     1    24     2     3
 -2.1550633390413770E-01 a      1404     1    24     2     4
 -9.4859428949903818E-02 a      1405     1    24     2     5
 -6.7623342662488972E-01 a      1406     1    24     2     6
 -7.9783609828175853E-02 a      1407     1    24     2     7
  8.2259127328856563E-01 a      1408     1    24     2     8
  4.5623731670658411E-02 a      1409     1    24     2     9
  8.3657892017150362E-02 a      1410     1    24     2    10
 -5.9655983483977237E-01 a      1411     1    24     2    11
 -4.4622449216836974E-01 a      1412     1    24     2    12
 -9.7991180409618600E-02 a      1413     1    24     2    13
 -4.9716161504484664E-02 a      1414     1    24     2    14
  4.4421308302548068E-01 a      1415     1    24     2    15
 -1.4825732161503311E-01 a      1416     1    24     2    16
  1.3577304989529240E-01 a      1417     1    24     2    17
 -1.5398448327216821E-01 a      1418     1    24     2    18
  4.7650165689495344E-02 a      1419     1    24     2    19
  4.5685444451427644E-02 a      1420     1    24     2    20
 -7.8367762665435090E-02 a      1421     1    24     2    21
 -3.5998682534566867E-01 a      1422     1    24     2    22
  5.8751799277169847E-01 a      1423     1    24     2    23
 -4.6658422882822161E-02 a      1424     1    24     2    24
 -6.3156321592609732E-01 a      1425     1    24     2    25
  2.4323431871612305E-01 a      1426     1    25     2     1
 -1.2917335306731925E-01 a      1427     1    25     2     2
 -3.5425504298090459E-02 a      1428     1    25     2     3
 -6.1364182089755659E-01 a      1429     1    25     2     4
  2.0176555120868103E-01 a      1430     1    25     2     5
  2.9430438280966520E-01 a      1431     1    25     2     6
 -8.4552468680224785E-02 a      1432     1    25     2     7
 -1.7427623391260016E-01 a      1433     1    25     2     8
 -5.4238700014486219E-02 a      1434     1    25     2     9
  1.0982433896436296E-02 a      1435     1    25     2    10
 -5.2463655414780729E-02 a      1436     1    25     2    11
  1.6650388591948828E-01 a      1437     1    25     2    12
 -1.0753131474266620E-01 a      1438     1    25     2    13
 -1.8473336312122818E-01 a      1439     1    25     2    14
 -4.4958780995221798E-01 a      1440     1    25     2    15
  2.8167901873386458E-01 a      1441     1    25     2    16
 -8.3638252121983198E-02 a      1442     1    25     2    17
 -4.0131570368780067E-02 a      1443     1    25     2    18
 -2.3163049984264703E-01 a      1444     1    25     2    19
 -1.0772396557187947E-01 a      1445     1    25     2    20
  3.1232730329315450E-02 a      1446     1    25     2    21
 -4.6651911193427936E-01 a      1447     1    25     2    22
  3.0999155406406648E-01 a      1448     1    25     2    23
 -1.7045204944869527E-01 a      1449     1    25     2    24
  1.3909121080436768E-01 a      1450     1    25     2    25
  1.2275369195820429E+00 b      1451     2     1
  4.6351103586790759E-01 b      1452     2     2
  7.8100716177274054E-01 b      1453     2     3
 -1.1938072223188732E-01 b      1454     2     4
  8.2640227032965297E-01 b      1455     2     5
  1.8855497178598743E-01 b      1456     2     6
 -1.0146542207288685E+00 b      1457     2     7
  7.2656584637574340E-01 b      1458     2     8
 -1.4946703772553664E+00 b      1459     2     9
 -6.1867248292214905E-01 b      1460     2    10
 -3.9938512057523995E-01 b      1461     2    11
 -1.4513971170851345E+00 b      1462     2    12
  5.1353389126770865E-01 b      1463     2    13
 -3.6826561360947550E-02 b      1464     2    14
 -9.4350063253891125E-01 b      1465     2    15
  1.2514537783868871E+00 b      1466     2    16
 -3.5357833547316177E-02 b      1467     2    17
  3.7219167693234262E-01 b      1468     2    18
  8.8442145666814076E-01 b      1469     2    19
 -8.6579540875879568E-01 b      1470     2    20
 -8.0200050929610089E-01 b      1471     2    21
  2.3754314988430369E-01 b      1472     2    22
  1.2864978902270676E+00 b      1473     2    23
 -3.7889516851937616E-01 b      1474     2    24
  5.2349544458319375E-01 b      1475     2    25
  4.6405755832052303E-01 a      1476     2     1     3     1
  1.0779116540972249E+00 a      1477     2     2     3     1
  3.2110890512260198E-01 a      1478     2     3     3     1
  1.0658141672380474E-01 a      1479     2     4     3     1
 -8.8957448548534446E-01 a      1480     2     5     3     1
 -7.9738797608969780E-01 a      1481     2     6     3     1
 -8.4627409855326963E-01 a      1482     2     7     3     1
 -7.9174681252508750E-01 a      1483     2     8     3     1
 -2.5124272691580156E-03 a      1484     2     9     3     1
 -1.0201658532387685E+00 a      1485     2    10     3     1
 -6.3028173993271586E-01 a      1486     2    11     3     1
  7.1970060795217394E-01 a      1487     2    12     3     1
  8.3562160229969507E-01 a      1488     2    13     3     1
  4.9264957577134977E-01 a      1489     2    14     3     1
 -2.9793581802963248E-01 a      1490     2    15     3     1
  5.1233857083903978E-01 a      1491     2    16     3     1
 -6.1011537433483498E-01 a      1492     2    17     3     1
  4.5902047363364396E-01 a      1493     2    18     3     1
  8.0633641796757660E-01 a      1494     2    19     3     1
 -1.0535978208763561E+00 a      1495     2    20     3     1
 -4.4457161271918288E-01 a      1496     2    21     3     1
  6.7624841917066789E-02 a      1497     2    22     3     1
  1.1527154282220968E+00 a      1498     2    23     3     1
  7.1665961025703148E-02 a      1499     2    24     3     1
  8.6090856410593763E-01 a      1500     2    25     3     1
  5.2282243614693324E-01 b      1501     3     1
