################################################################################
# Neural network connection values (weights and biases).
################################################################################
# Col  Name       Description
################################################################################
# 1    connection Neural network connection value.
# 2    t          Connection type (a = weight, b = bias).
# 3    index      Index enumerating weights.
# 4    l_s        Starting point layer (end point layer for biases).
# 5    n_s        Starting point neuron in starting layer (end point neuron for biases).
# 6    l_e        End point layer.
# 7    n_e        End point neuron in end layer.
################################################################################
#                      1 2         3     4     5     6     7
#             connection t     index   l_s   n_s   l_e   n_e
############################################################
 -5.4870135424893947E-02 a         1     0     1     1     1
  8.4246088253235452E-01 a         2     0     1     1     2
  6.6300365887522517E-01 a         3     0     1     1     3
 -5.4841231808341204E-02 a         4     0     1     1     4
 -6.3122721938454907E-03 a         5     0     1     1     5
 -7.7794805086363628E-01 a         6     0     1     1     6
  2.9278071460823940E-01 a         7     0     1     1     7
 -3.2996350256523310E-02 a         8     0     1     1     8
 -6.5951120280940378E-01 a         9     0     1     1     9
  3.3018016725832072E-01 a        10     0     1     1    10
  6.2799547348544904E-01 a        11     0     1     1    11
 -8.1637186405129902E-01 a        12     0     1     1    12
 -1.2289037971538332E+00 a        13     0     1     1    13
 -4.4437522242707522E-01 a        14     0     1     1    14
  5.1684388756141997E-01 a        15     0     1     1    15
  4.7254645478986146E-01 a        16     0     1     1    16
  1.8538529798736730E-01 a        17     0     1     1    17
 -4.4960406144538240E-01 a        18     0     1     1    18
 -2.3155322394180261E-01 a        19     0     1     1    19
 -7.1315125678612812E-02 a        20     0     1     1    20
  3.0185656938765723E-02 a        21     0     1     1    21
 -4.8481123473623511E-01 a        22     0     1     1    22
  2.7824773133773273E-01 a        23     0     1     1    23
 -9.1167423717630980E-02 a        24     0     1     1    24
  4.8379448907254576E-02 a        25     0     1     1    25
  3.7049692531745265E-01 a        26     0     2     1     1
  2.7967392119848211E-01 a        27     0     2     1     2
  4.0270334751828896E-02 a        28     0     2     1     3
 -4.7350332531837691E-01 a        29     0     2     1     4
  2.8255106559255877E-01 a        30     0     2     1     5
  6.6788525548839139E-01 a        31     0     2     1     6
 -3.7454100555638015E-01 a        32     0     2     1     7
 -1.0239222920698536E-01 a        33     0     2     1     8
 -7.0238965132983400E-01 a        34     0     2     1     9
  3.7012634829243723E-01 a        35     0     2     1    10
 -2.0455164231429934E-01 a        36     0     2     1    11
 -3.4365703132694986E-01 a        37     0     2     1    12
  2.2320866740226497E-01 a        38     0     2     1    13
 -5.1989428401829696E-01 a        39     0     2     1    14
 -1.9905053595039132E-01 a        40     0     2     1    15
 -6.2441220655659835E-01 a        41     0     2     1    16
  4.1681167157022268E-02 a        42     0     2     1    17
  5.8182445356564638E-01 a        43     0     2     1    18
 -3.8302133149579093E-01 a        44     0     2     1    19
 -2.7883186044720287E-01 a        45     0     2     1    20
  3.7033106993670926E-02 a        46     0     2     1    21
 -6.8595053031928421E-01 a        47     0     2     1    22
 -2.6233719111772780E-01 a        48     0     2     1    23
  1.8985558271449179E-01 a        49     0     2     1    24
  5.0074330487797442E-02 a        50     0     2     1    25
  7.0343458439627415E-01 a        51     0     3     1     1
 -1.0175069772350216E+00 a        52     0     3     1     2
  4.5088117646463854E-01 a        53     0     3     1     3
 -1.8686911392707320E-01 a        54     0     3     1     4
 -3.2602441563423311E-02 a        55     0     3     1     5
  4.9719508143231200E-01 a        56     0     3     1     6
  6.1425438933227072E-01 a        57     0     3     1     7
 -2.0711447349566378E-01 a        58     0     3     1     8
 -5.0730813896067717E-01 a        59     0     3     1     9
 -2.5828063239243582E-01 a        60     0     3     1    10
  1.4980305527444922E-02 a        61     0     3     1    11
 -6.8461431859389230E-03 a        62     0     3     1    12
  2.5420485297187556E-01 a        63     0     3     1    13
  9.5279549413382891E-01 a        64     0     3     1    14
 -1.5888371837419452E-02 a        65     0     3     1    15
 -2.7048004019179567E-01 a        66     0     3     1    16
  2.6268156539053122E-01 a        67     0     3     1    17
  2.0298594124524924E-01 a        68     0     3     1    18
  4.2550434141665111E-01 a        69     0     3     1    19
 -2.3580171931102420E-01 a        70     0     3     1    20
  8.9448491174140721E-02 a        71     0     3     1    21
  4.3554923313839755E-01 a        72     0     3     1    22
 -7.7066409910459946E-02 a        73     0     3     1    23
  1.1488121549951624E-01 a        74     0     3     1    24
 -1.3498902806817242E-01 a        75     0     3     1    25
 -5.7492927211937717E-01 a        76     0     4     1     1
 -2.3059076303364168E-01 a        77     0     4     1     2
 -3.6038942362352816E-01 a        78     0     4     1     3
  1.8879297955184324E-01 a        79     0     4     1     4
  4.8479959105987036E-01 a        80     0     4     1     5
  2.0083678532548893E-01 a        81     0     4     1     6
  8.0894925259185457E-01 a        82     0     4     1     7
 -1.5929558292715484E-01 a        83     0     4     1     8
  8.3391731512750433E-01 a        84     0     4     1     9
 -3.3087466512214941E-01 a        85     0     4     1    10
  3.6821209192549309E-01 a        86     0     4     1    11
 -1.1447396133197556E-01 a        87     0     4     1    12
 -4.4502678222623882E-01 a        88     0     4     1    13
  4.9757558995067236E-01 a        89     0     4     1    14
 -1.5697940164276772E-01 a        90     0     4     1    15
  5.4436901361767764E-01 a        91     0     4     1    16
  5.6146042518846706E-01 a        92     0     4     1    17
 -1.4321159676892405E+00 a        93     0     4     1    18
  3.0288120176438182E-01 a        94     0     4     1    19
  1.5901727749089323E-01 a        95     0     4     1    20
 -7.8344489331692446E-01 a        96     0     4     1    21
 -3.0473403525058079E-03 a        97     0     4     1    22
  3.8287221824777340E-01 a        98     0     4     1    23
  9.9694218040927074E-01 a        99     0     4     1    24
 -4.4892322327843688E-02 a       100     0     4     1    25
 -1.2163427372479130E-01 a       101     0     5     1     1
  4.1627733749656748E-01 a       102     0     5     1     2
 -1.1655710977234341E+00 a       103     0     5     1     3
  2.9328102070667988E-01 a       104     0     5     1     4
 -3.5464962997046956E-01 a       105     0     5     1     5
 -4.2067172503516936E-01 a       106     0     5     1     6
 -1.3705025524353306E-01 a       107     0     5     1     7
  1.8900487153278728E-01 a       108     0     5     1     8
  3.7710536954091312E-01 a       109     0     5     1     9
  6.4939609853074343E-02 a       110     0     5     1    10
 -5.2442116917909620E-01 a       111     0     5     1    11
  2.2507710163061562E-01 a       112     0     5     1    12
  5.8695481521786830E-01 a       113     0     5     1    13
 -1.5328754600909938E-01 a       114     0     5     1    14
 -1.2451033614608419E-01 a       115     0     5     1    15
  6.8007217536479897E-02 a       116     0     5     1    16
 -5.9808315074587792E-01 a       117     0     5     1    17
  6.9183800005577711E-01 a       118     0     5     1    18
 -1.5162014558465181E-01 a       119     0     5     1    19
  6.6440599111849283E-02 a       120     0     5     1    20
 -2.4862082116819312E-01 a       121     0     5     1    21
 -2.8967232227244594E-01 a       122     0     5     1    22
  2.5170053398076836E-01 a       123     0     5     1    23
 -5.0955110581491059E-01 a       124     0     5     1    24
  3.0335432422792241E-01 a       125     0     5     1    25
  4.6745777191156862E-01 a       126     0     6     1     1
 -5.6494481403516358E-02 a       127     0     6     1     2
  1.9623241224887594E-01 a       128     0     6     1     3
 -4.5354729297458166E-02 a       129     0     6     1     4
  4.2560967248064369E-01 a       130     0     6     1     5
  2.6295595827864223E-02 a       131     0     6     1     6
 -2.9564168511240868E-01 a       132     0     6     1     7
  2.7250243507317801E-01 a       133     0     6     1     8
 -4.1342172628765983E-01 a       134     0     6     1     9
  4.4304370686249248E-02 a       135     0     6     1    10
 -4.8682705068161491E-01 a       136     0     6     1    11
 -1.4644615684210374E-01 a       137     0     6     1    12
 -1.8048642295732126E-02 a       138     0     6     1    13
 -5.2479531847171101E-01 a       139     0     6     1    14
 -3.4163824052244585E-01 a       140     0     6     1    15
  1.3888045846803140E-01 a       141     0     6     1    16
 -4.4030324668388812E-03 a       142     0     6     1    17
  5.3969678517266029E-01 a       143     0     6     1    18
 -3.7559750668600217E-01 a       144     0     6     1    19
  8.3140493577773464E-02 a       145     0     6     1    20
 -2.1616270157772552E-01 a       146     0     6     1    21
  2.3553005459141255E-02 a       147     0     6     1    22
 -4.1879098561262701E-01 a       148     0     6     1    23
  4.7475013847847597E-01 a       149     0     6     1    24
  4.0811780780150964E-01 a       150     0     6     1    25
  2.5015892318624916E-01 a       151     0     7     1     1
 -5.6275014465784190E-01 a       152     0     7     1     2
  4.9243051007415389E-01 a       153     0     7     1     3
 -1.8906700469593193E-01 a       154     0     7     1     4
  1.5613899718948610E-01 a       155     0     7     1     5
 -1.9054242850013403E-01 a       156     0     7     1     6
 -1.5984240485249010E-01 a       157     0     7     1     7
  2.2850901206269192E-01 a       158     0     7     1     8
 -1.0619999567828456E-01 a       159     0     7     1     9
  2.8253465631653379E-01 a       160     0     7     1    10
  4.7842272477793091E-01 a       161     0     7     1    11
 -5.6870539996742431E-01 a       162     0     7     1    12
 -6.5664929217200940E-01 a       163     0     7     1    13
 -3.2044462030715581E-01 a       164     0     7     1    14
  3.5521887272231401E-01 a       165     0     7     1    15
 -5.6580191622697373E-01 a       166     0     7     1    16
  3.1753492498557484E-01 a       167     0     7     1    17
 -9.8869409926661017E-02 a       168     0     7     1    18
 -2.3558652295980148E-01 a       169     0     7     1    19
 -1.0162645516771658E-01 a       170     0     7     1    20
 -1.8637460005784920E-01 a       171     0     7     1    21
 -1.2134685486106364E-02 a       172     0     7     1    22
  3.9358783877928644E-01 a       173     0     7     1    23
 -4.2026362018226696E-02 a       174     0     7     1    24
 -2.3688464634742940E-01 a       175     0     7     1    25
 -3.7103823397508806E-01 a       176     0     8     1     1
 -3.7635025566398034E-01 a       177     0     8     1     2
 -1.0247983160615143E-01 a       178     0     8     1     3
  2.9639724638246306E-01 a       179     0     8     1     4
 -1.6844919411146617E-01 a       180     0     8     1     5
  3.2288886696350655E-01 a       181     0     8     1     6
 -2.1649585938303020E-01 a       182     0     8     1     7
 -2.2736681339918732E-01 a       183     0     8     1     8
 -1.3479567913212390E-01 a       184     0     8     1     9
  1.2759791594307024E-01 a       185     0     8     1    10
 -1.0410039963602642E-02 a       186     0     8     1    11
  1.1866167484688163E-01 a       187     0     8     1    12
 -9.5072462553490250E-02 a       188     0     8     1    13
  4.1168735811776691E-01 a       189     0     8     1    14
 -4.0766979316426377E-01 a       190     0     8     1    15
  2.7640384871970552E-01 a       191     0     8     1    16
  3.2039171951532658E-01 a       192     0     8     1    17
 -7.7240407842193415E-01 a       193     0     8     1    18
  4.6394613904522142E-01 a       194     0     8     1    19
 -1.1761321299487103E-01 a       195     0     8     1    20
  3.5759550905022575E-01 a       196     0     8     1    21
  4.4075218440188635E-01 a       197     0     8     1    22
 -1.9550620679321096E-01 a       198     0     8     1    23
 -2.1091233832706925E-02 a       199     0     8     1    24
 -1.2343000006101075E-01 a       200     0     8     1    25
  4.6419001968756773E-01 a       201     0     9     1     1
 -1.0849109260456098E-01 a       202     0     9     1     2
 -1.1011915854518446E-01 a       203     0     9     1     3
  4.1540612329641034E-02 a       204     0     9     1     4
 -2.2251149085759955E-01 a       205     0     9     1     5
 -2.7388897045531968E-01 a       206     0     9     1     6
  8.1339238210378240E-01 a       207     0     9     1     7
 -8.8028494445124658E-02 a       208     0     9     1     8
 -2.9320821695321503E-01 a       209     0     9     1     9
 -2.3911610591060872E-01 a       210     0     9     1    10
 -7.9629630224162681E-02 a       211     0     9     1    11
  2.7684402997753141E-02 a       212     0     9     1    12
  1.6854702875424796E-01 a       213     0     9     1    13
  1.7743839110417137E-01 a       214     0     9     1    14
 -2.2545327985672603E-04 a       215     0     9     1    15
  1.5044355504954118E-01 a       216     0     9     1    16
 -1.2643322982568447E-01 a       217     0     9     1    17
  4.4759968091251051E-01 a       218     0     9     1    18
  6.7192027624477443E-02 a       219     0     9     1    19
  2.4594414003602927E-01 a       220     0     9     1    20
  6.1360355147529994E-02 a       221     0     9     1    21
 -8.4005093222900618E-02 a       222     0     9     1    22
  3.4232618468520770E-01 a       223     0     9     1    23
  3.0025678935000740E-02 a       224     0     9     1    24
 -1.4854601043386476E-01 a       225     0     9     1    25
  8.3521686567200618E-02 a       226     0    10     1     1
  5.3058982121881586E-02 a       227     0    10     1     2
  1.0418777965658889E-01 a       228     0    10     1     3
  1.2090530397493809E-01 a       229     0    10     1     4
  4.5214117259871450E-01 a       230     0    10     1     5
 -1.5242449744706057E-02 a       231     0    10     1     6
 -5.0625554555240515E-01 a       232     0    10     1     7
  1.1119215658007662E-02 a       233     0    10     1     8
 -9.4070553525572656E-02 a       234     0    10     1     9
  9.1498782127852098E-03 a       235     0    10     1    10
 -9.5677984291918289E-02 a       236     0    10     1    11
  6.7737799224737438E-02 a       237     0    10     1    12
 -1.4191002430267372E-01 a       238     0    10     1    13
 -2.9818817496750438E-01 a       239     0    10     1    14
  2.5650655574200393E-02 a       240     0    10     1    15
  3.0687093186659463E-03 a       241     0    10     1    16
  3.0965950895405281E-01 a       242     0    10     1    17
 -1.8776257274713888E-02 a       243     0    10     1    18
 -3.1756647315194744E-02 a       244     0    10     1    19
 -4.1595860364231109E-02 a       245     0    10     1    20
 -1.9139560886401605E-01 a       246     0    10     1    21
 -2.5501058884763772E-01 a       247     0    10     1    22
  1.7512700567678249E-01 a       248     0    10     1    23
  3.8991322177276400E-01 a       249     0    10     1    24
  1.8094917772133751E-01 a       250     0    10     1    25
 -2.5178784973457036E-01 a       251     0    11     1     1
 -1.1135515309640963E-01 a       252     0    11     1     2
  4.2249801158868311E-02 a       253     0    11     1     3
  1.4088543865621805E-01 a       254     0    11     1     4
 -1.3641248006360862E-01 a       255     0    11     1     5
  1.8193334288211344E-01 a       256     0    11     1     6
 -1.1135165046476701E-01 a       257     0    11     1     7
  5.5058377369107889E-02 a       258     0    11     1     8
  2.2561463470937862E-01 a       259     0    11     1     9
 -1.4074781996974858E-01 a       260     0    11     1    10
  3.2083674475077456E-02 a       261     0    11     1    11
  7.9267564488826173E-02 a       262     0    11     1    12
  5.8349770561378189E-02 a       263     0    11     1    13
 -1.7536143770265641E-01 a       264     0    11     1    14
  3.1346766419902977E-01 a       265     0    11     1    15
 -2.3877522114152824E-01 a       266     0    11     1    16
 -2.6260455462322496E-01 a       267     0    11     1    17
 -5.7252977629591688E-02 a       268     0    11     1    18
 -1.8542782718592768E-01 a       269     0    11     1    19
 -2.8744989368314804E-02 a       270     0    11     1    20
  1.1328091867481715E-02 a       271     0    11     1    21
 -1.3490257233331940E-01 a       272     0    11     1    22
 -3.0104105526114305E-01 a       273     0    11     1    23
 -2.0878535018724989E-01 a       274     0    11     1    24
  1.3953659485923361E-01 a       275     0    11     1    25
 -2.5612931175038200E-01 a       276     0    12     1     1
 -1.7769648606315908E-01 a       277     0    12     1     2
  5.4473868197348473E-02 a       278     0    12     1     3
  3.1699543355000193E-02 a       279     0    12     1     4
 -6.7200895624555113E-02 a       280     0    12     1     5
  2.3622015656303988E-01 a       281     0    12     1     6
 -1.2284302975396659E-01 a       282     0    12     1     7
  1.0345690875654788E-01 a       283     0    12     1     8
  1.0766556744922449E-01 a       284     0    12     1     9
  1.5753819431226893E-02 a       285     0    12     1    10
 -3.9287996616633009E-01 a       286     0    12     1    11
  2.2495004308219768E-01 a       287     0    12     1    12
  6.2660884341957948E-02 a       288     0    12     1    13
  1.5436682177361644E-01 a       289     0    12     1    14
 -2.7901065399533370E-01 a       290     0    12     1    15
  2.7055519829495656E-01 a       291     0    12     1    16
  5.0920031152080485E-02 a       292     0    12     1    17
 -2.0240375580563710E-01 a       293     0    12     1    18
  3.1092317153491877E-01 a       294     0    12     1    19
  9.6041497675740911E-02 a       295     0    12     1    20
  1.3655719271419262E-02 a       296     0    12     1    21
  2.6156452283649728E-01 a       297     0    12     1    22
  3.1469522086908752E-01 a       298     0    12     1    23
 -8.6347163863855630E-02 a       299     0    12     1    24
  2.3782349792567489E-01 a       300     0    12     1    25
  1.8775087025861126E-01 a       301     0    13     1     1
 -7.6778081134178278E-02 a       302     0    13     1     2
  2.7060359505499038E-02 a       303     0    13     1     3
 -5.4876095793062851E-02 a       304     0    13     1     4
 -1.0049252747115996E-02 a       305     0    13     1     5
 -2.9471580960095878E-01 a       306     0    13     1     6
  2.0377718297262501E-01 a       307     0    13     1     7
  3.5184455667000888E-02 a       308     0    13     1     8
 -1.8114246678333848E-01 a       309     0    13     1     9
 -1.5880287656090866E-01 a       310     0    13     1    10
  6.1971967332378287E-02 a       311     0    13     1    11
 -2.0656713126704654E-01 a       312     0    13     1    12
 -1.1426118836486476E-01 a       313     0    13     1    13
 -1.5749387178112112E-01 a       314     0    13     1    14
 -1.2325972594837779E-01 a       315     0    13     1    15
  4.2402738367231787E-03 a       316     0    13     1    16
  3.2298490404438843E-02 a       317     0    13     1    17
  2.5983261866276336E-01 a       318     0    13     1    18
  3.0004291839420091E-02 a       319     0    13     1    19
  1.4117010137292771E-01 a       320     0    13     1    20
  1.1510681307264385E-01 a       321     0    13     1    21
 -2.1484814394286320E-02 a       322     0    13     1    22
 -1.2763827572658437E-01 a       323     0    13     1    23
  4.3648172905963095E-02 a       324     0    13     1    24
 -4.6152182839967187E-01 a       325     0    13     1    25
  5.2034563540414788E-03 a       326     0    14     1     1
  1.0017484149725682E-02 a       327     0    14     1     2
 -1.8685985748308651E-01 a       328     0    14     1     3
 -1.2518888205647530E-01 a       329     0    14     1     4
 -1.1657805616782625E-01 a       330     0    14     1     5
 -4.2194399334760005E-02 a       331     0    14     1     6
 -3.6591103826515627E-02 a       332     0    14     1     7
 -5.5061711068555043E-02 a       333     0    14     1     8
 -9.3810941363826825E-02 a       334     0    14     1     9
  2.9687214274759599E-01 a       335     0    14     1    10
  2.7772536642393775E-01 a       336     0    14     1    11
 -1.5645870544748523E-02 a       337     0    14     1    12
  7.5694588577982494E-03 a       338     0    14     1    13
  6.5113349639885743E-02 a       339     0    14     1    14
 -1.3678455182685073E-01 a       340     0    14     1    15
 -1.1235056482331510E-01 a       341     0    14     1    16
  6.3697564514840960E-02 a       342     0    14     1    17
 -8.9413462321030091E-02 a       343     0    14     1    18
 -1.7694799157272212E-01 a       344     0    14     1    19
 -3.2813202580398948E-01 a       345     0    14     1    20
  2.2763918987851971E-02 a       346     0    14     1    21
  4.1728716949923410E-02 a       347     0    14     1    22
 -1.5449827939348987E-01 a       348     0    14     1    23
  1.5719553060720565E-01 a       349     0    14     1    24
  2.4573735442629888E-01 a       350     0    14     1    25
  6.7879334237054181E-02 a       351     0    15     1     1
  1.1624120534136292E-01 a       352     0    15     1     2
 -7.7684996177555679E-03 a       353     0    15     1     3
  1.7393585614033771E-01 a       354     0    15     1     4
 -5.5778406900073581E-02 a       355     0    15     1     5
  4.5171160537133714E-02 a       356     0    15     1     6
  1.2936176842006319E-01 a       357     0    15     1     7
  8.7262635839162519E-03 a       358     0    15     1     8
  1.4005434788291860E-01 a       359     0    15     1     9
 -2.4333662941087731E-02 a       360     0    15     1    10
  4.3015684446044165E-02 a       361     0    15     1    11
 -1.5790570259763259E-01 a       362     0    15     1    12
  1.1902929016547430E-01 a       363     0    15     1    13
 -7.0608317643156532E-02 a       364     0    15     1    14
  7.8829508614069468E-02 a       365     0    15     1    15
 -6.5469954977297212E-02 a       366     0    15     1    16
 -2.4816838636225944E-02 a       367     0    15     1    17
  3.0947250430574121E-02 a       368     0    15     1    18
 -1.5558576320959611E-01 a       369     0    15     1    19
 -1.4466144091945846E-01 a       370     0    15     1    20
  4.0579026738349643E-02 a       371     0    15     1    21
 -4.9495542571167976E-03 a       372     0    15     1    22
  1.6953646635561377E-02 a       373     0    15     1    23
  1.1835393620378407E-01 a       374     0    15     1    24
 -3.2208749478628412E-01 a       375     0    15     1    25
 -1.9385678869016490E-01 a       376     0    16     1     1
 -2.5771743082627389E-03 a       377     0    16     1     2
  1.0342656574420678E-01 a       378     0    16     1     3
  6.6675164160204942E-02 a       379     0    16     1     4
  2.4655675458690074E-01 a       380     0    16     1     5
  2.1591457324057003E-01 a       381     0    16     1     6
 -7.1303687319500528E-02 a       382     0    16     1     7
  1.4599486249360683E-02 a       383     0    16     1     8
  2.1063271771833694E-01 a       384     0    16     1     9
  1.1235163279262879E-01 a       385     0    16     1    10
 -3.3152679942512059E-01 a       386     0    16     1    11
  2.5057168498043753E-01 a       387     0    16     1    12
  1.0812894442235614E-02 a       388     0    16     1    13
  9.8639514893996041E-02 a       389     0    16     1    14
 -2.1475842026738048E-01 a       390     0    16     1    15
  3.0271479938634110E-01 a       391     0    16     1    16
  8.0596847131831476E-02 a       392     0    16     1    17
 -1.1699464938092842E-01 a       393     0    16     1    18
  1.4467963765425060E-01 a       394     0    16     1    19
  2.3047520051871437E-01 a       395     0    16     1    20
 -2.9071907091843258E-01 a       396     0    16     1    21
  1.6237404170885091E-02 a       397     0    16     1    22
  1.6836822430453935E-01 a       398     0    16     1    23
 -2.3484803443240576E-01 a       399     0    16     1    24
  2.0768335663589049E-01 a       400     0    16     1    25
 -1.7205486787694257E-01 a       401     0    17     1     1
  4.3165889212200249E-02 a       402     0    17     1     2
 -6.9627984820613206E-02 a       403     0    17     1     3
 -4.3509586742458813E-02 a       404     0    17     1     4
  1.3564548544502245E-01 a       405     0    17     1     5
 -1.2446729252771416E-01 a       406     0    17     1     6
 -2.1457819951505832E-02 a       407     0    17     1     7
  6.1090428642955490E-02 a       408     0    17     1     8
 -8.2593059884970163E-02 a       409     0    17     1     9
  8.0284564042707077E-02 a       410     0    17     1    10
  1.4408706359607035E-02 a       411     0    17     1    11
 -7.4830028841433638E-02 a       412     0    17     1    12
 -5.7344322018806029E-02 a       413     0    17     1    13
 -1.2712515140972880E-01 a       414     0    17     1    14
 -1.5918940439423893E-01 a       415     0    17     1    15
 -5.1187963868421019E-02 a       416     0    17     1    16
 -1.8716174055237435E-02 a       417     0    17     1    17
  9.3833976850605627E-02 a       418     0    17     1    18
 -4.6819055461370870E-03 a       419     0    17     1    19
 -1.2825508349014328E-01 a       420     0    17     1    20
 -7.5630995681483279E-02 a       421     0    17     1    21
  5.3619666730717455E-02 a       422     0    17     1    22
 -1.6006643960953346E-01 a       423     0    17     1    23
 -1.7064999399512826E-03 a       424     0    17     1    24
  2.1698982750530432E-02 a       425     0    17     1    25
 -1.0356390387121524E-01 a       426     0    18     1     1
 -3.1342594775099049E-02 a       427     0    18     1     2
  5.3410338993600336E-02 a       428     0    18     1     3
 -8.7190226371446009E-02 a       429     0    18     1     4
 -1.8315456671411776E-01 a       430     0    18     1     5
 -1.4621083036774785E-02 a       431     0    18     1     6
 -1.9539458498959153E-03 a       432     0    18     1     7
 -7.8153792365051544E-02 a       433     0    18     1     8
 -2.2671636495040795E-01 a       434     0    18     1     9
 -1.4110271857812237E-01 a       435     0    18     1    10
  7.2224770735595537E-02 a       436     0    18     1    11
  9.6757834717971419E-02 a       437     0    18     1    12
 -1.5064230038221377E-02 a       438     0    18     1    13
  2.6736387708841661E-04 a       439     0    18     1    14
  3.4361585415164375E-01 a       440     0    18     1    15
 -1.2623926637455168E-01 a       441     0    18     1    16
 -7.8261803652143594E-02 a       442     0    18     1    17
  4.5114717328519606E-02 a       443     0    18     1    18
  7.9810123336053279E-02 a       444     0    18     1    19
 -1.8044881691302625E-01 a       445     0    18     1    20
  2.2640637369841538E-01 a       446     0    18     1    21
 -8.7408162949562621E-02 a       447     0    18     1    22
  2.0801557272260571E-01 a       448     0    18     1    23
  1.3417527272977661E-01 a       449     0    18     1    24
  2.2888003290717926E-01 a       450     0    18     1    25
  1.5838205551247436E-01 a       451     0    19     1     1
 -1.2912035521093168E-01 a       452     0    19     1     2
  3.3460516013736175E-02 a       453     0    19     1     3
  3.6685114294000780E-02 a       454     0    19     1     4
 -1.1032346234748612E-01 a       455     0    19     1     5
 -1.0548015261021206E-02 a       456     0    19     1     6
  1.2556730352055315E-01 a       457     0    19     1     7
  6.4919739394662931E-02 a       458     0    19     1     8
  4.5399694326787234E-02 a       459     0    19     1     9
 -1.5990695403615054E-01 a       460     0    19     1    10
 -3.1305780726991493E-02 a       461     0    19     1    11
 -6.4178621604125727E-02 a       462     0    19     1    12
 -1.4087631148407930E-02 a       463     0    19     1    13
 -4.3599117875678564E-02 a       464     0    19     1    14
  8.2128577365411459E-02 a       465     0    19     1    15
  1.0654067927251612E-02 a       466     0    19     1    16
 -1.2071470369808728E-02 a       467     0    19     1    17
  2.7598435588369673E-02 a       468     0    19     1    18
 -2.3958834494271827E-02 a       469     0    19     1    19
  1.6155588609058380E-01 a       470     0    19     1    20
  3.9055356723369662E-02 a       471     0    19     1    21
 -6.0286861127721025E-02 a       472     0    19     1    22
  2.3909291112813319E-01 a       473     0    19     1    23
  4.6728884036952294E-02 a       474     0    19     1    24
 -1.9625166836745739E-01 a       475     0    19     1    25
 -1.9250468367660083E-02 a       476     0    20     1     1
 -5.0415983474789677E-02 a       477     0    20     1     2
 -3.5732252907756640E-02 a       478     0    20     1     3
 -2.4020533354101928E-02 a       479     0    20     1     4
  4.6980751806451865E-02 a       480     0    20     1     5
  1.2676636867472663E-01 a       481     0    20     1     6
 -7.6379287648057098E-02 a       482     0    20     1     7
 -5.6378032085122952E-02 a       483     0    20     1     8
  1.6549457552142699E-01 a       484     0    20     1     9
  1.2550648550419838E-01 a       485     0    20     1    10
 -6.6045425014549783E-02 a       486     0    20     1    11
  1.7990371411817568E-01 a       487     0    20     1    12
 -1.7611254534052059E-02 a       488     0    20     1    13
  1.5539231658655342E-01 a       489     0    20     1    14
 -2.3166568930916698E-01 a       490     0    20     1    15
  1.5516381053058798E-01 a       491     0    20     1    16
  6.2129733117449383E-02 a       492     0    20     1    17
 -1.3754557681810298E-01 a       493     0    20     1    18
  8.5574569057732513E-03 a       494     0    20     1    19
  1.8829289204063346E-01 a       495     0    20     1    20
 -2.0580675444872434E-01 a       496     0    20     1    21
 -2.6405342546884727E-02 a       497     0    20     1    22
 -4.5912258895393063E-02 a       498     0    20     1    23
 -2.3368856978351185E-01 a       499     0    20     1    24
  1.7767622952023523E-01 a       500     0    20     1    25
  1.6411017567810482E-01 a       501     0    21     1     1
  1.5697923598902350E-01 a       502     0    21     1     2
  9.7670675878293117E-02 a       503     0    21     1     3
  1.5364337797932839E-01 a       504     0    21     1     4
 -1.8329167802575760E-02 a       505     0    21     1     5
 -3.9166307769926129E-01 a       506     0    21     1     6
 -3.8479953654415033E-01 a       507     0    21     1     7
  2.3610996870686410E-01 a       508     0    21     1     8
 -4.8372085460270575E-01 a       509     0    21     1     9
  8.6767232160961050E-02 a       510     0    21     1    10
  1.9409127262295625E-01 a       511     0    21     1    11
 -1.6367819491125982E-01 a       512     0    21     1    12
  1.1161720455672434E-01 a       513     0    21     1    13
  6.4765675704004072E-02 a       514     0    21     1    14
  2.2733562447714745E-01 a       515     0    21     1    15
 -4.2645083509826688E-02 a       516     0    21     1    16
 -1.4028439223235326E-01 a       517     0    21     1    17
 -4.7607799711351001E-01 a       518     0    21     1    18
 -6.4488486667150013E-01 a       519     0    21     1    19
 -7.9750072046157777E-02 a       520     0    21     1    20
  4.6963235203579382E-02 a       521     0    21     1    21
  3.8714289229672977E-01 a       522     0    21     1    22
 -1.7500162540056388E-02 a       523     0    21     1    23
 -8.3675874979240276E-03 a       524     0    21     1    24
 -4.8611638770527765E-02 a       525     0    21     1    25
 -4.7007123697375808E-01 a       526     0    22     1     1
  3.7188755306031596E-01 a       527     0    22     1     2
  2.5242714805761368E-01 a       528     0    22     1     3
 -8.3800059675503483E-02 a       529     0    22     1     4
  7.6024204071995183E-01 a       530     0    22     1     5
  1.1629352348163464E+00 a       531     0    22     1     6
  8.6702125442189237E-01 a       532     0    22     1     7
  4.8695688145706066E-03 a       533     0    22     1     8
  4.0953749047088212E-01 a       534     0    22     1     9
 -6.1222041817064442E-02 a       535     0    22     1    10
  1.5290458672219523E-01 a       536     0    22     1    11
 -2.7044214402510464E-01 a       537     0    22     1    12
  3.3365578961425349E-02 a       538     0    22     1    13
 -2.7324257123328799E-01 a       539     0    22     1    14
 -8.7776163128408935E-01 a       540     0    22     1    15
  6.9426639537282131E-01 a       541     0    22     1    16
 -8.9619319722215074E-01 a       542     0    22     1    17
 -5.7703464297062446E-01 a       543     0    22     1    18
  1.2156407670314362E+00 a       544     0    22     1    19
  3.1459482866902694E-01 a       545     0    22     1    20
 -1.9471035963411907E-02 a       546     0    22     1    21
 -2.0304153000139949E-01 a       547     0    22     1    22
 -4.0362442609175392E-01 a       548     0    22     1    23
  7.5440317302753390E-01 a       549     0    22     1    24
  6.3653610194652688E-01 a       550     0    22     1    25
  1.9119056949785845E-01 a       551     0    23     1     1
  2.1622230199823067E-01 a       552     0    23     1     2
 -3.0464925016981803E-01 a       553     0    23     1     3
 -4.3334431834729364E-01 a       554     0    23     1     4
 -4.6557211967654805E-01 a       555     0    23     1     5
 -7.8454600431687027E-01 a       556     0    23     1     6
 -1.5665076352131227E-01 a       557     0    23     1     7
 -1.8006899053240275E-01 a       558     0    23     1     8
  3.0024246992813647E-01 a       559     0    23     1     9
  1.9558593038954419E-01 a       560     0    23     1    10
  6.3386570847803136E-02 a       561     0    23     1    11
 -1.8899463625441970E-01 a       562     0    23     1    12
  3.2774134140481642E-01 a       563     0    23     1    13
  5.7887990733830802E-02 a       564     0    23     1    14
  1.2958867075341347E+00 a       565     0    23     1    15
 -7.5628314905296157E-01 a       566     0    23     1    16
 -1.6093805450070808E-01 a       567     0    23     1    17
  7.7741349608759613E-01 a       568     0    23     1    18
 -8.0860740758818617E-01 a       569     0    23     1    19
 -1.0133507440637529E-01 a       570     0    23     1    20
 -2.9127809698771889E-02 a       571     0    23     1    21
 -1.2105914838122550E-01 a       572     0    23     1    22
  4.8854171502939758E-01 a       573     0    23     1    23
 -9.3643304779097269E-01 a       574     0    23     1    24
  2.8933576350318563E-01 a       575     0    23     1    25
  5.1583601402917954E-03 a       576     0    24     1     1
 -3.0491282483554021E-02 a       577     0    24     1     2
 -2.9221822338105496E-01 a       578     0    24     1     3
 -2.1752337679358408E-01 a       579     0    24     1     4
 -1.2863962568767917E-01 a       580     0    24     1     5
 -2.5347031336626369E-01 a       581     0    24     1     6
  1.5137772820558806E-01 a       582     0    24     1     7
  5.1643290943174124E-02 a       583     0    24     1     8
  5.3524471107689799E-02 a       584     0    24     1     9
 -1.4149141853280423E-01 a       585     0    24     1    10
 -9.2675805841872821E-02 a       586     0    24     1    11
  3.4647609410142066E-01 a       587     0    24     1    12
 -4.3005660355544852E-02 a       588     0    24     1    13
 -6.8044100536476804E-02 a       589     0    24     1    14
  2.5368756570152240E-01 a       590     0    24     1    15
  1.6322442329617104E-01 a       591     0    24     1    16
  9.3023765448092510E-01 a       592     0    24     1    17
  7.2324460212918729E-01 a       593     0    24     1    18
  3.0535660594723096E-01 a       594     0    24     1    19
 -7.8904628288591183E-01 a       595     0    24     1    20
  3.7659738992645436E-01 a       596     0    24     1    21
 -2.0995632779874790E-01 a       597     0    24     1    22
 -2.8109815077937728E-01 a       598     0    24     1    23
  3.1255433293693530E-01 a       599     0    24     1    24
  9.1946293474133842E-02 a       600     0    24     1    25
 -1.8103252014384583E-01 a       601     0    25     1     1
 -6.6768850441775371E-02 a       602     0    25     1     2
  1.2423052447027219E+00 a       603     0    25     1     3
  5.1133700438761343E-01 a       604     0    25     1     4
 -5.8059549142158595E-01 a       605     0    25     1     5
 -3.1531910857761358E-01 a       606     0    25     1     6
 -6.5819576014321424E-01 a       607     0    25     1     7
 -4.6561352328186145E-01 a       608     0    25     1     8
  2.0641842472157151E-01 a       609     0    25     1     9
  9.9458109867714639E-02 a       610     0    25     1    10
 -9.0713552758367774E-02 a       611     0    25     1    11
 -7.5791511922350396E-01 a       612     0    25     1    12
 -6.6534451938023620E-01 a       613     0    25     1    13
  2.0237817727819346E-01 a       614     0    25     1    14
  1.5689276993114229E-01 a       615     0    25     1    15
 -4.5255632691011788E-01 a       616     0    25     1    16
 -2.3927728604558793E-01 a       617     0    25     1    17
 -2.5819803022193472E-01 a       618     0    25     1    18
 -1.0340371017751449E+00 a       619     0    25     1    19
  1.7959143789542154E-01 a       620     0    25     1    20
 -6.5821138300283222E-01 a       621     0    25     1    21
 -1.7970153135760006E-01 a       622     0    25     1    22
 -1.7490836765432138E-01 a       623     0    25     1    23
  3.0258023606353984E-01 a       624     0    25     1    24
  4.4604053749366990E-02 a       625     0    25     1    25
  3.4028111876166278E-02 a       626     0    26     1     1
  5.4777844686141788E-02 a       627     0    26     1     2
 -2.3523937034223458E-01 a       628     0    26     1     3
  2.9199679022142464E-02 a       629     0    26     1     4
  7.5513956117450695E-02 a       630     0    26     1     5
  2.5156100339751192E-01 a       631     0    26     1     6
  5.0774592391153540E-02 a       632     0    26     1     7
  2.9360853531526543E-01 a       633     0    26     1     8
 -2.2288642357216910E-02 a       634     0    26     1     9
  1.1708954576030998E-01 a       635     0    26     1    10
  3.6883426094304540E-02 a       636     0    26     1    11
  5.1518207277932626E-01 a       637     0    26     1    12
  1.6375145180390771E-01 a       638     0    26     1    13
  2.6560670566562733E-01 a       639     0    26     1    14
 -5.2669559420645906E-01 a       640     0    26     1    15
  3.4369983532278114E-01 a       641     0    26     1    16
  2.1603890630997505E-01 a       642     0    26     1    17
 -3.0131316426955646E-02 a       643     0    26     1    18
  6.4332407843719253E-01 a       644     0    26     1    19
  2.0917034747686644E-01 a       645     0    26     1    20
  3.6771884768705071E-01 a       646     0    26     1    21
  2.4761650566890954E-02 a       647     0    26     1    22
 -6.2933090512413659E-01 a       648     0    26     1    23
 -3.9573078438612624E-01 a       649     0    26     1    24
 -1.6737790439796271E-01 a       650     0    26     1    25
 -7.8115436920936643E-02 a       651     0    27     1     1
 -2.6916319800511973E-01 a       652     0    27     1     2
 -7.2022271595350920E-02 a       653     0    27     1     3
  4.7992241512181184E-02 a       654     0    27     1     4
 -1.4820597693604329E-01 a       655     0    27     1     5
  5.0087346934294182E-02 a       656     0    27     1     6
 -2.3757489600559203E-01 a       657     0    27     1     7
 -2.2030862953223599E-02 a       658     0    27     1     8
  2.4939662779104368E-01 a       659     0    27     1     9
 -1.4972314839895520E-01 a       660     0    27     1    10
 -6.9795018485431751E-02 a       661     0    27     1    11
  3.5944470845204507E-01 a       662     0    27     1    12
  1.0256125568101779E-01 a       663     0    27     1    13
 -1.9852393867075793E-02 a       664     0    27     1    14
  7.7882135603827646E-02 a       665     0    27     1    15
 -6.2149552181101964E-02 a       666     0    27     1    16
 -6.6073080303530748E-02 a       667     0    27     1    17
  5.6349101457062283E-02 a       668     0    27     1    18
 -1.1555033053728157E-01 a       669     0    27     1    19
  3.1832179862971421E-01 a       670     0    27     1    20
  7.0484039964705689E-02 a       671     0    27     1    21
 -2.0111944936179188E-01 a       672     0    27     1    22
 -1.5989756161199223E-01 a       673     0    27     1    23
 -1.0539719162468011E-01 a       674     0    27     1    24
  2.6796345504226093E-01 a       675     0    27     1    25
  2.0595795060011796E-01 a       676     0    28     1     1
  2.6640224385204334E-02 a       677     0    28     1     2
  7.5954492625347883E-02 a       678     0    28     1     3
  1.8012147077078364E-01 a       679     0    28     1     4
 -2.5835287514518074E-01 a       680     0    28     1     5
  1.4895235672445539E-01 a       681     0    28     1     6
  1.3199355843217220E-01 a       682     0    28     1     7
 -2.2412322426880923E-01 a       683     0    28     1     8
 -9.6736868569412271E-02 a       684     0    28     1     9
 -1.1017489386254836E-01 a       685     0    28     1    10
  4.5931325892828299E-02 a       686     0    28     1    11
  8.4372829758715840E-03 a       687     0    28     1    12
 -2.9803009340892522E-01 a       688     0    28     1    13
  5.3557079688201426E-01 a       689     0    28     1    14
 -6.0479396245474763E-02 a       690     0    28     1    15
  1.3921237696947150E-01 a       691     0    28     1    16
  1.0655120963355445E-01 a       692     0    28     1    17
 -2.5305084229728014E-01 a       693     0    28     1    18
  1.6167742259788159E-02 a       694     0    28     1    19
 -3.4178296912038969E-02 a       695     0    28     1    20
  5.8801612097748757E-02 a       696     0    28     1    21
 -5.3504646466394856E-02 a       697     0    28     1    22
  1.8948165560746089E-01 a       698     0    28     1    23
 -5.2046865804994083E-02 a       699     0    28     1    24
  5.9804766474117232E-01 a       700     0    28     1    25
  5.4273201728837775E-02 a       701     0    29     1     1
  1.0588409545826911E-01 a       702     0    29     1     2
  1.7417171527192707E-01 a       703     0    29     1     3
 -2.9445223750785097E-03 a       704     0    29     1     4
  4.2543743083215757E-01 a       705     0    29     1     5
 -4.5912430053398443E-02 a       706     0    29     1     6
 -3.6531056573055892E-01 a       707     0    29     1     7
  1.8244824665451836E-01 a       708     0    29     1     8
 -1.5654026011597783E-01 a       709     0    29     1     9
  9.9065508176235981E-02 a       710     0    29     1    10
 -2.6923226295331343E-01 a       711     0    29     1    11
  1.6222058169797623E-01 a       712     0    29     1    12
  2.6210126617705742E-01 a       713     0    29     1    13
 -1.1626008247379552E-01 a       714     0    29     1    14
 -7.5944394960609074E-01 a       715     0    29     1    15
 -7.4970010332511564E-02 a       716     0    29     1    16
  1.2955262173539520E-01 a       717     0    29     1    17
  6.7180827320858602E-02 a       718     0    29     1    18
  2.0943011148878526E-01 a       719     0    29     1    19
 -1.0551124841262051E-01 a       720     0    29     1    20
 -8.9886814313195285E-02 a       721     0    29     1    21
  1.2001057726744493E-01 a       722     0    29     1    22
 -1.6329323491582981E-01 a       723     0    29     1    23
  4.9549864125514763E-03 a       724     0    29     1    24
 -2.1407138073069076E-01 a       725     0    29     1    25
 -2.4459023115765682E-01 a       726     0    30     1     1
  1.5724659889598105E-01 a       727     0    30     1     2
  7.0549289559925052E-02 a       728     0    30     1     3
  4.3820486484218185E-01 a       729     0    30     1     4
  1.9592187151531923E-01 a       730     0    30     1     5
 -1.5891090508526717E-02 a       731     0    30     1     6
  4.2422815959087354E-02 a       732     0    30     1     7
 -1.5066790468154589E-01 a       733     0    30     1     8
 -3.3977699569381892E-01 a       734     0    30     1     9
  3.6323687698807711E-01 a       735     0    30     1    10
  1.2523499908092481E-01 a       736     0    30     1    11
  8.9100939242272748E-02 a       737     0    30     1    12
 -1.3398657364259048E-01 a       738     0    30     1    13
 -2.6847629465621792E-01 a       739     0    30     1    14
 -3.9901282766513818E-01 a       740     0    30     1    15
 -1.8167545191772258E-01 a       741     0    30     1    16
 -2.3886927850658157E-01 a       742     0    30     1    17
 -1.1242671127602606E-01 a       743     0    30     1    18
  3.0299602048078850E-01 a       744     0    30     1    19
  5.5625600997385982E-01 a       745     0    30     1    20
 -4.0231912561685607E-01 a       746     0    30     1    21
 -7.2422235622275843E-02 a       747     0    30     1    22
  2.2217341093552631E-01 a       748     0    30     1    23
  5.3474822116339443E-02 a       749     0    30     1    24
  8.2117812495426448E-04 a       750     0    30     1    25
 -4.8810086231315032E-02 a       751     0    31     1     1
  3.5419997038311163E-01 a       752     0    31     1     2
 -1.2858277679781533E+00 a       753     0    31     1     3
 -1.0441811202615043E+00 a       754     0    31     1     4
 -5.5419000143015824E-02 a       755     0    31     1     5
  3.1282498654212915E-01 a       756     0    31     1     6
  1.3857581606947039E-01 a       757     0    31     1     7
  5.8791806183300467E-02 a       758     0    31     1     8
  8.7226896998485681E-01 a       759     0    31     1     9
 -9.4888698927378268E-01 a       760     0    31     1    10
  2.9281868882532075E-01 a       761     0    31     1    11
  7.6355636416962847E-01 a       762     0    31     1    12
  7.0402455207693515E-01 a       763     0    31     1    13
 -2.3989702114921078E-02 a       764     0    31     1    14
  6.9632061446018190E-01 a       765     0    31     1    15
 -3.9189131007671163E-01 a       766     0    31     1    16
  4.2982012032688166E-01 a       767     0    31     1    17
  7.1147970782881528E-02 a       768     0    31     1    18
 -5.4269735006734779E-02 a       769     0    31     1    19
  8.0059766866211135E-02 a       770     0    31     1    20
  9.7589891040997345E-01 a       771     0    31     1    21
  3.2472392412739098E-01 a       772     0    31     1    22
 -6.9669213327498847E-01 a       773     0    31     1    23
 -7.2434481789890415E-01 a       774     0    31     1    24
  2.8798755933248454E-01 a       775     0    31     1    25
  1.4691804628287949E-01 a       776     0    32     1     1
 -1.6915588295382286E-01 a       777     0    32     1     2
  2.6846534199448352E-01 a       778     0    32     1     3
  2.7720984241311943E-02 a       779     0    32     1     4
 -9.2699862035686156E-02 a       780     0    32     1     5
 -6.5111232565068441E-02 a       781     0    32     1     6
 -3.5828328709797824E-03 a       782     0    32     1     7
 -1.7147958725186210E-01 a       783     0    32     1     8
 -3.4055121408514227E-01 a       784     0    32     1     9
  2.2209676288829325E-01 a       785     0    32     1    10
 -2.2572649725059742E-02 a       786     0    32     1    11
 -5.1463368136682885E-01 a       787     0    32     1    12
 -2.1097509966189926E-01 a       788     0    32     1    13
  1.0564784370088000E-01 a       789     0    32     1    14
  2.0548719702916277E-02 a       790     0    32     1    15
  1.6404176534615605E-01 a       791     0    32     1    16
 -4.2319462407450542E-01 a       792     0    32     1    17
 -1.1663411198525653E-01 a       793     0    32     1    18
 -1.1187717869747067E-01 a       794     0    32     1    19
 -2.1912785564577600E-01 a       795     0    32     1    20
 -3.3554775912119744E-01 a       796     0    32     1    21
 -8.2605547226588735E-02 a       797     0    32     1    22
  6.9247804573424998E-01 a       798     0    32     1    23
  2.1303937217414848E-01 a       799     0    32     1    24
 -2.7463839781269367E-01 a       800     0    32     1    25
 -5.8759430944514046E-01 b       801     1     1
  5.6772993367739089E-01 b       802     1     2
  6.4588966808223858E-01 b       803     1     3
 -1.1344621679580564E+00 b       804     1     4
  1.0679142690928975E-01 b       805     1     5
 -1.0673895702910214E+00 b       806     1     6
 -8.8769737383776193E-01 b       807     1     7
  1.0782536576766497E+00 b       808     1     8
 -7.7882473242827110E-01 b       809     1     9
 -7.1757018393289873E-01 b       810     1    10
  6.3160369917498904E-02 b       811     1    11
 -5.5461952063352737E-01 b       812     1    12
 -1.1591135468058476E-01 b       813     1    13
  6.3803767807004264E-01 b       814     1    14
 -5.1507545000847110E-01 b       815     1    15
 -6.2818490543125649E-01 b       816     1    16
  6.2282982827042388E-01 b       817     1    17
 -5.1759782391142939E-01 b       818     1    18
 -5.3396887146494354E-01 b       819     1    19
 -9.0909323564613231E-01 b       820     1    20
 -3.6093574779509413E-01 b       821     1    21
  9.4622790191626938E-01 b       822     1    22
  1.5195726000645253E+00 b       823     1    23
 -1.1668814440604680E+00 b       824     1    24
  8.9903428109965333E-01 b       825     1    25
 -1.8021299133126617E-01 a       826     1     1     2     1
  5.8317800277213594E-01 a       827     1     1     2     2
 -2.7148539574344316E-01 a       828     1     1     2     3
 -2.2668016143860015E-01 a       829     1     1     2     4
 -6.2327811107998976E-01 a       830     1     1     2     5
 -1.8060977436283485E-01 a       831     1     1     2     6
 -2.6222057218711248E-01 a       832     1     1     2     7
  5.5178755373121946E-02 a       833     1     1     2     8
  4.9785882317252728E-02 a       834     1     1     2     9
 -5.5594230574963577E-01 a       835     1     1     2    10
  5.5551958245322952E-01 a       836     1     1     2    11
  9.6950696520641311E-01 a       837     1     1     2    12
  1.3888852576336358E-01 a       838     1     1     2    13
 -1.0803358453628087E-01 a       839     1     1     2    14
 -1.4293337703896772E-01 a       840     1     1     2    15
  1.1736025043384939E-01 a       841     1     1     2    16
 -5.1142086836537043E-03 a       842     1     1     2    17
  5.8149502402632065E-02 a       843     1     1     2    18
 -6.6581250930006219E-01 a       844     1     1     2    19
  8.4865483941899522E-01 a       845     1     1     2    20
 -1.3480678406269767E-01 a       846     1     1     2    21
 -3.0338674070619820E-01 a       847     1     1     2    22
 -2.0317316370695598E-01 a       848     1     1     2    23
 -1.2522621693270850E-03 a       849     1     1     2    24
 -2.4427438564972823E-01 a       850     1     1     2    25
 -1.0449781588690606E-01 a       851     1     2     2     1
  6.2447517299033983E-01 a       852     1     2     2     2
  6.2274704173208872E-01 a       853     1     2     2     3
  3.5354659937314747E-01 a       854     1     2     2     4
 -4.5749446552879164E-01 a       855     1     2     2     5
  1.0133844258433737E-02 a       856     1     2     2     6
 -3.0288831788821291E-01 a       857     1     2     2     7
  3.8004894120178234E-01 a       858     1     2     2     8
 -8.8729423534991247E-01 a       859     1     2     2     9
  3.1395040912313799E-01 a       860     1     2     2    10
  1.9290871799653247E-01 a       861     1     2     2    11
 -5.9928743858764184E-02 a       862     1     2     2    12
 -3.4145356077196574E-03 a       863     1     2     2    13
 -6.5014929006995836E-01 a       864     1     2     2    14
  2.8635976968647031E-01 a       865     1     2     2    15
 -7.6403374989327394E-02 a       866     1     2     2    16
 -4.2580310454159043E-01 a       867     1     2     2    17
 -2.8384332874481932E-01 a       868     1     2     2    18
 -3.0181946631731654E-01 a       869     1     2     2    19
  1.9904876638568814E-01 a       870     1     2     2    20
  8.0189694028240013E-02 a       871     1     2     2    21
 -5.2654402068332817E-01 a       872     1     2     2    22
 -1.6473029072494050E-01 a       873     1     2     2    23
  2.5249372143334797E-01 a       874     1     2     2    24
 -2.3909981480678319E-01 a       875     1     2     2    25
 -2.1992618441338752E-02 a       876     1     3     2     1
 -3.9204558135647299E-01 a       877     1     3     2     2
  1.0691852226775415E-01 a       878     1     3     2     3
  1.0908271334041487E-01 a       879     1     3     2     4
  1.1343371268147493E+00 a       880     1     3     2     5
  5.3094513828037336E-02 a       881     1     3     2     6
  2.4509184985414759E-01 a       882     1     3     2     7
  2.9582632456796723E-02 a       883     1     3     2     8
 -5.8767402203985541E-01 a       884     1     3     2     9
  2.4717435965546566E-01 a       885     1     3     2    10
  6.4311916993470858E-02 a       886     1     3     2    11
 -1.1188115274817561E+00 a       887     1     3     2    12
  1.2611789319412672E-01 a       888     1     3     2    13
  1.3980387826853696E-01 a       889     1     3     2    14
 -4.9406300341131559E-01 a       890     1     3     2    15
  2.5110228842156085E-01 a       891     1     3     2    16
  9.7185830436810478E-02 a       892     1     3     2    17
  4.4142208232684316E-01 a       893     1     3     2    18
 -2.0940273051558883E-01 a       894     1     3     2    19
 -9.0800012281904141E-01 a       895     1     3     2    20
  3.2387862396525979E-01 a       896     1     3     2    21
  1.6983068285069461E-01 a       897     1     3     2    22
  4.9225582187034031E-03 a       898     1     3     2    23
  4.1513343144393769E-02 a       899     1     3     2    24
  6.1192602855060396E-01 a       900     1     3     2    25
  5.2246935829151786E-01 a       901     1     4     2     1
  4.0059817440471673E-01 a       902     1     4     2     2
  2.5165620632628640E-02 a       903     1     4     2     3
  4.3960971022841261E-01 a       904     1     4     2     4
  4.2020913743824795E-01 a       905     1     4     2     5
 -7.0510150107754088E-01 a       906     1     4     2     6
  3.0401801581259191E-01 a       907     1     4     2     7
  9.8982944412251375E-02 a       908     1     4     2     8
 -4.5539946898923955E-01 a       909     1     4     2     9
  2.8746397099239734E-01 a       910     1     4     2    10
  2.9091069563621064E-01 a       911     1     4     2    11
 -2.8063145577227255E-01 a       912     1     4     2    12
  1.6149073363133609E-01 a       913     1     4     2    13
 -4.2309195754401563E-01 a       914     1     4     2    14
  4.8714292869662290E-01 a       915     1     4     2    15
  1.0936489713514842E-01 a       916     1     4     2    16
 -3.0540735916027528E-01 a       917     1     4     2    17
  8.1913859228673247E-01 a       918     1     4     2    18
 -3.9619050208696099E-01 a       919     1     4     2    19
 -1.1934154339009517E-01 a       920     1     4     2    20
  4.4348056900517030E-01 a       921     1     4     2    21
 -3.6101766659696355E-01 a       922     1     4     2    22
  2.6817589167672856E-01 a       923     1     4     2    23
 -3.7569687670830874E-02 a       924     1     4     2    24
 -5.4658160663686506E-01 a       925     1     4     2    25
 -5.9232510042491915E-01 a       926     1     5     2     1
  4.5139733569771407E-03 a       927     1     5     2     2
 -2.5754458594498603E-01 a       928     1     5     2     3
 -2.8838368193034005E-02 a       929     1     5     2     4
 -1.7741128472338780E-01 a       930     1     5     2     5
  1.1058761021884242E-01 a       931     1     5     2     6
  7.8478536980257907E-01 a       932     1     5     2     7
 -3.0858008968435748E-02 a       933     1     5     2     8
  5.2217222249029782E-01 a       934     1     5     2     9
 -8.5799924639179015E-02 a       935     1     5     2    10
 -5.1196110670981165E-01 a       936     1     5     2    11
 -1.7446717843778842E-01 a       937     1     5     2    12
 -3.5031794711960018E-01 a       938     1     5     2    13
  6.8639744890289334E-01 a       939     1     5     2    14
 -6.3513302170985830E-02 a       940     1     5     2    15
  2.4685206018760744E-01 a       941     1     5     2    16
 -7.0694627423471032E-02 a       942     1     5     2    17
 -5.6493792111145302E-01 a       943     1     5     2    18
  2.5155565701158489E-01 a       944     1     5     2    19
  6.1797660169988999E-01 a       945     1     5     2    20
  1.1955062405092411E-01 a       946     1     5     2    21
  3.1925636523136208E-01 a       947     1     5     2    22
 -3.9460130066312421E-01 a       948     1     5     2    23
 -1.2852230929737202E-01 a       949     1     5     2    24
  2.1708324843794397E-01 a       950     1     5     2    25
  2.9288446963469567E-02 a       951     1     6     2     1
  5.7273997858789144E-02 a       952     1     6     2     2
  5.0046218335967130E-01 a       953     1     6     2     3
 -1.0412330141777466E-01 a       954     1     6     2     4
  9.5306392017934602E-02 a       955     1     6     2     5
  8.2999590743809248E-01 a       956     1     6     2     6
  9.2296150444124703E-01 a       957     1     6     2     7
  2.7035564651457217E-01 a       958     1     6     2     8
  2.1610746445092807E-01 a       959     1     6     2     9
 -4.9438519883047360E-01 a       960     1     6     2    10
  2.6224428141943323E-01 a       961     1     6     2    11
  3.3236745106624593E-01 a       962     1     6     2    12
 -2.5136761153683962E-01 a       963     1     6     2    13
  1.5631281786979351E-01 a       964     1     6     2    14
 -5.0493339075410792E-01 a       965     1     6     2    15
  8.6385885052776645E-01 a       966     1     6     2    16
  1.1314032015966639E-01 a       967     1     6     2    17
  3.3797608196061278E-02 a       968     1     6     2    18
  2.1685959420480842E-02 a       969     1     6     2    19
 -5.5946673908511817E-02 a       970     1     6     2    20
 -4.7242756897353300E-01 a       971     1     6     2    21
  1.7423062401035208E-01 a       972     1     6     2    22
 -4.6235946516124610E-01 a       973     1     6     2    23
 -1.0769232875493315E-01 a       974     1     6     2    24
 -1.5324738215937148E-01 a       975     1     6     2    25
 -2.5099345589906724E-01 a       976     1     7     2     1
  3.9049673610014407E-01 a       977     1     7     2     2
  3.8931964036741123E-02 a       978     1     7     2     3
  3.4162385673667167E-01 a       979     1     7     2     4
 -5.5235983101405262E-01 a       980     1     7     2     5
  3.0137286141726316E-01 a       981     1     7     2     6
  2.6920888870826781E-01 a       982     1     7     2     7
  4.1056062394064519E-01 a       983     1     7     2     8
 -1.1839819651163348E-01 a       984     1     7     2     9
 -1.7662913414539688E-01 a       985     1     7     2    10
 -2.3758054440016618E-01 a       986     1     7     2    11
  6.8535771040729887E-01 a       987     1     7     2    12
  4.6545869528972245E-02 a       988     1     7     2    13
  8.0504569009864690E-02 a       989     1     7     2    14
 -5.1477110966319482E-02 a       990     1     7     2    15
 -2.6350448499751811E-02 a       991     1     7     2    16
 -1.1686824184451175E-02 a       992     1     7     2    17
 -8.8869939636617823E-02 a       993     1     7     2    18
 -7.9283842190837991E-02 a       994     1     7     2    19
  6.5516044798984083E-03 a       995     1     7     2    20
  2.3744631999953532E-02 a       996     1     7     2    21
 -2.3714283593858712E-01 a       997     1     7     2    22
 -1.3583607889843621E-01 a       998     1     7     2    23
  1.1606119118824489E-01 a       999     1     7     2    24
 -3.1127318895927797E-01 a      1000     1     7     2    25
 -4.1574988070878216E-01 a      1001     1     8     2     1
  2.5347371922025813E-01 a      1002     1     8     2     2
  1.3868373962396837E-02 a      1003     1     8     2     3
 -4.6509568733189077E-01 a      1004     1     8     2     4
  3.8436670562988756E-01 a      1005     1     8     2     5
 -3.8531828627841469E-01 a      1006     1     8     2     6
 -2.1372792066683555E-01 a      1007     1     8     2     7
  3.4951192928937708E-01 a      1008     1     8     2     8
 -4.1096396227927573E-01 a      1009     1     8     2     9
  3.2426322321072010E-02 a      1010     1     8     2    10
  1.2586471463402177E-01 a      1011     1     8     2    11
  1.8538054393736997E-01 a      1012     1     8     2    12
  4.7061718341002812E-01 a      1013     1     8     2    13
 -1.8553604149032213E-01 a      1014     1     8     2    14
 -1.4123817167422775E-01 a      1015     1     8     2    15
  7.8967268160467730E-01 a      1016     1     8     2    16
  7.4498921247535244E-01 a      1017     1     8     2    17
  5.9796896530454946E-01 a      1018     1     8     2    18
 -5.9336378711197901E-01 a      1019     1     8     2    19
 -2.0092501808248822E-01 a      1020     1     8     2    20
 -1.2505200404026884E-01 a      1021     1     8     2    21
  5.3027539932967693E-01 a      1022     1     8     2    22
 -5.6671696706321850E-01 a      1023     1     8     2    23
  2.1512281944278602E-01 a      1024     1     8     2    24
 -3.7465833110907920E-01 a      1025     1     8     2    25
 -4.3644766279471714E-01 a      1026     1     9     2     1
  1.2174906464572025E-01 a      1027     1     9     2     2
  1.7384095360932317E-01 a      1028     1     9     2     3
 -5.1452870211103417E-02 a      1029     1     9     2     4
  8.1889290916850946E-02 a      1030     1     9     2     5
  1.0013918294333648E+00 a      1031     1     9     2     6
  8.4363807184228445E-01 a      1032     1     9     2     7
  6.6055466546497826E-02 a      1033     1     9     2     8
 -4.9460574136924607E-01 a      1034     1     9     2     9
  2.9350303944246442E-01 a      1035     1     9     2    10
  3.1838668127625219E-01 a      1036     1     9     2    11
  1.4503926721082072E-01 a      1037     1     9     2    12
  7.2186454577361892E-01 a      1038     1     9     2    13
  6.3156828068689205E-02 a      1039     1     9     2    14
  1.8841045605564757E-01 a      1040     1     9     2    15
 -2.5203071408837197E-01 a      1041     1     9     2    16
  4.1359508384341638E-02 a      1042     1     9     2    17
  3.0700576457917023E-01 a      1043     1     9     2    18
  5.1039184144573979E-01 a      1044     1     9     2    19
  6.4867789720104241E-01 a      1045     1     9     2    20
  3.8529536816387898E-02 a      1046     1     9     2    21
 -7.1787161792832921E-01 a      1047     1     9     2    22
 -1.3097340189725298E-01 a      1048     1     9     2    23
  1.1160013831464286E-02 a      1049     1     9     2    24
  4.0581780882663776E-01 a      1050     1     9     2    25
  4.8032198424526185E-01 a      1051     1    10     2     1
  4.8718495768785480E-01 a      1052     1    10     2     2
  1.1781103502278824E-01 a      1053     1    10     2     3
  3.8377025112554336E-01 a      1054     1    10     2     4
  1.3527158243379417E-01 a      1055     1    10     2     5
  8.0562406825602756E-02 a      1056     1    10     2     6
 -5.8832772740726091E-01 a      1057     1    10     2     7
  5.7779998036285263E-01 a      1058     1    10     2     8
 -4.2243328121216606E-01 a      1059     1    10     2     9
 -1.3403615914298697E-01 a      1060     1    10     2    10
  3.2348200284179224E-01 a      1061     1    10     2    11
  1.0584626113821316E-01 a      1062     1    10     2    12
 -3.1840728510122246E-01 a      1063     1    10     2    13
  1.6173977685338667E-02 a      1064     1    10     2    14
  4.9490397834963745E-01 a      1065     1    10     2    15
  2.1214328241784267E-01 a      1066     1    10     2    16
  2.7354602753641571E-01 a      1067     1    10     2    17
  5.5657296275489314E-02 a      1068     1    10     2    18
 -7.3024319391947168E-01 a      1069     1    10     2    19
  3.7176066316093676E-01 a      1070     1    10     2    20
  5.0893186993082684E-01 a      1071     1    10     2    21
  4.9128170063975435E-02 a      1072     1    10     2    22
 -4.2577119849389256E-01 a      1073     1    10     2    23
 -2.2745735986131849E-01 a      1074     1    10     2    24
  1.9448831763275695E-01 a      1075     1    10     2    25
  3.2326066170136103E-01 a      1076     1    11     2     1
  1.4270298344601390E-01 a      1077     1    11     2     2
 -5.4870168883144299E-01 a      1078     1    11     2     3
  3.0462224101427809E-01 a      1079     1    11     2     4
  6.3389904308990463E-01 a      1080     1    11     2     5
  4.1295117002390336E-01 a      1081     1    11     2     6
  5.9659716799141516E-01 a      1082     1    11     2     7
 -3.1144220565508940E-01 a      1083     1    11     2     8
  3.6303252115678963E-01 a      1084     1    11     2     9
 -1.7932637039066207E-01 a      1085     1    11     2    10
 -1.0630400553832478E+00 a      1086     1    11     2    11
  3.0122657507710138E-02 a      1087     1    11     2    12
 -4.4222300250460350E-01 a      1088     1    11     2    13
 -2.5996126261759345E-01 a      1089     1    11     2    14
 -4.2073109592778168E-01 a      1090     1    11     2    15
  5.1964380796625187E-01 a      1091     1    11     2    16
  2.6681731828373201E-01 a      1092     1    11     2    17
 -3.1342373582538702E-01 a      1093     1    11     2    18
 -1.9845607209485427E-01 a      1094     1    11     2    19
  3.2725649181675492E-01 a      1095     1    11     2    20
  3.7517029839731852E-01 a      1096     1    11     2    21
 -1.5828461797582805E-01 a      1097     1    11     2    22
 -3.6147961549919777E-01 a      1098     1    11     2    23
 -3.3828089862000116E-01 a      1099     1    11     2    24
  1.1239209790901317E-01 a      1100     1    11     2    25
 -6.5978131419629582E-01 a      1101     1    12     2     1
  7.2373448918307118E-02 a      1102     1    12     2     2
 -1.2302461396528899E-01 a      1103     1    12     2     3
 -1.5305891533181501E-01 a      1104     1    12     2     4
 -5.9775518952469864E-01 a      1105     1    12     2     5
 -2.5535986886293088E-01 a      1106     1    12     2     6
  3.4958779710124077E-01 a      1107     1    12     2     7
  1.9000284978184970E-01 a      1108     1    12     2     8
  4.0206817581912824E-01 a      1109     1    12     2     9
 -1.3606331250528714E-01 a      1110     1    12     2    10
  7.6799612855628530E-02 a      1111     1    12     2    11
  5.2061693089443173E-01 a      1112     1    12     2    12
  3.7416551698134730E-02 a      1113     1    12     2    13
 -7.1018616340168053E-02 a      1114     1    12     2    14
 -4.8272706964397866E-01 a      1115     1    12     2    15
  2.6177162037036494E-01 a      1116     1    12     2    16
 -5.2606098506007370E-01 a      1117     1    12     2    17
 -1.9204493989106516E-01 a      1118     1    12     2    18
  2.7891242476770500E-01 a      1119     1    12     2    19
  2.8165487156294566E-01 a      1120     1    12     2    20
 -4.5181279206864067E-01 a      1121     1    12     2    21
  6.6164345732387620E-04 a      1122     1    12     2    22
  2.9542564745402716E-01 a      1123     1    12     2    23
 -1.0191738548974867E-01 a      1124     1    12     2    24
  3.9958377462832745E-01 a      1125     1    12     2    25
  4.2950961340139343E-01 a      1126     1    13     2     1
  1.8299522465754767E-01 a      1127     1    13     2     2
 -2.6844543657705805E-01 a      1128     1    13     2     3
  4.8855928779985969E-01 a      1129     1    13     2     4
  4.1269418193834262E-01 a      1130     1    13     2     5
 -2.0069746935312111E-01 a      1131     1    13     2     6
  1.3535207137400662E-01 a      1132     1    13     2     7
 -9.8053377133030389E-02 a      1133     1    13     2     8
 -2.4129546180199651E-01 a      1134     1    13     2     9
 -4.3092316065245651E-01 a      1135     1    13     2    10
 -7.1631254219669271E-01 a      1136     1    13     2    11
 -9.4177536323985817E-02 a      1137     1    13     2    12
 -5.1350256983979298E-02 a      1138     1    13     2    13
  2.1380179778008856E-01 a      1139     1    13     2    14
 -9.5461392175261117E-02 a      1140     1    13     2    15
  8.3400793936501180E-03 a      1141     1    13     2    16
  3.0136726561545474E-01 a      1142     1    13     2    17
  1.0051357060474538E-01 a      1143     1    13     2    18
 -7.0001085938299612E-01 a      1144     1    13     2    19
  1.0144124628434659E+00 a      1145     1    13     2    20
  4.4326639891577391E-01 a      1146     1    13     2    21
 -8.9747984600207220E-01 a      1147     1    13     2    22
 -4.2777029895689606E-01 a      1148     1    13     2    23
 -4.2422631774976921E-01 a      1149     1    13     2    24
  2.9483802907319073E-01 a      1150     1    13     2    25
 -1.0077187088993844E-01 a      1151     1    14     2     1
 -4.3064411337207387E-01 a      1152     1    14     2     2
  2.9116084817667831E-01 a      1153     1    14     2     3
  4.5182383494839114E-03 a      1154     1    14     2     4
  6.3681727125594345E-01 a      1155     1    14     2     5
  1.6420267653149334E-01 a      1156     1    14     2     6
  2.3429860592867685E-01 a      1157     1    14     2     7
  5.0540034069506135E-01 a      1158     1    14     2     8
 -3.4395943053275502E-01 a      1159     1    14     2     9
  2.6366228811017145E-01 a      1160     1    14     2    10
 -3.7791662105424190E-01 a      1161     1    14     2    11
 -4.4251118120829247E-01 a      1162     1    14     2    12
 -8.9207269293582886E-02 a      1163     1    14     2    13
 -3.5315706533512381E-01 a      1164     1    14     2    14
 -2.4909625965839632E-01 a      1165     1    14     2    15
 -4.0311501671487088E-01 a      1166     1    14     2    16
 -1.5910307655462055E-01 a      1167     1    14     2    17
  2.6765591569902147E-01 a      1168     1    14     2    18
  3.7803694263081639E-01 a      1169     1    14     2    19
  6.7380568368520001E-03 a      1170     1    14     2    20
  2.7528265586013007E-01 a      1171     1    14     2    21
 -3.0711216486353016E-01 a      1172     1    14     2    22
 -1.9043053507143015E-01 a      1173     1    14     2    23
  5.0034948894633224E-01 a      1174     1    14     2    24
 -3.4386883760266621E-02 a      1175     1    14     2    25
  2.4895641690939749E-01 a      1176     1    15     2     1
  1.5713951358173167E-01 a      1177     1    15     2     2
 -1.4922553324939247E-01 a      1178     1    15     2     3
  4.0817283804937717E-02 a      1179     1    15     2     4
 -1.1551702802740044E-03 a      1180     1    15     2     5
 -5.4063562750790405E-02 a      1181     1    15     2     6
 -6.2153416428764086E-01 a      1182     1    15     2     7
 -2.2154585152693934E-01 a      1183     1    15     2     8
 -8.6209723431307742E-02 a      1184     1    15     2     9
 -3.5619085991682714E-01 a      1185     1    15     2    10
  1.4237644918212938E-01 a      1186     1    15     2    11
  5.3562624495163846E-01 a      1187     1    15     2    12
  1.4257860608190800E-02 a      1188     1    15     2    13
 -4.4819873055689585E-01 a      1189     1    15     2    14
 -2.7775210025751640E-01 a      1190     1    15     2    15
 -7.2808508243650788E-02 a      1191     1    15     2    16
  2.4053782200863620E-02 a      1192     1    15     2    17
 -2.0571678178723907E-02 a      1193     1    15     2    18
 -5.0463047692273985E-02 a      1194     1    15     2    19
 -5.8699951629343228E-01 a      1195     1    15     2    20
  3.1903479059583989E-01 a      1196     1    15     2    21
  1.2534499861447365E-01 a      1197     1    15     2    22
  1.1263611574921575E-02 a      1198     1    15     2    23
 -6.6678695027110012E-03 a      1199     1    15     2    24
  2.1950453690142827E-01 a      1200     1    15     2    25
 -1.1033459914016402E-01 a      1201     1    16     2     1
  1.2738819228810053E-01 a      1202     1    16     2     2
 -2.9230530151513562E-01 a      1203     1    16     2     3
  7.1891403173864901E-02 a      1204     1    16     2     4
 -2.3363235873390648E-02 a      1205     1    16     2     5
  3.3378493131410458E-01 a      1206     1    16     2     6
  1.1619951424859046E-01 a      1207     1    16     2     7
 -1.8331560085957091E-01 a      1208     1    16     2     8
  4.4251391517868077E-01 a      1209     1    16     2     9
 -2.1307533307017984E-01 a      1210     1    16     2    10
 -5.3042836974909602E-01 a      1211     1    16     2    11
  4.0218426251020895E-01 a      1212     1    16     2    12
 -4.2224388273953289E-01 a      1213     1    16     2    13
 -4.2636485813498964E-02 a      1214     1    16     2    14
  3.7593196523253675E-01 a      1215     1    16     2    15
  1.1397612799788129E-01 a      1216     1    16     2    16
 -1.0143708625395698E-01 a      1217     1    16     2    17
 -5.8797006384213157E-01 a      1218     1    16     2    18
 -9.1631512295967291E-02 a      1219     1    16     2    19
  3.1672532245872895E-02 a      1220     1    16     2    20
  5.1581778801955303E-01 a      1221     1    16     2    21
  1.0947183780307400E-01 a      1222     1    16     2    22
 -1.1997755029182765E-01 a      1223     1    16     2    23
  2.6470004107114575E-01 a      1224     1    16     2    24
  7.4253757721545424E-02 a      1225     1    16     2    25
  3.5746242563482172E-01 a      1226     1    17     2     1
  1.1649343826050039E-01 a      1227     1    17     2     2
 -3.3041193076045144E-01 a      1228     1    17     2     3
 -3.8449562895393075E-01 a      1229     1    17     2     4
  8.1647602261969843E-01 a      1230     1    17     2     5
  6.3589720875587719E-01 a      1231     1    17     2     6
  2.0141297837701594E-01 a      1232     1    17     2     7
  9.0618717626008538E-02 a      1233     1    17     2     8
 -7.3943408904515562E-01 a      1234     1    17     2     9
  2.1691236848080171E-02 a      1235     1    17     2    10
  2.2284612306048321E-01 a      1236     1    17     2    11
  2.6510174976873152E-01 a      1237     1    17     2    12
  2.9085597708992506E-01 a      1238     1    17     2    13
  2.1461510026758063E-01 a      1239     1    17     2    14
  2.7394195512405334E-01 a      1240     1    17     2    15
  3.3781599838850546E-01 a      1241     1    17     2    16
  3.4710128980015043E-01 a      1242     1    17     2    17
 -7.4323257792729980E-01 a      1243     1    17     2    18
  1.9626315189139848E-02 a      1244     1    17     2    19
  9.2377404330567361E-02 a      1245     1    17     2    20
  3.4042419626296241E-02 a      1246     1    17     2    21
 -3.8767788230297034E-01 a      1247     1    17     2    22
  6.3289312054028643E-02 a      1248     1    17     2    23
 -1.3742096420005515E-01 a      1249     1    17     2    24
  4.4470839188637640E-01 a      1250     1    17     2    25
 -3.9231777583457006E-01 a      1251     1    18     2     1
  1.0522507394837795E-01 a      1252     1    18     2     2
 -1.1179418588545159E-01 a      1253     1    18     2     3
  3.8289859162618178E-01 a      1254     1    18     2     4
  3.7488727264175181E-01 a      1255     1    18     2     5
  5.3780655067918938E-02 a      1256     1    18     2     6
 -3.0332641445613889E-01 a      1257     1    18     2     7
 -4.9472383268927866E-01 a      1258     1    18     2     8
 -3.3153455913907171E-01 a      1259     1    18     2     9
  1.3678818863452877E-01 a      1260     1    18     2    10
 -1.6616625744537067E-01 a      1261     1    18     2    11
  4.5291402890356885E-01 a      1262     1    18     2    12
  1.9331538520605535E-01 a      1263     1    18     2    13
 -3.2043771181857711E-01 a      1264     1    18     2    14
  4.3898406666622675E-01 a      1265     1    18     2    15
  2.3014863282967135E-01 a      1266     1    18     2    16
 -2.3243522808077829E-01 a      1267     1    18     2    17
  6.4668635199815239E-01 a      1268     1    18     2    18
  3.7918764135310992E-02 a      1269     1    18     2    19
  6.6155914479784317E-01 a      1270     1    18     2    20
  7.6499785791396469E-01 a      1271     1    18     2    21
  2.8353180027153463E-01 a      1272     1    18     2    22
  8.6198009431322620E-01 a      1273     1    18     2    23
  5.9105117123210205E-01 a      1274     1    18     2    24
  5.9824898831371676E-01 a      1275     1    18     2    25
  3.9228840214309574E-01 a      1276     1    19     2     1
  5.9110890833853447E-01 a      1277     1    19     2     2
 -9.0913411932896357E-02 a      1278     1    19     2     3
  5.5320287235405989E-02 a      1279     1    19     2     4
 -5.0238631537398153E-02 a      1280     1    19     2     5
  7.8133938409015807E-02 a      1281     1    19     2     6
 -2.0314585936889548E-02 a      1282     1    19     2     7
  1.8869932715261491E-02 a      1283     1    19     2     8
 -4.4844225931669007E-01 a      1284     1    19     2     9
 -6.2539805289490424E-01 a      1285     1    19     2    10
  2.1259031662255864E-01 a      1286     1    19     2    11
  6.6040799896749525E-01 a      1287     1    19     2    12
  5.3628035329664492E-01 a      1288     1    19     2    13
  1.5063822513097314E-01 a      1289     1    19     2    14
 -4.0061803585124095E-01 a      1290     1    19     2    15
 -4.7485186762998793E-01 a      1291     1    19     2    16
  1.6705434588362708E-01 a      1292     1    19     2    17
 -4.6122715592835239E-01 a      1293     1    19     2    18
 -1.5812015436425661E-01 a      1294     1    19     2    19
  6.2772108552755668E-01 a      1295     1    19     2    20
 -4.9368731914473668E-01 a      1296     1    19     2    21
  7.7353659612136083E-01 a      1297     1    19     2    22
  3.6960038846382204E-01 a      1298     1    19     2    23
 -1.4438766396657399E-01 a      1299     1    19     2    24
 -6.6286882746199294E-01 a      1300     1    19     2    25
  2.8787027400842469E-01 a      1301     1    20     2     1
 -2.0854111571031528E-01 a      1302     1    20     2     2
  7.9739941037316875E-01 a      1303     1    20     2     3
  1.7515153631785366E-01 a      1304     1    20     2     4
  6.7402978382465978E-02 a      1305     1    20     2     5
  3.8092039545654949E-01 a      1306     1    20     2     6
  3.7767035656785525E-01 a      1307     1    20     2     7
  3.4068065004327863E-01 a      1308     1    20     2     8
 -3.2509203189730890E-01 a      1309     1    20     2     9
  3.4802549808693217E-01 a      1310     1    20     2    10
  1.2344866730946037E-01 a      1311     1    20     2    11
 -7.7442200120211313E-01 a      1312     1    20     2    12
 -1.2407602556308923E-01 a      1313     1    20     2    13
 -3.7569495054992003E-01 a      1314     1    20     2    14
 -2.4862745761870744E-01 a      1315     1    20     2    15
 -3.4260812889539288E-01 a      1316     1    20     2    16
  2.2011526095886697E-01 a      1317     1    20     2    17
 -7.2112560860343056E-01 a      1318     1    20     2    18
 -7.2737832458875107E-02 a      1319     1    20     2    19
 -5.9262392828984478E-01 a      1320     1    20     2    20
 -4.0814323327357660E-01 a      1321     1    20     2    21
 -2.4241473424685656E-01 a      1322     1    20     2    22
  3.5879481381537226E-01 a      1323     1    20     2    23
  1.8537603872809942E-02 a      1324     1    20     2    24
 -8.2068507760312870E-01 a      1325     1    20     2    25
 -6.0695277032250461E-01 a      1326     1    21     2     1
  3.2299623448045128E-02 a      1327     1    21     2     2
  2.4768463665908835E-01 a      1328     1    21     2     3
  4.5956547115004284E-02 a      1329     1    21     2     4
 -3.5969319242625836E-01 a      1330     1    21     2     5
  6.4589977045604174E-01 a      1331     1    21     2     6
  3.2243092394984163E-01 a      1332     1    21     2     7
  7.6116470545063694E-02 a      1333     1    21     2     8
  1.2957412860975479E-01 a      1334     1    21     2     9
 -3.0916289893126730E-01 a      1335     1    21     2    10
 -3.7287350077068493E-01 a      1336     1    21     2    11
 -1.8662668683459821E-01 a      1337     1    21     2    12
 -4.5063194584405097E-01 a      1338     1    21     2    13
  3.4992262636934413E-01 a      1339     1    21     2    14
  2.4549285658161910E-01 a      1340     1    21     2    15
  2.5785232495949378E-01 a      1341     1    21     2    16
  3.5210777130219956E-01 a      1342     1    21     2    17
  1.9301599150819240E-01 a      1343     1    21     2    18
  3.8874055313147891E-03 a      1344     1    21     2    19
  1.9937191074123994E-01 a      1345     1    21     2    20
  4.2316740493190391E-01 a      1346     1    21     2    21
 -1.0965284234634884E-01 a      1347     1    21     2    22
 -5.7433403232743574E-01 a      1348     1    21     2    23
  1.8771106052033942E-01 a      1349     1    21     2    24
 -2.8053890018392985E-01 a      1350     1    21     2    25
  2.1927206026138599E-01 a      1351     1    22     2     1
  4.3682594733463770E-01 a      1352     1    22     2     2
 -5.0985918577835326E-02 a      1353     1    22     2     3
  3.0766473397616279E-01 a      1354     1    22     2     4
 -1.8115326622223546E-01 a      1355     1    22     2     5
 -2.2049580226154664E-01 a      1356     1    22     2     6
  3.1418286644886229E-01 a      1357     1    22     2     7
 -5.7825468651946588E-01 a      1358     1    22     2     8
 -2.2387652861845944E-01 a      1359     1    22     2     9
  2.4521176606054365E-01 a      1360     1    22     2    10
 -1.9861360784813514E-01 a      1361     1    22     2    11
  5.9790080815981594E-01 a      1362     1    22     2    12
 -3.6224208897352100E-01 a      1363     1    22     2    13
  4.6936485416565915E-01 a      1364     1    22     2    14
 -2.3026977163580467E-01 a      1365     1    22     2    15
 -1.7455697369007536E-01 a      1366     1    22     2    16
  6.6482620436672257E-01 a      1367     1    22     2    17
  6.1998320363608611E-02 a      1368     1    22     2    18
  3.9323121007570039E-01 a      1369     1    22     2    19
  2.3934600001445461E-01 a      1370     1    22     2    20
 -4.6171652914808609E-01 a      1371     1    22     2    21
 -1.8789511372622369E-01 a      1372     1    22     2    22
 -5.7094137254861821E-01 a      1373     1    22     2    23
  2.0105023554154752E-01 a      1374     1    22     2    24
 -1.6316053123140536E-01 a      1375     1    22     2    25
 -1.5134156438609969E-01 a      1376     1    23     2     1
 -8.9578470555953985E-02 a      1377     1    23     2     2
  2.1091758979418526E-01 a      1378     1    23     2     3
  1.1498546840674671E-01 a      1379     1    23     2     4
 -1.5426842500731766E-01 a      1380     1    23     2     5
 -4.0964105227099423E-01 a      1381     1    23     2     6
  3.3992358736479056E-01 a      1382     1    23     2     7
 -5.8836978081829738E-01 a      1383     1    23     2     8
  1.0334901319061995E-01 a      1384     1    23     2     9
  2.5775411898074191E-01 a      1385     1    23     2    10
 -6.8542293829821987E-01 a      1386     1    23     2    11
 -2.7082708596041399E-01 a      1387     1    23     2    12
 -2.0062153299385535E-01 a      1388     1    23     2    13
 -3.2963828684384855E-01 a      1389     1    23     2    14
 -3.6270773766533398E-01 a      1390     1    23     2    15
  1.9221991774905892E-01 a      1391     1    23     2    16
  8.9165708445331027E-01 a      1392     1    23     2    17
 -1.8265196370809988E-01 a      1393     1    23     2    18
  1.0044223729456911E-01 a      1394     1    23     2    19
  3.4976098021864007E-03 a      1395     1    23     2    20
 -8.6915454190595862E-02 a      1396     1    23     2    21
 -5.5357779412254685E-02 a      1397     1    23     2    22
 -5.9553765637687994E-01 a      1398     1    23     2    23
  7.4718065784010457E-01 a      1399     1    23     2    24
  5.6284605937847787E-01 a      1400     1    23     2    25
  6.5420621002903356E-02 a      1401     1    24     2     1
 -2.0892145656029593E-01 a      1402     1    24     2     2
  3.4429066397176816E-01 a      1403     1    24     2     3
 -4.4749669644712879E-02 a      1404     1    24     2     4
  1.5406940369285799E-01 a      1405     1    24     2     5
 -2.5017715720616235E-01 a      1406     1    24     2     6
  6.8162377568696131E-01 a      1407     1    24     2     7
  2.7172299332501709E-01 a      1408     1    24     2     8
  5.8418213402831168E-02 a      1409     1    24     2     9
 -5.9114196898475002E-01 a      1410     1    24     2    10
 -2.0442543708227331E-01 a      1411     1    24     2    11
  5.2464782087014272E-01 a      1412     1    24     2    12
 -5.7432341792592256E-01 a      1413     1    24     2    13
 -3.3273868298356041E-01 a      1414     1    24     2    14
 -1.5549204662676816E-01 a      1415     1    24     2    15
 -8.2309752535558833E-01 a      1416     1    24     2    16
 -2.8374762458956104E-01 a      1417     1    24     2    17
 -3.1100408735795171E-01 a      1418     1    24     2    18
  9.3941107360372644E-02 a      1419     1    24     2    19
 -9.6092479273026443E-01 a      1420     1    24     2    20
  6.0872474516435426E-01 a      1421     1    24     2    21
 -5.4519564380136576E-01 a      1422     1    24     2    22
 -4.4711155134122071E-01 a      1423     1    24     2    23
 -3.7337991640465407E-01 a      1424     1    24     2    24
  2.5100733402009312E-01 a      1425     1    24     2    25
 -9.8863398843822368E-03 a      1426     1    25     2     1
  2.5247297809643637E-01 a      1427     1    25     2     2
  7.0465492629249241E-02 a      1428     1    25     2     3
  1.7958742600621794E-01 a      1429     1    25     2     4
 -7.6688548657418006E-04 a      1430     1    25     2     5
 -1.1778507752939596E-01 a      1431     1    25     2     6
 -3.1790841895888089E-01 a      1432     1    25     2     7
  2.8694688855897915E-01 a      1433     1    25     2     8
 -2.0007938409017839E-01 a      1434     1    25     2     9
  2.5578823488762537E-01 a      1435     1    25     2    10
 -1.7967830260813780E-01 a      1436     1    25     2    11
 -1.8298191248959167E-01 a      1437     1    25     2    12
 -1.1128763587819193E-01 a      1438     1    25     2    13
  3.1815810255506932E-01 a      1439     1    25     2    14
  9.7054940844275739E-02 a      1440     1    25     2    15
  2.9083063002948556E-01 a      1441     1    25     2    16
  2.0315440677674271E-01 a      1442     1    25     2    17
  6.1482699516677941E-01 a      1443     1    25     2    18
  9.2310098525007211E-02 a      1444     1    25     2    19
 -2.4515984892688000E-01 a      1445     1    25     2    20
  4.2357477144032890E-01 a      1446     1    25     2    21
  2.8020129176477199E-01 a      1447     1    25     2    22
 -2.1002911058879317E-01 a      1448     1    25     2    23
 -4.0734345129731986E-01 a      1449     1    25     2    24
  1.9246440046004895E-01 a      1450     1    25     2    25
  4.7263021516425824E-01 b      1451     2     1
  1.0389182167877247E+00 b      1452     2     2
  1.1998236563189926E+00 b      1453     2     3
  2.0126863443528991E+00 b      1454     2     4
 -1.3727828674125322E+00 b      1455     2     5
 -8.4371030863897700E-01 b      1456     2     6
  1.2564647413965877E+00 b      1457     2     7
  7.6181504902547525E-01 b      1458     2     8
  9.3757345939119796E-01 b      1459     2     9
  1.0550404625294609E+00 b      1460     2    10
 -9.0983254426856591E-02 b      1461     2    11
  4.0811629934770999E-01 b      1462     2    12
  6.3953716078154310E-01 b      1463     2    13
 -1.5097976605472313E-01 b      1464     2    14
  1.1896832780866060E+00 b      1465     2    15
 -8.5265581411286606E-01 b      1466     2    16
  3.6811295004717531E-01 b      1467     2    17
 -6.9081101472866085E-02 b      1468     2    18
  1.2863835374646519E+00 b      1469     2    19
 -1.1733532645853386E+00 b      1470     2    20
  1.4045777668006740E+00 b      1471     2    21
  1.0599877900725234E+00 b      1472     2    22
 -8.8800290250017455E-01 b      1473     2    23
  9.0805904314220920E-01 b      1474     2    24
  1.8300633958809481E-01 b      1475     2    25
 -1.6861393577519279E-01 a      1476     2     1     3     1
  3.8400211938443252E-01 a      1477     2     2     3     1
  4.3121931875979763E-01 a      1478     2     3     3     1
  3.0036130232491864E-01 a      1479     2     4     3     1
  3.9991374833430904E-01 a      1480     2     5     3     1
  4.8358373950343991E-01 a      1481     2     6     3     1
 -4.6714368220004451E-02 a      1482     2     7     3     1
  2.7977969599662797E-02 a      1483     2     8     3     1
  4.0757051333124533E-01 a      1484     2     9     3     1
  2.5106876052645999E-01 a      1485     2    10     3     1
  3.7110013693749144E-01 a      1486     2    11     3     1
  1.2538355314832241E+00 a      1487     2    12     3     1
  1.3347484098267948E-01 a      1488     2    13     3     1
 -4.7105600123833809E-02 a      1489     2    14     3     1
  3.0017100433935379E-02 a      1490     2    15     3     1
 -8.3678619282107472E-02 a      1491     2    16     3     1
  4.7581253398730777E-01 a      1492     2    17     3     1
  1.0509390769600314E-02 a      1493     2    18     3     1
 -9.5225883653799956E-02 a      1494     2    19     3     1
  4.9655970743948320E-02 a      1495     2    20     3     1
 -6.7618788737875177E-02 a      1496     2    21     3     1
  1.2906896493139802E-01 a      1497     2    22     3     1
 -3.5829325066805701E-01 a      1498     2    23     3     1
  5.0191341262960087E-01 a      1499     2    24     3     1
  9.5756978245485500E-02 a      1500     2    25     3     1
  7.9753189203355737E-02 b      1501     3     1
