################################################################################
# Neural network connection values (weights and biases).
################################################################################
# Col  Name       Description
################################################################################
# 1    connection Neural network connection value.
# 2    t          Connection type (a = weight, b = bias).
# 3    index      Index enumerating weights.
# 4    l_s        Starting point layer (end point layer for biases).
# 5    n_s        Starting point neuron in starting layer (end point neuron for biases).
# 6    l_e        End point layer.
# 7    n_e        End point neuron in end layer.
################################################################################
#                      1 2         3     4     5     6     7
#             connection t     index   l_s   n_s   l_e   n_e
############################################################
  2.6406889562694008E-01 a         1     0     1     1     1
 -5.1502520185332822E-02 a         2     0     1     1     2
  4.2312024236758600E-01 a         3     0     1     1     3
  4.7831488060144783E-01 a         4     0     1     1     4
 -2.8331370231849556E-01 a         5     0     1     1     5
  7.0355178653313481E-03 a         6     0     1     1     6
 -2.4715691076728935E-01 a         7     0     1     1     7
  1.4977918814103294E-01 a         8     0     1     1     8
  2.5408664413996865E-03 a         9     0     1     1     9
 -4.0527879631076402E-02 a        10     0     1     1    10
 -3.6780332544825545E-02 a        11     0     1     1    11
  5.4829337846845894E-01 a        12     0     1     1    12
 -2.9583762019616067E-01 a        13     0     1     1    13
 -4.8652121797413134E-01 a        14     0     1     1    14
 -2.6916618310230689E-01 a        15     0     1     1    15
 -3.7324841785794760E-02 a        16     0     1     1    16
 -3.7712553920995867E-01 a        17     0     1     1    17
 -1.8149996086592032E-01 a        18     0     1     1    18
 -2.6491087006956234E-02 a        19     0     1     1    19
 -4.1006807426855874E-01 a        20     0     1     1    20
  1.3100427420277294E-01 a        21     0     1     1    21
 -3.0815996381116758E-02 a        22     0     1     1    22
 -3.9948026898743255E-01 a        23     0     1     1    23
 -1.7880011831575178E-02 a        24     0     1     1    24
  8.5297695297284398E-02 a        25     0     1     1    25
 -2.4908041417656010E-01 a        26     0     2     1     1
 -1.2470936476772911E-01 a        27     0     2     1     2
 -5.0273976185010194E-01 a        28     0     2     1     3
 -3.8008947283057914E-01 a        29     0     2     1     4
  1.7515022861686558E-01 a        30     0     2     1     5
  2.2383964118275587E-01 a        31     0     2     1     6
  4.1122870572443397E-02 a        32     0     2     1     7
 -1.0129171021879241E-01 a        33     0     2     1     8
  1.0505405334870975E-01 a        34     0     2     1     9
  5.7186353231161879E-01 a        35     0     2     1    10
  3.9988795606709163E-02 a        36     0     2     1    11
  1.0617870294529068E-01 a        37     0     2     1    12
  1.9132777570443671E-01 a        38     0     2     1    13
  1.9449190918235379E-01 a        39     0     2     1    14
  3.8796088418406993E-01 a        40     0     2     1    15
 -1.2346004991461264E-01 a        41     0     2     1    16
  2.3222353049711209E-02 a        42     0     2     1    17
 -7.4992908556366575E-02 a        43     0     2     1    18
  8.6523265691481083E-02 a        44     0     2     1    19
 -3.9536495330907098E-02 a        45     0     2     1    20
  2.1696011902903256E-01 a        46     0     2     1    21
 -9.7523527695210666E-02 a        47     0     2     1    22
 -1.1657461347368164E-01 a        48     0     2     1    23
 -8.4938567623701125E-03 a        49     0     2     1    24
 -7.3614203813748030E-02 a        50     0     2     1    25
 -2.0587855424139340E-01 a        51     0     3     1     1
 -8.0719731741943357E-02 a        52     0     3     1     2
 -2.0812707655041310E-01 a        53     0     3     1     3
 -3.3542545417394853E-01 a        54     0     3     1     4
 -2.3213543830159944E-01 a        55     0     3     1     5
 -8.9876906163558645E-02 a        56     0     3     1     6
  7.8535860452812870E-02 a        57     0     3     1     7
  5.3928991187723885E-01 a        58     0     3     1     8
  6.3839426520479814E-01 a        59     0     3     1     9
  3.0677589957786661E-01 a        60     0     3     1    10
  5.3970349424902109E-01 a        61     0     3     1    11
 -4.7308881923343138E-01 a        62     0     3     1    12
  5.7670661103327525E-01 a        63     0     3     1    13
 -3.6206442251915140E-02 a        64     0     3     1    14
  6.2147255810093815E-01 a        65     0     3     1    15
  3.7580936346858862E-01 a        66     0     3     1    16
  3.5930931770012853E-01 a        67     0     3     1    17
  2.9105294418755916E-02 a        68     0     3     1    18
  3.9192956592893036E-01 a        69     0     3     1    19
  4.6565591018448665E-01 a        70     0     3     1    20
  4.4241243517640449E-01 a        71     0     3     1    21
 -1.0127009859765741E+00 a        72     0     3     1    22
 -1.0763760440632482E-01 a        73     0     3     1    23
  4.7321655235647786E-01 a        74     0     3     1    24
 -8.3836466317868208E-01 a        75     0     3     1    25
 -1.5633840027431295E-01 a        76     0     4     1     1
  6.1741644793836578E-02 a        77     0     4     1     2
  3.4547400094450897E-01 a        78     0     4     1     3
 -2.7460908504752496E-01 a        79     0     4     1     4
 -4.2351424516937264E-01 a        80     0     4     1     5
  6.9227660571976407E-02 a        81     0     4     1     6
 -4.8801445721345378E-02 a        82     0     4     1     7
 -3.4439835211850489E-01 a        83     0     4     1     8
  1.3003127179276372E-01 a        84     0     4     1     9
  1.6035410115205739E-01 a        85     0     4     1    10
 -7.1637484885110736E-02 a        86     0     4     1    11
 -1.2738599983315785E-01 a        87     0     4     1    12
 -1.1605327489550182E-01 a        88     0     4     1    13
  7.6170762665634162E-02 a        89     0     4     1    14
 -3.6523999148321745E-01 a        90     0     4     1    15
 -1.6970055486819952E-01 a        91     0     4     1    16
  1.4940407310519732E-01 a        92     0     4     1    17
  1.5870191863388511E-01 a        93     0     4     1    18
 -4.6630557313644308E-02 a        94     0     4     1    19
  4.2999678216972106E-02 a        95     0     4     1    20
  1.5553832142308477E-01 a        96     0     4     1    21
  1.5127815434880032E-01 a        97     0     4     1    22
  3.8975947351446366E-01 a        98     0     4     1    23
 -6.4242747911333248E-02 a        99     0     4     1    24
  9.6975666157287491E-02 a       100     0     4     1    25
 -2.9525114025679206E-01 a       101     0     5     1     1
 -4.5935157744913757E-01 a       102     0     5     1     2
  1.3908293401597369E-01 a       103     0     5     1     3
  8.0669548853543671E-01 a       104     0     5     1     4
  3.5124629314115074E-01 a       105     0     5     1     5
  2.0491047710603166E-01 a       106     0     5     1     6
 -1.9287102774243681E-01 a       107     0     5     1     7
  2.4962154037477033E-01 a       108     0     5     1     8
 -4.8563161988758741E-01 a       109     0     5     1     9
  8.8175918619204471E-02 a       110     0     5     1    10
 -1.4311834253611402E-01 a       111     0     5     1    11
  2.2913468642180931E-01 a       112     0     5     1    12
 -1.3801298423666769E-01 a       113     0     5     1    13
  2.9130399199950263E-01 a       114     0     5     1    14
  3.3169944782800703E-01 a       115     0     5     1    15
  4.5614987442254334E-01 a       116     0     5     1    16
 -7.2182532570136615E-01 a       117     0     5     1    17
 -1.8319220268687703E-01 a       118     0     5     1    18
 -4.0458543934185776E-01 a       119     0     5     1    19
 -4.6568355258238758E-01 a       120     0     5     1    20
  3.5783173085742781E-01 a       121     0     5     1    21
  8.3857930900397490E-02 a       122     0     5     1    22
  5.4094976448333887E-01 a       123     0     5     1    23
 -1.3610255206225491E-01 a       124     0     5     1    24
  3.2191633965076943E-01 a       125     0     5     1    25
  2.5631084795326203E-01 a       126     0     6     1     1
 -1.8112466899029128E-01 a       127     0     6     1     2
  4.0548049221182003E-01 a       128     0     6     1     3
  6.2697225971636780E-02 a       129     0     6     1     4
  2.5144520945650833E-01 a       130     0     6     1     5
  1.6311277383694420E-01 a       131     0     6     1     6
  4.3855557155479125E-01 a       132     0     6     1     7
  3.2360239116145778E-01 a       133     0     6     1     8
 -6.7759603699139401E-02 a       134     0     6     1     9
  4.7754006528699777E-01 a       135     0     6     1    10
 -6.3876567001782059E-01 a       136     0     6     1    11
  1.5907602177921062E-01 a       137     0     6     1    12
 -2.3361303611529227E-01 a       138     0     6     1    13
 -2.2262807207693969E-01 a       139     0     6     1    14
 -5.7522863602604377E-02 a       140     0     6     1    15
  1.6859863788712937E-01 a       141     0     6     1    16
  1.8794422774998570E-02 a       142     0     6     1    17
  1.4589046800031130E-01 a       143     0     6     1    18
  9.9862049288614099E-02 a       144     0     6     1    19
  1.4641406364359439E-02 a       145     0     6     1    20
  2.0710753131361399E-02 a       146     0     6     1    21
  2.9585968031120502E-01 a       147     0     6     1    22
  1.2346070422780833E-01 a       148     0     6     1    23
  6.5176272286626827E-02 a       149     0     6     1    24
  1.6802430664728621E-01 a       150     0     6     1    25
  2.7444783590562100E-01 a       151     0     7     1     1
  1.0118264567206194E-01 a       152     0     7     1     2
  2.7538093343181946E-01 a       153     0     7     1     3
 -4.2225042980772780E-02 a       154     0     7     1     4
 -5.9650695063924668E-02 a       155     0     7     1     5
 -3.7112241185386280E-02 a       156     0     7     1     6
  1.9414302177587256E-01 a       157     0     7     1     7
  7.8916887135052671E-01 a       158     0     7     1     8
  8.5325686523180655E-01 a       159     0     7     1     9
  1.0583749491245663E-01 a       160     0     7     1    10
  1.6183264010390849E-01 a       161     0     7     1    11
 -1.4577391997714972E-01 a       162     0     7     1    12
  6.2225409015520011E-02 a       163     0     7     1    13
 -6.6408696968902159E-01 a       164     0     7     1    14
  9.4010604545975318E-02 a       165     0     7     1    15
  2.5745648706494417E-01 a       166     0     7     1    16
 -4.7882507791345959E-02 a       167     0     7     1    17
  9.9404005764647113E-02 a       168     0     7     1    18
  4.5081148608805688E-01 a       169     0     7     1    19
  4.5350259802714576E-01 a       170     0     7     1    20
 -2.8720748456895900E-01 a       171     0     7     1    21
 -6.7439134652709143E-01 a       172     0     7     1    22
 -8.5753902377964417E-02 a       173     0     7     1    23
  2.0158529749931850E-01 a       174     0     7     1    24
 -6.9700361903541652E-01 a       175     0     7     1    25
 -1.7613860641709558E-01 a       176     0     8     1     1
 -4.9238839733456607E-02 a       177     0     8     1     2
 -5.2809250121279783E-01 a       178     0     8     1     3
 -7.2659882597976022E-01 a       179     0     8     1     4
 -5.4833108919026019E-01 a       180     0     8     1     5
 -7.7497915652199018E-02 a       181     0     8     1     6
  1.1877393138659180E-01 a       182     0     8     1     7
 -4.0403838531446118E-01 a       183     0     8     1     8
  5.8502410764787315E-02 a       184     0     8     1     9
  1.9851659819391110E-01 a       185     0     8     1    10
 -1.5097789585180213E-01 a       186     0     8     1    11
 -1.8798691921276703E-01 a       187     0     8     1    12
 -8.1449853545467937E-02 a       188     0     8     1    13
 -4.2587591476212905E-01 a       189     0     8     1    14
  5.5563799990167625E-02 a       190     0     8     1    15
 -4.0063737630772578E-01 a       191     0     8     1    16
  1.5695580676378518E-01 a       192     0     8     1    17
 -3.1726577606862837E-02 a       193     0     8     1    18
  2.5127839193422902E-01 a       194     0     8     1    19
  3.0415781242034839E-01 a       195     0     8     1    20
 -4.9031200248720541E-01 a       196     0     8     1    21
  2.1705378728181715E-01 a       197     0     8     1    22
 -5.5060221204414472E-01 a       198     0     8     1    23
  3.9726994411548372E-01 a       199     0     8     1    24
 -1.0466042825908888E-01 a       200     0     8     1    25
 -3.1322072280182196E-02 a       201     0     9     1     1
  1.4737186713202596E-01 a       202     0     9     1     2
  2.6023551533714613E-02 a       203     0     9     1     3
 -2.3614349614643096E-01 a       204     0     9     1     4
 -2.5318531808985811E-01 a       205     0     9     1     5
  2.4110849776279017E-01 a       206     0     9     1     6
 -1.2264866243607186E-01 a       207     0     9     1     7
  5.2147661810642498E-01 a       208     0     9     1     8
 -1.0417913765050836E-01 a       209     0     9     1     9
  1.0958484592990826E-01 a       210     0     9     1    10
 -2.0396170807218886E-01 a       211     0     9     1    11
  3.8259988242477372E-01 a       212     0     9     1    12
 -3.8176720231298707E-02 a       213     0     9     1    13
 -3.0062267576310675E-01 a       214     0     9     1    14
  3.6482806824833003E-01 a       215     0     9     1    15
  3.9986378556752203E-04 a       216     0     9     1    16
 -4.4333963124735531E-01 a       217     0     9     1    17
  2.2312911753108655E-01 a       218     0     9     1    18
 -3.4648746147109671E-01 a       219     0     9     1    19
 -3.1082301328503803E-01 a       220     0     9     1    20
  1.4428570764627754E-01 a       221     0     9     1    21
  2.4748958015412126E-01 a       222     0     9     1    22
 -1.4941883371707770E-01 a       223     0     9     1    23
  1.6016669474215431E-01 a       224     0     9     1    24
 -1.1212263371760246E-01 a       225     0     9     1    25
 -2.9222938564999640E-01 a       226     0    10     1     1
  5.8215686525606700E-02 a       227     0    10     1     2
  3.6364436286362767E-02 a       228     0    10     1     3
 -1.6075044106491099E-01 a       229     0    10     1     4
 -1.0566042725044801E-01 a       230     0    10     1     5
  6.4937995777062982E-02 a       231     0    10     1     6
 -2.4889104988750377E-01 a       232     0    10     1     7
 -1.7817288774756140E-01 a       233     0    10     1     8
  1.4452487250558005E-01 a       234     0    10     1     9
  9.1629845067608434E-02 a       235     0    10     1    10
  4.7867126946195826E-02 a       236     0    10     1    11
  1.1155680693467243E-02 a       237     0    10     1    12
 -2.8968622702513558E-01 a       238     0    10     1    13
  4.8132259146660622E-01 a       239     0    10     1    14
 -2.8133485961187316E-01 a       240     0    10     1    15
 -9.5249943379373703E-02 a       241     0    10     1    16
  3.9443134335312280E-01 a       242     0    10     1    17
 -2.2191902382339812E-01 a       243     0    10     1    18
  2.6688908796446859E-01 a       244     0    10     1    19
  1.5302534687506636E-01 a       245     0    10     1    20
  1.2361703142381847E-01 a       246     0    10     1    21
  5.1444888442233168E-02 a       247     0    10     1    22
 -5.9680691209525752E-02 a       248     0    10     1    23
 -2.7583387039314060E-02 a       249     0    10     1    24
  1.2370829625604832E-01 a       250     0    10     1    25
 -3.1984295731184782E-02 a       251     0    11     1     1
 -8.4486253698220909E-02 a       252     0    11     1     2
 -3.4831646367271631E-02 a       253     0    11     1     3
  8.4725476087926660E-02 a       254     0    11     1     4
 -7.0559067674194689E-02 a       255     0    11     1     5
  1.9525231799887388E-01 a       256     0    11     1     6
  1.0838422401458794E-01 a       257     0    11     1     7
 -1.3188361269490127E-02 a       258     0    11     1     8
  1.6643233902724519E-01 a       259     0    11     1     9
  2.1133921328705041E-01 a       260     0    11     1    10
  3.0994833728194317E-02 a       261     0    11     1    11
  9.6714833400221648E-02 a       262     0    11     1    12
  1.8380481773596477E-01 a       263     0    11     1    13
 -3.4677514374435137E-01 a       264     0    11     1    14
 -2.8858134172619765E-01 a       265     0    11     1    15
 -1.0330129175671190E-01 a       266     0    11     1    16
  1.5855953494656939E-02 a       267     0    11     1    17
 -1.8238724717734484E-01 a       268     0    11     1    18
  3.4213726871370959E-01 a       269     0    11     1    19
  4.0897801517299359E-01 a       270     0    11     1    20
  1.4439160027308293E-01 a       271     0    11     1    21
 -2.2255133510618794E-01 a       272     0    11     1    22
  4.2268207838680938E-01 a       273     0    11     1    23
 -4.4979907481672590E-02 a       274     0    11     1    24
 -3.0440931654452058E-01 a       275     0    11     1    25
  1.6801453079635723E-01 a       276     0    12     1     1
 -1.1562418975809668E-01 a       277     0    12     1     2
  5.7511451384318041E-02 a       278     0    12     1     3
  1.5635530847512624E-01 a       279     0    12     1     4
  2.5942583484923654E-01 a       280     0    12     1     5
 -1.4343143512583692E-01 a       281     0    12     1     6
 -1.3387032536828014E-01 a       282     0    12     1     7
 -5.1751737509022143E-02 a       283     0    12     1     8
 -3.5626394599673722E-01 a       284     0    12     1     9
 -2.7770715955409120E-01 a       285     0    12     1    10
 -1.6032694471122527E-01 a       286     0    12     1    11
 -1.6834845014945707E-01 a       287     0    12     1    12
  1.3685769132533427E-02 a       288     0    12     1    13
 -4.0316513014215100E-02 a       289     0    12     1    14
 -3.1133553443212902E-01 a       290     0    12     1    15
  1.6258888052049530E-01 a       291     0    12     1    16
  4.6157879341387383E-02 a       292     0    12     1    17
 -4.0264728485119761E-01 a       293     0    12     1    18
 -2.5336661411829164E-01 a       294     0    12     1    19
  8.7430502107318717E-02 a       295     0    12     1    20
 -7.7853538225337554E-02 a       296     0    12     1    21
  1.4927561392870262E-01 a       297     0    12     1    22
 -2.8801487783580097E-02 a       298     0    12     1    23
  1.5045699542636390E-01 a       299     0    12     1    24
  2.5737730450293511E-01 a       300     0    12     1    25
 -2.3517916120929347E-01 a       301     0    13     1     1
  1.3990435341136645E-01 a       302     0    13     1     2
 -1.4997153531571319E-01 a       303     0    13     1     3
 -2.2543542628332314E-01 a       304     0    13     1     4
 -1.4641054653831878E-01 a       305     0    13     1     5
 -4.4450195421309940E-01 a       306     0    13     1     6
 -1.5980215480737478E-01 a       307     0    13     1     7
  2.5499235757414357E-01 a       308     0    13     1     8
 -1.1629419239533703E-01 a       309     0    13     1     9
 -1.7720680239039624E-01 a       310     0    13     1    10
  1.2345040941462571E-01 a       311     0    13     1    11
 -3.8691845097561922E-01 a       312     0    13     1    12
  3.7891473143538984E-01 a       313     0    13     1    13
  4.5048008068705553E-01 a       314     0    13     1    14
  3.7615316424194889E-01 a       315     0    13     1    15
  1.7294741150601806E-01 a       316     0    13     1    16
 -1.0063867492570780E-01 a       317     0    13     1    17
  4.2434939069104166E-01 a       318     0    13     1    18
 -4.0591901450214428E-02 a       319     0    13     1    19
 -7.6592034645209441E-03 a       320     0    13     1    20
  2.2194675800502747E-01 a       321     0    13     1    21
  1.0141032368990439E-01 a       322     0    13     1    22
  4.5591007631086602E-02 a       323     0    13     1    23
  3.4583045467172446E-01 a       324     0    13     1    24
  1.0475004185360162E-01 a       325     0    13     1    25
  1.1447838092556728E-01 a       326     0    14     1     1
 -8.0310932305803634E-03 a       327     0    14     1     2
 -1.2040143001905469E-01 a       328     0    14     1     3
 -8.7777232084622694E-02 a       329     0    14     1     4
 -5.1187059715895121E-02 a       330     0    14     1     5
  3.3270784129509406E-01 a       331     0    14     1     6
 -1.7702199729908363E-01 a       332     0    14     1     7
 -1.1979955026978384E-01 a       333     0    14     1     8
  9.0691108813648169E-02 a       334     0    14     1     9
 -3.0170877390473089E-01 a       335     0    14     1    10
 -2.5225226864448575E-02 a       336     0    14     1    11
  1.1381603887793124E-01 a       337     0    14     1    12
 -2.3519233581031262E-01 a       338     0    14     1    13
  2.6149940810893613E-02 a       339     0    14     1    14
  1.3680155260891214E-01 a       340     0    14     1    15
 -1.4282416237876333E-01 a       341     0    14     1    16
  9.1671424756698178E-02 a       342     0    14     1    17
  1.4579958751398941E-01 a       343     0    14     1    18
 -7.0896252544332952E-03 a       344     0    14     1    19
 -3.2367755940105644E-02 a       345     0    14     1    20
 -1.3062302833624242E-01 a       346     0    14     1    21
 -1.4630981344667435E-01 a       347     0    14     1    22
  1.0804245249325910E-01 a       348     0    14     1    23
 -2.7758447209447018E-01 a       349     0    14     1    24
  1.3789044691819238E-01 a       350     0    14     1    25
  1.4980980181567399E-01 a       351     0    15     1     1
  1.1272657670507451E-01 a       352     0    15     1     2
  1.7874973248903281E-01 a       353     0    15     1     3
  1.9461430420271281E-01 a       354     0    15     1     4
  3.8422858359345731E-02 a       355     0    15     1     5
  8.1269199282700003E-02 a       356     0    15     1     6
  6.3593261562342351E-01 a       357     0    15     1     7
 -1.8225982000376759E-01 a       358     0    15     1     8
 -7.4925331549469634E-02 a       359     0    15     1     9
 -4.7401832112989916E-03 a       360     0    15     1    10
  1.0118799692117138E-01 a       361     0    15     1    11
  1.0466633344896251E-01 a       362     0    15     1    12
 -1.6781993172203397E-01 a       363     0    15     1    13
 -4.0183948910269091E-01 a       364     0    15     1    14
  6.2884318972007934E-03 a       365     0    15     1    15
 -4.7788582933918555E-03 a       366     0    15     1    16
 -1.0094564220280097E-01 a       367     0    15     1    17
 -8.9346131760786290E-02 a       368     0    15     1    18
  1.6857003102254117E-01 a       369     0    15     1    19
 -2.3543423275586409E-02 a       370     0    15     1    20
  2.1071505405517721E-01 a       371     0    15     1    21
 -1.2810240632113551E-01 a       372     0    15     1    22
 -8.1602569517672724E-02 a       373     0    15     1    23
 -1.9013338612914851E-01 a       374     0    15     1    24
 -1.2381588998178661E-01 a       375     0    15     1    25
  1.1203410322548309E-01 a       376     0    16     1     1
 -2.2365107585569244E-01 a       377     0    16     1     2
 -3.0461887242197203E-02 a       378     0    16     1     3
 -1.1221336690071698E-01 a       379     0    16     1     4
  5.1681207586124621E-02 a       380     0    16     1     5
  4.1793153938906680E-01 a       381     0    16     1     6
 -7.0994308469885345E-02 a       382     0    16     1     7
 -2.3322325918868497E-01 a       383     0    16     1     8
  4.1050351416351903E-02 a       384     0    16     1     9
 -1.1170739647289869E-01 a       385     0    16     1    10
  6.7612026669175651E-02 a       386     0    16     1    11
  2.2286833138881793E-01 a       387     0    16     1    12
  2.2978675907358506E-01 a       388     0    16     1    13
 -1.2722368312408500E-01 a       389     0    16     1    14
 -4.5173032410715286E-01 a       390     0    16     1    15
 -6.4667738736722997E-03 a       391     0    16     1    16
  1.8148455393841426E-01 a       392     0    16     1    17
 -2.1242930645492894E-01 a       393     0    16     1    18
  1.5644808034420660E-01 a       394     0    16     1    19
 -1.9488297876455250E-03 a       395     0    16     1    20
  1.1031871332487260E-02 a       396     0    16     1    21
  2.2962218860070513E-01 a       397     0    16     1    22
  1.7305846605380193E-01 a       398     0    16     1    23
  5.0019047725512807E-02 a       399     0    16     1    24
  1.8341856315619220E-01 a       400     0    16     1    25
 -4.1462752945344843E-02 a       401     0    17     1     1
 -1.5855518544339550E-01 a       402     0    17     1     2
 -6.0563153398941423E-02 a       403     0    17     1     3
  1.3349291851551159E-01 a       404     0    17     1     4
 -6.7548388579649621E-02 a       405     0    17     1     5
 -8.7255546923561356E-02 a       406     0    17     1     6
 -9.0378311652241874E-02 a       407     0    17     1     7
  4.9968193084530460E-02 a       408     0    17     1     8
 -3.6862201434336765E-02 a       409     0    17     1     9
 -3.4358354999197865E-01 a       410     0    17     1    10
 -9.6834525104020117E-02 a       411     0    17     1    11
  1.0492132807561541E-01 a       412     0    17     1    12
 -1.9297049709344957E-01 a       413     0    17     1    13
  2.8946127287432805E-01 a       414     0    17     1    14
  2.8152554905006205E-01 a       415     0    17     1    15
 -1.7492759378229136E-01 a       416     0    17     1    16
  1.4583948728163218E-01 a       417     0    17     1    17
  1.1566616681132254E-01 a       418     0    17     1    18
  8.2838148774002418E-02 a       419     0    17     1    19
  4.7585606809862235E-02 a       420     0    17     1    20
  9.7734913191599229E-02 a       421     0    17     1    21
  1.0590240284782214E-01 a       422     0    17     1    22
 -1.1690566432693643E-02 a       423     0    17     1    23
 -2.0885558645442320E-02 a       424     0    17     1    24
  1.9800980712093408E-02 a       425     0    17     1    25
 -2.3261910196054508E-01 a       426     0    18     1     1
  4.6655421784019317E-02 a       427     0    18     1     2
 -6.6369410729855841E-03 a       428     0    18     1     3
 -1.5190137773463699E-01 a       429     0    18     1     4
  1.0229223043753485E-01 a       430     0    18     1     5
 -1.9273721775791380E-01 a       431     0    18     1     6
 -5.1695280810304001E-01 a       432     0    18     1     7
  1.3811347915853558E-01 a       433     0    18     1     8
 -2.2794399799360442E-02 a       434     0    18     1     9
  1.4837778024317920E-02 a       435     0    18     1    10
 -9.6829031636801219E-02 a       436     0    18     1    11
 -3.8380382082654228E-02 a       437     0    18     1    12
 -1.2694531249706026E-01 a       438     0    18     1    13
  9.9078138647225533E-02 a       439     0    18     1    14
  5.1530060026017559E-02 a       440     0    18     1    15
 -1.0206523609110561E-01 a       441     0    18     1    16
 -1.8752596109272313E-01 a       442     0    18     1    17
  1.7065224896213921E-01 a       443     0    18     1    18
 -2.6426821401656059E-01 a       444     0    18     1    19
  1.0879268119660508E-01 a       445     0    18     1    20
 -1.0467239530341871E-02 a       446     0    18     1    21
 -9.5814118990995109E-02 a       447     0    18     1    22
 -2.9146151397634512E-01 a       448     0    18     1    23
 -2.5887920795250204E-02 a       449     0    18     1    24
 -1.2401888665556934E-01 a       450     0    18     1    25
 -9.0731274583909241E-02 a       451     0    19     1     1
  1.6944258951177085E-01 a       452     0    19     1     2
 -1.9039592388937418E-01 a       453     0    19     1     3
 -2.0042654892675850E-02 a       454     0    19     1     4
  4.1646056564246130E-02 a       455     0    19     1     5
 -2.4988570169458921E-01 a       456     0    19     1     6
  1.3474999140299623E-01 a       457     0    19     1     7
 -3.0879704162009611E-02 a       458     0    19     1     8
  1.9080011715577777E-01 a       459     0    19     1     9
 -6.3539904497361493E-02 a       460     0    19     1    10
  6.5997635001110666E-02 a       461     0    19     1    11
 -8.4807447357360219E-02 a       462     0    19     1    12
  3.7951801600663149E-01 a       463     0    19     1    13
 -1.5730436824016994E-01 a       464     0    19     1    14
 -8.4916584967727193E-02 a       465     0    19     1    15
  7.1753023319268694E-02 a       466     0    19     1    16
 -3.1478676845047134E-02 a       467     0    19     1    17
 -3.8166692492769695E-02 a       468     0    19     1    18
 -1.8738914575002019E-01 a       469     0    19     1    19
 -7.5255413815680045E-02 a       470     0    19     1    20
 -1.7047517441538523E-03 a       471     0    19     1    21
  6.2154633262742398E-02 a       472     0    19     1    22
 -1.6614777095889022E-01 a       473     0    19     1    23
  7.3324529973074523E-02 a       474     0    19     1    24
 -6.1294568742697522E-02 a       475     0    19     1    25
  8.4831505732004389E-02 a       476     0    20     1     1
 -1.7599103962149254E-01 a       477     0    20     1     2
 -6.8766787008619532E-02 a       478     0    20     1     3
 -7.2910140948445862E-02 a       479     0    20     1     4
 -1.1463933381368037E-02 a       480     0    20     1     5
  7.4712741471382321E-02 a       481     0    20     1     6
 -1.8935460291731493E-01 a       482     0    20     1     7
 -1.7978919100420954E-01 a       483     0    20     1     8
 -1.2362721713339894E-01 a       484     0    20     1     9
  2.2114136627115810E-01 a       485     0    20     1    10
  1.3755943732646761E-01 a       486     0    20     1    11
  9.8507157223173911E-03 a       487     0    20     1    12
 -2.0764293439310469E-01 a       488     0    20     1    13
  6.7135689838656296E-02 a       489     0    20     1    14
 -1.8167814278275354E-01 a       490     0    20     1    15
  1.4128171243888565E-01 a       491     0    20     1    16
  2.0898479801121517E-01 a       492     0    20     1    17
 -2.9964163116696629E-01 a       493     0    20     1    18
 -1.4636248619987410E-01 a       494     0    20     1    19
 -2.7028688366058394E-02 a       495     0    20     1    20
  4.5893420410569312E-02 a       496     0    20     1    21
 -1.6023611429019718E-01 a       497     0    20     1    22
  2.5813357987669833E-01 a       498     0    20     1    23
 -4.4797767734539350E-03 a       499     0    20     1    24
 -2.0323931545476150E-02 a       500     0    20     1    25
  3.9827991448841660E-01 a       501     0    21     1     1
  1.8164381643240410E+00 a       502     0    21     1     2
  7.1271061882543407E-01 a       503     0    21     1     3
 -1.1402630461920778E-02 a       504     0    21     1     4
 -1.4400961279788979E-01 a       505     0    21     1     5
 -3.1876102780432941E-01 a       506     0    21     1     6
  1.2412803166805925E-01 a       507     0    21     1     7
  1.4762751677334879E-01 a       508     0    21     1     8
 -1.0160485520797223E-01 a       509     0    21     1     9
  9.5141062782520019E-02 a       510     0    21     1    10
 -8.0132048658986665E-01 a       511     0    21     1    11
 -5.3275387286722431E-01 a       512     0    21     1    12
  4.0019924291558408E-02 a       513     0    21     1    13
  4.9214759805212699E-01 a       514     0    21     1    14
 -3.7378455122195503E-01 a       515     0    21     1    15
 -9.4357720012561630E-01 a       516     0    21     1    16
  1.1813035852828051E+00 a       517     0    21     1    17
  8.0971984733086144E-01 a       518     0    21     1    18
 -3.7217978530095924E-01 a       519     0    21     1    19
 -6.8029607019771920E-01 a       520     0    21     1    20
 -1.4096585416069199E-01 a       521     0    21     1    21
  6.4649380560428585E-02 a       522     0    21     1    22
  8.0886891606324751E-01 a       523     0    21     1    23
  2.5075998728042770E-01 a       524     0    21     1    24
 -8.3863900454960794E-01 a       525     0    21     1    25
  3.0909286329675434E-02 a       526     0    22     1     1
 -5.3439763790325778E-01 a       527     0    22     1     2
  1.4481842739468614E-01 a       528     0    22     1     3
 -3.4807738069257757E-02 a       529     0    22     1     4
 -2.8856134835606179E-01 a       530     0    22     1     5
  3.0966530345361534E-02 a       531     0    22     1     6
 -2.8581917078785968E-01 a       532     0    22     1     7
 -1.7206000990492934E-01 a       533     0    22     1     8
 -9.7086540569985433E-02 a       534     0    22     1     9
 -3.3667697040689354E-01 a       535     0    22     1    10
  1.0386886668311002E+00 a       536     0    22     1    11
  3.2839029152181004E-01 a       537     0    22     1    12
  4.3983525721064579E-02 a       538     0    22     1    13
 -7.4232865003321835E-01 a       539     0    22     1    14
  3.7049210713483854E-01 a       540     0    22     1    15
  1.3032280662676172E+00 a       541     0    22     1    16
 -6.3133257172919877E-01 a       542     0    22     1    17
  3.2586188540672917E-01 a       543     0    22     1    18
 -3.3138211229287717E-01 a       544     0    22     1    19
 -3.4149049501853584E-01 a       545     0    22     1    20
 -2.5901537804847846E-01 a       546     0    22     1    21
  2.2611290016085481E-01 a       547     0    22     1    22
  1.7038240376220207E-01 a       548     0    22     1    23
  5.5017655244473673E-01 a       549     0    22     1    24
  8.0057259293276384E-01 a       550     0    22     1    25
  5.7843924523411312E-02 a       551     0    23     1     1
  4.5846210352765460E-01 a       552     0    23     1     2
  1.0563690793682448E-01 a       553     0    23     1     3
  4.9054602452095281E-01 a       554     0    23     1     4
  2.6547811388621345E-01 a       555     0    23     1     5
 -3.8758442062889331E-01 a       556     0    23     1     6
  1.3965074403671612E-01 a       557     0    23     1     7
 -4.7756256991359942E-02 a       558     0    23     1     8
  1.8756445449236639E-01 a       559     0    23     1     9
  1.5095266158349416E-01 a       560     0    23     1    10
 -2.3075571156083224E-01 a       561     0    23     1    11
  9.5523985230374628E-02 a       562     0    23     1    12
  2.8937077882162470E-02 a       563     0    23     1    13
  3.0878023974727248E-01 a       564     0    23     1    14
  2.6484892224714884E-01 a       565     0    23     1    15
 -2.3647708622679950E-01 a       566     0    23     1    16
 -5.8013563804842273E-02 a       567     0    23     1    17
 -2.3253899823195179E-01 a       568     0    23     1    18
 -4.4728784575971048E-01 a       569     0    23     1    19
  1.2976796069733978E-01 a       570     0    23     1    20
 -1.3213218657439768E-02 a       571     0    23     1    21
  8.5656661930157127E-02 a       572     0    23     1    22
 -4.0948019698341031E-03 a       573     0    23     1    23
 -3.7608404440472842E-01 a       574     0    23     1    24
  6.4641584979082078E-01 a       575     0    23     1    25
 -1.6890233317198225E-01 a       576     0    24     1     1
 -7.2979153657366858E-01 a       577     0    24     1     2
  3.4046393398947206E-01 a       578     0    24     1     3
 -6.2261642374585224E-01 a       579     0    24     1     4
  1.6808506965555670E-01 a       580     0    24     1     5
 -4.2181327791005174E-01 a       581     0    24     1     6
  1.3095366446207782E-01 a       582     0    24     1     7
  6.7061641824842325E-02 a       583     0    24     1     8
  2.3404395757642693E-02 a       584     0    24     1     9
 -2.1293846684921677E-01 a       585     0    24     1    10
 -5.4600116322400909E-02 a       586     0    24     1    11
  5.6460627990633245E-03 a       587     0    24     1    12
 -8.2823978125752915E-02 a       588     0    24     1    13
  1.4258171448915974E-01 a       589     0    24     1    14
 -3.3223494466484238E-01 a       590     0    24     1    15
  9.2277982189704816E-02 a       591     0    24     1    16
  5.8082231143294472E-02 a       592     0    24     1    17
  6.1028343849475664E-01 a       593     0    24     1    18
  2.9143653167864120E-01 a       594     0    24     1    19
  8.4221343498284129E-01 a       595     0    24     1    20
 -4.5938768703315824E-01 a       596     0    24     1    21
 -4.6718794065471608E-01 a       597     0    24     1    22
 -6.1136209677761302E-02 a       598     0    24     1    23
 -3.4459411892814207E-01 a       599     0    24     1    24
  2.3837055485630892E-01 a       600     0    24     1    25
 -2.8735919059452897E-01 a       601     0    25     1     1
  5.2196330697999982E-01 a       602     0    25     1     2
 -4.2762033376169428E-01 a       603     0    25     1     3
 -1.1123456727763134E-01 a       604     0    25     1     4
 -5.8482331204537163E-01 a       605     0    25     1     5
  4.8999346308665237E-01 a       606     0    25     1     6
 -4.5906746236772888E-01 a       607     0    25     1     7
 -1.3574106035596201E-01 a       608     0    25     1     8
 -3.7815662236889935E-01 a       609     0    25     1     9
 -3.2357811953699622E-01 a       610     0    25     1    10
  3.4849882260436327E-01 a       611     0    25     1    11
 -1.7061800099353605E-01 a       612     0    25     1    12
  7.6460753313189092E-02 a       613     0    25     1    13
  1.8049719677721246E-01 a       614     0    25     1    14
  2.9850420521701920E-01 a       615     0    25     1    15
 -1.4570629334707813E-01 a       616     0    25     1    16
 -1.0418287993768396E+00 a       617     0    25     1    17
 -9.0049378820358419E-02 a       618     0    25     1    18
 -1.7521047869552384E-01 a       619     0    25     1    19
 -8.3597106749388761E-01 a       620     0    25     1    20
  5.6475042037749490E-01 a       621     0    25     1    21
  1.5708961258973010E-02 a       622     0    25     1    22
  2.7979843282582917E-01 a       623     0    25     1    23
 -4.8479057257430125E-01 a       624     0    25     1    24
 -3.8634474434984545E-01 a       625     0    25     1    25
 -2.2951368724057009E-01 a       626     0    26     1     1
 -3.6916560633756634E-01 a       627     0    26     1     2
  8.8495140171997166E-02 a       628     0    26     1     3
 -9.7682853117433299E-02 a       629     0    26     1     4
  6.2901632891907799E-01 a       630     0    26     1     5
  6.7057277314112193E-02 a       631     0    26     1     6
  4.6702051493866706E-02 a       632     0    26     1     7
  4.5517048989224196E-01 a       633     0    26     1     8
  1.5338689645089401E-01 a       634     0    26     1     9
  2.1469350501178205E-01 a       635     0    26     1    10
  3.7937257353165438E-01 a       636     0    26     1    11
 -1.6024797080404673E-02 a       637     0    26     1    12
 -5.5475865190590612E-01 a       638     0    26     1    13
 -1.8182602972402404E-01 a       639     0    26     1    14
 -5.2546046767643650E-01 a       640     0    26     1    15
  2.0122626738969918E-01 a       641     0    26     1    16
  2.8153658953443977E-01 a       642     0    26     1    17
 -7.5890076849753754E-02 a       643     0    26     1    18
  4.7573604344729936E-01 a       644     0    26     1    19
  1.7670807292908267E-01 a       645     0    26     1    20
 -8.6145950909566726E-02 a       646     0    26     1    21
 -5.4715449012236694E-01 a       647     0    26     1    22
  5.0814775122723144E-02 a       648     0    26     1    23
  2.5416719811963623E-01 a       649     0    26     1    24
 -4.8779127913965331E-01 a       650     0    26     1    25
  4.3611683074481972E-01 a       651     0    27     1     1
 -9.2225373417793508E-02 a       652     0    27     1     2
 -6.0620866967413078E-01 a       653     0    27     1     3
  3.0435077151611145E-01 a       654     0    27     1     4
  3.7584704293490628E-01 a       655     0    27     1     5
 -2.0441417183422347E-01 a       656     0    27     1     6
 -8.0586557759124698E-04 a       657     0    27     1     7
 -4.6541289114764094E-02 a       658     0    27     1     8
  1.5347357102017176E-01 a       659     0    27     1     9
  5.4569736933930885E-02 a       660     0    27     1    10
 -1.7997991625048673E-01 a       661     0    27     1    11
 -4.0785902956224024E-01 a       662     0    27     1    12
 -5.9376820443830476E-02 a       663     0    27     1    13
  1.4365601570403844E-02 a       664     0    27     1    14
  2.0210162215398586E-01 a       665     0    27     1    15
 -9.8112863056180610E-02 a       666     0    27     1    16
  2.8049579141288172E-01 a       667     0    27     1    17
  2.8165400678746189E-01 a       668     0    27     1    18
  5.9391635260598999E-02 a       669     0    27     1    19
  9.9221017874227491E-02 a       670     0    27     1    20
 -2.0221676088443788E-01 a       671     0    27     1    21
  2.6199882034728861E-01 a       672     0    27     1    22
  3.2792120911536793E-01 a       673     0    27     1    23
  9.0668678114177226E-02 a       674     0    27     1    24
  8.5836971466180193E-03 a       675     0    27     1    25
  1.0040166057828309E-01 a       676     0    28     1     1
  2.6301117990327511E-01 a       677     0    28     1     2
  4.4991744160937586E-01 a       678     0    28     1     3
  5.1873979138408444E-01 a       679     0    28     1     4
 -7.3007495001429012E-01 a       680     0    28     1     5
 -3.6741692074724086E-01 a       681     0    28     1     6
 -8.9222998640077864E-02 a       682     0    28     1     7
  3.4032310240839447E-01 a       683     0    28     1     8
 -3.4195658443888799E-01 a       684     0    28     1     9
 -6.1336686607997803E-01 a       685     0    28     1    10
  1.3793230461600267E-01 a       686     0    28     1    11
  4.1862129278437903E-02 a       687     0    28     1    12
  4.9117547871135529E-02 a       688     0    28     1    13
 -1.1283467994139446E-01 a       689     0    28     1    14
 -3.2249775759993293E-01 a       690     0    28     1    15
  2.9309738925956291E-01 a       691     0    28     1    16
 -1.1354970351165324E-01 a       692     0    28     1    17
 -8.4190785402520707E-01 a       693     0    28     1    18
  2.5951024861233585E-01 a       694     0    28     1    19
 -1.1303543439022377E-01 a       695     0    28     1    20
 -3.7186546300402923E-01 a       696     0    28     1    21
 -4.2250351921933638E-01 a       697     0    28     1    22
 -5.0185584535892158E-01 a       698     0    28     1    23
 -3.3264942420179072E-01 a       699     0    28     1    24
  1.7877065889710489E-01 a       700     0    28     1    25
 -1.4293507971016484E-01 a       701     0    29     1     1
  2.9629305355123071E-02 a       702     0    29     1     2
 -2.9607563837554302E-01 a       703     0    29     1     3
 -2.0153614378661563E-01 a       704     0    29     1     4
  5.1151363045481535E-01 a       705     0    29     1     5
  1.3153542585431172E-01 a       706     0    29     1     6
  3.5229725609682176E-02 a       707     0    29     1     7
 -4.9784481200044542E-02 a       708     0    29     1     8
 -1.5644724717634617E-01 a       709     0    29     1     9
 -6.4276962744953578E-02 a       710     0    29     1    10
  8.8429892035207375E-02 a       711     0    29     1    11
 -2.0380344041213105E-01 a       712     0    29     1    12
 -1.4106913448855934E-01 a       713     0    29     1    13
  1.1242803854022644E-01 a       714     0    29     1    14
  5.3155742631865795E-02 a       715     0    29     1    15
  9.5768836557820647E-02 a       716     0    29     1    16
  3.4534460499611131E-03 a       717     0    29     1    17
  4.0996212392847448E-01 a       718     0    29     1    18
 -8.6917559390155191E-02 a       719     0    29     1    19
  2.0848294134680104E-01 a       720     0    29     1    20
  1.9560756380742175E-01 a       721     0    29     1    21
  8.9684546265321852E-02 a       722     0    29     1    22
 -4.4879546258410769E-01 a       723     0    29     1    23
  2.0470302007374244E-01 a       724     0    29     1    24
 -1.1939807525870789E-01 a       725     0    29     1    25
 -7.8050270989694059E-01 a       726     0    30     1     1
 -1.0790137223970860E-01 a       727     0    30     1     2
 -2.8268563996391444E-01 a       728     0    30     1     3
  5.2142661751226538E-01 a       729     0    30     1     4
  1.3951572928066483E-01 a       730     0    30     1     5
 -2.2905916494547723E-01 a       731     0    30     1     6
 -1.4844277822212171E-01 a       732     0    30     1     7
 -2.0854358513603524E-01 a       733     0    30     1     8
  3.2927223910773393E-02 a       734     0    30     1     9
 -4.6698262698359361E-02 a       735     0    30     1    10
  1.4091144825689092E-01 a       736     0    30     1    11
  2.3616483737548080E-01 a       737     0    30     1    12
  4.2785838728339914E-01 a       738     0    30     1    13
  2.2925193034390581E-01 a       739     0    30     1    14
  1.6454902208775476E-02 a       740     0    30     1    15
 -2.7043394184960357E-01 a       741     0    30     1    16
  1.4425825711215645E-01 a       742     0    30     1    17
 -6.0082000388331509E-02 a       743     0    30     1    18
  4.0750075744101777E-01 a       744     0    30     1    19
 -1.1991145045174044E-01 a       745     0    30     1    20
  1.1284187815373986E-01 a       746     0    30     1    21
  5.1089246426230062E-01 a       747     0    30     1    22
 -5.8732584381277797E-01 a       748     0    30     1    23
 -4.4951687261986742E-02 a       749     0    30     1    24
  1.6058006252050291E-01 a       750     0    30     1    25
  1.1773118187973770E+00 a       751     0    31     1     1
 -6.2910088728821567E-01 a       752     0    31     1     2
 -3.2774493158675183E-01 a       753     0    31     1     3
 -3.2204821462130284E-01 a       754     0    31     1     4
  1.0162955496842299E+00 a       755     0    31     1     5
  2.3169540270160005E-01 a       756     0    31     1     6
 -4.3054781561219224E-01 a       757     0    31     1     7
 -1.0000820789133316E+00 a       758     0    31     1     8
  1.2235965970300043E-01 a       759     0    31     1     9
 -4.4624116655948803E-01 a       760     0    31     1    10
 -1.1798396856491047E-01 a       761     0    31     1    11
 -2.9743265497282090E-01 a       762     0    31     1    12
  2.0737645635911520E-01 a       763     0    31     1    13
  7.4401452791007383E-01 a       764     0    31     1    14
  2.3921304984004943E-01 a       765     0    31     1    15
 -7.0396528649837520E-01 a       766     0    31     1    16
  4.9557097718104492E-01 a       767     0    31     1    17
  2.4804656642958423E-01 a       768     0    31     1    18
 -2.1392850987949383E-01 a       769     0    31     1    19
 -8.2728142371505775E-01 a       770     0    31     1    20
 -1.9730344052265048E-01 a       771     0    31     1    21
  9.4405237527498764E-01 a       772     0    31     1    22
 -5.3339215246378646E-01 a       773     0    31     1    23
 -2.8041108796297876E-01 a       774     0    31     1    24
 -8.4705217343921488E-02 a       775     0    31     1    25
 -3.6087576944548179E-02 a       776     0    32     1     1
  1.2624494198964253E-01 a       777     0    32     1     2
  1.7600141205353581E-01 a       778     0    32     1     3
  8.4596391444746830E-02 a       779     0    32     1     4
 -4.4258277609130559E-01 a       780     0    32     1     5
 -2.3681060154425695E-01 a       781     0    32     1     6
  5.7922579270913190E-02 a       782     0    32     1     7
 -5.1081248763319771E-02 a       783     0    32     1     8
 -1.1081200676459027E-01 a       784     0    32     1     9
 -4.0608814172601410E-01 a       785     0    32     1    10
 -1.5755471715136113E-01 a       786     0    32     1    11
  9.8604512657287979E-02 a       787     0    32     1    12
  1.5506410447300290E-01 a       788     0    32     1    13
 -4.8224920288406699E-02 a       789     0    32     1    14
  1.8016590849076317E-01 a       790     0    32     1    15
  1.3623418684039509E-01 a       791     0    32     1    16
 -1.5898848001440954E-01 a       792     0    32     1    17
 -1.9784492700759576E-01 a       793     0    32     1    18
 -2.8043331942024341E-01 a       794     0    32     1    19
 -7.7411832953860477E-03 a       795     0    32     1    20
  4.5832610764687483E-02 a       796     0    32     1    21
 -9.2477221752222935E-02 a       797     0    32     1    22
 -4.4110480772801264E-01 a       798     0    32     1    23
  4.6080674425275706E-02 a       799     0    32     1    24
  1.1294171817523370E-01 a       800     0    32     1    25
  1.6592717048751096E-01 b       801     1     1
 -1.3228555670511339E+00 b       802     1     2
 -6.4825761550576799E-01 b       803     1     3
  1.3087813226597913E+00 b       804     1     4
 -1.4266740615444162E+00 b       805     1     5
 -1.3862311015175472E+00 b       806     1     6
 -1.6258301693314408E+00 b       807     1     7
 -4.7919754286671334E-01 b       808     1     8
 -9.5040014111250681E-02 b       809     1     9
  1.8183087974878696E+00 b       810     1    10
  1.4092001371877148E+00 b       811     1    11
  1.1033448200980061E+00 b       812     1    12
 -6.7342214635922215E-01 b       813     1    13
  5.5221624896552179E-01 b       814     1    14
  1.2294675278243736E+00 b       815     1    15
 -5.0122863498856696E-01 b       816     1    16
  2.9978029567679043E-01 b       817     1    17
  1.3172961128807137E+00 b       818     1    18
  1.1041150565421962E+00 b       819     1    19
 -5.6583699190356584E-01 b       820     1    20
  1.0306290074556521E+00 b       821     1    21
  1.2471416178852415E+00 b       822     1    22
 -1.2818777650471926E+00 b       823     1    23
  1.0451385194424767E+00 b       824     1    24
  1.8206409049677535E-01 b       825     1    25
  1.2643866861245187E-01 a       826     1     1     2     1
  2.2797865250157340E-01 a       827     1     1     2     2
  1.1559956507815686E-01 a       828     1     1     2     3
 -2.9878604746007476E-01 a       829     1     1     2     4
  1.0071659474321147E-01 a       830     1     1     2     5
  1.2309397340208768E-01 a       831     1     1     2     6
 -3.1399301955181502E-01 a       832     1     1     2     7
 -7.0925989697862046E-01 a       833     1     1     2     8
 -3.5834537047132459E-01 a       834     1     1     2     9
 -1.7717732605008882E-01 a       835     1     1     2    10
 -2.1134673683105953E-01 a       836     1     1     2    11
  1.4482343386733207E-01 a       837     1     1     2    12
  1.0853476505827110E-02 a       838     1     1     2    13
  3.9171920964062863E-02 a       839     1     1     2    14
  2.2187108965894967E-01 a       840     1     1     2    15
 -5.9673707375894247E-01 a       841     1     1     2    16
 -5.0235127188000084E-01 a       842     1     1     2    17
 -1.8027861465496159E-01 a       843     1     1     2    18
 -3.9010823444082166E-01 a       844     1     1     2    19
  1.5686306281732146E-01 a       845     1     1     2    20
 -9.6864033784516176E-02 a       846     1     1     2    21
 -2.0147395262479884E-01 a       847     1     1     2    22
 -5.1746816389921502E-01 a       848     1     1     2    23
 -2.0566913454893257E-01 a       849     1     1     2    24
 -1.4232608478378128E-02 a       850     1     1     2    25
  3.8825043050698105E-01 a       851     1     2     2     1
  7.0072269332552217E-01 a       852     1     2     2     2
  9.7736738642707266E-02 a       853     1     2     2     3
  4.7939649082638797E-01 a       854     1     2     2     4
 -3.2789297954897670E-02 a       855     1     2     2     5
  3.4808991232194536E-01 a       856     1     2     2     6
 -4.3744952531201631E-01 a       857     1     2     2     7
  1.4486634158906023E-01 a       858     1     2     2     8
 -4.2553174696259127E-01 a       859     1     2     2     9
 -3.5278760967130285E-01 a       860     1     2     2    10
  4.9815601031706702E-01 a       861     1     2     2    11
  4.6017533103983022E-01 a       862     1     2     2    12
 -3.5874317635819825E-01 a       863     1     2     2    13
  1.0651941176202222E-01 a       864     1     2     2    14
 -8.4144359313059791E-01 a       865     1     2     2    15
  7.4895018062113997E-03 a       866     1     2     2    16
 -5.8670710633787770E-01 a       867     1     2     2    17
 -4.3138482973334791E-01 a       868     1     2     2    18
 -3.1899987916670547E-01 a       869     1     2     2    19
 -8.6234331771778652E-02 a       870     1     2     2    20
 -3.3211108683016388E-01 a       871     1     2     2    21
 -5.6890179400823726E-01 a       872     1     2     2    22
  1.4684070539340077E-01 a       873     1     2     2    23
 -5.1561514662439822E-01 a       874     1     2     2    24
  5.4428619700320180E-01 a       875     1     2     2    25
 -1.9354317175697139E-01 a       876     1     3     2     1
  4.4796570336789465E-01 a       877     1     3     2     2
  3.4981105477702479E-01 a       878     1     3     2     3
 -1.9493362599133429E-01 a       879     1     3     2     4
  4.2828717352527096E-01 a       880     1     3     2     5
 -1.8666402084898065E-01 a       881     1     3     2     6
  2.0954176647504960E-01 a       882     1     3     2     7
 -4.4917872630795186E-01 a       883     1     3     2     8
 -2.3819746497865596E-01 a       884     1     3     2     9
  3.5490732292187899E-01 a       885     1     3     2    10
 -2.0461473597121230E-01 a       886     1     3     2    11
 -3.8430303103108882E-01 a       887     1     3     2    12
 -5.5477114957208062E-01 a       888     1     3     2    13
  4.8571488919849692E-01 a       889     1     3     2    14
 -1.5844706006935902E-01 a       890     1     3     2    15
  4.8144004160977705E-01 a       891     1     3     2    16
 -3.9683538204516872E-01 a       892     1     3     2    17
 -2.6291187779129616E-01 a       893     1     3     2    18
 -1.7843308058013266E-02 a       894     1     3     2    19
 -1.7648454586712278E-01 a       895     1     3     2    20
  3.3864345366348464E-01 a       896     1     3     2    21
 -2.7121328433524888E-01 a       897     1     3     2    22
  7.6414551068422987E-02 a       898     1     3     2    23
  1.1923384475769572E-01 a       899     1     3     2    24
  2.9679909908263895E-02 a       900     1     3     2    25
  4.4336083255473924E-01 a       901     1     4     2     1
  6.0897895616250183E-02 a       902     1     4     2     2
  3.6564058600957190E-02 a       903     1     4     2     3
  3.1721702987799405E-01 a       904     1     4     2     4
 -1.6436290214546068E-02 a       905     1     4     2     5
  2.5698988030978909E-01 a       906     1     4     2     6
  3.4643663406081460E-01 a       907     1     4     2     7
 -7.6860129741796646E-01 a       908     1     4     2     8
  2.2858348530301484E-01 a       909     1     4     2     9
 -2.8762316597133231E-01 a       910     1     4     2    10
  1.3370531766218363E-02 a       911     1     4     2    11
  4.6678452818296312E-01 a       912     1     4     2    12
 -2.3049601922399948E-01 a       913     1     4     2    13
 -4.4612866148821939E-01 a       914     1     4     2    14
  5.4546364002715918E-02 a       915     1     4     2    15
  1.3391950011060899E-01 a       916     1     4     2    16
  6.4399484885964686E-01 a       917     1     4     2    17
 -4.1748016166350599E-01 a       918     1     4     2    18
  1.6459587035017351E-01 a       919     1     4     2    19
 -2.7994213828915532E-01 a       920     1     4     2    20
  3.4310037844566410E-01 a       921     1     4     2    21
 -4.0698189076478014E-01 a       922     1     4     2    22
  2.1680929741923965E-01 a       923     1     4     2    23
 -1.2738588101022491E-01 a       924     1     4     2    24
 -3.8177711702641154E-01 a       925     1     4     2    25
  3.2785144386590492E-01 a       926     1     5     2     1
  2.5275714626165524E-01 a       927     1     5     2     2
 -1.7437092408634486E-01 a       928     1     5     2     3
 -3.5792921634443614E-01 a       929     1     5     2     4
 -2.4256026280454548E-01 a       930     1     5     2     5
  5.3865275234345611E-01 a       931     1     5     2     6
  2.8726187928643371E-01 a       932     1     5     2     7
  9.0934415032731981E-03 a       933     1     5     2     8
  1.8082279402487102E-02 a       934     1     5     2     9
 -8.8159349645802507E-02 a       935     1     5     2    10
  3.3741587007668683E-01 a       936     1     5     2    11
  5.6407095261447171E-01 a       937     1     5     2    12
 -3.0153783099888876E-01 a       938     1     5     2    13
 -8.0091360496420988E-02 a       939     1     5     2    14
  1.1165723093427305E-02 a       940     1     5     2    15
  2.3569967647534346E-01 a       941     1     5     2    16
 -5.7919445928885027E-01 a       942     1     5     2    17
  5.6633770435410691E-01 a       943     1     5     2    18
  1.4681986573747877E-01 a       944     1     5     2    19
  8.3495291740660227E-02 a       945     1     5     2    20
 -9.4859472639023973E-02 a       946     1     5     2    21
 -3.4636840030619809E-01 a       947     1     5     2    22
  3.2571904080871607E-02 a       948     1     5     2    23
  3.7595837557162248E-01 a       949     1     5     2    24
 -1.6723454082864034E-01 a       950     1     5     2    25
  2.0053993380619012E-01 a       951     1     6     2     1
  2.1669872289566317E-01 a       952     1     6     2     2
  1.9321862673982396E-01 a       953     1     6     2     3
 -3.4380270446239342E-01 a       954     1     6     2     4
 -1.1870780930912990E-01 a       955     1     6     2     5
 -5.5347447762567004E-01 a       956     1     6     2     6
  1.2148950458243996E-01 a       957     1     6     2     7
 -1.3022616925566381E-02 a       958     1     6     2     8
  1.2151174480129803E-01 a       959     1     6     2     9
  5.5624395887473788E-01 a       960     1     6     2    10
 -2.2129525843199249E-01 a       961     1     6     2    11
  3.2224647752027880E-01 a       962     1     6     2    12
  3.2639761100797987E-01 a       963     1     6     2    13
  4.6984093816440248E-01 a       964     1     6     2    14
 -2.6466691499882888E-01 a       965     1     6     2    15
 -2.2286403767927812E-01 a       966     1     6     2    16
 -7.3971657975937230E-02 a       967     1     6     2    17
 -1.8427811300574379E-01 a       968     1     6     2    18
  4.1638456348299354E-03 a       969     1     6     2    19
 -4.1135867181541641E-01 a       970     1     6     2    20
  9.4521883510603005E-02 a       971     1     6     2    21
 -1.4698321674042070E-01 a       972     1     6     2    22
 -4.0304899713784220E-01 a       973     1     6     2    23
  7.3096948387545435E-02 a       974     1     6     2    24
  2.1818457393241622E-01 a       975     1     6     2    25
  3.9985900392113527E-01 a       976     1     7     2     1
 -2.9911970064723542E-01 a       977     1     7     2     2
 -6.0898423461939066E-01 a       978     1     7     2     3
  4.3932296966533307E-02 a       979     1     7     2     4
 -2.1205883963140207E-01 a       980     1     7     2     5
 -6.7778814316590852E-01 a       981     1     7     2     6
  1.4612240862816020E-01 a       982     1     7     2     7
  1.3970108196135323E-02 a       983     1     7     2     8
  1.3774927503068982E-01 a       984     1     7     2     9
  2.9706506671765598E-01 a       985     1     7     2    10
  7.5342754734239270E-01 a       986     1     7     2    11
  1.7327386200455130E-01 a       987     1     7     2    12
 -4.3984877890687613E-01 a       988     1     7     2    13
 -3.3994901403242861E-01 a       989     1     7     2    14
  2.7395447085438812E-01 a       990     1     7     2    15
 -4.0045609582682849E-02 a       991     1     7     2    16
  7.5228196208389636E-02 a       992     1     7     2    17
  3.9268947104497987E-01 a       993     1     7     2    18
 -5.1110588150517933E-01 a       994     1     7     2    19
  5.2047682780538296E-01 a       995     1     7     2    20
 -5.3975155635140215E-01 a       996     1     7     2    21
 -5.0455169502513508E-01 a       997     1     7     2    22
 -1.1138825261222809E-02 a       998     1     7     2    23
 -2.4836997779572248E-01 a       999     1     7     2    24
 -3.0852742737072664E-01 a      1000     1     7     2    25
  3.1045064206820872E-01 a      1001     1     8     2     1
  2.5593782735218600E-02 a      1002     1     8     2     2
 -1.3962226238603865E-02 a      1003     1     8     2     3
  6.5099004858052464E-02 a      1004     1     8     2     4
 -1.7942279206824513E-01 a      1005     1     8     2     5
  4.2163652646004213E-01 a      1006     1     8     2     6
  2.7139719547145589E-02 a      1007     1     8     2     7
  5.4759761694429476E-01 a      1008     1     8     2     8
  3.0984794511108676E-01 a      1009     1     8     2     9
 -2.3055962498875443E-01 a      1010     1     8     2    10
 -2.4704689133861943E-01 a      1011     1     8     2    11
 -5.5992037245778420E-02 a      1012     1     8     2    12
  3.2271844103883052E-01 a      1013     1     8     2    13
  1.0575874405921887E-01 a      1014     1     8     2    14
 -4.7012272876685059E-02 a      1015     1     8     2    15
 -3.7100288820992761E-01 a      1016     1     8     2    16
  3.8216719682599437E-01 a      1017     1     8     2    17
  1.6930402114041576E-01 a      1018     1     8     2    18
 -5.1646090766467471E-02 a      1019     1     8     2    19
  2.7326348801092321E-02 a      1020     1     8     2    20
  4.7842927107208527E-02 a      1021     1     8     2    21
  2.2671460667040541E-01 a      1022     1     8     2    22
  5.8518720011523595E-01 a      1023     1     8     2    23
  5.0035434628823616E-01 a      1024     1     8     2    24
 -1.9697761031609196E-02 a      1025     1     8     2    25
  2.3369324163433070E-01 a      1026     1     9     2     1
  8.4802000038704514E-02 a      1027     1     9     2     2
  1.5485281495730491E-01 a      1028     1     9     2     3
 -7.9226981429598373E-02 a      1029     1     9     2     4
  9.7271588255551544E-02 a      1030     1     9     2     5
 -1.3920344989446404E-01 a      1031     1     9     2     6
 -1.0019212708219249E-01 a      1032     1     9     2     7
 -2.8942984239596176E-01 a      1033     1     9     2     8
  2.6506607717412112E-01 a      1034     1     9     2     9
 -1.5833980561099256E-01 a      1035     1     9     2    10
 -3.2712479953610529E-01 a      1036     1     9     2    11
 -5.2944804023741909E-01 a      1037     1     9     2    12
  1.9354467538070486E-01 a      1038     1     9     2    13
  1.0217483305271896E-01 a      1039     1     9     2    14
 -1.0986104856071785E-01 a      1040     1     9     2    15
 -1.1793530108658852E-01 a      1041     1     9     2    16
 -4.4070144246194465E-01 a      1042     1     9     2    17
 -4.0957033032967760E-01 a      1043     1     9     2    18
  3.0076635489682108E-01 a      1044     1     9     2    19
  6.8032832965219137E-01 a      1045     1     9     2    20
  2.0302919171257475E-01 a      1046     1     9     2    21
 -1.4787932924421028E-02 a      1047     1     9     2    22
  3.3768295448475441E-02 a      1048     1     9     2    23
  3.4676049860475394E-01 a      1049     1     9     2    24
 -2.6660722467729169E-02 a      1050     1     9     2    25
  3.2341474965225370E-01 a      1051     1    10     2     1
  3.5435814233460816E-01 a      1052     1    10     2     2
  3.3623383571358262E-01 a      1053     1    10     2     3
 -2.0539713135865872E-01 a      1054     1    10     2     4
  6.6157060540162449E-01 a      1055     1    10     2     5
 -3.1581237068331403E-01 a      1056     1    10     2     6
 -3.4241536141235748E-02 a      1057     1    10     2     7
  1.7932850336786618E-01 a      1058     1    10     2     8
  3.4196316218547473E-01 a      1059     1    10     2     9
  3.0334660053958218E-01 a      1060     1    10     2    10
 -5.3486260775525463E-01 a      1061     1    10     2    11
  5.8672747899956768E-01 a      1062     1    10     2    12
  5.1007587138905719E-01 a      1063     1    10     2    13
  5.3449323609961708E-01 a      1064     1    10     2    14
  4.1915184929325044E-01 a      1065     1    10     2    15
 -4.8784007713553185E-01 a      1066     1    10     2    16
 -1.2464320454533290E-01 a      1067     1    10     2    17
 -2.9336627813542782E-01 a      1068     1    10     2    18
  3.4535248397035606E-01 a      1069     1    10     2    19
 -1.5691185178858655E-01 a      1070     1    10     2    20
 -1.2127203612435929E-01 a      1071     1    10     2    21
 -2.2913483397260109E-01 a      1072     1    10     2    22
  2.6679898225299248E-01 a      1073     1    10     2    23
 -5.2589431608272141E-01 a      1074     1    10     2    24
  3.8082288196453257E-01 a      1075     1    10     2    25
  4.4875081911852834E-02 a      1076     1    11     2     1
  2.0269123824851115E-01 a      1077     1    11     2     2
  3.1850133269286174E-01 a      1078     1    11     2     3
  3.7903652025770007E-02 a      1079     1    11     2     4
 -1.8036144808627744E-01 a      1080     1    11     2     5
  3.2580510149918157E-01 a      1081     1    11     2     6
  5.7169733921869748E-01 a      1082     1    11     2     7
  1.3967796646417860E-01 a      1083     1    11     2     8
  5.6269641697072592E-01 a      1084     1    11     2     9
 -2.0675691003934335E-01 a      1085     1    11     2    10
  1.4148151991390515E-01 a      1086     1    11     2    11
  3.6714275289347487E-01 a      1087     1    11     2    12
  2.9017935265314199E-01 a      1088     1    11     2    13
  2.9510210097097318E-02 a      1089     1    11     2    14
 -2.6485912876897683E-02 a      1090     1    11     2    15
  6.5190503624660057E-01 a      1091     1    11     2    16
 -1.0765541438603621E-01 a      1092     1    11     2    17
 -2.7906703444785508E-01 a      1093     1    11     2    18
  5.9126240192848545E-01 a      1094     1    11     2    19
  2.5556617628388401E-01 a      1095     1    11     2    20
  3.2325954509787913E-01 a      1096     1    11     2    21
 -3.6916814049978680E-01 a      1097     1    11     2    22
  2.1531546896337017E-01 a      1098     1    11     2    23
 -5.6536247669744866E-01 a      1099     1    11     2    24
  4.0730453814290496E-01 a      1100     1    11     2    25
  6.8384467842114438E-01 a      1101     1    12     2     1
  2.8715404612827083E-01 a      1102     1    12     2     2
 -3.9227488278453393E-01 a      1103     1    12     2     3
  1.3876040993922217E-01 a      1104     1    12     2     4
 -7.1551006519913252E-01 a      1105     1    12     2     5
 -2.2732457119281141E-01 a      1106     1    12     2     6
 -1.4391881253056624E-01 a      1107     1    12     2     7
 -2.0356587501699838E-01 a      1108     1    12     2     8
 -4.2644821393083565E-02 a      1109     1    12     2     9
 -4.1899367940866688E-03 a      1110     1    12     2    10
  4.7648330394396926E-01 a      1111     1    12     2    11
  6.1064051723679824E-01 a      1112     1    12     2    12
 -1.8845540116022858E-01 a      1113     1    12     2    13
 -7.3614908855220276E-02 a      1114     1    12     2    14
  1.0584520155820383E-01 a      1115     1    12     2    15
  6.4318830773740468E-02 a      1116     1    12     2    16
  3.9970545101189320E-01 a      1117     1    12     2    17
  2.8498708877436046E-01 a      1118     1    12     2    18
  1.4591422497288280E-03 a      1119     1    12     2    19
 -6.0064872361520316E-01 a      1120     1    12     2    20
 -1.9893838735481567E-01 a      1121     1    12     2    21
  2.8365615348349754E-01 a      1122     1    12     2    22
  6.1629484944720059E-01 a      1123     1    12     2    23
 -3.4283693686100986E-01 a      1124     1    12     2    24
 -5.3559592426059666E-01 a      1125     1    12     2    25
 -2.4943125619363124E-01 a      1126     1    13     2     1
 -4.8823999364143694E-02 a      1127     1    13     2     2
 -2.0261963841288541E-01 a      1128     1    13     2     3
  3.4355576394670628E-02 a      1129     1    13     2     4
  3.2847943704364407E-01 a      1130     1    13     2     5
  1.4803897048350392E-01 a      1131     1    13     2     6
  4.4880844522386554E-01 a      1132     1    13     2     7
  6.2794708008768962E-01 a      1133     1    13     2     8
 -2.1719262840833892E-01 a      1134     1    13     2     9
 -1.9981065795168723E-01 a      1135     1    13     2    10
  3.1151432998998661E-02 a      1136     1    13     2    11
  1.0753902371058469E-01 a      1137     1    13     2    12
  4.7553494806053004E-01 a      1138     1    13     2    13
  2.9840575937448550E-02 a      1139     1    13     2    14
  4.8296868704543222E-01 a      1140     1    13     2    15
  2.2038399182966290E-01 a      1141     1    13     2    16
 -1.3075951083639743E-02 a      1142     1    13     2    17
 -1.2081146148322153E-01 a      1143     1    13     2    18
  4.1984199971299269E-01 a      1144     1    13     2    19
 -6.6192959342988604E-03 a      1145     1    13     2    20
 -3.2858547575374725E-01 a      1146     1    13     2    21
  2.4536984109470267E-02 a      1147     1    13     2    22
  3.6289600096052238E-01 a      1148     1    13     2    23
  1.0850130930753690E-01 a      1149     1    13     2    24
 -4.1324323318004029E-02 a      1150     1    13     2    25
 -4.7886405753362338E-01 a      1151     1    14     2     1
  5.0806315222111065E-01 a      1152     1    14     2     2
  2.7887558280978259E-01 a      1153     1    14     2     3
 -2.8948702518326369E-01 a      1154     1    14     2     4
  2.4340464812493459E-01 a      1155     1    14     2     5
  3.9043933935607927E-01 a      1156     1    14     2     6
  7.3822571467811426E-01 a      1157     1    14     2     7
 -5.1269859738417312E-01 a      1158     1    14     2     8
  2.2057676537627791E-01 a      1159     1    14     2     9
  4.7387310120342324E-01 a      1160     1    14     2    10
 -5.7124334992297021E-03 a      1161     1    14     2    11
 -2.1822468685554073E-02 a      1162     1    14     2    12
  2.1038751541323109E-01 a      1163     1    14     2    13
  3.8125652633072488E-01 a      1164     1    14     2    14
 -7.2281845649432921E-02 a      1165     1    14     2    15
 -6.2781564024599001E-01 a      1166     1    14     2    16
 -2.4950652193883024E-01 a      1167     1    14     2    17
  7.2407518555100650E-02 a      1168     1    14     2    18
 -3.9247643283957478E-01 a      1169     1    14     2    19
 -1.0242979339082567E-01 a      1170     1    14     2    20
 -4.1256916257465789E-02 a      1171     1    14     2    21
 -4.4001628456436348E-01 a      1172     1    14     2    22
 -3.2524766770833963E-01 a      1173     1    14     2    23
 -2.8985884135232853E-01 a      1174     1    14     2    24
  1.1444091481287752E-01 a      1175     1    14     2    25
 -5.6082377092205038E-01 a      1176     1    15     2     1
  3.0425504532840436E-01 a      1177     1    15     2     2
  2.9568226048905449E-01 a      1178     1    15     2     3
 -2.3586106506202260E-02 a      1179     1    15     2     4
 -2.7741749144414862E-01 a      1180     1    15     2     5
 -3.9227173612369204E-01 a      1181     1    15     2     6
  4.7662005466958635E-01 a      1182     1    15     2     7
 -8.7469992325305210E-02 a      1183     1    15     2     8
  2.9416154536885053E-01 a      1184     1    15     2     9
 -4.1084481982734133E-01 a      1185     1    15     2    10
 -2.3825818729998050E-01 a      1186     1    15     2    11
 -5.1583619402489711E-01 a      1187     1    15     2    12
 -4.2674201294002495E-01 a      1188     1    15     2    13
  7.5587403741537176E-02 a      1189     1    15     2    14
 -1.8106553912248094E-01 a      1190     1    15     2    15
  1.6141520965608974E-01 a      1191     1    15     2    16
  4.3006438039704020E-01 a      1192     1    15     2    17
 -3.4780239902570143E-01 a      1193     1    15     2    18
 -7.2970650606329535E-01 a      1194     1    15     2    19
 -4.1016831671437277E-02 a      1195     1    15     2    20
 -9.7922930544302317E-02 a      1196     1    15     2    21
 -2.0055259662296307E-01 a      1197     1    15     2    22
  1.7202027650867333E-01 a      1198     1    15     2    23
 -1.1710844546023501E-01 a      1199     1    15     2    24
 -5.8739921693702946E-01 a      1200     1    15     2    25
  1.5848523371564155E-01 a      1201     1    16     2     1
 -5.8576044640480510E-02 a      1202     1    16     2     2
 -7.0468575122965460E-01 a      1203     1    16     2     3
  2.6064584855456963E-01 a      1204     1    16     2     4
 -5.1706872958153782E-01 a      1205     1    16     2     5
 -4.0815162320391235E-03 a      1206     1    16     2     6
  2.2781834130448425E-01 a      1207     1    16     2     7
  1.3833442506077395E-01 a      1208     1    16     2     8
 -1.2282740756174323E-01 a      1209     1    16     2     9
 -1.8208212113362518E-01 a      1210     1    16     2    10
 -1.7402911974101171E-01 a      1211     1    16     2    11
  2.9487303281238797E-01 a      1212     1    16     2    12
 -8.2082540255262612E-02 a      1213     1    16     2    13
 -6.5501813977675305E-01 a      1214     1    16     2    14
  1.3887563938814712E-01 a      1215     1    16     2    15
  3.3361787495112533E-01 a      1216     1    16     2    16
 -3.2242259365270987E-01 a      1217     1    16     2    17
  5.6670758833825385E-02 a      1218     1    16     2    18
 -4.4314454285544747E-01 a      1219     1    16     2    19
 -2.4404491992398972E-01 a      1220     1    16     2    20
 -5.0788325409552870E-01 a      1221     1    16     2    21
  6.3781191077575417E-01 a      1222     1    16     2    22
 -1.2924170456930162E-01 a      1223     1    16     2    23
 -1.8240103321067613E-01 a      1224     1    16     2    24
  4.6813710246924593E-02 a      1225     1    16     2    25
 -2.8609228613471710E-01 a      1226     1    17     2     1
 -9.0569202475119584E-03 a      1227     1    17     2     2
  1.1523602220021954E-01 a      1228     1    17     2     3
  1.6717502978506008E-01 a      1229     1    17     2     4
 -4.2537877920606443E-01 a      1230     1    17     2     5
 -5.5347232387095213E-01 a      1231     1    17     2     6
 -9.4241966522509324E-02 a      1232     1    17     2     7
  2.9586449415238131E-01 a      1233     1    17     2     8
 -4.4954402390206238E-01 a      1234     1    17     2     9
 -9.5242241789192071E-03 a      1235     1    17     2    10
  2.9635419636531862E-01 a      1236     1    17     2    11
  4.9144528312801822E-01 a      1237     1    17     2    12
  5.8158027844332841E-03 a      1238     1    17     2    13
 -6.2095305804459011E-01 a      1239     1    17     2    14
 -4.5323966553319356E-01 a      1240     1    17     2    15
  4.4905075643366393E-01 a      1241     1    17     2    16
  7.3080767494790186E-02 a      1242     1    17     2    17
  5.0050644251512399E-01 a      1243     1    17     2    18
  3.8992207197387219E-02 a      1244     1    17     2    19
  6.2700433926772980E-01 a      1245     1    17     2    20
 -7.3414154873869542E-02 a      1246     1    17     2    21
  1.1850222133782309E-01 a      1247     1    17     2    22
  1.5423108285807086E-02 a      1248     1    17     2    23
 -5.8044319274357592E-01 a      1249     1    17     2    24
  2.3300320439985950E-01 a      1250     1    17     2    25
  3.3100362321878618E-01 a      1251     1    18     2     1
  5.9040046486174991E-01 a      1252     1    18     2     2
  6.0090120114972077E-02 a      1253     1    18     2     3
  7.2202552180660504E-02 a      1254     1    18     2     4
 -5.9234410134832460E-01 a      1255     1    18     2     5
  1.3512246089643784E-01 a      1256     1    18     2     6
 -1.7271968993702067E-01 a      1257     1    18     2     7
 -2.0307608232002972E-01 a      1258     1    18     2     8
  3.0253013349875352E-01 a      1259     1    18     2     9
 -8.6263842807773175E-02 a      1260     1    18     2    10
  1.2128387699170654E-01 a      1261     1    18     2    11
  4.4677322650521284E-01 a      1262     1    18     2    12
  3.1191101480314631E-01 a      1263     1    18     2    13
  1.2853794941611654E-01 a      1264     1    18     2    14
 -6.2280351154821212E-01 a      1265     1    18     2    15
  7.0041548573969339E-02 a      1266     1    18     2    16
  4.4190061351116250E-02 a      1267     1    18     2    17
 -2.9629585850620349E-01 a      1268     1    18     2    18
 -3.9532163190295744E-01 a      1269     1    18     2    19
  6.5549735692274985E-02 a      1270     1    18     2    20
 -1.6518442774573788E-02 a      1271     1    18     2    21
  8.6925920870369072E-02 a      1272     1    18     2    22
  6.3341740672887292E-01 a      1273     1    18     2    23
  3.0808825241796212E-01 a      1274     1    18     2    24
 -3.5331786156170381E-01 a      1275     1    18     2    25
  2.9733729293852915E-02 a      1276     1    19     2     1
  5.7463661282814327E-01 a      1277     1    19     2     2
 -2.0791380128047390E-01 a      1278     1    19     2     3
 -1.4620196628326992E-01 a      1279     1    19     2     4
  3.1715142942437290E-02 a      1280     1    19     2     5
 -2.4937065082161750E-01 a      1281     1    19     2     6
 -2.1377528168998211E-02 a      1282     1    19     2     7
  4.3159672717246805E-01 a      1283     1    19     2     8
  1.5838890919746082E-01 a      1284     1    19     2     9
  3.3162391606202374E-01 a      1285     1    19     2    10
  2.0966527202136040E-01 a      1286     1    19     2    11
  4.3489158897949132E-01 a      1287     1    19     2    12
  3.6743970170095552E-01 a      1288     1    19     2    13
  2.9643177636780278E-02 a      1289     1    19     2    14
  5.3025955578872308E-01 a      1290     1    19     2    15
 -6.2968864985371331E-01 a      1291     1    19     2    16
 -3.2301422528343859E-01 a      1292     1    19     2    17
 -3.3644761046431571E-01 a      1293     1    19     2    18
 -6.8480046171445361E-02 a      1294     1    19     2    19
  8.6367957041187560E-01 a      1295     1    19     2    20
  7.5306014108975347E-02 a      1296     1    19     2    21
 -1.8013023922571056E-01 a      1297     1    19     2    22
 -1.1052183767201780E-01 a      1298     1    19     2    23
 -2.5490150650918991E-01 a      1299     1    19     2    24
  1.4604318569439517E-01 a      1300     1    19     2    25
 -6.0695446348527471E-01 a      1301     1    20     2     1
  7.4588761987358559E-02 a      1302     1    20     2     2
  1.1785183936707064E-01 a      1303     1    20     2     3
 -3.5052220365123671E-01 a      1304     1    20     2     4
 -3.3613242577814761E-01 a      1305     1    20     2     5
 -4.7640650671196272E-01 a      1306     1    20     2     6
  1.3353842666237567E-01 a      1307     1    20     2     7
  2.5010114478061229E-01 a      1308     1    20     2     8
 -5.7700327555440056E-01 a      1309     1    20     2     9
 -4.0863800985135240E-01 a      1310     1    20     2    10
 -6.8240751793067911E-01 a      1311     1    20     2    11
 -2.0282221748370677E-01 a      1312     1    20     2    12
  2.5463620772163175E-03 a      1313     1    20     2    13
  5.8199686277023488E-01 a      1314     1    20     2    14
 -1.4231433970170793E-01 a      1315     1    20     2    15
  8.2123501417260686E-02 a      1316     1    20     2    16
 -4.4582405688019805E-01 a      1317     1    20     2    17
 -5.7322409542851949E-01 a      1318     1    20     2    18
  5.5069334878977340E-02 a      1319     1    20     2    19
  7.4057688770175045E-01 a      1320     1    20     2    20
 -3.3290536439507391E-02 a      1321     1    20     2    21
 -8.9433442450998508E-03 a      1322     1    20     2    22
  4.4955497761067986E-01 a      1323     1    20     2    23
 -3.0540026690119476E-01 a      1324     1    20     2    24
 -4.4912049776709262E-01 a      1325     1    20     2    25
  5.5013678656981955E-03 a      1326     1    21     2     1
 -2.9611268289918252E-01 a      1327     1    21     2     2
  4.4347783458629796E-02 a      1328     1    21     2     3
  1.6331300660555631E-01 a      1329     1    21     2     4
  3.1831704997172444E-01 a      1330     1    21     2     5
  9.2698294555457444E-02 a      1331     1    21     2     6
  1.7641039324143157E-01 a      1332     1    21     2     7
 -3.6998793970862626E-01 a      1333     1    21     2     8
 -1.0679525101745206E-01 a      1334     1    21     2     9
 -4.4677146905186410E-01 a      1335     1    21     2    10
 -6.1742011274035791E-01 a      1336     1    21     2    11
  4.5080898438038025E-01 a      1337     1    21     2    12
  5.2965777140095822E-02 a      1338     1    21     2    13
 -5.2951118777699202E-01 a      1339     1    21     2    14
  3.6803488714306265E-01 a      1340     1    21     2    15
 -3.4686932080006821E-01 a      1341     1    21     2    16
 -4.0986753922228730E-01 a      1342     1    21     2    17
 -7.2230719029043255E-01 a      1343     1    21     2    18
 -1.2324847866609644E-01 a      1344     1    21     2    19
  4.3579759006282581E-01 a      1345     1    21     2    20
  5.6638340141248356E-01 a      1346     1    21     2    21
  3.5648809132189669E-03 a      1347     1    21     2    22
 -2.9567692423429459E-01 a      1348     1    21     2    23
 -1.2002240631913569E-01 a      1349     1    21     2    24
 -3.7978078356153341E-02 a      1350     1    21     2    25
 -3.4890011295719600E-02 a      1351     1    22     2     1
  2.6428494018407001E-01 a      1352     1    22     2     2
 -3.4722773011853031E-02 a      1353     1    22     2     3
  2.4940523525880345E-01 a      1354     1    22     2     4
  2.3361960509732421E-01 a      1355     1    22     2     5
 -4.6653875281656557E-02 a      1356     1    22     2     6
  4.3944295436007491E-01 a      1357     1    22     2     7
  4.3670681054359672E-01 a      1358     1    22     2     8
  5.9923238974393167E-01 a      1359     1    22     2     9
 -1.5124420769468691E-01 a      1360     1    22     2    10
 -1.7647396198894183E-01 a      1361     1    22     2    11
 -1.4452406612079025E-01 a      1362     1    22     2    12
  5.2391558253019477E-01 a      1363     1    22     2    13
  1.2761671906516164E-01 a      1364     1    22     2    14
 -4.2425190301108390E-02 a      1365     1    22     2    15
  4.8495593578999446E-01 a      1366     1    22     2    16
  1.9161632045045477E-03 a      1367     1    22     2    17
 -1.0820895403021140E-01 a      1368     1    22     2    18
 -2.9597847832442326E-01 a      1369     1    22     2    19
 -7.6779754026792979E-01 a      1370     1    22     2    20
 -5.2901162936793045E-01 a      1371     1    22     2    21
  3.5912363373836846E-02 a      1372     1    22     2    22
 -1.6720886719430050E-01 a      1373     1    22     2    23
  3.9562191019540371E-01 a      1374     1    22     2    24
  8.1362667873106018E-02 a      1375     1    22     2    25
 -9.1753680591623518E-02 a      1376     1    23     2     1
 -1.9493548696118726E-01 a      1377     1    23     2     2
 -4.5409627062392877E-02 a      1378     1    23     2     3
  1.0748342614956766E-01 a      1379     1    23     2     4
  2.0682803731857596E-01 a      1380     1    23     2     5
 -6.6986191980022161E-02 a      1381     1    23     2     6
  1.2401908028637820E-01 a      1382     1    23     2     7
 -1.9586374972536899E-01 a      1383     1    23     2     8
 -3.4364012149917056E-01 a      1384     1    23     2     9
 -3.7625251983320764E-02 a      1385     1    23     2    10
  2.7117047946629808E-01 a      1386     1    23     2    11
 -4.0908023999671556E-01 a      1387     1    23     2    12
 -3.2270079705842808E-01 a      1388     1    23     2    13
  2.9068462874304873E-01 a      1389     1    23     2    14
  1.2979592764453021E-01 a      1390     1    23     2    15
 -2.7766651261745384E-01 a      1391     1    23     2    16
  2.0115239477016894E-01 a      1392     1    23     2    17
 -6.1761075045181690E-02 a      1393     1    23     2    18
  2.7158987689672454E-01 a      1394     1    23     2    19
 -2.0449950072349307E-01 a      1395     1    23     2    20
  1.6324885972606609E-01 a      1396     1    23     2    21
  8.6873268533205709E-03 a      1397     1    23     2    22
  4.1061662209897803E-01 a      1398     1    23     2    23
 -1.1221893774953362E-01 a      1399     1    23     2    24
 -9.5481401641862473E-01 a      1400     1    23     2    25
 -1.3415056528663336E-01 a      1401     1    24     2     1
 -8.2589276998828287E-01 a      1402     1    24     2     2
 -5.0822226246372881E-01 a      1403     1    24     2     3
 -2.0258829234480005E-01 a      1404     1    24     2     4
  3.9345154239375811E-02 a      1405     1    24     2     5
 -3.3429831214121242E-01 a      1406     1    24     2     6
  2.4152454862079389E-01 a      1407     1    24     2     7
 -3.4503021472025530E-01 a      1408     1    24     2     8
 -9.7652190725933466E-02 a      1409     1    24     2     9
 -3.1182761696785627E-01 a      1410     1    24     2    10
 -4.0709113303935635E-01 a      1411     1    24     2    11
 -4.4608851941098815E-01 a      1412     1    24     2    12
  4.8300681575840582E-01 a      1413     1    24     2    13
  1.5841244543484876E-02 a      1414     1    24     2    14
  3.2414757092312968E-01 a      1415     1    24     2    15
  1.1307513641802826E-01 a      1416     1    24     2    16
  5.6688107541558408E-01 a      1417     1    24     2    17
  3.1626737444439629E-01 a      1418     1    24     2    18
  2.0110644026248611E-01 a      1419     1    24     2    19
 -2.1332531365367705E-01 a      1420     1    24     2    20
  2.9118136733954941E-01 a      1421     1    24     2    21
  5.3149572553390867E-01 a      1422     1    24     2    22
  6.0607147500644865E-01 a      1423     1    24     2    23
  9.0457510187842677E-02 a      1424     1    24     2    24
  4.8644729672239412E-01 a      1425     1    24     2    25
 -1.4867498743319583E-02 a      1426     1    25     2     1
 -2.4322563067236092E-01 a      1427     1    25     2     2
  4.2832522244900717E-01 a      1428     1    25     2     3
  2.0306109533051994E-01 a      1429     1    25     2     4
  8.9360111326487940E-02 a      1430     1    25     2     5
 -4.8248107174083545E-02 a      1431     1    25     2     6
 -2.7023686451765377E-01 a      1432     1    25     2     7
  3.8287541055154806E-01 a      1433     1    25     2     8
 -5.4648804231688930E-01 a      1434     1    25     2     9
 -1.0053854938299260E-01 a      1435     1    25     2    10
 -2.3934599636221375E-02 a      1436     1    25     2    11
 -2.2061315795779696E-01 a      1437     1    25     2    12
 -3.7115718773198775E-01 a      1438     1    25     2    13
 -3.0971890886181896E-01 a      1439     1    25     2    14
 -3.4033702687356110E-01 a      1440     1    25     2    15
  2.2766149702227861E-01 a      1441     1    25     2    16
  1.4215618991288406E-01 a      1442     1    25     2    17
  2.4333952246710144E-01 a      1443     1    25     2    18
 -3.6959657221829501E-01 a      1444     1    25     2    19
 -1.1725774498050581E-01 a      1445     1    25     2    20
  2.6379080693363877E-01 a      1446     1    25     2    21
  1.1838297885962410E-02 a      1447     1    25     2    22
 -2.8881084034915627E-01 a      1448     1    25     2    23
 -1.1096151649414140E-01 a      1449     1    25     2    24
  4.2846396862219122E-01 a      1450     1    25     2    25
 -1.5201831292412957E+00 b      1451     2     1
 -9.7002396559153659E-01 b      1452     2     2
 -6.6662898544566718E-01 b      1453     2     3
  7.8338683250146279E-01 b      1454     2     4
 -1.2145506487363542E-01 b      1455     2     5
 -1.2348403873120113E+00 b      1456     2     6
  1.4289969871666461E+00 b      1457     2     7
 -1.3295170941491961E+00 b      1458     2     8
  1.1630387315363202E+00 b      1459     2     9
  6.3793914349645231E-01 b      1460     2    10
  7.0053258409514619E-03 b      1461     2    11
 -1.3822586731367426E+00 b      1462     2    12
  4.0746771434708735E-02 b      1463     2    13
 -1.3441144577311008E+00 b      1464     2    14
 -1.0873542975429997E+00 b      1465     2    15
 -1.5784422851026270E+00 b      1466     2    16
 -2.9403376240535084E-01 b      1467     2    17
 -4.2467186298251458E-01 b      1468     2    18
 -1.3133020499465387E+00 b      1469     2    19
 -1.7710495898981280E+00 b      1470     2    20
  4.8123913127963536E-01 b      1471     2    21
  1.7792449345986805E-01 b      1472     2    22
  1.1002303642109577E+00 b      1473     2    23
 -1.5302870135418236E+00 b      1474     2    24
  1.4558376741014154E+00 b      1475     2    25
 -1.9491613364563745E-01 a      1476     2     1     3     1
  1.1237342428405621E-01 a      1477     2     2     3     1
 -4.1228916688041056E-01 a      1478     2     3     3     1
 -1.2461922121589404E+00 a      1479     2     4     3     1
  4.3846175626466266E-01 a      1480     2     5     3     1
 -2.5485739043523292E-01 a      1481     2     6     3     1
 -6.6201776621686581E-01 a      1482     2     7     3     1
  4.5833425626285701E-01 a      1483     2     8     3     1
  3.8049940759150686E-01 a      1484     2     9     3     1
 -2.1416985670923780E-01 a      1485     2    10     3     1
  4.6472749658446277E-01 a      1486     2    11     3     1
  1.0559268962962760E-01 a      1487     2    12     3     1
 -2.5371670138603375E-01 a      1488     2    13     3     1
 -8.3361866944971486E-01 a      1489     2    14     3     1
 -4.1009157421682058E-01 a      1490     2    15     3     1
 -6.2566333414084896E-01 a      1491     2    16     3     1
  1.2298259278296293E+00 a      1492     2    17     3     1
  8.2373757810910464E-01 a      1493     2    18     3     1
 -1.0173951194832297E-01 a      1494     2    19     3     1
  1.0267318747785703E+00 a      1495     2    20     3     1
  1.1088394222647022E+00 a      1496     2    21     3     1
  1.1426400370842520E-01 a      1497     2    22     3     1
 -1.7853999971296647E-01 a      1498     2    23     3     1
  5.9811501426971048E-01 a      1499     2    24     3     1
 -2.3842553395779348E-01 a      1500     2    25     3     1
  1.2841356678604482E-01 b      1501     3     1
