################################################################################
# Neural network connection values (weights and biases).
################################################################################
# Col  Name       Description
################################################################################
# 1    connection Neural network connection value.
# 2    t          Connection type (a = weight, b = bias).
# 3    index      Index enumerating weights.
# 4    l_s        Starting point layer (end point layer for biases).
# 5    n_s        Starting point neuron in starting layer (end point neuron for biases).
# 6    l_e        End point layer.
# 7    n_e        End point neuron in end layer.
################################################################################
#                      1 2         3     4     5     6     7
#             connection t     index   l_s   n_s   l_e   n_e
############################################################
 -3.6919191585197514E-01 a         1     0     1     1     1
  2.2606401476760038E-01 a         2     0     1     1     2
  3.6608207103705999E-02 a         3     0     1     1     3
 -3.8175834469186132E-01 a         4     0     1     1     4
  2.0743457382663555E-01 a         5     0     1     1     5
  1.3300071955099182E-01 a         6     0     1     1     6
  3.3662223806578691E-02 a         7     0     1     1     7
  3.1332095262321463E-01 a         8     0     1     1     8
 -1.4693329495836724E-01 a         9     0     1     1     9
 -6.6390178048874350E-03 a        10     0     1     1    10
  4.6790462698604918E-01 a        11     0     1     1    11
  2.8570028293419780E-01 a        12     0     1     1    12
 -2.8104211991777495E-01 a        13     0     1     1    13
  1.5919090867080679E-01 a        14     0     1     1    14
  3.2037352175121531E-01 a        15     0     1     1    15
  5.2698951022378163E-02 a        16     0     1     1    16
 -2.4331374487657417E-01 a        17     0     1     1    17
 -4.0934192882027425E-02 a        18     0     1     1    18
 -1.5635679988229508E-02 a        19     0     1     1    19
  2.2665839881682118E-01 a        20     0     1     1    20
  5.7148994250428042E-01 a        21     0     1     1    21
 -2.3125778522033147E-01 a        22     0     1     1    22
  1.8634506638070113E-02 a        23     0     1     1    23
 -9.8674993497044838E-02 a        24     0     1     1    24
 -3.1291460439710717E-01 a        25     0     1     1    25
 -3.0099342488556191E-01 a        26     0     2     1     1
  9.0015104785485051E-02 a        27     0     2     1     2
  1.5632476950603383E-01 a        28     0     2     1     3
 -2.8760236220921126E-01 a        29     0     2     1     4
  2.0219972359336899E-01 a        30     0     2     1     5
  9.2229367096030065E-02 a        31     0     2     1     6
  1.1436899500334443E-02 a        32     0     2     1     7
 -4.5453559126286666E-02 a        33     0     2     1     8
 -3.0639407608921615E-02 a        34     0     2     1     9
  2.2884827917480036E-01 a        35     0     2     1    10
 -1.3180651423100684E-01 a        36     0     2     1    11
 -3.4813089568315053E-01 a        37     0     2     1    12
  8.9990928333726378E-02 a        38     0     2     1    13
  1.2830092936289257E-02 a        39     0     2     1    14
 -9.4601202591278993E-02 a        40     0     2     1    15
 -4.2273930794050646E-02 a        41     0     2     1    16
  1.5815984234454253E-01 a        42     0     2     1    17
 -2.9949511063531300E-02 a        43     0     2     1    18
  1.2385832324513064E-01 a        44     0     2     1    19
  1.3603917379354721E-01 a        45     0     2     1    20
 -2.3707564328567704E-01 a        46     0     2     1    21
 -1.4838424020459612E-01 a        47     0     2     1    22
  1.1960252979615538E-01 a        48     0     2     1    23
  1.8000884152128496E-02 a        49     0     2     1    24
 -3.9987789088962097E-02 a        50     0     2     1    25
  2.6107250627538298E-02 a        51     0     3     1     1
  9.4233585489664234E-02 a        52     0     3     1     2
 -5.0235512084180978E-02 a        53     0     3     1     3
 -2.8397116256091309E-01 a        54     0     3     1     4
 -5.1507927072411064E-01 a        55     0     3     1     5
  5.1045373536245087E-01 a        56     0     3     1     6
  4.3201104089184317E-02 a        57     0     3     1     7
 -1.0265010166274209E+00 a        58     0     3     1     8
  1.2810877665135229E-01 a        59     0     3     1     9
  1.2367314833796363E-01 a        60     0     3     1    10
 -3.0597579305288186E-01 a        61     0     3     1    11
  5.5056359924554554E-01 a        62     0     3     1    12
  8.8281866329026559E-01 a        63     0     3     1    13
 -3.6698558948125076E-01 a        64     0     3     1    14
 -6.1774757104996769E-01 a        65     0     3     1    15
 -5.6045111000389181E-01 a        66     0     3     1    16
  2.6919234973034617E-01 a        67     0     3     1    17
  3.6544100462382649E-02 a        68     0     3     1    18
  1.1031896824371783E-01 a        69     0     3     1    19
  3.0947745644920149E-01 a        70     0     3     1    20
  3.7097252721197110E-01 a        71     0     3     1    21
  2.1538873096850211E-01 a        72     0     3     1    22
 -3.5466450139609801E-01 a        73     0     3     1    23
 -5.6868323977599189E-01 a        74     0     3     1    24
  2.8117219871336763E-01 a        75     0     3     1    25
  5.4866549897982031E-01 a        76     0     4     1     1
 -5.0690236886728324E-01 a        77     0     4     1     2
 -2.6372738215380137E-02 a        78     0     4     1     3
  8.6439232577910835E-02 a        79     0     4     1     4
 -5.3728929951269744E-01 a        80     0     4     1     5
 -1.7381133727112630E-01 a        81     0     4     1     6
  2.7852234756136532E-02 a        82     0     4     1     7
 -2.3808908972859973E-02 a        83     0     4     1     8
 -1.4115500979822965E-01 a        84     0     4     1     9
 -3.4586964563509529E-02 a        85     0     4     1    10
  2.9087844888111969E-01 a        86     0     4     1    11
  3.7852821287300170E-01 a        87     0     4     1    12
  2.7595967235166718E-01 a        88     0     4     1    13
 -2.5655826646977758E-01 a        89     0     4     1    14
  1.9955030361128884E-01 a        90     0     4     1    15
  1.2687242932901691E-01 a        91     0     4     1    16
  1.8044901293480856E-01 a        92     0     4     1    17
  5.0978609803074032E-02 a        93     0     4     1    18
  2.6473382882496260E-01 a        94     0     4     1    19
 -2.9185944768096816E-01 a        95     0     4     1    20
  3.4390250152674620E-02 a        96     0     4     1    21
  6.5664924149263282E-02 a        97     0     4     1    22
 -1.9571105597011602E-02 a        98     0     4     1    23
 -2.3788813472720202E-01 a        99     0     4     1    24
  1.0088784638921851E-01 a       100     0     4     1    25
 -4.8255870381958177E-01 a       101     0     5     1     1
  3.8576830897019609E-01 a       102     0     5     1     2
  3.2333972333627103E-01 a       103     0     5     1     3
 -5.8085911558400893E-01 a       104     0     5     1     4
  2.2435439621184083E-01 a       105     0     5     1     5
 -1.8406992489988896E-01 a       106     0     5     1     6
 -1.6875373875795233E-01 a       107     0     5     1     7
  1.8480570724871709E-01 a       108     0     5     1     8
 -1.2146618033276869E-01 a       109     0     5     1     9
 -5.5660650426007507E-01 a       110     0     5     1    10
 -6.1162270959137199E-01 a       111     0     5     1    11
  3.7105132292055326E-01 a       112     0     5     1    12
 -3.9376627555559296E-01 a       113     0     5     1    13
 -1.2155988333963118E-01 a       114     0     5     1    14
 -2.2421476838477139E-01 a       115     0     5     1    15
  4.3502170483513153E-01 a       116     0     5     1    16
  1.6040509074791201E-01 a       117     0     5     1    17
  2.0743684013798466E-01 a       118     0     5     1    18
  1.9779186167099250E-01 a       119     0     5     1    19
  1.4814580489228690E-01 a       120     0     5     1    20
 -5.5402452566946876E-02 a       121     0     5     1    21
 -5.1347398776983166E-01 a       122     0     5     1    22
 -1.5726022293748984E-01 a       123     0     5     1    23
 -3.6542976618892398E-01 a       124     0     5     1    24
 -2.5974623918546225E-01 a       125     0     5     1    25
 -4.1463564271554726E-01 a       126     0     6     1     1
  5.4441702694551036E-02 a       127     0     6     1     2
 -9.9184324685016326E-02 a       128     0     6     1     3
  4.7551716647483977E-01 a       129     0     6     1     4
  1.1314479366452505E-01 a       130     0     6     1     5
  3.7865785925344553E-01 a       131     0     6     1     6
  6.9891938270877987E-02 a       132     0     6     1     7
 -4.9007116560839782E-03 a       133     0     6     1     8
 -3.3541854982702374E-01 a       134     0     6     1     9
  3.3264221883702129E-02 a       135     0     6     1    10
 -4.6808898812794159E-01 a       136     0     6     1    11
 -4.9099173451278788E-01 a       137     0     6     1    12
 -1.3096620930028301E-03 a       138     0     6     1    13
 -1.0380003667152553E-01 a       139     0     6     1    14
 -1.9199241025995298E-01 a       140     0     6     1    15
  4.6022299776328719E-02 a       141     0     6     1    16
 -3.6954638193538486E-01 a       142     0     6     1    17
  8.6590437476576659E-02 a       143     0     6     1    18
 -1.3766585372393797E-01 a       144     0     6     1    19
  4.7948851186839128E-02 a       145     0     6     1    20
  9.7351700152332660E-02 a       146     0     6     1    21
 -5.8939565241162978E-02 a       147     0     6     1    22
  9.8991481517741717E-02 a       148     0     6     1    23
  2.2476658646631470E-01 a       149     0     6     1    24
 -2.3046055488660572E-01 a       150     0     6     1    25
 -1.2322502996196892E-01 a       151     0     7     1     1
  4.2685880917996433E-01 a       152     0     7     1     2
 -2.1749619640502715E-02 a       153     0     7     1     3
 -2.4237894317697206E-01 a       154     0     7     1     4
 -2.5762564860977838E-01 a       155     0     7     1     5
  5.7618205887718499E-01 a       156     0     7     1     6
  4.3469183978371179E-01 a       157     0     7     1     7
 -9.2262023260618098E-01 a       158     0     7     1     8
 -1.5302213423969244E-01 a       159     0     7     1     9
  3.3879983151218601E-01 a       160     0     7     1    10
 -3.0993189889640421E-01 a       161     0     7     1    11
 -1.8933157904623832E-01 a       162     0     7     1    12
  9.5181879833100369E-01 a       163     0     7     1    13
 -6.4200811602836111E-02 a       164     0     7     1    14
  1.1417210710324535E-01 a       165     0     7     1    15
 -4.1665760807876273E-01 a       166     0     7     1    16
 -4.7966074005756469E-02 a       167     0     7     1    17
  2.4620456378924360E-02 a       168     0     7     1    18
  2.0796354134707729E-01 a       169     0     7     1    19
 -2.6476903013681752E-01 a       170     0     7     1    20
  4.4145906061144013E-01 a       171     0     7     1    21
 -3.1436115501371797E-01 a       172     0     7     1    22
 -3.1645785592920855E-01 a       173     0     7     1    23
 -6.3150960739539463E-01 a       174     0     7     1    24
  3.5760616908914367E-01 a       175     0     7     1    25
 -3.2195485457727918E-01 a       176     0     8     1     1
 -3.2294953603550136E-01 a       177     0     8     1     2
 -1.3441487850954034E-01 a       178     0     8     1     3
  9.2554272429433010E-02 a       179     0     8     1     4
  2.8765746725432773E-01 a       180     0     8     1     5
 -2.9866384383801065E-01 a       181     0     8     1     6
 -3.4473941310497508E-01 a       182     0     8     1     7
  1.4049255799343371E-01 a       183     0     8     1     8
  2.3419154009060142E-01 a       184     0     8     1     9
 -3.9730638156485598E-01 a       185     0     8     1    10
  4.8819118044196491E-01 a       186     0     8     1    11
 -6.6416186907733010E-01 a       187     0     8     1    12
 -5.4561939961116954E-02 a       188     0     8     1    13
 -3.8289751688243195E-01 a       189     0     8     1    14
 -4.2882053792073643E-01 a       190     0     8     1    15
 -3.3781221638407066E-01 a       191     0     8     1    16
 -4.0597006952968534E-01 a       192     0     8     1    17
  1.0910355828895550E-01 a       193     0     8     1    18
 -2.2338727488836418E-01 a       194     0     8     1    19
  3.0647142089596319E-01 a       195     0     8     1    20
  3.7571140807794873E-01 a       196     0     8     1    21
 -4.8259150145884867E-03 a       197     0     8     1    22
  1.9371387751784899E-02 a       198     0     8     1    23
  2.8446950062714782E-01 a       199     0     8     1    24
 -4.3823249011380139E-01 a       200     0     8     1    25
 -2.9201097828042054E-02 a       201     0     9     1     1
  4.5042086114270252E-01 a       202     0     9     1     2
 -2.7461929440694945E-02 a       203     0     9     1     3
 -1.1572385616134820E-01 a       204     0     9     1     4
 -5.7140829538324098E-02 a       205     0     9     1     5
 -2.7486127246995734E-01 a       206     0     9     1     6
  1.6033902220402435E-01 a       207     0     9     1     7
  3.4790790252948928E-01 a       208     0     9     1     8
 -2.8461934840515724E-01 a       209     0     9     1     9
 -5.0654411575040810E-02 a       210     0     9     1    10
 -2.9068540761539207E-02 a       211     0     9     1    11
  3.3049812537797357E-01 a       212     0     9     1    12
 -4.4504417582338078E-02 a       213     0     9     1    13
  5.6549926827030916E-01 a       214     0     9     1    14
 -4.8106484456236130E-02 a       215     0     9     1    15
  2.0460725993315687E-01 a       216     0     9     1    16
 -1.2423462459055257E-01 a       217     0     9     1    17
  6.3778565934283743E-02 a       218     0     9     1    18
  2.3971472282431425E-01 a       219     0     9     1    19
 -1.1861597845575808E-01 a       220     0     9     1    20
  1.9812009222168005E-02 a       221     0     9     1    21
 -2.7178680982670583E-01 a       222     0     9     1    22
  1.9726154496813744E-01 a       223     0     9     1    23
 -2.4701630293704260E-01 a       224     0     9     1    24
 -3.6928136811526158E-01 a       225     0     9     1    25
 -3.8386875094690839E-02 a       226     0    10     1     1
 -5.3773707503809054E-01 a       227     0    10     1     2
 -8.4313422787051326E-02 a       228     0    10     1     3
 -3.9273371325945543E-02 a       229     0    10     1     4
 -2.5694194039140017E-01 a       230     0    10     1     5
  1.1019004166231151E-01 a       231     0    10     1     6
  3.4446930021549782E-01 a       232     0    10     1     7
  2.8144680908881980E-01 a       233     0    10     1     8
  2.5391538292760268E-01 a       234     0    10     1     9
  1.8403715227591083E-01 a       235     0    10     1    10
 -7.9588426413797528E-02 a       236     0    10     1    11
  1.2924350425966947E-02 a       237     0    10     1    12
  2.8530411576997172E-01 a       238     0    10     1    13
 -3.8690243478324715E-01 a       239     0    10     1    14
 -5.0240231823660320E-01 a       240     0    10     1    15
  8.8233976571617398E-02 a       241     0    10     1    16
  1.5405225386829190E-04 a       242     0    10     1    17
  2.8152693477248730E-01 a       243     0    10     1    18
  2.9669411173917287E-01 a       244     0    10     1    19
 -1.2009607326365865E-01 a       245     0    10     1    20
 -1.4679371182203196E-01 a       246     0    10     1    21
  3.1512243183892080E-01 a       247     0    10     1    22
  2.1931545671628302E-01 a       248     0    10     1    23
  1.2061931135840857E-01 a       249     0    10     1    24
  4.7933157916015635E-02 a       250     0    10     1    25
  1.5667768766653772E-01 a       251     0    11     1     1
  7.3923365414838918E-02 a       252     0    11     1     2
 -1.7438954170585205E-02 a       253     0    11     1     3
 -4.6961308409333762E-02 a       254     0    11     1     4
  1.8477627810656752E-01 a       255     0    11     1     5
  3.8142700016632880E-01 a       256     0    11     1     6
  6.0036292195446102E-02 a       257     0    11     1     7
 -1.4800458766205449E-01 a       258     0    11     1     8
  2.1695042887407121E-01 a       259     0    11     1     9
  1.4242802194328887E-02 a       260     0    11     1    10
 -2.2041651202455337E-01 a       261     0    11     1    11
  1.8741824314803535E-01 a       262     0    11     1    12
  4.0552570042978198E-01 a       263     0    11     1    13
 -9.3447894484025518E-02 a       264     0    11     1    14
  1.6191481990622961E-01 a       265     0    11     1    15
  1.1773087078551167E-01 a       266     0    11     1    16
 -1.9147365903512559E-01 a       267     0    11     1    17
 -3.2520910016748428E-01 a       268     0    11     1    18
 -9.7546163882784545E-02 a       269     0    11     1    19
 -4.8447160797965794E-02 a       270     0    11     1    20
  8.2029435437160972E-02 a       271     0    11     1    21
  2.7034262666680103E-01 a       272     0    11     1    22
 -1.0725243102918315E-01 a       273     0    11     1    23
 -1.5715421641037292E-01 a       274     0    11     1    24
 -1.9259503676913564E-01 a       275     0    11     1    25
 -3.8071077540125257E-03 a       276     0    12     1     1
 -2.4196801869498988E-01 a       277     0    12     1     2
  2.0179596339321376E-01 a       278     0    12     1     3
  3.0315010766843881E-01 a       279     0    12     1     4
 -2.1952774756556437E-01 a       280     0    12     1     5
 -1.0833924953021279E-01 a       281     0    12     1     6
 -5.6656405459357373E-01 a       282     0    12     1     7
 -2.0052627139741389E-01 a       283     0    12     1     8
 -1.4220304336667600E-01 a       284     0    12     1     9
 -1.9143495214679809E-01 a       285     0    12     1    10
  1.8590042372302298E-01 a       286     0    12     1    11
 -2.5658534863577653E-01 a       287     0    12     1    12
 -5.4575415072909017E-01 a       288     0    12     1    13
  2.4543838827158945E-01 a       289     0    12     1    14
  5.7194302231755360E-02 a       290     0    12     1    15
 -2.2863771562869964E-01 a       291     0    12     1    16
  7.7257753849747646E-02 a       292     0    12     1    17
  1.7971618768993936E-01 a       293     0    12     1    18
 -4.7872389792090436E-02 a       294     0    12     1    19
  1.5109168976072498E-01 a       295     0    12     1    20
 -1.0311973680675138E-01 a       296     0    12     1    21
 -1.4164614205115336E-01 a       297     0    12     1    22
 -1.1222846763192873E-01 a       298     0    12     1    23
  7.9095801773319360E-02 a       299     0    12     1    24
 -1.4703737595493444E-01 a       300     0    12     1    25
 -1.1506415046973498E-01 a       301     0    13     1     1
  1.3806103115547597E-01 a       302     0    13     1     2
 -3.2737476759997308E-01 a       303     0    13     1     3
 -1.4232771078464854E-01 a       304     0    13     1     4
 -3.6898941042530681E-01 a       305     0    13     1     5
 -3.3453572610749815E-01 a       306     0    13     1     6
  1.6241419523728506E-01 a       307     0    13     1     7
 -4.5935707638606521E-02 a       308     0    13     1     8
 -3.5701997971711713E-01 a       309     0    13     1     9
 -6.0628240202684871E-03 a       310     0    13     1    10
  2.9997029351185794E-01 a       311     0    13     1    11
 -5.4392043888960663E-02 a       312     0    13     1    12
  3.3930271313138100E-01 a       313     0    13     1    13
  1.2517143452695739E-01 a       314     0    13     1    14
  3.1778172363401924E-01 a       315     0    13     1    15
 -3.3454279406802301E-01 a       316     0    13     1    16
 -3.0024968559968773E-01 a       317     0    13     1    17
 -5.1433230815436076E-02 a       318     0    13     1    18
  1.7127774757143893E-01 a       319     0    13     1    19
 -1.8442756528269100E-01 a       320     0    13     1    20
 -7.7217109085024674E-02 a       321     0    13     1    21
 -2.2969330501168578E-01 a       322     0    13     1    22
  2.4777666857456859E-01 a       323     0    13     1    23
  2.0036132570247800E-01 a       324     0    13     1    24
  3.0749805337688422E-03 a       325     0    13     1    25
 -1.4760805382232381E-01 a       326     0    14     1     1
 -1.2849563545788426E-01 a       327     0    14     1     2
  2.1858992118670437E-01 a       328     0    14     1     3
 -1.6995337936838020E-01 a       329     0    14     1     4
  1.0834005934313959E-01 a       330     0    14     1     5
  2.1857893064361884E-02 a       331     0    14     1     6
  3.5218527305427849E-01 a       332     0    14     1     7
  1.6239600698137241E-01 a       333     0    14     1     8
 -4.4847152869908126E-02 a       334     0    14     1     9
  3.4804999846567469E-01 a       335     0    14     1    10
 -1.2286970370338070E-01 a       336     0    14     1    11
 -2.7301837629116527E-01 a       337     0    14     1    12
 -1.0020953058648061E-01 a       338     0    14     1    13
 -2.9851579331974665E-01 a       339     0    14     1    14
  2.5802281839478029E-02 a       340     0    14     1    15
  1.3692584455317069E-01 a       341     0    14     1    16
 -3.1291455754076231E-01 a       342     0    14     1    17
  2.6312124454028321E-02 a       343     0    14     1    18
  3.2020225539266861E-01 a       344     0    14     1    19
 -9.3687276745763701E-02 a       345     0    14     1    20
  8.5636139995950544E-02 a       346     0    14     1    21
 -8.2314901113476002E-02 a       347     0    14     1    22
  5.8912854989240003E-02 a       348     0    14     1    23
 -2.9223742095471927E-01 a       349     0    14     1    24
 -1.7496998561299612E-01 a       350     0    14     1    25
  1.9011475572191056E-01 a       351     0    15     1     1
 -7.1595830151620035E-02 a       352     0    15     1     2
  6.1730821536743016E-02 a       353     0    15     1     3
  2.7252157860707482E-01 a       354     0    15     1     4
 -7.0650565350381334E-02 a       355     0    15     1     5
 -6.4960902966889481E-03 a       356     0    15     1     6
  1.7227111695544789E-01 a       357     0    15     1     7
  1.0083730352290161E-01 a       358     0    15     1     8
  2.4266384817859338E-01 a       359     0    15     1     9
  3.2988362640386661E-02 a       360     0    15     1    10
 -3.2814273730348531E-01 a       361     0    15     1    11
  3.6812107738424221E-01 a       362     0    15     1    12
  2.2308487449246871E-02 a       363     0    15     1    13
 -1.7591661679942425E-01 a       364     0    15     1    14
  1.7877265312394662E-02 a       365     0    15     1    15
  1.5764706894851868E-01 a       366     0    15     1    16
 -9.6255197470816969E-02 a       367     0    15     1    17
 -1.2824411002079267E-01 a       368     0    15     1    18
 -2.6025924363686542E-01 a       369     0    15     1    19
 -1.6621612225239973E-01 a       370     0    15     1    20
 -1.4335256041087654E-01 a       371     0    15     1    21
  3.8104493891138147E-01 a       372     0    15     1    22
  1.8203951927773878E-02 a       373     0    15     1    23
  4.5462370701051844E-02 a       374     0    15     1    24
  6.0435600462042487E-03 a       375     0    15     1    25
  1.4749230584050907E-01 a       376     0    16     1     1
  1.4465396215325119E-01 a       377     0    16     1     2
  2.1771565061997777E-01 a       378     0    16     1     3
  2.3696932503567833E-01 a       379     0    16     1     4
  4.3658273023056297E-02 a       380     0    16     1     5
  1.8543805632211013E-01 a       381     0    16     1     6
 -2.4350962126239820E-01 a       382     0    16     1     7
  4.1761662202837883E-02 a       383     0    16     1     8
 -2.4740945202256104E-01 a       384     0    16     1     9
 -1.5649488786699181E-02 a       385     0    16     1    10
  2.0117759651088954E-01 a       386     0    16     1    11
 -1.4082330394954257E-01 a       387     0    16     1    12
 -2.9795996989176909E-01 a       388     0    16     1    13
  1.9130369559415392E-01 a       389     0    16     1    14
 -1.6493789873905482E-01 a       390     0    16     1    15
 -4.2551489138047155E-02 a       391     0    16     1    16
  2.6515256899670997E-01 a       392     0    16     1    17
  1.6942800056959115E-02 a       393     0    16     1    18
 -3.7327504205178497E-02 a       394     0    16     1    19
 -1.8952388198941697E-01 a       395     0    16     1    20
 -7.7559636294008277E-02 a       396     0    16     1    21
 -1.0841841246302329E-01 a       397     0    16     1    22
  1.3926181189301530E-02 a       398     0    16     1    23
 -8.1882795700726416E-02 a       399     0    16     1    24
  1.1148095812041313E-01 a       400     0    16     1    25
  2.7569718873178908E-02 a       401     0    17     1     1
  2.6871743890364641E-01 a       402     0    17     1     2
 -1.7918322004881609E-02 a       403     0    17     1     3
 -1.7234212197091536E-01 a       404     0    17     1     4
  1.9883444174907741E-01 a       405     0    17     1     5
  7.8353955344150461E-02 a       406     0    17     1     6
 -1.2146076279960297E-01 a       407     0    17     1     7
  2.5926181546235733E-02 a       408     0    17     1     8
  3.0030892457936602E-02 a       409     0    17     1     9
  1.8128888797919596E-01 a       410     0    17     1    10
  3.8289720753084261E-01 a       411     0    17     1    11
 -1.4931376151973227E-01 a       412     0    17     1    12
  3.2420317689629483E-02 a       413     0    17     1    13
  1.3168202996741285E-01 a       414     0    17     1    14
  1.7519806442176024E-02 a       415     0    17     1    15
  1.1480185192724829E-01 a       416     0    17     1    16
  4.3111844266878292E-03 a       417     0    17     1    17
 -1.1159154865071914E-01 a       418     0    17     1    18
  4.9873049409059948E-02 a       419     0    17     1    19
  1.9555074287555693E-01 a       420     0    17     1    20
  2.5901788618762445E-01 a       421     0    17     1    21
 -1.3335518410320063E-01 a       422     0    17     1    22
 -3.7329988586664822E-02 a       423     0    17     1    23
 -8.8291373960715513E-02 a       424     0    17     1    24
 -2.6464970110688302E-01 a       425     0    17     1    25
 -4.0633778289849300E-02 a       426     0    18     1     1
 -3.2501974253005200E-01 a       427     0    18     1     2
  5.4247312725468266E-03 a       428     0    18     1     3
 -1.2850545021399859E-01 a       429     0    18     1     4
 -1.3899340483284439E-01 a       430     0    18     1     5
 -2.5856221337749244E-02 a       431     0    18     1     6
  1.1736091414605477E-02 a       432     0    18     1     7
 -1.0045688269511152E-01 a       433     0    18     1     8
  1.5091913422878173E-01 a       434     0    18     1     9
 -1.8659868886805306E-01 a       435     0    18     1    10
 -1.3129150662320241E-01 a       436     0    18     1    11
  5.2524965717361809E-02 a       437     0    18     1    12
  2.9930000670925123E-02 a       438     0    18     1    13
  3.2486339507283912E-01 a       439     0    18     1    14
  3.0941208371146278E-02 a       440     0    18     1    15
  8.0869199130775060E-02 a       441     0    18     1    16
 -2.4183363507734874E-02 a       442     0    18     1    17
  7.0125544515888191E-02 a       443     0    18     1    18
  1.4032538122077218E-01 a       444     0    18     1    19
  3.5848085831573950E-01 a       445     0    18     1    20
 -6.6155681966535623E-02 a       446     0    18     1    21
  8.1265642182130698E-02 a       447     0    18     1    22
 -7.3807686625651611E-02 a       448     0    18     1    23
 -7.3234044843391313E-02 a       449     0    18     1    24
 -2.5716850444785827E-01 a       450     0    18     1    25
 -8.6216071838388225E-02 a       451     0    19     1     1
 -3.3219503916770581E-02 a       452     0    19     1     2
 -8.0024384535780525E-03 a       453     0    19     1     3
 -6.2546955730305685E-03 a       454     0    19     1     4
 -4.1503361075469403E-01 a       455     0    19     1     5
  1.9683944309005046E-03 a       456     0    19     1     6
  1.3659145501896333E-01 a       457     0    19     1     7
  6.0073113068046316E-02 a       458     0    19     1     8
 -3.2128719959349530E-02 a       459     0    19     1     9
  1.1489381016391016E-01 a       460     0    19     1    10
 -1.1167708698384572E-01 a       461     0    19     1    11
  8.9940288864256007E-02 a       462     0    19     1    12
  2.0072197339216361E-01 a       463     0    19     1    13
 -1.0157558325139517E-01 a       464     0    19     1    14
  1.3189740715627812E-01 a       465     0    19     1    15
  2.8349461155794915E-02 a       466     0    19     1    16
  1.0968957287119269E-01 a       467     0    19     1    17
 -1.4919718648759316E-02 a       468     0    19     1    18
 -5.6336736957844059E-02 a       469     0    19     1    19
 -1.8182100270223533E-01 a       470     0    19     1    20
 -2.3167107992253522E-01 a       471     0    19     1    21
  2.9846124353700765E-02 a       472     0    19     1    22
  1.0331419770565960E-01 a       473     0    19     1    23
  7.1442884443241914E-02 a       474     0    19     1    24
  9.9892202871453256E-02 a       475     0    19     1    25
 -1.9198838959730027E-02 a       476     0    20     1     1
  7.4616443344423092E-02 a       477     0    20     1     2
  6.8164740031234862E-03 a       478     0    20     1     3
  8.9527845338617837E-02 a       479     0    20     1     4
  2.2017677990896967E-01 a       480     0    20     1     5
 -1.6822497643866743E-02 a       481     0    20     1     6
 -4.1687977678442165E-02 a       482     0    20     1     7
 -7.6009395351529221E-03 a       483     0    20     1     8
 -9.3227262425827281E-02 a       484     0    20     1     9
 -9.0273974902770601E-02 a       485     0    20     1    10
  2.8759784619921635E-02 a       486     0    20     1    11
 -2.5940573752536722E-01 a       487     0    20     1    12
 -1.2519722787815019E-01 a       488     0    20     1    13
  1.9549986725694260E-01 a       489     0    20     1    14
 -5.8780741476364841E-02 a       490     0    20     1    15
 -1.1884955584113023E-01 a       491     0    20     1    16
  1.4931826703309342E-01 a       492     0    20     1    17
 -6.2447646499696724E-02 a       493     0    20     1    18
  1.6986282858847562E-01 a       494     0    20     1    19
 -1.4332036678936985E-01 a       495     0    20     1    20
  1.9665862474030696E-02 a       496     0    20     1    21
 -2.1891019665553360E-01 a       497     0    20     1    22
 -4.5612404356612938E-03 a       498     0    20     1    23
 -1.2604878505299069E-01 a       499     0    20     1    24
  6.5697096044309108E-02 a       500     0    20     1    25
  6.2824069499437396E-01 a       501     0    21     1     1
 -7.2094718812582115E-01 a       502     0    21     1     2
 -7.2243222416317998E-01 a       503     0    21     1     3
  5.0156226972446660E-01 a       504     0    21     1     4
 -3.1585707204694941E-01 a       505     0    21     1     5
  1.1445391796830835E-01 a       506     0    21     1     6
  1.0768245741882718E+00 a       507     0    21     1     7
  9.4556693975377659E-01 a       508     0    21     1     8
 -1.3250451046010803E-01 a       509     0    21     1     9
  5.1289699283225835E-04 a       510     0    21     1    10
  7.2201945968986048E-02 a       511     0    21     1    11
  6.2398452349506563E-02 a       512     0    21     1    12
 -1.0036506807322471E-01 a       513     0    21     1    13
 -1.3227233992914875E-01 a       514     0    21     1    14
  7.6213226206259099E-01 a       515     0    21     1    15
  1.8212042158597058E-01 a       516     0    21     1    16
  4.8938817415525820E-01 a       517     0    21     1    17
 -2.3451024777688104E-01 a       518     0    21     1    18
  1.8963180435699192E-01 a       519     0    21     1    19
  3.3296716618273614E-01 a       520     0    21     1    20
 -4.8353550324416739E-01 a       521     0    21     1    21
  3.8057389022968147E-01 a       522     0    21     1    22
  1.0980603152195960E+00 a       523     0    21     1    23
  2.2494795046216329E-01 a       524     0    21     1    24
 -8.6805368849897357E-01 a       525     0    21     1    25
 -7.2675281101480482E-01 a       526     0    22     1     1
  2.0138258938709211E-01 a       527     0    22     1     2
  1.1602893817091342E+00 a       528     0    22     1     3
 -2.0913864394874573E-01 a       529     0    22     1     4
  1.9717009518255219E-01 a       530     0    22     1     5
 -2.4153018437478230E-01 a       531     0    22     1     6
 -3.0867439661085472E-01 a       532     0    22     1     7
  3.4221176653546459E-01 a       533     0    22     1     8
 -2.3903202498157577E-01 a       534     0    22     1     9
 -1.6478962299786781E-01 a       535     0    22     1    10
  8.1405713284074380E-02 a       536     0    22     1    11
 -8.4835118249000585E-02 a       537     0    22     1    12
 -2.1863992186419531E-01 a       538     0    22     1    13
 -6.1465197144815291E-02 a       539     0    22     1    14
 -3.3723680308041454E-01 a       540     0    22     1    15
 -3.5749844342915962E-02 a       541     0    22     1    16
  2.1320163087880803E-01 a       542     0    22     1    17
 -4.8491387500421301E-01 a       543     0    22     1    18
 -1.9469219506443336E-01 a       544     0    22     1    19
 -1.6375735568020580E-01 a       545     0    22     1    20
 -4.3291886602800400E-01 a       546     0    22     1    21
  3.1587587942557088E-01 a       547     0    22     1    22
 -3.6557676395590150E-01 a       548     0    22     1    23
 -2.7678139688713910E-01 a       549     0    22     1    24
  6.5288323518297930E-01 a       550     0    22     1    25
  3.1982758052063781E-01 a       551     0    23     1     1
  1.3365607747131447E-01 a       552     0    23     1     2
  1.2405625853451442E-01 a       553     0    23     1     3
  1.0088013334999306E-01 a       554     0    23     1     4
 -3.3345889942386830E-01 a       555     0    23     1     5
  2.2127649422826667E-01 a       556     0    23     1     6
 -1.2967926391214332E-01 a       557     0    23     1     7
  7.5345618748844739E-02 a       558     0    23     1     8
 -2.2452138589088932E-01 a       559     0    23     1     9
  4.2034673092896789E-02 a       560     0    23     1    10
 -1.5323023167152023E-02 a       561     0    23     1    11
  2.6588285768665826E-01 a       562     0    23     1    12
 -2.7104817274573290E-01 a       563     0    23     1    13
  4.8467180707148096E-02 a       564     0    23     1    14
  2.2901768365561212E-01 a       565     0    23     1    15
 -1.7378866492759777E-02 a       566     0    23     1    16
  1.1057373639902560E-01 a       567     0    23     1    17
  1.3224973633422743E-01 a       568     0    23     1    18
 -4.3789966003176911E-01 a       569     0    23     1    19
 -1.2122454085980114E-01 a       570     0    23     1    20
 -2.5847271184702170E-01 a       571     0    23     1    21
  3.3727474487890291E-01 a       572     0    23     1    22
  9.1475934570583603E-02 a       573     0    23     1    23
  2.2080555496186205E-01 a       574     0    23     1    24
  2.5502418600681392E-01 a       575     0    23     1    25
 -8.8080122351073237E-02 a       576     0    24     1     1
 -1.7347848040668919E-02 a       577     0    24     1     2
 -3.7976335402407668E-01 a       578     0    24     1     3
 -3.9609752990143593E-01 a       579     0    24     1     4
 -5.6836058765358233E-01 a       580     0    24     1     5
  5.6306314493942577E-01 a       581     0    24     1     6
  1.2224893048971300E-01 a       582     0    24     1     7
 -2.1832239154591307E-01 a       583     0    24     1     8
  1.0177105969590949E-01 a       584     0    24     1     9
  1.6317653028791962E-01 a       585     0    24     1    10
  5.4751434712578662E-01 a       586     0    24     1    11
 -1.9737475625865861E-01 a       587     0    24     1    12
  3.4753856418355172E-01 a       588     0    24     1    13
 -1.3015958144259987E-01 a       589     0    24     1    14
 -6.2889469937011844E-01 a       590     0    24     1    15
  1.6320175892852526E-01 a       591     0    24     1    16
  1.1766899407166973E-02 a       592     0    24     1    17
 -5.0523127850770032E-02 a       593     0    24     1    18
  3.3130557574148034E-01 a       594     0    24     1    19
  2.0284407729587742E-01 a       595     0    24     1    20
 -1.3105117822572873E-01 a       596     0    24     1    21
 -3.1183308704952878E-01 a       597     0    24     1    22
 -1.9973891358521567E-02 a       598     0    24     1    23
  9.4396255359312342E-02 a       599     0    24     1    24
  6.3478650121913383E-01 a       600     0    24     1    25
  1.7490979333561810E-01 a       601     0    25     1     1
  6.9580226714376148E-01 a       602     0    25     1     2
 -4.7233174956711971E-01 a       603     0    25     1     3
 -4.2913762350139245E-01 a       604     0    25     1     4
  6.5528140769014240E-02 a       605     0    25     1     5
 -7.6662544565733814E-01 a       606     0    25     1     6
 -4.2706617313813755E-01 a       607     0    25     1     7
  2.0196190824424445E-01 a       608     0    25     1     8
 -3.0487520338743818E-01 a       609     0    25     1     9
  1.1210837265292659E-01 a       610     0    25     1    10
  1.3186159763578509E-01 a       611     0    25     1    11
  1.5121096173545764E-01 a       612     0    25     1    12
 -3.8033598029387061E-01 a       613     0    25     1    13
  2.5085150347828572E-01 a       614     0    25     1    14
  5.9518536496972341E-01 a       615     0    25     1    15
  1.6150242186825467E-01 a       616     0    25     1    16
 -1.5049381806839765E-01 a       617     0    25     1    17
  2.8477219555799166E-01 a       618     0    25     1    18
 -8.5335365010494491E-01 a       619     0    25     1    19
  1.0484428923732622E-01 a       620     0    25     1    20
  1.2971941292105849E-01 a       621     0    25     1    21
 -3.0372935631747799E-01 a       622     0    25     1    22
 -2.6283094613706010E-01 a       623     0    25     1    23
  2.1679625668579552E-01 a       624     0    25     1    24
 -4.0215256698276713E-01 a       625     0    25     1    25
 -4.5817283981369289E-01 a       626     0    26     1     1
 -2.9894832362817064E-01 a       627     0    26     1     2
 -3.0746889956401025E-01 a       628     0    26     1     3
  7.0138436099981738E-01 a       629     0    26     1     4
  4.4240160790343472E-02 a       630     0    26     1     5
  2.7333338209144614E-01 a       631     0    26     1     6
  3.4002316370701141E-01 a       632     0    26     1     7
 -4.0079957926400711E-01 a       633     0    26     1     8
  1.8566546184733621E-01 a       634     0    26     1     9
 -5.1421084906054859E-01 a       635     0    26     1    10
 -1.4169440998119795E-01 a       636     0    26     1    11
 -8.9937073275494966E-02 a       637     0    26     1    12
  5.8694319448305354E-01 a       638     0    26     1    13
  1.5988927381248783E-01 a       639     0    26     1    14
  1.1342311280080469E-01 a       640     0    26     1    15
 -1.1233092413188761E-01 a       641     0    26     1    16
 -1.6464053033682022E-01 a       642     0    26     1    17
 -3.1583512801463204E-03 a       643     0    26     1    18
  1.1165052631098810E-01 a       644     0    26     1    19
 -4.0173913985935988E-01 a       645     0    26     1    20
  4.7490375663556705E-01 a       646     0    26     1    21
 -1.4906401285143778E-01 a       647     0    26     1    22
 -2.9468390352817647E-02 a       648     0    26     1    23
 -9.5584076001329649E-02 a       649     0    26     1    24
 -1.5661358634892225E-01 a       650     0    26     1    25
 -5.7865180697935115E-02 a       651     0    27     1     1
  3.7838649404423852E-01 a       652     0    27     1     2
 -1.1794156749065024E-02 a       653     0    27     1     3
  1.3079131245646303E-01 a       654     0    27     1     4
 -9.5355229859750923E-02 a       655     0    27     1     5
 -8.0783289393936059E-02 a       656     0    27     1     6
 -1.1053196443793951E-01 a       657     0    27     1     7
 -6.6294777366334523E-01 a       658     0    27     1     8
  1.0242214524133886E-01 a       659     0    27     1     9
  2.5534246275026296E-01 a       660     0    27     1    10
  2.2947835416599041E-01 a       661     0    27     1    11
 -4.2675393146383155E-02 a       662     0    27     1    12
  2.2330054172092564E-01 a       663     0    27     1    13
  6.3734171050343083E-02 a       664     0    27     1    14
  5.1711257115981191E-01 a       665     0    27     1    15
 -2.8851416560228726E-01 a       666     0    27     1    16
 -2.4161813779351965E-01 a       667     0    27     1    17
  2.0873978324641973E-01 a       668     0    27     1    18
  2.8799295655105661E-01 a       669     0    27     1    19
  7.7192353812226291E-02 a       670     0    27     1    20
  7.8003984828055581E-02 a       671     0    27     1    21
  2.6705360307272863E-01 a       672     0    27     1    22
  1.5026034800112853E-01 a       673     0    27     1    23
  3.7036926060804393E-01 a       674     0    27     1    24
 -8.5027071662688650E-03 a       675     0    27     1    25
 -1.3087353937285856E-01 a       676     0    28     1     1
 -5.3840816546444736E-01 a       677     0    28     1     2
 -4.6603698336266669E-01 a       678     0    28     1     3
 -1.7024321177746196E-01 a       679     0    28     1     4
  3.5702166419479225E-01 a       680     0    28     1     5
 -2.6850987897401990E-01 a       681     0    28     1     6
 -2.6974044841807238E-01 a       682     0    28     1     7
  2.3105229059153126E-01 a       683     0    28     1     8
 -4.9058822121286300E-01 a       684     0    28     1     9
  4.0724355120960959E-01 a       685     0    28     1    10
  1.0703846816607750E-01 a       686     0    28     1    11
 -5.1569896434230530E-02 a       687     0    28     1    12
 -1.2012125612330596E-01 a       688     0    28     1    13
  3.8059567514543574E-01 a       689     0    28     1    14
 -1.6674101219518708E-01 a       690     0    28     1    15
 -1.9190631469340888E-01 a       691     0    28     1    16
  4.3333809618502234E-01 a       692     0    28     1    17
 -3.0821381678776949E-01 a       693     0    28     1    18
 -1.4577410259090942E-01 a       694     0    28     1    19
 -3.3392730037917867E-01 a       695     0    28     1    20
 -8.0625408562128839E-02 a       696     0    28     1    21
 -2.5014095918027252E-01 a       697     0    28     1    22
 -2.6853003614188342E-01 a       698     0    28     1    23
  8.1374535902112424E-02 a       699     0    28     1    24
  4.9156548189407551E-01 a       700     0    28     1    25
 -4.6516774290564687E-02 a       701     0    29     1     1
 -3.1846958981345735E-01 a       702     0    29     1     2
 -1.3098360620097163E-02 a       703     0    29     1     3
  1.4054424191804155E-01 a       704     0    29     1     4
  2.3091786077923074E-01 a       705     0    29     1     5
  1.8681526286233158E-01 a       706     0    29     1     6
 -1.0989272746771171E-01 a       707     0    29     1     7
 -2.9085595527798408E-01 a       708     0    29     1     8
  1.7182094704670517E-01 a       709     0    29     1     9
 -1.3223562961950752E-01 a       710     0    29     1    10
 -8.4744762413987637E-02 a       711     0    29     1    11
  1.6192141315435185E-01 a       712     0    29     1    12
  8.6129782347774006E-02 a       713     0    29     1    13
 -1.1544788706421267E-02 a       714     0    29     1    14
 -1.9697224059416785E-01 a       715     0    29     1    15
 -2.6502279536471246E-01 a       716     0    29     1    16
 -3.3420771943862393E-01 a       717     0    29     1    17
  5.6055677421882832E-02 a       718     0    29     1    18
  1.7273933210174880E-01 a       719     0    29     1    19
  1.3621020676832485E-01 a       720     0    29     1    20
 -4.1599981312810445E-02 a       721     0    29     1    21
  1.6658302814759743E-01 a       722     0    29     1    22
  8.5048946393390279E-02 a       723     0    29     1    23
  6.6880750548199169E-02 a       724     0    29     1    24
  3.3935053173213553E-01 a       725     0    29     1    25
  2.6779752857401529E-01 a       726     0    30     1     1
 -4.0560253450419048E-01 a       727     0    30     1     2
  2.0524335953333622E-01 a       728     0    30     1     3
  8.2675460710191440E-02 a       729     0    30     1     4
  6.0536593127590166E-01 a       730     0    30     1     5
  5.2283175686124461E-01 a       731     0    30     1     6
 -3.6706234818601008E-01 a       732     0    30     1     7
  9.3095906185134372E-02 a       733     0    30     1     8
  1.4949076006777484E-01 a       734     0    30     1     9
 -1.5674776317523934E-01 a       735     0    30     1    10
 -1.0458393119307775E-01 a       736     0    30     1    11
  1.1177513916934871E-01 a       737     0    30     1    12
  9.2047901696239772E-03 a       738     0    30     1    13
 -5.0238350383778207E-01 a       739     0    30     1    14
  1.3235250502957641E-01 a       740     0    30     1    15
  1.2554910382306220E-01 a       741     0    30     1    16
  5.1902655374791280E-02 a       742     0    30     1    17
 -2.4915097843299261E-01 a       743     0    30     1    18
 -4.1244579143746785E-01 a       744     0    30     1    19
  2.1764939861600091E-01 a       745     0    30     1    20
 -7.3613720962739021E-02 a       746     0    30     1    21
  1.6225001939032693E-01 a       747     0    30     1    22
 -8.8798223433726689E-02 a       748     0    30     1    23
 -4.0938125353328622E-02 a       749     0    30     1    24
  8.8607544121236059E-02 a       750     0    30     1    25
  2.2981098814238585E-01 a       751     0    31     1     1
  1.2355151900378522E-01 a       752     0    31     1     2
  7.8894044901135740E-01 a       753     0    31     1     3
 -7.9964729138816623E-02 a       754     0    31     1     4
 -6.0193980386346241E-02 a       755     0    31     1     5
 -8.3792006579335943E-01 a       756     0    31     1     6
  3.0796678126073929E-01 a       757     0    31     1     7
 -2.2110233018277450E-01 a       758     0    31     1     8
  2.9183419468426408E-01 a       759     0    31     1     9
 -2.1568737206906119E-03 a       760     0    31     1    10
 -2.9707518618728901E-01 a       761     0    31     1    11
 -3.1453715852638536E-01 a       762     0    31     1    12
 -5.9978893813072887E-01 a       763     0    31     1    13
  1.1919734821911802E-01 a       764     0    31     1    14
  3.8775999957572039E-03 a       765     0    31     1    15
  2.1096356527755625E-01 a       766     0    31     1    16
 -7.9314361029211536E-02 a       767     0    31     1    17
  5.9832860803662669E-01 a       768     0    31     1    18
  4.1807189598920869E-01 a       769     0    31     1    19
 -7.6985177425083220E-02 a       770     0    31     1    20
  4.8960626854516115E-01 a       771     0    31     1    21
 -1.6418638815426934E-01 a       772     0    31     1    22
  2.8741134902997828E-01 a       773     0    31     1    23
  6.8333505359797275E-01 a       774     0    31     1    24
 -5.4682086195884461E-01 a       775     0    31     1    25
  1.7526193598449735E-01 a       776     0    32     1     1
  2.0041544356149529E-01 a       777     0    32     1     2
  8.6584718005528777E-02 a       778     0    32     1     3
 -4.0606361721617978E-01 a       779     0    32     1     4
  2.4028180917412520E-01 a       780     0    32     1     5
 -1.5497947807122187E-01 a       781     0    32     1     6
 -1.0208560744584720E-01 a       782     0    32     1     7
  2.9715842855858704E-01 a       783     0    32     1     8
 -1.1682656036681946E-01 a       784     0    32     1     9
  3.5533381715466927E-01 a       785     0    32     1    10
  1.0446795276237474E-01 a       786     0    32     1    11
 -1.5021982356554425E-01 a       787     0    32     1    12
 -1.6262526374512482E-01 a       788     0    32     1    13
  5.2103326570677830E-02 a       789     0    32     1    14
 -2.9750811534684185E-01 a       790     0    32     1    15
  1.5379750752549454E-01 a       791     0    32     1    16
  2.3492698115580188E-01 a       792     0    32     1    17
 -1.0493850143929607E-02 a       793     0    32     1    18
  3.3791809354158592E-01 a       794     0    32     1    19
  2.5717709056210969E-01 a       795     0    32     1    20
 -1.1674556919909845E-01 a       796     0    32     1    21
 -1.5521324419146293E-01 a       797     0    32     1    22
 -4.2440980844715981E-02 a       798     0    32     1    23
 -4.4068974980232645E-01 a       799     0    32     1    24
  4.4193924437700323E-02 a       800     0    32     1    25
  1.4605827560086200E+00 b       801     1     1
 -1.1364677438993249E+00 b       802     1     2
 -3.5233353535467921E-01 b       803     1     3
  4.7036407729176583E-01 b       804     1     4
  1.6175431809188376E+00 b       805     1     5
  1.1351860109883580E+00 b       806     1     6
  6.5016942934414845E-01 b       807     1     7
  5.7712306741141928E-01 b       808     1     8
  1.8663144077068183E-01 b       809     1     9
 -1.3468402840409790E+00 b       810     1    10
 -1.3444666302006489E+00 b       811     1    11
  3.1502472469416426E-01 b       812     1    12
  9.6661375399509741E-01 b       813     1    13
  1.3037783736256432E+00 b       814     1    14
 -1.1747895500177032E+00 b       815     1    15
 -1.4687476961280654E-01 b       816     1    16
  1.2592275315498642E+00 b       817     1    17
  1.1342949854986744E+00 b       818     1    18
 -3.3549958938620332E-02 b       819     1    19
  4.3846922452483138E-02 b       820     1    20
 -1.4875049210840461E+00 b       821     1    21
  8.2878184216002937E-01 b       822     1    22
  4.2288727158777434E-02 b       823     1    23
 -5.8033751034060728E-02 b       824     1    24
 -1.7207820060346095E+00 b       825     1    25
 -1.3425374667084347E-01 a       826     1     1     2     1
  4.7734277809206610E-02 a       827     1     1     2     2
 -4.0996589707664316E-01 a       828     1     1     2     3
  4.6613077356652788E-01 a       829     1     1     2     4
 -2.5619970762605104E-01 a       830     1     1     2     5
  5.0307114886961379E-01 a       831     1     1     2     6
 -3.6049698141285919E-01 a       832     1     1     2     7
  4.2494967947966100E-01 a       833     1     1     2     8
  4.0422525387309610E-01 a       834     1     1     2     9
  3.6184017217114717E-01 a       835     1     1     2    10
 -8.1925318375704742E-02 a       836     1     1     2    11
  2.3743227124615093E-01 a       837     1     1     2    12
  1.7883346188565399E-01 a       838     1     1     2    13
 -3.1305553220734461E-01 a       839     1     1     2    14
 -2.7400429508671725E-01 a       840     1     1     2    15
  4.4443570738321470E-01 a       841     1     1     2    16
 -5.2782177063788675E-02 a       842     1     1     2    17
  5.0825063082573368E-02 a       843     1     1     2    18
 -1.1612794349140966E-03 a       844     1     1     2    19
  2.0082133421851767E-01 a       845     1     1     2    20
 -5.2530971926947656E-01 a       846     1     1     2    21
 -3.7080150644794668E-01 a       847     1     1     2    22
 -2.8287653487272629E-01 a       848     1     1     2    23
  4.7698625692425961E-01 a       849     1     1     2    24
  3.5795607207468139E-01 a       850     1     1     2    25
  3.1946092742038645E-01 a       851     1     2     2     1
 -4.5809667033784390E-01 a       852     1     2     2     2
 -1.9576498174042495E-01 a       853     1     2     2     3
  8.5119003507512225E-03 a       854     1     2     2     4
  1.1509388166448495E-01 a       855     1     2     2     5
 -2.2596518898096576E-01 a       856     1     2     2     6
  4.3608546135996012E-01 a       857     1     2     2     7
 -2.6427656777479952E-01 a       858     1     2     2     8
  5.7173517842822452E-01 a       859     1     2     2     9
 -5.8646426883718950E-01 a       860     1     2     2    10
 -2.1889409629565651E-01 a       861     1     2     2    11
  3.9434632888066340E-02 a       862     1     2     2    12
 -8.6158475846725910E-02 a       863     1     2     2    13
 -1.5539380570903604E-02 a       864     1     2     2    14
 -2.4786782625518008E-01 a       865     1     2     2    15
 -1.4340270297014013E-01 a       866     1     2     2    16
 -4.3491220547556958E-01 a       867     1     2     2    17
  2.9403637871021077E-01 a       868     1     2     2    18
  3.8870725847116844E-01 a       869     1     2     2    19
 -4.1266451687822808E-01 a       870     1     2     2    20
 -8.4814524495660390E-02 a       871     1     2     2    21
 -4.4677330324060865E-01 a       872     1     2     2    22
 -2.1259452106087631E-01 a       873     1     2     2    23
  1.3631806717038838E-02 a       874     1     2     2    24
  6.4685999171445865E-02 a       875     1     2     2    25
  6.0890440789358879E-01 a       876     1     3     2     1
 -4.2494099985868389E-01 a       877     1     3     2     2
  3.3707149505503220E-01 a       878     1     3     2     3
 -3.1369112605437571E-01 a       879     1     3     2     4
 -3.7769115213835985E-01 a       880     1     3     2     5
 -4.8327982778276574E-01 a       881     1     3     2     6
 -2.4272505807778319E-01 a       882     1     3     2     7
 -2.2592670221679104E-01 a       883     1     3     2     8
  3.9741369730627413E-01 a       884     1     3     2     9
 -2.7637829588251428E-01 a       885     1     3     2    10
 -1.2190183541179746E-01 a       886     1     3     2    11
 -4.3891986872642963E-01 a       887     1     3     2    12
 -2.2733016455064242E-01 a       888     1     3     2    13
  1.3349917856307302E-02 a       889     1     3     2    14
 -2.1269955610230834E-01 a       890     1     3     2    15
 -4.2542827295752195E-01 a       891     1     3     2    16
 -2.2231311656038436E-01 a       892     1     3     2    17
  8.0850531809458129E-02 a       893     1     3     2    18
  1.8538985150226095E-01 a       894     1     3     2    19
  9.8071160270330249E-02 a       895     1     3     2    20
 -8.1844200084573812E-02 a       896     1     3     2    21
 -1.3577986667602338E-01 a       897     1     3     2    22
  1.5819101102371946E-01 a       898     1     3     2    23
  1.7282756456979245E-01 a       899     1     3     2    24
  7.6230218328384239E-02 a       900     1     3     2    25
  1.3317323583685131E-01 a       901     1     4     2     1
  8.0219983595925699E-03 a       902     1     4     2     2
  2.5837275254989556E-01 a       903     1     4     2     3
 -2.6865515266864265E-01 a       904     1     4     2     4
  3.3038225205541522E-01 a       905     1     4     2     5
 -1.5879201407420299E-01 a       906     1     4     2     6
  3.7455161694890014E-02 a       907     1     4     2     7
 -3.2761247106144292E-01 a       908     1     4     2     8
  5.0964932265445884E-01 a       909     1     4     2     9
  3.9526319971970092E-01 a       910     1     4     2    10
  4.6047271249199780E-02 a       911     1     4     2    11
 -3.0174600373819005E-01 a       912     1     4     2    12
  4.0259057663099257E-01 a       913     1     4     2    13
  3.3132960214877483E-01 a       914     1     4     2    14
  5.1773483785747820E-01 a       915     1     4     2    15
 -2.1016533779572644E-01 a       916     1     4     2    16
 -5.5327482986734711E-01 a       917     1     4     2    17
  7.1081181154671980E-01 a       918     1     4     2    18
 -4.8044535638648483E-01 a       919     1     4     2    19
  4.5468425255726153E-01 a       920     1     4     2    20
  6.0084243479895150E-01 a       921     1     4     2    21
  1.9671568179720288E-02 a       922     1     4     2    22
  3.8641740367518057E-01 a       923     1     4     2    23
  2.3437852702243661E-01 a       924     1     4     2    24
 -3.2157542120642507E-02 a       925     1     4     2    25
  7.7321118176203241E-02 a       926     1     5     2     1
 -8.8441045056222301E-01 a       927     1     5     2     2
 -2.0471129750297068E-01 a       928     1     5     2     3
  3.0979681567921541E-01 a       929     1     5     2     4
 -4.4583825310820208E-01 a       930     1     5     2     5
 -4.4800074093955666E-01 a       931     1     5     2     6
  4.4825631696297080E-01 a       932     1     5     2     7
  2.7697438864655283E-02 a       933     1     5     2     8
 -2.2668765625979440E-01 a       934     1     5     2     9
  2.4139290038525902E-02 a       935     1     5     2    10
  4.4990110978586456E-01 a       936     1     5     2    11
 -2.3840266720838635E-01 a       937     1     5     2    12
 -1.2788712147584108E-01 a       938     1     5     2    13
 -4.8307951475095889E-01 a       939     1     5     2    14
 -2.7854843696507064E-01 a       940     1     5     2    15
  1.4390971739500358E-01 a       941     1     5     2    16
 -1.1320834923808307E-01 a       942     1     5     2    17
  1.0948211065276144E-01 a       943     1     5     2    18
  3.8826730449638863E-01 a       944     1     5     2    19
 -1.0019055780208531E-01 a       945     1     5     2    20
 -3.1319156930721903E-01 a       946     1     5     2    21
 -2.3238212548005216E-01 a       947     1     5     2    22
  1.2995010895120815E-01 a       948     1     5     2    23
  3.6673514852648781E-01 a       949     1     5     2    24
 -4.7272732507025644E-01 a       950     1     5     2    25
 -6.6280218999599949E-01 a       951     1     6     2     1
  3.6069560696669162E-01 a       952     1     6     2     2
  2.3639976379301408E-01 a       953     1     6     2     3
 -3.2670812838887242E-01 a       954     1     6     2     4
 -5.1869905676338102E-01 a       955     1     6     2     5
  1.5356196792811888E-01 a       956     1     6     2     6
 -1.3333026509785681E-01 a       957     1     6     2     7
 -3.5839440073486800E-02 a       958     1     6     2     8
 -8.8621487046889380E-02 a       959     1     6     2     9
  4.1161144013983592E-01 a       960     1     6     2    10
  1.3306824846397380E-01 a       961     1     6     2    11
  1.6685436378280672E-02 a       962     1     6     2    12
  1.0150544627486714E-01 a       963     1     6     2    13
 -2.4095935502305194E-01 a       964     1     6     2    14
 -2.2078434908423651E-03 a       965     1     6     2    15
 -1.2157488252362916E-01 a       966     1     6     2    16
 -6.3430004541667406E-01 a       967     1     6     2    17
  2.8905113871903115E-01 a       968     1     6     2    18
 -1.0061832593496441E-01 a       969     1     6     2    19
 -4.9630529085548808E-01 a       970     1     6     2    20
 -4.6231651055763384E-01 a       971     1     6     2    21
 -1.5827394457078919E-01 a       972     1     6     2    22
 -2.0194376334798367E-01 a       973     1     6     2    23
 -1.1967045560876274E-01 a       974     1     6     2    24
  1.7917296594875953E-02 a       975     1     6     2    25
 -2.7818042232392604E-01 a       976     1     7     2     1
 -3.4075183555999461E-01 a       977     1     7     2     2
 -2.7969278162415356E-01 a       978     1     7     2     3
 -2.0807092568064342E-01 a       979     1     7     2     4
  4.3573576617394727E-01 a       980     1     7     2     5
  3.5351700158617283E-01 a       981     1     7     2     6
  5.1432582265637627E-01 a       982     1     7     2     7
  2.9044069114867255E-01 a       983     1     7     2     8
  3.4634599481607076E-02 a       984     1     7     2     9
 -2.8162071741039464E-03 a       985     1     7     2    10
  3.4241550689906641E-01 a       986     1     7     2    11
 -5.7826519686292654E-01 a       987     1     7     2    12
  4.5686329137135390E-01 a       988     1     7     2    13
 -2.0204337754810717E-01 a       989     1     7     2    14
  1.4647884780836179E-01 a       990     1     7     2    15
 -3.7208687111035516E-01 a       991     1     7     2    16
 -3.6593872675943484E-01 a       992     1     7     2    17
  5.6923073520241977E-03 a       993     1     7     2    18
 -3.9991706932798360E-01 a       994     1     7     2    19
  3.7591878927387606E-01 a       995     1     7     2    20
 -7.5113725170617332E-02 a       996     1     7     2    21
 -5.8049585553999816E-01 a       997     1     7     2    22
 -6.4547921207583925E-01 a       998     1     7     2    23
  4.2423376167824373E-01 a       999     1     7     2    24
  1.6580683935400128E-01 a      1000     1     7     2    25
  1.1868379731105175E-01 a      1001     1     8     2     1
  2.1230164933763609E-01 a      1002     1     8     2     2
  4.7822666159029648E-01 a      1003     1     8     2     3
 -2.8639486815997939E-01 a      1004     1     8     2     4
  3.2213726448387298E-01 a      1005     1     8     2     5
  6.0051819002290896E-01 a      1006     1     8     2     6
 -7.0676167151775160E-01 a      1007     1     8     2     7
 -3.7805590748980189E-01 a      1008     1     8     2     8
 -3.7342918910071499E-01 a      1009     1     8     2     9
  3.6363841904873134E-01 a      1010     1     8     2    10
 -2.3087323965690026E-01 a      1011     1     8     2    11
  3.6779436667395660E-01 a      1012     1     8     2    12
 -4.3809538905164130E-01 a      1013     1     8     2    13
 -1.2332128950529450E-01 a      1014     1     8     2    14
 -3.8745204628218877E-01 a      1015     1     8     2    15
  5.8681845603567351E-01 a      1016     1     8     2    16
 -4.6480702343930702E-01 a      1017     1     8     2    17
  3.9840680393139899E-01 a      1018     1     8     2    18
 -1.8233497212576669E-01 a      1019     1     8     2    19
 -5.3649189109820816E-01 a      1020     1     8     2    20
 -2.0384063956166901E-01 a      1021     1     8     2    21
  2.6105302548119030E-01 a      1022     1     8     2    22
  3.2033456749851041E-01 a      1023     1     8     2    23
 -3.9498087785268166E-01 a      1024     1     8     2    24
  4.0749053391398615E-01 a      1025     1     8     2    25
 -3.0114774804047423E-01 a      1026     1     9     2     1
  2.3869820091232283E-01 a      1027     1     9     2     2
 -2.6693039708409710E-01 a      1028     1     9     2     3
  2.9619288914345399E-01 a      1029     1     9     2     4
 -4.1108318952019451E-01 a      1030     1     9     2     5
 -4.6804139022427554E-01 a      1031     1     9     2     6
 -4.4985186721666676E-01 a      1032     1     9     2     7
  1.2277943161573186E-01 a      1033     1     9     2     8
 -3.2023108009886808E-01 a      1034     1     9     2     9
  2.2846286805211444E-01 a      1035     1     9     2    10
 -1.1799803756853898E-02 a      1036     1     9     2    11
  6.4580890871148780E-02 a      1037     1     9     2    12
 -3.4552503259805128E-01 a      1038     1     9     2    13
 -2.8160365910644908E-01 a      1039     1     9     2    14
 -3.7984054305565784E-01 a      1040     1     9     2    15
 -2.8518039034978671E-01 a      1041     1     9     2    16
 -1.3367704552744653E-01 a      1042     1     9     2    17
 -4.2105268103844357E-01 a      1043     1     9     2    18
  1.0200167747584413E-01 a      1044     1     9     2    19
  1.8481804015405848E-01 a      1045     1     9     2    20
 -1.1349980522179286E-01 a      1046     1     9     2    21
  3.6136454881678359E-01 a      1047     1     9     2    22
  2.7676769185369643E-01 a      1048     1     9     2    23
  1.2105417477258114E-01 a      1049     1     9     2    24
  7.2470983544952600E-02 a      1050     1     9     2    25
 -1.7341281577156051E-01 a      1051     1    10     2     1
 -5.6762516507032519E-02 a      1052     1    10     2     2
  5.6575371651058082E-02 a      1053     1    10     2     3
  2.3302293374349922E-01 a      1054     1    10     2     4
  1.7077277239349092E-01 a      1055     1    10     2     5
  2.5340615976124320E-01 a      1056     1    10     2     6
 -4.2894290244135452E-01 a      1057     1    10     2     7
 -5.8815635614765806E-02 a      1058     1    10     2     8
 -3.7576147540917049E-01 a      1059     1    10     2     9
  5.3040939134475484E-01 a      1060     1    10     2    10
 -1.9060074531407750E-01 a      1061     1    10     2    11
 -4.2018691733103679E-02 a      1062     1    10     2    12
 -7.2472296769958269E-02 a      1063     1    10     2    13
 -8.3587566443106970E-02 a      1064     1    10     2    14
 -2.4270202323258824E-01 a      1065     1    10     2    15
  2.2156154832585574E-02 a      1066     1    10     2    16
  4.9295204038638274E-01 a      1067     1    10     2    17
 -5.0963175077575218E-01 a      1068     1    10     2    18
 -4.5437530036396162E-01 a      1069     1    10     2    19
  5.5518943570630186E-01 a      1070     1    10     2    20
  2.1663509344923887E-01 a      1071     1    10     2    21
 -3.3830253692897866E-01 a      1072     1    10     2    22
  1.9229670463250550E-02 a      1073     1    10     2    23
  3.6445430687762070E-01 a      1074     1    10     2    24
  1.4064235957366272E-01 a      1075     1    10     2    25
 -1.9789273155075376E-01 a      1076     1    11     2     1
 -2.4999416013560052E-01 a      1077     1    11     2     2
 -4.7132823924361000E-01 a      1078     1    11     2     3
 -3.5557326945681261E-01 a      1079     1    11     2     4
  5.5362553328972541E-01 a      1080     1    11     2     5
 -4.7006919663529367E-01 a      1081     1    11     2     6
 -3.9021244003066491E-01 a      1082     1    11     2     7
 -3.6125493309120432E-01 a      1083     1    11     2     8
  2.1089833845220837E-01 a      1084     1    11     2     9
  1.2550311383714785E-01 a      1085     1    11     2    10
  5.8526665905306463E-01 a      1086     1    11     2    11
 -2.3232500446712234E-01 a      1087     1    11     2    12
 -1.8576707346677690E-01 a      1088     1    11     2    13
  5.6891566967929919E-01 a      1089     1    11     2    14
 -1.9157793232923304E-01 a      1090     1    11     2    15
  1.7092514035332554E-01 a      1091     1    11     2    16
 -6.4471590403277501E-01 a      1092     1    11     2    17
 -1.3145887762393982E-01 a      1093     1    11     2    18
  2.0662176751095046E-01 a      1094     1    11     2    19
  3.3226491798386021E-01 a      1095     1    11     2    20
 -4.6942469563281880E-01 a      1096     1    11     2    21
  2.9148263071726144E-01 a      1097     1    11     2    22
  1.8484478744179057E-03 a      1098     1    11     2    23
 -3.8401980388239149E-01 a      1099     1    11     2    24
 -1.4184827140261941E-01 a      1100     1    11     2    25
 -1.1722672703323060E-01 a      1101     1    12     2     1
 -3.6820349790260387E-01 a      1102     1    12     2     2
 -5.5405417708931509E-02 a      1103     1    12     2     3
  2.5846489761674213E-01 a      1104     1    12     2     4
  3.8106974822179857E-01 a      1105     1    12     2     5
  2.7976561317304854E-01 a      1106     1    12     2     6
  1.4181632661661867E-01 a      1107     1    12     2     7
  2.8687030489170345E-01 a      1108     1    12     2     8
  1.1346886672155031E-01 a      1109     1    12     2     9
 -2.9066429323779458E-01 a      1110     1    12     2    10
  3.6538156735230765E-01 a      1111     1    12     2    11
 -3.1734129598482108E-01 a      1112     1    12     2    12
 -3.1160686893986361E-01 a      1113     1    12     2    13
  5.4332597563645768E-01 a      1114     1    12     2    14
 -2.3171265518766315E-01 a      1115     1    12     2    15
 -4.9619866956815806E-01 a      1116     1    12     2    16
 -3.5041069769170347E-01 a      1117     1    12     2    17
  2.3572546208935438E-01 a      1118     1    12     2    18
 -4.9125603906178289E-02 a      1119     1    12     2    19
  6.0334451150046174E-02 a      1120     1    12     2    20
  3.2361946838703104E-01 a      1121     1    12     2    21
  1.4576990544461718E-01 a      1122     1    12     2    22
  2.0095731121881192E-03 a      1123     1    12     2    23
  5.4187585760395807E-01 a      1124     1    12     2    24
 -3.4565833584387451E-01 a      1125     1    12     2    25
 -4.7557189919812526E-01 a      1126     1    13     2     1
 -3.3688348818847497E-01 a      1127     1    13     2     2
  3.8568519705906462E-01 a      1128     1    13     2     3
 -1.8270889601752843E-01 a      1129     1    13     2     4
 -5.1331760885841804E-01 a      1130     1    13     2     5
  2.1908275631470844E-01 a      1131     1    13     2     6
 -1.9240336710401634E-02 a      1132     1    13     2     7
 -1.6425826994721643E-01 a      1133     1    13     2     8
  4.2751187091461418E-01 a      1134     1    13     2     9
 -3.4833128776815070E-01 a      1135     1    13     2    10
 -3.0543916415124556E-01 a      1136     1    13     2    11
  1.2570298659388013E-01 a      1137     1    13     2    12
 -3.2793444915436543E-01 a      1138     1    13     2    13
 -1.6846737247239249E-01 a      1139     1    13     2    14
 -1.2405384588661596E-01 a      1140     1    13     2    15
 -4.1731193813078643E-01 a      1141     1    13     2    16
  3.2199289089823162E-02 a      1142     1    13     2    17
  3.6270279168458336E-01 a      1143     1    13     2    18
  1.2677393520592559E-01 a      1144     1    13     2    19
  1.9675012456004498E-01 a      1145     1    13     2    20
  3.4022947471102860E-01 a      1146     1    13     2    21
 -2.4295320554218272E-01 a      1147     1    13     2    22
 -3.1128505876816420E-01 a      1148     1    13     2    23
  3.0099048190655892E-01 a      1149     1    13     2    24
 -1.3978296230473547E-01 a      1150     1    13     2    25
  2.8259663283311859E-01 a      1151     1    14     2     1
 -3.0280266182325544E-01 a      1152     1    14     2     2
 -4.6330225472550120E-02 a      1153     1    14     2     3
  9.8159897860703033E-03 a      1154     1    14     2     4
 -4.3310851028788933E-01 a      1155     1    14     2     5
  2.0715501569880865E-01 a      1156     1    14     2     6
  3.6539439406111196E-01 a      1157     1    14     2     7
 -4.2799736785449616E-01 a      1158     1    14     2     8
 -1.1151083575307881E-01 a      1159     1    14     2     9
 -8.8130663401836007E-02 a      1160     1    14     2    10
 -2.4185764378175784E-01 a      1161     1    14     2    11
 -4.0019781431313733E-01 a      1162     1    14     2    12
 -2.6764247860704338E-01 a      1163     1    14     2    13
 -2.8927321263722866E-01 a      1164     1    14     2    14
  8.2378354771720882E-02 a      1165     1    14     2    15
 -1.2465628754477960E-01 a      1166     1    14     2    16
 -1.6643570917970721E-01 a      1167     1    14     2    17
 -3.4420852955019632E-01 a      1168     1    14     2    18
  5.8236323510095922E-01 a      1169     1    14     2    19
 -2.7324705201207100E-01 a      1170     1    14     2    20
 -7.0465427008113549E-02 a      1171     1    14     2    21
  4.4291527292987978E-02 a      1172     1    14     2    22
  4.2552848948946859E-01 a      1173     1    14     2    23
 -2.0752406612248007E-02 a      1174     1    14     2    24
  3.9129157595126557E-02 a      1175     1    14     2    25
 -4.2423860582235462E-01 a      1176     1    15     2     1
  3.8121694700604093E-02 a      1177     1    15     2     2
  5.0408867293556570E-01 a      1178     1    15     2     3
  1.8170354164677568E-01 a      1179     1    15     2     4
 -2.1656675673762918E-01 a      1180     1    15     2     5
  2.8308717425300373E-01 a      1181     1    15     2     6
  3.3274420160446438E-01 a      1182     1    15     2     7
  5.4169437204028748E-01 a      1183     1    15     2     8
  1.1775853087222099E-01 a      1184     1    15     2     9
  3.3808004394093144E-01 a      1185     1    15     2    10
 -4.8521500616462165E-01 a      1186     1    15     2    11
  5.8367660202086091E-01 a      1187     1    15     2    12
  2.6000956472533804E-01 a      1188     1    15     2    13
  5.7365983485575450E-02 a      1189     1    15     2    14
  3.1241118641021309E-01 a      1190     1    15     2    15
  4.9083051418708057E-01 a      1191     1    15     2    16
  2.5262524489519350E-01 a      1192     1    15     2    17
 -5.6528974631971693E-02 a      1193     1    15     2    18
  9.5447106238780000E-02 a      1194     1    15     2    19
 -2.4842617338950798E-01 a      1195     1    15     2    20
 -7.2289387664251595E-02 a      1196     1    15     2    21
  3.3116980676568109E-01 a      1197     1    15     2    22
  5.0334378373644062E-01 a      1198     1    15     2    23
 -2.3706568153577991E-02 a      1199     1    15     2    24
  1.2159412007145690E-01 a      1200     1    15     2    25
 -1.3834941561526262E-01 a      1201     1    16     2     1
  1.0130218663222551E-01 a      1202     1    16     2     2
 -1.3383523977959519E-01 a      1203     1    16     2     3
  1.6034837740949953E-01 a      1204     1    16     2     4
  4.9824221488877489E-02 a      1205     1    16     2     5
 -2.8600787147119844E-01 a      1206     1    16     2     6
  3.0909096644197409E-01 a      1207     1    16     2     7
 -2.7448394546214672E-01 a      1208     1    16     2     8
  2.8877524745207728E-01 a      1209     1    16     2     9
  2.4599584837806530E-02 a      1210     1    16     2    10
  4.7168258416276210E-01 a      1211     1    16     2    11
 -2.9715561087598624E-01 a      1212     1    16     2    12
 -2.2923223893739347E-01 a      1213     1    16     2    13
 -4.5459655048112106E-02 a      1214     1    16     2    14
 -1.7006988302572726E-01 a      1215     1    16     2    15
 -4.4241757477527160E-01 a      1216     1    16     2    16
  7.4505517114281591E-02 a      1217     1    16     2    17
 -3.7652508351949354E-01 a      1218     1    16     2    18
 -1.8450756504431354E-01 a      1219     1    16     2    19
  4.7153155494625165E-01 a      1220     1    16     2    20
  1.1340998046826277E-01 a      1221     1    16     2    21
 -7.8481527371170035E-02 a      1222     1    16     2    22
  3.0943109250982204E-01 a      1223     1    16     2    23
  2.4409442805809933E-01 a      1224     1    16     2    24
 -5.8356858471368245E-01 a      1225     1    16     2    25
 -3.3894075474617036E-01 a      1226     1    17     2     1
 -3.7384442630742293E-01 a      1227     1    17     2     2
  2.9805593025615124E-01 a      1228     1    17     2     3
 -9.5773563588951505E-02 a      1229     1    17     2     4
 -1.4485009996551004E-01 a      1230     1    17     2     5
 -3.2446093334059595E-01 a      1231     1    17     2     6
  4.2087184320721352E-02 a      1232     1    17     2     7
 -4.8084029962818803E-01 a      1233     1    17     2     8
  1.5271039678745291E-01 a      1234     1    17     2     9
 -5.2264364114726281E-01 a      1235     1    17     2    10
  9.0637654699195491E-02 a      1236     1    17     2    11
  2.0184829486002875E-01 a      1237     1    17     2    12
 -1.7909350014298930E-01 a      1238     1    17     2    13
 -3.1909620151987056E-01 a      1239     1    17     2    14
  1.1864129800625223E-02 a      1240     1    17     2    15
  3.5492798164870437E-01 a      1241     1    17     2    16
 -1.3394735803354427E-01 a      1242     1    17     2    17
  1.2568696739172142E-01 a      1243     1    17     2    18
 -3.9384483323949282E-02 a      1244     1    17     2    19
 -2.9839609065895029E-02 a      1245     1    17     2    20
  2.6094531658320103E-01 a      1246     1    17     2    21
  2.1946713679310575E-01 a      1247     1    17     2    22
 -8.7150078106187912E-02 a      1248     1    17     2    23
  2.6732373880389576E-01 a      1249     1    17     2    24
 -3.8748435406057119E-01 a      1250     1    17     2    25
 -8.1878377069836625E-02 a      1251     1    18     2     1
 -6.4516720064255309E-02 a      1252     1    18     2     2
  3.1906415543076011E-01 a      1253     1    18     2     3
  4.7724275543976374E-02 a      1254     1    18     2     4
  1.7481068372187614E-01 a      1255     1    18     2     5
  9.0247841754353519E-02 a      1256     1    18     2     6
 -2.2913816246134144E-01 a      1257     1    18     2     7
 -2.5030273774697775E-01 a      1258     1    18     2     8
  2.5882905125378841E-01 a      1259     1    18     2     9
  2.8038261603524084E-01 a      1260     1    18     2    10
 -2.5787418528636430E-01 a      1261     1    18     2    11
 -2.1424842308069181E-01 a      1262     1    18     2    12
  7.6562406065824248E-02 a      1263     1    18     2    13
 -6.9669963201127794E-01 a      1264     1    18     2    14
  2.4911215159740963E-01 a      1265     1    18     2    15
 -3.2005927071521328E-01 a      1266     1    18     2    16
  1.4875171121716127E-01 a      1267     1    18     2    17
  3.7274858998904703E-02 a      1268     1    18     2    18
  3.7575830442728886E-01 a      1269     1    18     2    19
 -5.6398523959942000E-02 a      1270     1    18     2    20
 -3.2867137927969581E-02 a      1271     1    18     2    21
 -2.3777751650760776E-01 a      1272     1    18     2    22
  3.6809443373724188E-01 a      1273     1    18     2    23
 -2.6435672977343327E-01 a      1274     1    18     2    24
 -1.8309753052054412E-01 a      1275     1    18     2    25
 -2.7746012084255511E-01 a      1276     1    19     2     1
 -2.4639187831364096E-01 a      1277     1    19     2     2
 -2.1917204486797032E-01 a      1278     1    19     2     3
 -8.6878778929935341E-02 a      1279     1    19     2     4
  1.1469292371905790E-01 a      1280     1    19     2     5
 -2.0787018191568712E-01 a      1281     1    19     2     6
  1.1255683107033988E-02 a      1282     1    19     2     7
 -1.9560667457878925E-01 a      1283     1    19     2     8
  5.7391694740687138E-01 a      1284     1    19     2     9
  3.4041846913592390E-02 a      1285     1    19     2    10
  2.0219888248349016E-01 a      1286     1    19     2    11
 -1.8177054112856694E-02 a      1287     1    19     2    12
 -3.8729071165457341E-01 a      1288     1    19     2    13
  3.6257059100432398E-01 a      1289     1    19     2    14
 -5.1046511768041147E-01 a      1290     1    19     2    15
  1.0885580766565520E-01 a      1291     1    19     2    16
 -2.7740837084619135E-01 a      1292     1    19     2    17
 -8.7274818973064480E-02 a      1293     1    19     2    18
 -1.1295366725078745E-01 a      1294     1    19     2    19
  2.2273379742219712E-01 a      1295     1    19     2    20
 -2.6552358696520756E-01 a      1296     1    19     2    21
  8.4001981959796732E-02 a      1297     1    19     2    22
 -2.0090399602058162E-01 a      1298     1    19     2    23
 -2.8003589130598583E-01 a      1299     1    19     2    24
  2.6259959834926344E-01 a      1300     1    19     2    25
  4.2418220187123851E-01 a      1301     1    20     2     1
  1.3891250649990167E-01 a      1302     1    20     2     2
 -1.1147939542373564E-02 a      1303     1    20     2     3
 -6.1658107610100314E-02 a      1304     1    20     2     4
 -2.5900840057044139E-01 a      1305     1    20     2     5
  2.5479051891163984E-01 a      1306     1    20     2     6
  3.4830039877872426E-01 a      1307     1    20     2     7
  1.1393864597668686E-01 a      1308     1    20     2     8
 -1.1938864078314819E-01 a      1309     1    20     2     9
  1.7377822519380240E-01 a      1310     1    20     2    10
  1.0577904092592577E-02 a      1311     1    20     2    11
  2.9771566420025120E-01 a      1312     1    20     2    12
  6.4687598086517847E-02 a      1313     1    20     2    13
  1.1313142809110088E-02 a      1314     1    20     2    14
  1.0622656257672963E-01 a      1315     1    20     2    15
  4.8751238160661031E-01 a      1316     1    20     2    16
  2.3769724205841841E-01 a      1317     1    20     2    17
  3.6540247701313605E-01 a      1318     1    20     2    18
  4.9188630972126737E-02 a      1319     1    20     2    19
  2.8516461977940805E-01 a      1320     1    20     2    20
 -1.8924589850065635E-01 a      1321     1    20     2    21
  4.4080500698026204E-01 a      1322     1    20     2    22
 -3.2360838675354969E-01 a      1323     1    20     2    23
  1.9392288480965737E-02 a      1324     1    20     2    24
  5.2742107188166143E-01 a      1325     1    20     2    25
 -1.2208105306100298E-01 a      1326     1    21     2     1
  2.0249313468424626E-01 a      1327     1    21     2     2
 -5.3010132022439993E-01 a      1328     1    21     2     3
  5.6438498489681473E-02 a      1329     1    21     2     4
 -4.6376772928512248E-03 a      1330     1    21     2     5
 -3.0618912191224557E-01 a      1331     1    21     2     6
 -7.9118182060833195E-02 a      1332     1    21     2     7
 -6.2354702681664875E-01 a      1333     1    21     2     8
  3.9254033651808201E-01 a      1334     1    21     2     9
  3.4881911882484579E-01 a      1335     1    21     2    10
  1.2516425284424423E-01 a      1336     1    21     2    11
 -3.3300743912386704E-01 a      1337     1    21     2    12
 -3.8751964690074531E-01 a      1338     1    21     2    13
  5.3488346868757496E-02 a      1339     1    21     2    14
 -2.2317206590440211E-01 a      1340     1    21     2    15
 -4.3636361208113317E-01 a      1341     1    21     2    16
  6.7278022785131264E-01 a      1342     1    21     2    17
 -1.9047604901236725E-01 a      1343     1    21     2    18
  1.5734692433923528E-01 a      1344     1    21     2    19
 -3.4638488221778857E-01 a      1345     1    21     2    20
  2.5985245898828019E-01 a      1346     1    21     2    21
 -6.7671165551389589E-01 a      1347     1    21     2    22
 -2.2021035828895491E-01 a      1348     1    21     2    23
 -6.2254957678216705E-01 a      1349     1    21     2    24
  1.9237814420823448E-02 a      1350     1    21     2    25
 -9.0667083060376477E-02 a      1351     1    22     2     1
  2.8920756476640391E-01 a      1352     1    22     2     2
 -3.3482901275280863E-01 a      1353     1    22     2     3
 -2.6109355349514574E-01 a      1354     1    22     2     4
  1.0791623556416731E-01 a      1355     1    22     2     5
  3.1508349113446945E-03 a      1356     1    22     2     6
  2.4622292975822874E-01 a      1357     1    22     2     7
  6.8664383714429378E-01 a      1358     1    22     2     8
 -3.5702678166671797E-01 a      1359     1    22     2     9
 -4.5606905487115335E-01 a      1360     1    22     2    10
 -3.7329987642886098E-01 a      1361     1    22     2    11
 -2.2785933498539537E-01 a      1362     1    22     2    12
  3.2883540527092803E-01 a      1363     1    22     2    13
 -6.1587334848465569E-01 a      1364     1    22     2    14
  4.5996818148030250E-01 a      1365     1    22     2    15
  6.4125366519340588E-02 a      1366     1    22     2    16
  4.4680839122809823E-01 a      1367     1    22     2    17
 -2.4638752986823240E-01 a      1368     1    22     2    18
  2.7544591906637389E-01 a      1369     1    22     2    19
  9.0389278698973285E-02 a      1370     1    22     2    20
 -1.3573132334272828E-01 a      1371     1    22     2    21
 -4.8744304494289070E-01 a      1372     1    22     2    22
 -1.5069995148986573E-01 a      1373     1    22     2    23
 -6.3630796155126090E-01 a      1374     1    22     2    24
  5.2994583153859098E-01 a      1375     1    22     2    25
  3.9325382499744838E-01 a      1376     1    23     2     1
  2.6981237225292470E-01 a      1377     1    23     2     2
 -2.3962467849584412E-01 a      1378     1    23     2     3
  5.6218527710184640E-01 a      1379     1    23     2     4
 -3.6958883281934585E-01 a      1380     1    23     2     5
 -4.6895543847665155E-01 a      1381     1    23     2     6
 -1.5212153361533109E-01 a      1382     1    23     2     7
  4.8950012784210661E-01 a      1383     1    23     2     8
  3.5507705813374074E-01 a      1384     1    23     2     9
 -1.3803862133588043E-01 a      1385     1    23     2    10
  1.7821371773404993E-01 a      1386     1    23     2    11
  1.6367301582667193E-01 a      1387     1    23     2    12
 -3.6007899031495871E-01 a      1388     1    23     2    13
 -4.0210200780238986E-01 a      1389     1    23     2    14
  1.0243719714211885E-01 a      1390     1    23     2    15
 -5.9644081479485120E-02 a      1391     1    23     2    16
 -2.9441580458163907E-01 a      1392     1    23     2    17
  3.7474163674008709E-01 a      1393     1    23     2    18
  5.8379739311352830E-01 a      1394     1    23     2    19
 -4.5898557312245380E-01 a      1395     1    23     2    20
 -8.9455590777568580E-02 a      1396     1    23     2    21
  3.7666926039144605E-01 a      1397     1    23     2    22
 -1.5479008535174721E-01 a      1398     1    23     2    23
  2.5702532371004028E-01 a      1399     1    23     2    24
 -3.3448908430422408E-01 a      1400     1    23     2    25
 -1.1840694554515994E-01 a      1401     1    24     2     1
 -3.0489820950801882E-01 a      1402     1    24     2     2
  2.2806993205782555E-01 a      1403     1    24     2     3
 -2.9243212326172208E-01 a      1404     1    24     2     4
 -4.8233820800484006E-01 a      1405     1    24     2     5
 -3.7960142139986769E-01 a      1406     1    24     2     6
  8.6260506587566688E-01 a      1407     1    24     2     7
 -2.0168373639003212E-01 a      1408     1    24     2     8
  1.0136930350801841E-01 a      1409     1    24     2     9
  2.5008219115685494E-02 a      1410     1    24     2    10
  2.4959488049141540E-01 a      1411     1    24     2    11
  2.6626998937130864E-01 a      1412     1    24     2    12
 -1.8847926377756574E-01 a      1413     1    24     2    13
  2.5659528682329119E-01 a      1414     1    24     2    14
 -4.2532310798687711E-01 a      1415     1    24     2    15
  3.9762048991972371E-01 a      1416     1    24     2    16
  1.1769362472457345E-01 a      1417     1    24     2    17
 -1.4400700416825943E-01 a      1418     1    24     2    18
 -3.9714659709680139E-01 a      1419     1    24     2    19
 -6.1842403371059437E-02 a      1420     1    24     2    20
 -3.2530222392705288E-01 a      1421     1    24     2    21
  1.1274874176082161E-01 a      1422     1    24     2    22
 -1.6653637687414258E-01 a      1423     1    24     2    23
 -3.2574290382451165E-01 a      1424     1    24     2    24
  4.6730412235013508E-02 a      1425     1    24     2    25
 -3.4229025662599372E-01 a      1426     1    25     2     1
  2.5482469047939704E-01 a      1427     1    25     2     2
  2.0051966369866220E-01 a      1428     1    25     2     3
 -8.5186665659337857E-02 a      1429     1    25     2     4
  3.6872108440983403E-01 a      1430     1    25     2     5
  2.7610665671245982E-02 a      1431     1    25     2     6
  1.5225609390232878E-02 a      1432     1    25     2     7
  4.8041998394781862E-02 a      1433     1    25     2     8
  4.4044126145302614E-01 a      1434     1    25     2     9
  1.9473858244134901E-01 a      1435     1    25     2    10
  7.8448676631310277E-02 a      1436     1    25     2    11
 -2.2848010959237350E-01 a      1437     1    25     2    12
 -6.1160395778964749E-01 a      1438     1    25     2    13
 -4.0920103266941937E-01 a      1439     1    25     2    14
 -9.6223758141866914E-02 a      1440     1    25     2    15
 -4.0933442211747323E-01 a      1441     1    25     2    16
 -1.4742238975935641E-02 a      1442     1    25     2    17
  1.0622374852837385E-01 a      1443     1    25     2    18
  8.8346685468615807E-02 a      1444     1    25     2    19
 -4.2676790526489811E-01 a      1445     1    25     2    20
  4.1280726113243854E-01 a      1446     1    25     2    21
  4.4532423346677391E-01 a      1447     1    25     2    22
  3.8788018170217320E-01 a      1448     1    25     2    23
 -2.9856156466284112E-01 a      1449     1    25     2    24
  3.2418233671741925E-01 a      1450     1    25     2    25
 -6.4182986360101302E-01 b      1451     2     1
 -7.5237234799263286E-01 b      1452     2     2
 -8.6356175887710052E-02 b      1453     2     3
  1.5413502434200141E+00 b      1454     2     4
 -1.5217390520403102E+00 b      1455     2     5
  8.2001928082044506E-01 b      1456     2     6
  1.2235471625010215E+00 b      1457     2     7
  9.5566893774223216E-01 b      1458     2     8
 -1.2856167261576019E+00 b      1459     2     9
 -1.3978240726444364E+00 b      1460     2    10
 -9.8261084313391323E-01 b      1461     2    11
  1.5297482042611266E+00 b      1462     2    12
 -1.0377509252193666E+00 b      1463     2    13
  8.7161865535855088E-01 b      1464     2    14
 -9.3253333923606785E-01 b      1465     2    15
  3.4205288155682112E-01 b      1466     2    16
 -1.3468944810284817E+00 b      1467     2    17
  5.2325358210889383E-01 b      1468     2    18
 -4.9506550644885822E-01 b      1469     2    19
  4.4536414524242479E-01 b      1470     2    20
  8.9813486613596794E-01 b      1471     2    21
 -3.9075877713470847E-01 b      1472     2    22
 -1.2784898261576303E+00 b      1473     2    23
  1.7392314925693556E-01 b      1474     2    24
 -9.2590240658440548E-01 b      1475     2    25
  2.7035874172983754E-01 a      1476     2     1     3     1
 -1.5016065035080470E+00 a      1477     2     2     3     1
 -3.0527368040336833E-01 a      1478     2     3     3     1
  9.5446061773620139E-01 a      1479     2     4     3     1
 -6.9342133720492827E-01 a      1480     2     5     3     1
 -1.0206482316120780E+00 a      1481     2     6     3     1
  9.5989081225616821E-02 a      1482     2     7     3     1
 -3.5870891734016058E-02 a      1483     2     8     3     1
  3.1229533931094650E-01 a      1484     2     9     3     1
  3.3157986156016861E-01 a      1485     2    10     3     1
 -6.4729113451891251E-01 a      1486     2    11     3     1
  2.5223343233902468E-01 a      1487     2    12     3     1
 -4.6667859121289351E-01 a      1488     2    13     3     1
 -3.4534694618750361E-01 a      1489     2    14     3     1
  6.1786483141661497E-01 a      1490     2    15     3     1
 -1.4932331119112899E-01 a      1491     2    16     3     1
  7.8704164978480262E-01 a      1492     2    17     3     1
  9.2303945229798190E-01 a      1493     2    18     3     1
 -5.1697528893226596E-01 a      1494     2    19     3     1
  6.2605456975621671E-03 a      1495     2    20     3     1
 -4.0936889129148168E-01 a      1496     2    21     3     1
  7.7313446071994210E-02 a      1497     2    22     3     1
  1.4537556723747316E-01 a      1498     2    23     3     1
 -2.1258959279039086E-01 a      1499     2    24     3     1
 -6.3824752043779764E-01 a      1500     2    25     3     1
  7.0108838381849103E-01 b      1501     3     1
