################################################################################
# Neural network connection values (weights and biases).
################################################################################
# Col  Name       Description
################################################################################
# 1    connection Neural network connection value.
# 2    t          Connection type (a = weight, b = bias).
# 3    index      Index enumerating weights.
# 4    l_s        Starting point layer (end point layer for biases).
# 5    n_s        Starting point neuron in starting layer (end point neuron for biases).
# 6    l_e        End point layer.
# 7    n_e        End point neuron in end layer.
################################################################################
#                      1 2         3     4     5     6     7
#             connection t     index   l_s   n_s   l_e   n_e
############################################################
 -1.9771082008762514E-02 a         1     0     1     1     1
 -1.7979124082700101E-01 a         2     0     1     1     2
  6.2453071461522569E-01 a         3     0     1     1     3
  2.8714106627862485E-01 a         4     0     1     1     4
  4.7303328863354943E-01 a         5     0     1     1     5
  4.2468822130792988E-01 a         6     0     1     1     6
  4.7525508322271764E-01 a         7     0     1     1     7
 -1.8265654643836476E-01 a         8     0     1     1     8
  5.0542397402158878E-01 a         9     0     1     1     9
  6.6250099786993186E-02 a        10     0     1     1    10
  3.3412949933686686E-01 a        11     0     1     1    11
  2.2740712996295154E-01 a        12     0     1     1    12
  7.8382535138884213E-02 a        13     0     1     1    13
  1.9125919904972274E-01 a        14     0     1     1    14
  3.5414045130289351E-01 a        15     0     1     1    15
  7.1591623105710689E-01 a        16     0     1     1    16
  6.1691490443747735E-02 a        17     0     1     1    17
  7.2385183818445220E-01 a        18     0     1     1    18
 -4.0348635794569510E-01 a        19     0     1     1    19
 -4.4096019426781395E-02 a        20     0     1     1    20
 -6.1143255924684348E-01 a        21     0     1     1    21
  7.9673669860644336E-01 a        22     0     1     1    22
  9.2049386910905151E-01 a        23     0     1     1    23
  6.1894641285952978E-01 a        24     0     1     1    24
  1.6115435853678864E-01 a        25     0     1     1    25
  2.2906350954670998E-01 a        26     0     2     1     1
 -5.5309403106349042E-01 a        27     0     2     1     2
 -1.0073474660539856E+00 a        28     0     2     1     3
 -2.8834966429403211E-02 a        29     0     2     1     4
  3.5003322091198075E-01 a        30     0     2     1     5
  7.5134303323425167E-01 a        31     0     2     1     6
  2.5545558622092013E-01 a        32     0     2     1     7
 -1.9503925275426673E-01 a        33     0     2     1     8
 -2.5602898690118803E-01 a        34     0     2     1     9
 -2.5550733802107023E-01 a        35     0     2     1    10
  4.2146117210771272E-01 a        36     0     2     1    11
  4.9190173017211142E-01 a        37     0     2     1    12
 -8.8007598342649651E-02 a        38     0     2     1    13
 -8.6039832524042748E-01 a        39     0     2     1    14
 -3.5266533293235303E-01 a        40     0     2     1    15
  2.3437645846655891E-02 a        41     0     2     1    16
 -3.3521493763551691E-01 a        42     0     2     1    17
 -2.9771614231741556E-01 a        43     0     2     1    18
 -6.6414246592381687E-01 a        44     0     2     1    19
 -5.0044144915198485E-01 a        45     0     2     1    20
  7.7152457422770784E-02 a        46     0     2     1    21
 -2.4793040584609558E-01 a        47     0     2     1    22
 -2.1570350860349277E-01 a        48     0     2     1    23
  1.8726544808186904E-01 a        49     0     2     1    24
  6.0403124822536796E-03 a        50     0     2     1    25
 -4.8960940745327863E-01 a        51     0     3     1     1
  7.0170982949386140E-01 a        52     0     3     1     2
 -1.1694642745692921E-01 a        53     0     3     1     3
  3.8909490130767904E-01 a        54     0     3     1     4
  2.5894092990416040E-01 a        55     0     3     1     5
  8.4630163623873128E-02 a        56     0     3     1     6
 -2.9312706214001727E-01 a        57     0     3     1     7
 -1.1894476290233305E+00 a        58     0     3     1     8
  4.0971953298426411E-01 a        59     0     3     1     9
 -9.3855195217155629E-02 a        60     0     3     1    10
  4.8333750543718357E-01 a        61     0     3     1    11
 -5.5312664893202523E-01 a        62     0     3     1    12
 -2.2411152645784516E-01 a        63     0     3     1    13
 -1.1224634864128520E-01 a        64     0     3     1    14
 -2.6073885847558453E-01 a        65     0     3     1    15
 -6.2967277632456731E-01 a        66     0     3     1    16
 -5.6453385798513500E-01 a        67     0     3     1    17
 -7.4103333046097064E-01 a        68     0     3     1    18
  6.2397631357454533E-02 a        69     0     3     1    19
 -5.6227007485358405E-01 a        70     0     3     1    20
  7.9158938129333289E-01 a        71     0     3     1    21
  3.6130188724250850E-01 a        72     0     3     1    22
 -1.1653144559446655E+00 a        73     0     3     1    23
 -4.2554991491296235E-01 a        74     0     3     1    24
  2.3895554755803164E-01 a        75     0     3     1    25
  2.3329068918506524E-01 a        76     0     4     1     1
  3.3254312836419364E-01 a        77     0     4     1     2
  2.6233807721165370E-01 a        78     0     4     1     3
 -1.1713872529192558E-01 a        79     0     4     1     4
 -2.7000572193979849E-01 a        80     0     4     1     5
 -7.2799595736959988E-01 a        81     0     4     1     6
 -7.4048288185205113E-01 a        82     0     4     1     7
  2.5842850219947466E-01 a        83     0     4     1     8
  3.2060414397696158E-01 a        84     0     4     1     9
  1.6175021595031078E-01 a        85     0     4     1    10
  5.7158812628874989E-01 a        86     0     4     1    11
  2.1600545474085125E-01 a        87     0     4     1    12
 -3.3177759732204515E-01 a        88     0     4     1    13
  1.4086688393175639E+00 a        89     0     4     1    14
 -1.7619923355839762E-01 a        90     0     4     1    15
 -2.6213755003218003E-01 a        91     0     4     1    16
 -1.9113749474480558E-02 a        92     0     4     1    17
 -1.1501330830754457E-01 a        93     0     4     1    18
  3.5402843381196930E-01 a        94     0     4     1    19
  4.3451754490898234E-02 a        95     0     4     1    20
 -3.8577916522036038E-01 a        96     0     4     1    21
  3.5968852096899268E-01 a        97     0     4     1    22
  3.5691320079264355E-01 a        98     0     4     1    23
  5.1352138302455497E-01 a        99     0     4     1    24
  7.3271340825769901E-02 a       100     0     4     1    25
 -1.1668036105468740E-01 a       101     0     5     1     1
 -5.5200088053794638E-01 a       102     0     5     1     2
  3.5684096566037599E-01 a       103     0     5     1     3
  1.3613420863918482E-01 a       104     0     5     1     4
 -6.5733967438571184E-01 a       105     0     5     1     5
 -2.8020334649134063E-02 a       106     0     5     1     6
  3.9804476340186679E-01 a       107     0     5     1     7
 -1.5867946555561632E-01 a       108     0     5     1     8
 -1.1336124093279671E+00 a       109     0     5     1     9
 -3.2940661881089928E-01 a       110     0     5     1    10
 -1.7058828835631878E-01 a       111     0     5     1    11
  1.6043537916342451E-01 a       112     0     5     1    12
 -4.0538565024202328E-01 a       113     0     5     1    13
 -3.0472034044788684E-03 a       114     0     5     1    14
  4.8959101622551709E-01 a       115     0     5     1    15
  7.3027307121391583E-01 a       116     0     5     1    16
  3.9523210560663719E-01 a       117     0     5     1    17
  6.3910943903276318E-01 a       118     0     5     1    18
 -2.8390699202601183E-01 a       119     0     5     1    19
  3.0044145513652164E-02 a       120     0     5     1    20
  1.8965652759273247E-01 a       121     0     5     1    21
 -1.3582581627048511E+00 a       122     0     5     1    22
  8.5619093999689089E-01 a       123     0     5     1    23
  8.0567264798512894E-02 a       124     0     5     1    24
 -2.9030320396508080E-01 a       125     0     5     1    25
 -9.0623501700813222E-02 a       126     0     6     1     1
 -8.8776214176815371E-01 a       127     0     6     1     2
  1.6427444830061338E-01 a       128     0     6     1     3
 -4.5568661905284891E-01 a       129     0     6     1     4
  2.5605928404463812E-01 a       130     0     6     1     5
  1.4513974017666798E-01 a       131     0     6     1     6
  1.3790112377237154E-01 a       132     0     6     1     7
 -1.9750142697479589E-01 a       133     0     6     1     8
  1.8565149650715632E-01 a       134     0     6     1     9
 -1.5259038459919796E-01 a       135     0     6     1    10
 -4.6282546275116451E-03 a       136     0     6     1    11
  1.6621736333713227E-01 a       137     0     6     1    12
 -1.7278573506029499E-01 a       138     0     6     1    13
 -7.0179378981781271E-01 a       139     0     6     1    14
  1.7709711681276047E-01 a       140     0     6     1    15
  2.7142124694653613E-01 a       141     0     6     1    16
  1.9740064219980363E-01 a       142     0     6     1    17
 -2.5040410045208616E-01 a       143     0     6     1    18
 -3.4399427387172510E-01 a       144     0     6     1    19
 -6.4160935616659009E-01 a       145     0     6     1    20
 -2.7530698387472546E-01 a       146     0     6     1    21
 -3.1206946797343829E-02 a       147     0     6     1    22
 -2.4036700274504635E-01 a       148     0     6     1    23
 -5.4961122738794488E-01 a       149     0     6     1    24
  9.9945082897881246E-02 a       150     0     6     1    25
  2.2100862927386394E-01 a       151     0     7     1     1
  9.3602891941829552E-02 a       152     0     7     1     2
 -1.8476000297014206E-01 a       153     0     7     1     3
  3.5730574207844756E-01 a       154     0     7     1     4
  1.9478327965398956E-01 a       155     0     7     1     5
  2.8900196620773100E-01 a       156     0     7     1     6
 -1.7931091570610024E-02 a       157     0     7     1     7
  2.5287409221599100E-01 a       158     0     7     1     8
  5.2416168399863949E-01 a       159     0     7     1     9
 -8.3131647795501654E-02 a       160     0     7     1    10
  3.0332810452183723E-01 a       161     0     7     1    11
 -2.4530075446056171E-01 a       162     0     7     1    12
 -1.3534349688979225E-01 a       163     0     7     1    13
 -2.1921327287760797E-01 a       164     0     7     1    14
  1.8640145789228196E-01 a       165     0     7     1    15
 -3.9274672778141734E-01 a       166     0     7     1    16
 -3.4552503404602425E-01 a       167     0     7     1    17
 -3.5658557769085580E-01 a       168     0     7     1    18
 -4.5456324270399123E-01 a       169     0     7     1    19
 -4.9634708679422779E-01 a       170     0     7     1    20
 -5.5311231927500003E-02 a       171     0     7     1    21
  1.0172881477429623E+00 a       172     0     7     1    22
 -2.6862957180947106E-01 a       173     0     7     1    23
  2.8112713564376940E-01 a       174     0     7     1    24
  6.0895442280292353E-02 a       175     0     7     1    25
  3.9787853293896941E-01 a       176     0     8     1     1
  1.4201964734385833E-01 a       177     0     8     1     2
  2.0822155336752993E-01 a       178     0     8     1     3
  1.4565215911118201E-01 a       179     0     8     1     4
 -1.2923774192003165E-01 a       180     0     8     1     5
 -4.3721783019146043E-01 a       181     0     8     1     6
 -5.9351556636605607E-01 a       182     0     8     1     7
 -2.6248967185456656E-01 a       183     0     8     1     8
 -2.1362113726787254E-02 a       184     0     8     1     9
  2.7692312083642956E-01 a       185     0     8     1    10
  9.6718663932074553E-02 a       186     0     8     1    11
  2.5557579327162733E-01 a       187     0     8     1    12
  1.3687835756109876E-01 a       188     0     8     1    13
  3.9784402243715739E-01 a       189     0     8     1    14
 -2.1824230692976690E-02 a       190     0     8     1    15
 -9.4576006494950085E-02 a       191     0     8     1    16
  1.4292329917262239E-01 a       192     0     8     1    17
  1.7821241039723389E-02 a       193     0     8     1    18
  3.7759809496926516E-01 a       194     0     8     1    19
  3.8617646274439238E-01 a       195     0     8     1    20
 -2.9679389573171899E-01 a       196     0     8     1    21
  1.1338550566746068E-01 a       197     0     8     1    22
  2.1110675463121512E-02 a       198     0     8     1    23
  1.5554160595391364E-01 a       199     0     8     1    24
  4.9361198943613027E-01 a       200     0     8     1    25
 -5.0428696606529100E-01 a       201     0     9     1     1
  7.5134463735056075E-03 a       202     0     9     1     2
  1.5169211607701538E-01 a       203     0     9     1     3
  2.1814372244233318E-01 a       204     0     9     1     4
  4.9109323966861150E-02 a       205     0     9     1     5
  4.3335964867847257E-02 a       206     0     9     1     6
  8.9295609543014381E-02 a       207     0     9     1     7
 -4.3211259259385282E-01 a       208     0     9     1     8
 -1.2446791231911719E-01 a       209     0     9     1     9
 -1.4682282716423206E-01 a       210     0     9     1    10
  3.7299662107282600E-01 a       211     0     9     1    11
 -2.4433958205735301E-01 a       212     0     9     1    12
 -2.1113934972114293E-01 a       213     0     9     1    13
  6.2738477534924050E-02 a       214     0     9     1    14
 -7.6022147846632554E-02 a       215     0     9     1    15
  3.0329993300434227E-01 a       216     0     9     1    16
 -1.3988173967625386E-01 a       217     0     9     1    17
  3.4698843181187233E-01 a       218     0     9     1    18
 -1.3321053630521354E-01 a       219     0     9     1    19
 -1.6498688657704846E-01 a       220     0     9     1    20
  4.0103180976954833E-01 a       221     0     9     1    21
 -4.3074196493047961E-01 a       222     0     9     1    22
  1.7380439529682476E-01 a       223     0     9     1    23
  5.1091241879594892E-02 a       224     0     9     1    24
  6.5623943465903167E-02 a       225     0     9     1    25
  2.6438531216617423E-02 a       226     0    10     1     1
 -3.5159442097727772E-01 a       227     0    10     1     2
 -2.7078029972431544E-01 a       228     0    10     1     3
 -6.6637407772380780E-02 a       229     0    10     1     4
  4.0075516642763226E-01 a       230     0    10     1     5
  4.7799599544973106E-02 a       231     0    10     1     6
  1.6295971254299940E-01 a       232     0    10     1     7
  2.0643460100975439E-01 a       233     0    10     1     8
  5.0703210926951015E-01 a       234     0    10     1     9
  7.0653186252492339E-02 a       235     0    10     1    10
 -1.6480768357182596E-01 a       236     0    10     1    11
  6.1593574204081132E-02 a       237     0    10     1    12
  1.1809775991232807E-02 a       238     0    10     1    13
 -3.3180269771449150E-01 a       239     0    10     1    14
  3.0259751548619866E-02 a       240     0    10     1    15
  1.8231467493205858E-01 a       241     0    10     1    16
 -5.6152853265481951E-02 a       242     0    10     1    17
 -8.7321846117793006E-02 a       243     0    10     1    18
  4.1682573949714058E-01 a       244     0    10     1    19
 -3.8679427875769512E-01 a       245     0    10     1    20
 -4.8318685599163536E-01 a       246     0    10     1    21
  1.7457676135914445E-02 a       247     0    10     1    22
 -1.8704872469282022E-01 a       248     0    10     1    23
 -6.5207728616540311E-02 a       249     0    10     1    24
 -3.0157503316996102E-02 a       250     0    10     1    25
 -4.1101378922912235E-01 a       251     0    11     1     1
  1.7911789335769673E-01 a       252     0    11     1     2
  1.1643876103247446E-01 a       253     0    11     1     3
 -1.7457866507653211E-01 a       254     0    11     1     4
  2.4750678455643643E-02 a       255     0    11     1     5
  5.7285700766519211E-02 a       256     0    11     1     6
 -6.5155590038357372E-02 a       257     0    11     1     7
  2.6268162925709149E-01 a       258     0    11     1     8
  1.0901270975794088E-01 a       259     0    11     1     9
  2.5354404654072550E-02 a       260     0    11     1    10
 -2.6497177862837040E-01 a       261     0    11     1    11
  1.2880444982943207E-01 a       262     0    11     1    12
  3.3470200029734568E-02 a       263     0    11     1    13
  2.9526945225302088E-02 a       264     0    11     1    14
 -1.7545263432378233E-01 a       265     0    11     1    15
  1.2544263463628250E-01 a       266     0    11     1    16
 -7.4419338346994088E-02 a       267     0    11     1    17
 -2.1849436714928933E-01 a       268     0    11     1    18
 -2.2327708763442095E-01 a       269     0    11     1    19
  5.0535148858393136E-02 a       270     0    11     1    20
 -2.0158576144001059E-01 a       271     0    11     1    21
  9.4186448238300274E-02 a       272     0    11     1    22
 -5.5205949923849904E-02 a       273     0    11     1    23
 -3.3145444475935726E-01 a       274     0    11     1    24
 -3.4443229974543653E-02 a       275     0    11     1    25
  5.1604174422937077E-01 a       276     0    12     1     1
  3.1210141267236469E-01 a       277     0    12     1     2
 -7.1394773834244085E-02 a       278     0    12     1     3
 -2.1364802624089627E-01 a       279     0    12     1     4
 -2.3308651979648995E-01 a       280     0    12     1     5
 -3.0671902254623629E-01 a       281     0    12     1     6
 -7.6914746700528794E-02 a       282     0    12     1     7
 -5.1593321963160321E-01 a       283     0    12     1     8
 -1.2379013369178049E-01 a       284     0    12     1     9
  4.2448811430803084E-02 a       285     0    12     1    10
  1.7589238862102374E-01 a       286     0    12     1    11
  1.8276185734807154E-01 a       287     0    12     1    12
  1.1080684149982528E-01 a       288     0    12     1    13
  1.4251574006312598E-01 a       289     0    12     1    14
 -1.8280868706785764E-02 a       290     0    12     1    15
 -7.9628600666320673E-02 a       291     0    12     1    16
  2.0774270222219085E-01 a       292     0    12     1    17
 -3.3698351022247136E-02 a       293     0    12     1    18
  1.4134592873466212E-01 a       294     0    12     1    19
  3.3480552688165433E-01 a       295     0    12     1    20
  1.0986906163848785E-01 a       296     0    12     1    21
 -5.9518574976904985E-02 a       297     0    12     1    22
  1.0791114810691138E-01 a       298     0    12     1    23
 -3.9964900940772832E-02 a       299     0    12     1    24
  2.6417854190179246E-01 a       300     0    12     1    25
  8.4008706077384768E-02 a       301     0    13     1     1
 -5.5178965472204251E-02 a       302     0    13     1     2
 -4.8817362548906298E-02 a       303     0    13     1     3
  9.4372509546070973E-02 a       304     0    13     1     4
  7.7158168990586709E-02 a       305     0    13     1     5
 -1.0166433519534529E-01 a       306     0    13     1     6
  2.4405857529073680E-01 a       307     0    13     1     7
  8.6315787353366938E-02 a       308     0    13     1     8
 -1.9046048493695122E-01 a       309     0    13     1     9
  2.2042513871466444E-02 a       310     0    13     1    10
  4.0846163235566219E-01 a       311     0    13     1    11
 -6.9385951822178549E-02 a       312     0    13     1    12
 -8.1504019314265399E-03 a       313     0    13     1    13
 -5.0906192408450901E-02 a       314     0    13     1    14
  2.1837763602904917E-01 a       315     0    13     1    15
 -1.7911546669922060E-01 a       316     0    13     1    16
 -5.6575697477350133E-02 a       317     0    13     1    17
  4.7471460431166991E-02 a       318     0    13     1    18
 -1.0419965058532063E-01 a       319     0    13     1    19
 -2.2575408278006873E-02 a       320     0    13     1    20
  1.3952515326398970E-01 a       321     0    13     1    21
  4.9248279096901305E-02 a       322     0    13     1    22
  3.5557753651498505E-02 a       323     0    13     1    23
  3.8770560718879160E-01 a       324     0    13     1    24
  1.9965121959208965E-01 a       325     0    13     1    25
  3.2468932819872620E-01 a       326     0    14     1     1
 -2.4352065710096740E-01 a       327     0    14     1     2
 -2.3096414547925093E-02 a       328     0    14     1     3
  2.6376591386338460E-01 a       329     0    14     1     4
  2.2163578583385360E-01 a       330     0    14     1     5
  1.6285411663179816E-01 a       331     0    14     1     6
 -1.0930815380543953E-01 a       332     0    14     1     7
  1.3808352209882749E-01 a       333     0    14     1     8
  4.8390554369505939E-03 a       334     0    14     1     9
 -7.7333680424805276E-02 a       335     0    14     1    10
 -3.3069295953785821E-01 a       336     0    14     1    11
 -3.6744915215237844E-01 a       337     0    14     1    12
  1.2561401935887753E-01 a       338     0    14     1    13
 -1.2839255501782657E-01 a       339     0    14     1    14
  5.9456071370364589E-03 a       340     0    14     1    15
 -6.1481699348191754E-02 a       341     0    14     1    16
  1.7993656527149507E-01 a       342     0    14     1    17
 -4.5476921736267772E-02 a       343     0    14     1    18
  3.1034443457244809E-01 a       344     0    14     1    19
 -3.8400606213441063E-01 a       345     0    14     1    20
 -1.2280475132991324E-01 a       346     0    14     1    21
  1.1613434519765599E-02 a       347     0    14     1    22
 -2.9455655320513052E-03 a       348     0    14     1    23
 -1.1695742823116745E-02 a       349     0    14     1    24
 -1.7751669486834670E-01 a       350     0    14     1    25
 -3.4149043116515371E-01 a       351     0    15     1     1
  5.8600577178929171E-02 a       352     0    15     1     2
  2.6357442846434459E-01 a       353     0    15     1     3
 -4.0798832304458334E-02 a       354     0    15     1     4
 -5.3663104099410018E-02 a       355     0    15     1     5
  9.2288238109850568E-02 a       356     0    15     1     6
 -1.2637825113804610E-01 a       357     0    15     1     7
 -9.8857723236872391E-02 a       358     0    15     1     8
  2.0278150776188324E-02 a       359     0    15     1     9
  1.6323305258732293E-01 a       360     0    15     1    10
 -1.8174782754848395E-01 a       361     0    15     1    11
  1.8855501099661667E-01 a       362     0    15     1    12
 -6.9330749481454665E-02 a       363     0    15     1    13
 -2.2668550092047202E-02 a       364     0    15     1    14
 -3.9678466508567367E-01 a       365     0    15     1    15
  1.1016259957472321E-01 a       366     0    15     1    16
  1.0337072471449972E-01 a       367     0    15     1    17
 -9.6253355484796022E-02 a       368     0    15     1    18
 -2.0147746999027889E-02 a       369     0    15     1    19
 -2.1666653482254111E-01 a       370     0    15     1    20
 -4.1230190622793178E-01 a       371     0    15     1    21
 -8.2781496515523564E-02 a       372     0    15     1    22
 -1.2965851662697839E-01 a       373     0    15     1    23
 -1.2701776733274947E-01 a       374     0    15     1    24
 -1.4071579530956965E-01 a       375     0    15     1    25
  1.1041654522379450E-01 a       376     0    16     1     1
  3.8956239511921104E-01 a       377     0    16     1     2
 -5.6858824108289285E-01 a       378     0    16     1     3
 -3.5499568463147485E-01 a       379     0    16     1     4
  1.7476419097945425E-01 a       380     0    16     1     5
 -2.5130412207608877E-01 a       381     0    16     1     6
 -2.9479996184364954E-01 a       382     0    16     1     7
 -1.4212912073299414E-01 a       383     0    16     1     8
  1.5879889678492298E-01 a       384     0    16     1     9
 -7.0136619768567721E-02 a       385     0    16     1    10
 -3.3083065725690136E-01 a       386     0    16     1    11
 -1.7076249919495182E-01 a       387     0    16     1    12
  6.5464555796230492E-02 a       388     0    16     1    13
  1.0096558054450193E-01 a       389     0    16     1    14
  5.7317114459396537E-03 a       390     0    16     1    15
  3.3442468345063237E-01 a       391     0    16     1    16
 -2.5919704339377286E-01 a       392     0    16     1    17
 -8.3170332533907973E-02 a       393     0    16     1    18
  1.2541614313119622E-02 a       394     0    16     1    19
  2.8675228576081840E-01 a       395     0    16     1    20
  1.2393995450450009E-03 a       396     0    16     1    21
 -5.6660581772540415E-02 a       397     0    16     1    22
  2.1204907552338681E-01 a       398     0    16     1    23
 -3.8752846811544162E-01 a       399     0    16     1    24
  9.8481866819352781E-02 a       400     0    16     1    25
  8.3363321751835875E-02 a       401     0    17     1     1
  5.7067398872868595E-02 a       402     0    17     1     2
 -1.2293536984068480E-01 a       403     0    17     1     3
  7.0168070293261720E-02 a       404     0    17     1     4
  1.5627008763379643E-01 a       405     0    17     1     5
 -1.7396546682563141E-01 a       406     0    17     1     6
  2.0483464280868208E-01 a       407     0    17     1     7
  2.8710894534245002E-01 a       408     0    17     1     8
  2.4102419357329836E-02 a       409     0    17     1     9
 -1.1420056386219753E-01 a       410     0    17     1    10
  2.3534976224780346E-01 a       411     0    17     1    11
  1.4245571719503304E-02 a       412     0    17     1    12
  5.7878739115489956E-02 a       413     0    17     1    13
  2.2689719316263443E-02 a       414     0    17     1    14
  2.3320618204599505E-01 a       415     0    17     1    15
 -3.2098080087860394E-03 a       416     0    17     1    16
 -1.3564371802698555E-01 a       417     0    17     1    17
  3.2335788739159300E-02 a       418     0    17     1    18
 -9.3417494733245093E-02 a       419     0    17     1    19
  1.3617712074510191E-01 a       420     0    17     1    20
  1.8684444556906440E-01 a       421     0    17     1    21
  2.1941978181738275E-02 a       422     0    17     1    22
 -5.0966592928324547E-02 a       423     0    17     1    23
  1.0186769027258501E-01 a       424     0    17     1    24
  2.0358711120391604E-01 a       425     0    17     1    25
  3.1107562865187153E-02 a       426     0    18     1     1
 -2.6010237597295638E-01 a       427     0    18     1     2
  3.7943624704772844E-01 a       428     0    18     1     3
  2.8886948451923755E-01 a       429     0    18     1     4
 -1.8466652214209167E-01 a       430     0    18     1     5
  2.0864831216962249E-01 a       431     0    18     1     6
  1.7098027021407097E-01 a       432     0    18     1     7
 -1.9599799083467061E-02 a       433     0    18     1     8
 -4.6276064143964388E-02 a       434     0    18     1     9
  3.5866209566144586E-02 a       435     0    18     1    10
  1.9313545558818082E-01 a       436     0    18     1    11
  8.2407240674451654E-02 a       437     0    18     1    12
 -2.4084006038994767E-02 a       438     0    18     1    13
 -4.3752431217187256E-02 a       439     0    18     1    14
 -1.9276677026410286E-02 a       440     0    18     1    15
 -2.3906951634247783E-01 a       441     0    18     1    16
  2.2888123654893389E-01 a       442     0    18     1    17
  1.5295815474364627E-01 a       443     0    18     1    18
  4.2418272251623083E-02 a       444     0    18     1    19
 -3.5662983755736184E-02 a       445     0    18     1    20
  1.5603382457447454E-01 a       446     0    18     1    21
  4.7349088825303517E-02 a       447     0    18     1    22
 -1.5896440452789620E-01 a       448     0    18     1    23
  2.1181103819649139E-01 a       449     0    18     1    24
 -1.2633989137916873E-01 a       450     0    18     1    25
 -8.5311522514711066E-02 a       451     0    19     1     1
 -1.2696018053776154E-01 a       452     0    19     1     2
  1.5725297147822423E-01 a       453     0    19     1     3
  3.1641009642311160E-02 a       454     0    19     1     4
 -1.0648586120974066E-01 a       455     0    19     1     5
  5.7453860125755360E-02 a       456     0    19     1     6
  3.8278798105208359E-02 a       457     0    19     1     7
 -6.7852730906615925E-03 a       458     0    19     1     8
 -1.7553496801715987E-02 a       459     0    19     1     9
  1.1026526503953978E-01 a       460     0    19     1    10
  9.5183068919807184E-02 a       461     0    19     1    11
  1.2031656995693386E-01 a       462     0    19     1    12
 -3.8499002942491943E-02 a       463     0    19     1    13
 -1.9976975319765507E-02 a       464     0    19     1    14
 -1.4733852721683946E-01 a       465     0    19     1    15
 -8.0513659375345770E-02 a       466     0    19     1    16
 -5.6765322467758152E-02 a       467     0    19     1    17
  5.2539050514965983E-03 a       468     0    19     1    18
  1.8688544432718841E-02 a       469     0    19     1    19
 -3.6941896594807393E-02 a       470     0    19     1    20
 -4.5990752464725289E-02 a       471     0    19     1    21
 -1.6053764599054540E-02 a       472     0    19     1    22
 -3.8864444858149466E-02 a       473     0    19     1    23
  7.6997084453640910E-02 a       474     0    19     1    24
 -8.2469455255762172E-02 a       475     0    19     1    25
  8.7791141817537055E-02 a       476     0    20     1     1
  1.5985887582151806E-01 a       477     0    20     1     2
 -3.6045254478951050E-01 a       478     0    20     1     3
 -1.3867993293550651E-01 a       479     0    20     1     4
  2.6950469390059878E-01 a       480     0    20     1     5
 -1.2524404444934040E-01 a       481     0    20     1     6
 -2.9783692745582002E-01 a       482     0    20     1     7
 -1.8081645805329560E-01 a       483     0    20     1     8
  2.7973919797062492E-02 a       484     0    20     1     9
 -9.0399939072755953E-02 a       485     0    20     1    10
 -2.5868759968193589E-01 a       486     0    20     1    11
 -2.4097509320452107E-01 a       487     0    20     1    12
  7.9938749341478765E-02 a       488     0    20     1    13
  1.1288798191710182E-02 a       489     0    20     1    14
  1.1228091085018367E-01 a       490     0    20     1    15
  2.5243799822799468E-01 a       491     0    20     1    16
 -5.5821663938311887E-02 a       492     0    20     1    17
 -9.5400384651690359E-02 a       493     0    20     1    18
  4.9576140131422849E-02 a       494     0    20     1    19
 -6.4711803945294494E-02 a       495     0    20     1    20
 -1.5582244059519099E-01 a       496     0    20     1    21
  8.5988527561499193E-03 a       497     0    20     1    22
  2.0700299670181579E-01 a       498     0    20     1    23
 -2.7972113996687448E-01 a       499     0    20     1    24
  1.3147402098527258E-01 a       500     0    20     1    25
  4.8667845476189131E-02 a       501     0    21     1     1
  1.9730594647575286E-01 a       502     0    21     1     2
 -1.6268267370335215E-01 a       503     0    21     1     3
 -3.8535712860896171E-01 a       504     0    21     1     4
  2.1395079060529142E-02 a       505     0    21     1     5
 -2.8122100329310112E-01 a       506     0    21     1     6
  4.9145480384411711E-01 a       507     0    21     1     7
  3.6711474495137703E-01 a       508     0    21     1     8
 -3.7824402336884867E-02 a       509     0    21     1     9
 -2.3937032246463896E-01 a       510     0    21     1    10
 -2.9092682890219809E-02 a       511     0    21     1    11
 -1.1196233065390024E-01 a       512     0    21     1    12
  7.8755205186857935E-01 a       513     0    21     1    13
 -2.4734656602055072E-01 a       514     0    21     1    14
  3.2413681052892031E-02 a       515     0    21     1    15
 -6.1691900634114630E-02 a       516     0    21     1    16
  6.3043268084376922E-02 a       517     0    21     1    17
 -7.8775010721593444E-02 a       518     0    21     1    18
  5.9808366109981015E-01 a       519     0    21     1    19
  7.4281543702339015E-01 a       520     0    21     1    20
 -1.4154766730140275E-01 a       521     0    21     1    21
  2.3887154164020702E-01 a       522     0    21     1    22
  1.0266367358426925E-01 a       523     0    21     1    23
  4.5717837457744087E-01 a       524     0    21     1    24
 -2.3619798286573868E-01 a       525     0    21     1    25
  4.2535139812532829E-01 a       526     0    22     1     1
  3.7848095573436386E-01 a       527     0    22     1     2
  7.5199375156601000E-01 a       528     0    22     1     3
 -8.8656599198424757E-01 a       529     0    22     1     4
 -1.6144295955197885E-01 a       530     0    22     1     5
  2.8035117622685807E-01 a       531     0    22     1     6
 -8.9091866188566660E-01 a       532     0    22     1     7
  1.5238365393144068E-01 a       533     0    22     1     8
  9.1307477581673444E-02 a       534     0    22     1     9
 -3.0518824385307941E-01 a       535     0    22     1    10
 -3.6711550905570198E-02 a       536     0    22     1    11
  1.2282044462225077E+00 a       537     0    22     1    12
 -2.9864624810216733E-01 a       538     0    22     1    13
  6.7358170554286712E-01 a       539     0    22     1    14
  4.1381677203999556E-01 a       540     0    22     1    15
 -2.6995816484592050E-01 a       541     0    22     1    16
  6.3108366516670933E-01 a       542     0    22     1    17
  3.0780349682877001E-01 a       543     0    22     1    18
  1.5378467209806274E-01 a       544     0    22     1    19
  4.2300841578317060E-02 a       545     0    22     1    20
  2.3918219352192854E-01 a       546     0    22     1    21
 -9.2613344890324995E-02 a       547     0    22     1    22
 -1.4365982984454989E-01 a       548     0    22     1    23
 -8.3954071295457511E-01 a       549     0    22     1    24
  7.0194264691595709E-01 a       550     0    22     1    25
 -5.0850750521886212E-01 a       551     0    23     1     1
  2.4633569908740161E-01 a       552     0    23     1     2
 -6.3018640823771821E-01 a       553     0    23     1     3
  3.7981013309877565E-01 a       554     0    23     1     4
 -1.0702073300859448E-02 a       555     0    23     1     5
  1.4416876210074661E-01 a       556     0    23     1     6
  9.1775902118186159E-01 a       557     0    23     1     7
 -1.5811248416562759E-01 a       558     0    23     1     8
 -4.0962273080903572E-01 a       559     0    23     1     9
 -4.0470575966719158E-02 a       560     0    23     1    10
 -9.8129543374153347E-02 a       561     0    23     1    11
 -7.9381527225963300E-01 a       562     0    23     1    12
  4.6526589811827695E-01 a       563     0    23     1    13
 -3.1581635698695787E-01 a       564     0    23     1    14
 -1.5086574372973321E-01 a       565     0    23     1    15
  8.7336065074673633E-02 a       566     0    23     1    16
 -8.2510872894078588E-02 a       567     0    23     1    17
  8.3864129901025916E-02 a       568     0    23     1    18
  1.5308029502286608E-01 a       569     0    23     1    19
 -5.8522070438259736E-02 a       570     0    23     1    20
  3.6073912624128757E-01 a       571     0    23     1    21
 -1.9571293428973718E-01 a       572     0    23     1    22
  2.0418719049329498E-01 a       573     0    23     1    23
  3.2548729192501247E-01 a       574     0    23     1    24
 -7.3616201252443303E-01 a       575     0    23     1    25
 -2.6865427873545650E-01 a       576     0    24     1     1
 -5.8526220847692367E-01 a       577     0    24     1     2
 -4.0296686054098980E-02 a       578     0    24     1     3
  4.0810412586762107E-01 a       579     0    24     1     4
  2.6826360062632126E-01 a       580     0    24     1     5
  3.5428452702534596E-01 a       581     0    24     1     6
  3.7069775139511235E-02 a       582     0    24     1     7
 -1.7107519757287989E-01 a       583     0    24     1     8
 -7.8411410352255323E-02 a       584     0    24     1     9
  5.9548227366302797E-01 a       585     0    24     1    10
  2.5919537743435656E-01 a       586     0    24     1    11
 -6.7827598446773329E-01 a       587     0    24     1    12
 -2.4939859340349646E-01 a       588     0    24     1    13
  3.4550987335647304E-01 a       589     0    24     1    14
 -3.6650294546772888E-01 a       590     0    24     1    15
 -1.4146908075616987E-01 a       591     0    24     1    16
 -5.4630296090018585E-02 a       592     0    24     1    17
 -1.4284934245514011E-01 a       593     0    24     1    18
 -3.3368778962462942E-01 a       594     0    24     1    19
 -7.9952479809368593E-02 a       595     0    24     1    20
 -1.6150666891218624E-01 a       596     0    24     1    21
 -5.1466365865123875E-01 a       597     0    24     1    22
 -1.1880415837201432E-01 a       598     0    24     1    23
  1.9902374753490765E-01 a       599     0    24     1    24
  1.3050435914533193E-01 a       600     0    24     1    25
  5.0192487423162058E-01 a       601     0    25     1     1
 -5.5947173569040520E-01 a       602     0    25     1     2
 -3.3827417349993166E-01 a       603     0    25     1     3
  6.1717755417489129E-01 a       604     0    25     1     4
  6.9294864638560316E-01 a       605     0    25     1     5
 -1.0981691022462505E+00 a       606     0    25     1     6
  5.0892077047503492E-01 a       607     0    25     1     7
  5.8151069268218658E-01 a       608     0    25     1     8
  2.6979108526655760E-01 a       609     0    25     1     9
  1.0227454483048380E-01 a       610     0    25     1    10
 -7.0429910938027518E-01 a       611     0    25     1    11
  2.7532979233353783E-01 a       612     0    25     1    12
  2.6782851200155661E-01 a       613     0    25     1    13
 -8.4698891692549960E-01 a       614     0    25     1    14
 -6.9415035938247605E-01 a       615     0    25     1    15
  4.2071747405726070E-02 a       616     0    25     1    16
 -5.1147372491543863E-01 a       617     0    25     1    17
 -3.0377457735384555E-01 a       618     0    25     1    18
  2.8607070723030596E-02 a       619     0    25     1    19
 -4.7517377475269917E-01 a       620     0    25     1    20
  1.9559167081669721E-01 a       621     0    25     1    21
  1.7819169913289885E+00 a       622     0    25     1    22
 -3.0779509139751693E-01 a       623     0    25     1    23
 -3.8321030107428894E-01 a       624     0    25     1    24
 -4.7961413138777237E-01 a       625     0    25     1    25
  8.3503073258775401E-02 a       626     0    26     1     1
  3.3247109696019039E-01 a       627     0    26     1     2
  4.4266133862518264E-02 a       628     0    26     1     3
 -3.3535355924905780E-01 a       629     0    26     1     4
 -3.9637097135671012E-01 a       630     0    26     1     5
  3.8195269373663021E-01 a       631     0    26     1     6
 -3.8720432528298315E-01 a       632     0    26     1     7
  1.7392031941618011E-01 a       633     0    26     1     8
 -1.3832847032423154E-01 a       634     0    26     1     9
  1.2413143871257358E-01 a       635     0    26     1    10
  2.4803569132740771E-01 a       636     0    26     1    11
 -2.0951397973396238E-01 a       637     0    26     1    12
 -8.8965651266894222E-02 a       638     0    26     1    13
  1.7418436273234836E-01 a       639     0    26     1    14
  3.4401316576638002E-01 a       640     0    26     1    15
 -3.4173061265922746E-03 a       641     0    26     1    16
  1.3667352580731482E-01 a       642     0    26     1    17
  1.5870212787790067E-01 a       643     0    26     1    18
 -5.1220646533018122E-01 a       644     0    26     1    19
  9.4933224613590689E-02 a       645     0    26     1    20
  1.7646563328394582E-01 a       646     0    26     1    21
 -3.6761294168711584E-01 a       647     0    26     1    22
  1.1042582034921088E-01 a       648     0    26     1    23
  2.2509647803206839E-02 a       649     0    26     1    24
  4.4770868785944495E-01 a       650     0    26     1    25
  7.7279571963219065E-02 a       651     0    27     1     1
 -9.5528037887553749E-02 a       652     0    27     1     2
 -2.8738521967365893E-01 a       653     0    27     1     3
  8.1615295826855269E-02 a       654     0    27     1     4
  2.8049602936315282E-01 a       655     0    27     1     5
 -1.6038547907702266E-01 a       656     0    27     1     6
 -1.3302055483572156E-01 a       657     0    27     1     7
  3.1699190284604156E-01 a       658     0    27     1     8
  5.1773385293130365E-02 a       659     0    27     1     9
  1.5714102729136380E-02 a       660     0    27     1    10
 -4.0358973756873195E-02 a       661     0    27     1    11
 -2.8148213249977374E-02 a       662     0    27     1    12
 -1.8104496611839630E-03 a       663     0    27     1    13
 -8.5806389605187078E-02 a       664     0    27     1    14
 -8.9177490759619518E-02 a       665     0    27     1    15
  1.4946812487541836E-01 a       666     0    27     1    16
  2.2570329412286849E-01 a       667     0    27     1    17
  8.3920094647044682E-02 a       668     0    27     1    18
  6.3668478083157856E-02 a       669     0    27     1    19
 -1.4798392926726539E-01 a       670     0    27     1    20
 -2.7972269522487819E-01 a       671     0    27     1    21
 -7.3313361826503956E-02 a       672     0    27     1    22
 -4.3439467325457108E-02 a       673     0    27     1    23
 -2.4479828038568262E-02 a       674     0    27     1    24
  9.1311813081356191E-02 a       675     0    27     1    25
  2.6499682521504603E-01 a       676     0    28     1     1
 -1.9881557016575271E-01 a       677     0    28     1     2
 -2.0666492924913682E-01 a       678     0    28     1     3
 -3.6602491513809832E-01 a       679     0    28     1     4
 -9.8237917214348089E-02 a       680     0    28     1     5
  2.5353727317770089E-03 a       681     0    28     1     6
 -6.8878281099732097E-02 a       682     0    28     1     7
  1.7435727058374809E-01 a       683     0    28     1     8
 -2.4811056321149558E-01 a       684     0    28     1     9
 -5.3326256897798336E-03 a       685     0    28     1    10
 -3.0787632076976434E-01 a       686     0    28     1    11
 -1.1772470675633610E-01 a       687     0    28     1    12
  2.0859525630284823E-01 a       688     0    28     1    13
  7.3058062195117124E-02 a       689     0    28     1    14
  1.0113021106681040E-01 a       690     0    28     1    15
 -1.6106038286262642E-01 a       691     0    28     1    16
  3.0901094949165531E-02 a       692     0    28     1    17
  2.9038745441202583E-02 a       693     0    28     1    18
 -2.3343658687412527E-01 a       694     0    28     1    19
 -3.0503704593828457E-01 a       695     0    28     1    20
  2.5893307273682165E-01 a       696     0    28     1    21
  2.2195001250337570E-01 a       697     0    28     1    22
  8.8827349275669140E-02 a       698     0    28     1    23
 -5.8762432893566287E-02 a       699     0    28     1    24
 -1.7761581870056634E-01 a       700     0    28     1    25
  2.0492199123102578E-01 a       701     0    29     1     1
 -8.2888095005474005E-02 a       702     0    29     1     2
 -9.2343557150576336E-02 a       703     0    29     1     3
 -1.7197295572506774E-01 a       704     0    29     1     4
  5.2164184991737472E-02 a       705     0    29     1     5
 -1.1425981216541586E-01 a       706     0    29     1     6
 -1.9663159448275955E-01 a       707     0    29     1     7
  1.3060945198633597E-01 a       708     0    29     1     8
 -7.2872341703263122E-02 a       709     0    29     1     9
  3.9106282596031527E-01 a       710     0    29     1    10
  3.7670370156984523E-01 a       711     0    29     1    11
 -2.9127121610064693E-01 a       712     0    29     1    12
  9.6383372354984689E-02 a       713     0    29     1    13
 -2.4132159644658260E-01 a       714     0    29     1    14
 -8.2032048731461457E-02 a       715     0    29     1    15
 -2.4782141621859169E-02 a       716     0    29     1    16
 -2.2845216546356406E-02 a       717     0    29     1    17
 -4.2106775111219313E-01 a       718     0    29     1    18
  4.8943666443912942E-01 a       719     0    29     1    19
  4.4151798134040099E-01 a       720     0    29     1    20
  1.6298685574978958E-01 a       721     0    29     1    21
 -1.8691210649164908E-01 a       722     0    29     1    22
  2.0775058291957343E-01 a       723     0    29     1    23
 -4.0472372584833877E-01 a       724     0    29     1    24
  3.1195577650714024E-01 a       725     0    29     1    25
  6.9449445352574770E-03 a       726     0    30     1     1
 -2.8012839430441050E-01 a       727     0    30     1     2
  1.8762777605153880E-01 a       728     0    30     1     3
  1.1007407290332784E-03 a       729     0    30     1     4
 -2.4042955105607619E-01 a       730     0    30     1     5
 -1.1968531317068895E-02 a       731     0    30     1     6
 -6.3376138324781361E-01 a       732     0    30     1     7
 -2.2911493763467741E-01 a       733     0    30     1     8
  9.8375886023254810E-02 a       734     0    30     1     9
 -1.6456535256416471E-01 a       735     0    30     1    10
 -7.0707292573571568E-03 a       736     0    30     1    11
  2.8012829163608854E-01 a       737     0    30     1    12
 -5.2600957435366857E-01 a       738     0    30     1    13
 -3.0704689820903353E-01 a       739     0    30     1    14
  3.9098643704612257E-01 a       740     0    30     1    15
  4.1698122592568060E-01 a       741     0    30     1    16
  1.3657842451500576E-01 a       742     0    30     1    17
  3.6520770302789579E-01 a       743     0    30     1    18
  3.7535171552104868E-02 a       744     0    30     1    19
 -2.0128623260620623E-01 a       745     0    30     1    20
 -2.7795172548193225E-01 a       746     0    30     1    21
  2.4458660765837409E-01 a       747     0    30     1    22
 -1.6208675542796033E-01 a       748     0    30     1    23
  4.5334149353331967E-03 a       749     0    30     1    24
 -1.9401442763273352E-01 a       750     0    30     1    25
 -5.7311176548949394E-01 a       751     0    31     1     1
  1.0544448658365588E+00 a       752     0    31     1     2
 -3.3899328638059800E-01 a       753     0    31     1     3
  3.8319380912056628E-01 a       754     0    31     1     4
  1.8645453736205414E-01 a       755     0    31     1     5
  6.5944373675554624E-01 a       756     0    31     1     6
 -1.7150292246285476E-01 a       757     0    31     1     7
  2.5954192981261787E-01 a       758     0    31     1     8
 -4.0036798358406128E-01 a       759     0    31     1     9
  5.0091254992059342E-01 a       760     0    31     1    10
 -7.0521554943149523E-01 a       761     0    31     1    11
 -2.6418893733573739E-01 a       762     0    31     1    12
  5.2416341296920921E-01 a       763     0    31     1    13
  1.0141691453198474E+00 a       764     0    31     1    14
 -4.7635284887598395E-01 a       765     0    31     1    15
 -5.0838888574797259E-01 a       766     0    31     1    16
 -1.4142810674324138E-01 a       767     0    31     1    17
 -1.6875553485587388E-01 a       768     0    31     1    18
 -3.6531517582205975E-01 a       769     0    31     1    19
 -5.0044948321608398E-02 a       770     0    31     1    20
 -1.0535708639776097E-01 a       771     0    31     1    21
 -1.2026395355330897E+00 a       772     0    31     1    22
  4.7718178829867514E-01 a       773     0    31     1    23
  1.5289014867116330E-01 a       774     0    31     1    24
 -6.6762609281930985E-01 a       775     0    31     1    25
 -1.3643633995252655E-01 a       776     0    32     1     1
 -8.1138093845627049E-02 a       777     0    32     1     2
  2.7381143760332222E-01 a       778     0    32     1     3
 -2.5965148929504200E-01 a       779     0    32     1     4
 -1.5961593149082903E-01 a       780     0    32     1     5
 -9.6431212109882244E-02 a       781     0    32     1     6
  1.4356540433135331E-01 a       782     0    32     1     7
 -3.7399170924680109E-01 a       783     0    32     1     8
  1.2536200716183055E-01 a       784     0    32     1     9
 -4.1363874058785310E-01 a       785     0    32     1    10
 -1.1147040320336545E-01 a       786     0    32     1    11
  1.5546074743315208E-01 a       787     0    32     1    12
 -1.4825139824524827E-01 a       788     0    32     1    13
 -2.4730261905104797E-01 a       789     0    32     1    14
  1.2768874056097290E-01 a       790     0    32     1    15
  1.1508387053381848E-01 a       791     0    32     1    16
  2.9491288573635427E-01 a       792     0    32     1    17
  1.8002986012719113E-02 a       793     0    32     1    18
  2.5963484928815661E-01 a       794     0    32     1    19
  3.1393041052861637E-01 a       795     0    32     1    20
 -6.2337570034752529E-02 a       796     0    32     1    21
  2.5733804480467387E-01 a       797     0    32     1    22
  4.9433278881378884E-02 a       798     0    32     1    23
 -4.4640886562389660E-02 a       799     0    32     1    24
  8.4189924110940742E-02 a       800     0    32     1    25
  1.1188215878696723E+00 b       801     1     1
  1.4156553056274137E+00 b       802     1     2
  1.6275516856563397E+00 b       803     1     3
  1.0821766639304207E+00 b       804     1     4
 -1.1220043195193212E+00 b       805     1     5
 -8.9974814928045677E-01 b       806     1     6
  1.4054201342994047E-01 b       807     1     7
  1.1990294259124210E+00 b       808     1     8
 -8.4379014599224011E-01 b       809     1     9
  1.6139380934680396E+00 b       810     1    10
 -5.1996046169069843E-01 b       811     1    11
 -2.2632317096322777E-01 b       812     1    12
  9.9719772504633139E-02 b       813     1    13
 -1.1235738007572091E+00 b       814     1    14
  1.1635040527125522E+00 b       815     1    15
 -9.2128051995505722E-02 b       816     1    16
 -1.5565827961928778E+00 b       817     1    17
 -3.3803256850339747E-02 b       818     1    18
 -1.2231735400851653E+00 b       819     1    19
  1.3322721981549861E+00 b       820     1    20
  4.9489482651551377E-02 b       821     1    21
  6.6405270835434393E-01 b       822     1    22
  1.0428266824402279E+00 b       823     1    23
  6.9253201294207634E-01 b       824     1    24
  7.3657041107371313E-01 b       825     1    25
 -3.5727572184343248E-01 a       826     1     1     2     1
 -7.9899103698713370E-01 a       827     1     1     2     2
 -3.1744290270283970E-01 a       828     1     1     2     3
  2.3762047222238331E-01 a       829     1     1     2     4
  3.6929689183140407E-01 a       830     1     1     2     5
 -7.7061780680226455E-02 a       831     1     1     2     6
  4.4968382442868726E-01 a       832     1     1     2     7
  3.8526918832376050E-01 a       833     1     1     2     8
  2.9463320176619395E-01 a       834     1     1     2     9
  8.0104750352539222E-02 a       835     1     1     2    10
  7.9090851269628226E-02 a       836     1     1     2    11
  2.1989185352480015E-01 a       837     1     1     2    12
 -1.0844939185815072E-01 a       838     1     1     2    13
 -3.3532141452334541E-01 a       839     1     1     2    14
  2.6343686266036492E-01 a       840     1     1     2    15
  3.2507899021587905E-01 a       841     1     1     2    16
 -1.2351210199683413E-01 a       842     1     1     2    17
 -2.3064633852151323E-01 a       843     1     1     2    18
  2.4029168517296759E-01 a       844     1     1     2    19
 -5.8464677898542772E-01 a       845     1     1     2    20
 -1.2688636747845883E-01 a       846     1     1     2    21
  3.5669723159310612E-01 a       847     1     1     2    22
  3.1126268474353302E-01 a       848     1     1     2    23
  2.2139324797667276E-01 a       849     1     1     2    24
  6.0275195044673102E-02 a       850     1     1     2    25
  5.2467792308501870E-01 a       851     1     2     2     1
  1.2572183535520637E-01 a       852     1     2     2     2
 -4.9926631778890618E-01 a       853     1     2     2     3
  3.1527236769154802E-02 a       854     1     2     2     4
  1.4990958341735069E-01 a       855     1     2     2     5
 -3.2716084837322384E-01 a       856     1     2     2     6
  2.4723013068556199E-01 a       857     1     2     2     7
 -2.1216311211186372E-02 a       858     1     2     2     8
  5.7954672635257121E-01 a       859     1     2     2     9
  3.5208964741412030E-01 a       860     1     2     2    10
  1.6595044044997551E-01 a       861     1     2     2    11
 -3.6288320961799958E-02 a       862     1     2     2    12
 -3.4669045877715327E-01 a       863     1     2     2    13
 -3.6615646674533861E-02 a       864     1     2     2    14
  6.7609679438455694E-01 a       865     1     2     2    15
  5.2084647882209845E-01 a       866     1     2     2    16
 -1.0168791694356701E-01 a       867     1     2     2    17
 -4.0809119844864128E-01 a       868     1     2     2    18
  6.7422477135039030E-02 a       869     1     2     2    19
  4.2432707474261389E-01 a       870     1     2     2    20
  4.5687817425371469E-01 a       871     1     2     2    21
  2.6735691772918480E-01 a       872     1     2     2    22
 -4.7149201182712930E-01 a       873     1     2     2    23
  5.6437340009334069E-01 a       874     1     2     2    24
 -1.4515992282738888E-01 a       875     1     2     2    25
 -9.7214350283420431E-02 a       876     1     3     2     1
 -2.5970755425883862E-01 a       877     1     3     2     2
 -4.2944905447229881E-01 a       878     1     3     2     3
  4.3716455817002085E-02 a       879     1     3     2     4
 -3.6637180064781574E-02 a       880     1     3     2     5
 -5.5725663981995577E-01 a       881     1     3     2     6
 -2.3179112166802071E-01 a       882     1     3     2     7
  3.2783381404963410E-02 a       883     1     3     2     8
 -8.2562854108142958E-02 a       884     1     3     2     9
  4.2939997623195877E-02 a       885     1     3     2    10
 -2.7508584412866210E-01 a       886     1     3     2    11
 -3.5971140535272317E-01 a       887     1     3     2    12
 -4.7682435223444430E-01 a       888     1     3     2    13
 -4.5615754741930425E-01 a       889     1     3     2    14
  7.1886610580277621E-03 a       890     1     3     2    15
  3.6242946353565085E-02 a       891     1     3     2    16
 -4.6603306673229578E-01 a       892     1     3     2    17
  1.0674835895620784E-01 a       893     1     3     2    18
 -2.4189494979392828E-01 a       894     1     3     2    19
  5.1003007691752908E-02 a       895     1     3     2    20
  1.3944998364430786E-01 a       896     1     3     2    21
  1.6198512387678909E-01 a       897     1     3     2    22
 -2.4257420021893200E-01 a       898     1     3     2    23
  6.9557525212235849E-02 a       899     1     3     2    24
  5.7542528336410226E-01 a       900     1     3     2    25
  3.2289086491043512E-01 a       901     1     4     2     1
  3.2572260202141590E-01 a       902     1     4     2     2
 -5.0209208422953407E-02 a       903     1     4     2     3
  4.2600350966681555E-01 a       904     1     4     2     4
 -3.4473847065073432E-01 a       905     1     4     2     5
  2.0396060147090339E-01 a       906     1     4     2     6
  1.8595446076590924E-01 a       907     1     4     2     7
 -6.1181901339019762E-01 a       908     1     4     2     8
 -4.1453591937500106E-01 a       909     1     4     2     9
 -5.6213846967097192E-01 a       910     1     4     2    10
  3.3202888489773008E-01 a       911     1     4     2    11
  1.4151986659665822E-01 a       912     1     4     2    12
 -4.2230055048194043E-01 a       913     1     4     2    13
 -4.0752884850573579E-01 a       914     1     4     2    14
  7.3930031080793476E-02 a       915     1     4     2    15
 -4.5382085745877121E-01 a       916     1     4     2    16
  4.6937967710175438E-01 a       917     1     4     2    17
 -5.6639163567952799E-01 a       918     1     4     2    18
 -1.1931216396814126E-01 a       919     1     4     2    19
 -6.7516781168574527E-02 a       920     1     4     2    20
 -3.3601019311825786E-01 a       921     1     4     2    21
  2.1748994126187518E-01 a       922     1     4     2    22
 -2.4482913319735747E-02 a       923     1     4     2    23
  2.2738611600251180E-01 a       924     1     4     2    24
  9.4075722627352906E-02 a       925     1     4     2    25
 -4.7380264508593189E-01 a       926     1     5     2     1
 -2.6520297787614683E-01 a       927     1     5     2     2
  2.6204107786652886E-01 a       928     1     5     2     3
  7.6578834655234865E-02 a       929     1     5     2     4
 -3.2024511245379472E-01 a       930     1     5     2     5
 -2.2782508151601075E-02 a       931     1     5     2     6
 -3.7806862864213431E-01 a       932     1     5     2     7
  2.3504124543675961E-01 a       933     1     5     2     8
  7.9248641109226411E-03 a       934     1     5     2     9
 -4.1156500269429425E-01 a       935     1     5     2    10
  1.4839354300232416E-01 a       936     1     5     2    11
  1.7969159907252227E-01 a       937     1     5     2    12
 -5.8988135836905464E-01 a       938     1     5     2    13
  4.5541751464269759E-01 a       939     1     5     2    14
  3.4907595508527722E-01 a       940     1     5     2    15
  3.2662384703602478E-02 a       941     1     5     2    16
 -4.7747018096709459E-03 a       942     1     5     2    17
  3.6359536428956502E-01 a       943     1     5     2    18
 -8.6832393631774377E-02 a       944     1     5     2    19
 -3.3295326674006021E-01 a       945     1     5     2    20
  1.3106282352176155E-01 a       946     1     5     2    21
 -1.5970162049286814E-02 a       947     1     5     2    22
 -5.4763390898146225E-01 a       948     1     5     2    23
 -2.9905663728142790E-01 a       949     1     5     2    24
  1.5840094198424069E-03 a       950     1     5     2    25
  1.2880612238253483E-01 a       951     1     6     2     1
 -1.6870301125775911E-01 a       952     1     6     2     2
  2.2619688818591194E-01 a       953     1     6     2     3
  4.6569932229092725E-01 a       954     1     6     2     4
 -4.3008260663084241E-01 a       955     1     6     2     5
 -6.9454223947866586E-02 a       956     1     6     2     6
  3.0552732002747474E-01 a       957     1     6     2     7
 -1.6092648980727295E-01 a       958     1     6     2     8
  6.8955740654559572E-01 a       959     1     6     2     9
  3.9249339932624661E-01 a       960     1     6     2    10
  3.0967145495092352E-01 a       961     1     6     2    11
 -3.7789039232468763E-01 a       962     1     6     2    12
 -4.4572082881755282E-01 a       963     1     6     2    13
  5.1030136808781990E-01 a       964     1     6     2    14
  6.6316124565690571E-01 a       965     1     6     2    15
  2.7495145558838008E-01 a       966     1     6     2    16
  6.9246345546567847E-02 a       967     1     6     2    17
  2.1925340733689036E-01 a       968     1     6     2    18
  1.5547313721190958E-01 a       969     1     6     2    19
  4.4041372819455921E-01 a       970     1     6     2    20
 -4.8175858674958877E-01 a       971     1     6     2    21
  9.1148482718012500E-02 a       972     1     6     2    22
  7.5675782599929492E-02 a       973     1     6     2    23
 -4.2219242764920695E-01 a       974     1     6     2    24
  4.4530721101659682E-01 a       975     1     6     2    25
 -2.9477872922661635E-01 a       976     1     7     2     1
  4.9027795088616810E-01 a       977     1     7     2     2
 -3.3714732041857870E-01 a       978     1     7     2     3
 -3.1788821507715442E-01 a       979     1     7     2     4
 -7.9019974523742292E-02 a       980     1     7     2     5
  2.5467573440052949E-01 a       981     1     7     2     6
 -3.6803698212862856E-01 a       982     1     7     2     7
  5.9879308189861480E-01 a       983     1     7     2     8
  2.3198745572615714E-01 a       984     1     7     2     9
 -6.6694813936947733E-02 a       985     1     7     2    10
 -4.4428357074262970E-01 a       986     1     7     2    11
  2.3972600282170303E-01 a       987     1     7     2    12
  2.9694442933944010E-01 a       988     1     7     2    13
 -2.0439232042514671E-01 a       989     1     7     2    14
 -3.0706812759527924E-01 a       990     1     7     2    15
 -3.1703970926621816E-01 a       991     1     7     2    16
  2.4569519401532502E-01 a       992     1     7     2    17
 -1.3009064169104745E-01 a       993     1     7     2    18
 -3.7805568266323714E-01 a       994     1     7     2    19
 -1.0870480186022308E-01 a       995     1     7     2    20
 -1.8786438087068535E-01 a       996     1     7     2    21
 -4.3454187085384055E-01 a       997     1     7     2    22
  3.7714785019505526E-01 a       998     1     7     2    23
 -6.3834008843786164E-02 a       999     1     7     2    24
 -5.5082039430501595E-01 a      1000     1     7     2    25
  2.5236546107579527E-01 a      1001     1     8     2     1
  5.0000153528996860E-01 a      1002     1     8     2     2
  4.4797039159011726E-01 a      1003     1     8     2     3
 -6.3992086405808779E-01 a      1004     1     8     2     4
  2.6771444607642622E-02 a      1005     1     8     2     5
  1.0002428891745869E+00 a      1006     1     8     2     6
  2.5374218027595260E-02 a      1007     1     8     2     7
 -2.0091021153746352E-01 a      1008     1     8     2     8
 -3.7111495695815655E-01 a      1009     1     8     2     9
  3.5875903462680692E-01 a      1010     1     8     2    10
  2.3134637963078744E-01 a      1011     1     8     2    11
 -1.0522600980526056E-01 a      1012     1     8     2    12
 -1.1128880906373891E-01 a      1013     1     8     2    13
 -3.8226476154597150E-01 a      1014     1     8     2    14
  2.0711827183946949E-01 a      1015     1     8     2    15
  4.1159977366611665E-02 a      1016     1     8     2    16
  3.7272216715534279E-01 a      1017     1     8     2    17
 -3.2318477229955900E-02 a      1018     1     8     2    18
 -3.2734417256707865E-01 a      1019     1     8     2    19
  1.8159094610840848E-01 a      1020     1     8     2    20
 -6.2844328694396678E-01 a      1021     1     8     2    21
  2.3137392744133459E-01 a      1022     1     8     2    22
 -3.1024950060849493E-01 a      1023     1     8     2    23
 -4.0461934804043870E-01 a      1024     1     8     2    24
 -4.4078759136144102E-01 a      1025     1     8     2    25
 -5.6324640450434538E-01 a      1026     1     9     2     1
 -3.5033479873429568E-01 a      1027     1     9     2     2
  2.2987755889101169E-01 a      1028     1     9     2     3
 -1.2487885376235598E-01 a      1029     1     9     2     4
  1.0847818777961141E-01 a      1030     1     9     2     5
 -6.1890975667375413E-02 a      1031     1     9     2     6
 -6.4090376208547584E-01 a      1032     1     9     2     7
  2.1088257147274858E-02 a      1033     1     9     2     8
  2.9348184073255029E-01 a      1034     1     9     2     9
 -5.6605986612995229E-01 a      1035     1     9     2    10
  4.1611631064453793E-03 a      1036     1     9     2    11
  3.2428186925075375E-01 a      1037     1     9     2    12
 -2.5966793127813970E-01 a      1038     1     9     2    13
 -1.2904852945622491E-01 a      1039     1     9     2    14
 -1.9632934388964501E-01 a      1040     1     9     2    15
  1.6347085293828154E-01 a      1041     1     9     2    16
 -7.3300840634620779E-02 a      1042     1     9     2    17
  1.5761104734650316E-01 a      1043     1     9     2    18
 -6.2523345765675461E-04 a      1044     1     9     2    19
  7.3207648289312177E-01 a      1045     1     9     2    20
  3.2800291542470106E-01 a      1046     1     9     2    21
 -2.9153267275387901E-01 a      1047     1     9     2    22
 -3.8136218451499511E-02 a      1048     1     9     2    23
 -6.0716163371682030E-01 a      1049     1     9     2    24
  1.0612204290288261E+00 a      1050     1     9     2    25
  6.6595766982327886E-01 a      1051     1    10     2     1
 -1.1472667063044986E-01 a      1052     1    10     2     2
  4.5177123273854319E-01 a      1053     1    10     2     3
 -3.7988977677841806E-01 a      1054     1    10     2     4
  5.0976384979375333E-01 a      1055     1    10     2     5
  3.5825103191284985E-01 a      1056     1    10     2     6
 -3.0509723561899077E-01 a      1057     1    10     2     7
  5.4365144388745235E-02 a      1058     1    10     2     8
  1.2993171124001066E-01 a      1059     1    10     2     9
 -9.6681165674337849E-02 a      1060     1    10     2    10
 -2.4252165618747254E-01 a      1061     1    10     2    11
 -4.4394680544952608E-01 a      1062     1    10     2    12
 -3.9997727967038849E-01 a      1063     1    10     2    13
 -7.7965110682624836E-02 a      1064     1    10     2    14
 -3.9540099406844428E-02 a      1065     1    10     2    15
 -3.8769764185840727E-01 a      1066     1    10     2    16
 -1.9299435933947653E-01 a      1067     1    10     2    17
  5.0184674465733647E-01 a      1068     1    10     2    18
 -3.6998780666618364E-01 a      1069     1    10     2    19
 -6.2943246434815237E-01 a      1070     1    10     2    20
  3.1477753540064868E-01 a      1071     1    10     2    21
  3.7685000609785335E-01 a      1072     1    10     2    22
  4.1785001802563199E-01 a      1073     1    10     2    23
 -2.6369175008426488E-01 a      1074     1    10     2    24
  5.3137897131561829E-01 a      1075     1    10     2    25
  1.3964893331824640E-01 a      1076     1    11     2     1
  2.4416531976821915E-01 a      1077     1    11     2     2
  3.4954552303858855E-01 a      1078     1    11     2     3
  2.9287283731143282E-01 a      1079     1    11     2     4
 -2.9687057104762388E-01 a      1080     1    11     2     5
  1.7905948823992088E-01 a      1081     1    11     2     6
  2.3148999414757263E-01 a      1082     1    11     2     7
  4.4486839422398927E-01 a      1083     1    11     2     8
 -3.9558942537543706E-01 a      1084     1    11     2     9
 -4.8628155368192577E-01 a      1085     1    11     2    10
  2.2321130749804080E-01 a      1086     1    11     2    11
 -2.6102156834371035E-02 a      1087     1    11     2    12
 -1.7474504876634864E-01 a      1088     1    11     2    13
 -4.2916437619522196E-01 a      1089     1    11     2    14
 -5.0170313603830265E-02 a      1090     1    11     2    15
  1.8204957918454945E-02 a      1091     1    11     2    16
 -3.0446369386526501E-01 a      1092     1    11     2    17
  1.1760437527102872E-01 a      1093     1    11     2    18
  1.5959013689705282E-03 a      1094     1    11     2    19
  3.1219827257437488E-01 a      1095     1    11     2    20
  2.1036469553517642E-01 a      1096     1    11     2    21
 -2.5983977985331558E-01 a      1097     1    11     2    22
 -7.0862076030380061E-01 a      1098     1    11     2    23
 -2.3115441157396852E-01 a      1099     1    11     2    24
  1.7641608920690066E-01 a      1100     1    11     2    25
  1.4245772016958563E-01 a      1101     1    12     2     1
 -3.9361341798228477E-01 a      1102     1    12     2     2
  4.9706896777036191E-01 a      1103     1    12     2     3
 -2.9456693164989367E-01 a      1104     1    12     2     4
  3.0542481438173807E-01 a      1105     1    12     2     5
 -3.0586937502838035E-01 a      1106     1    12     2     6
 -5.6314622520979896E-01 a      1107     1    12     2     7
 -1.5313359956125472E-01 a      1108     1    12     2     8
  8.3167250667227771E-02 a      1109     1    12     2     9
 -2.3507977431864979E-01 a      1110     1    12     2    10
 -2.1233667299709100E-01 a      1111     1    12     2    11
  9.7415611155864876E-02 a      1112     1    12     2    12
 -1.9863632770920600E-01 a      1113     1    12     2    13
  2.6082313030305226E-01 a      1114     1    12     2    14
  4.9135732236613265E-02 a      1115     1    12     2    15
  3.1212037817267813E-01 a      1116     1    12     2    16
  1.7686187906736628E-01 a      1117     1    12     2    17
 -2.9056678839225941E-01 a      1118     1    12     2    18
  3.2949552520091729E-01 a      1119     1    12     2    19
 -2.9843958036013585E-01 a      1120     1    12     2    20
 -1.6726766606047205E-01 a      1121     1    12     2    21
  4.4592852102732899E-01 a      1122     1    12     2    22
  3.4778306482295096E-01 a      1123     1    12     2    23
 -3.8246400387222379E-01 a      1124     1    12     2    24
 -2.9081024447094367E-01 a      1125     1    12     2    25
  1.4726908091579840E-02 a      1126     1    13     2     1
  2.6750612548760938E-01 a      1127     1    13     2     2
  2.8793742326547639E-01 a      1128     1    13     2     3
  2.0474782367657554E-01 a      1129     1    13     2     4
 -1.2245235174384139E-01 a      1130     1    13     2     5
 -3.6737224129807833E-01 a      1131     1    13     2     6
  4.2468880748592147E-01 a      1132     1    13     2     7
 -2.8123434911872780E-01 a      1133     1    13     2     8
  4.2049358637449269E-01 a      1134     1    13     2     9
  4.9230250360787697E-01 a      1135     1    13     2    10
 -5.4968930780647440E-01 a      1136     1    13     2    11
  6.0805035600453673E-02 a      1137     1    13     2    12
 -1.4533170982527724E-01 a      1138     1    13     2    13
 -3.0932693771595049E-01 a      1139     1    13     2    14
  1.8003592182515066E-01 a      1140     1    13     2    15
 -1.4663672727617910E-01 a      1141     1    13     2    16
 -3.2830129165945182E-01 a      1142     1    13     2    17
  1.9297826275364177E-01 a      1143     1    13     2    18
  3.4278587137106159E-01 a      1144     1    13     2    19
  1.2567995347260333E-01 a      1145     1    13     2    20
  3.2470533631479437E-01 a      1146     1    13     2    21
  5.1084094791709922E-01 a      1147     1    13     2    22
  3.8696211776569905E-01 a      1148     1    13     2    23
  2.5543358455067178E-01 a      1149     1    13     2    24
 -8.5715855141564073E-02 a      1150     1    13     2    25
  6.9197451334269178E-01 a      1151     1    14     2     1
 -3.7170344506590243E-02 a      1152     1    14     2     2
  1.0393063618914618E-01 a      1153     1    14     2     3
  1.0548983869021242E-01 a      1154     1    14     2     4
  3.6474335926009316E-01 a      1155     1    14     2     5
  5.3608781543312396E-02 a      1156     1    14     2     6
  5.6103883655044218E-01 a      1157     1    14     2     7
  3.9510631134844942E-01 a      1158     1    14     2     8
  8.8379125791697821E-02 a      1159     1    14     2     9
 -4.7694520257190576E-01 a      1160     1    14     2    10
  2.9837963139723703E-02 a      1161     1    14     2    11
 -3.0679081462335328E-01 a      1162     1    14     2    12
 -4.7500593443546929E-02 a      1163     1    14     2    13
  4.5392461578474519E-01 a      1164     1    14     2    14
  5.9823649300005610E-01 a      1165     1    14     2    15
 -2.6841500023309905E-01 a      1166     1    14     2    16
  4.9258128500192046E-02 a      1167     1    14     2    17
 -4.4700027726828145E-01 a      1168     1    14     2    18
  7.4994810647655652E-01 a      1169     1    14     2    19
 -2.6761210469370400E-01 a      1170     1    14     2    20
 -4.4275873206257566E-01 a      1171     1    14     2    21
  2.4116173267738522E-01 a      1172     1    14     2    22
 -5.6151680490423683E-01 a      1173     1    14     2    23
  5.9852917734557820E-01 a      1174     1    14     2    24
  4.1936792731598799E-01 a      1175     1    14     2    25
  7.7020268401577482E-02 a      1176     1    15     2     1
  2.3688967869565120E-01 a      1177     1    15     2     2
 -7.3051905940292750E-01 a      1178     1    15     2     3
 -1.9988897289927460E-01 a      1179     1    15     2     4
  1.4960507368562196E-02 a      1180     1    15     2     5
  4.0478486511143241E-01 a      1181     1    15     2     6
 -2.1656631147353136E-01 a      1182     1    15     2     7
 -3.0074067558587186E-01 a      1183     1    15     2     8
 -3.1017168514427013E-01 a      1184     1    15     2     9
 -4.7811407995477889E-01 a      1185     1    15     2    10
 -2.4700728042270861E-01 a      1186     1    15     2    11
  4.0965754345419041E-02 a      1187     1    15     2    12
 -3.7832630614439444E-01 a      1188     1    15     2    13
 -3.0929648701006696E-01 a      1189     1    15     2    14
  1.0627196925699139E-01 a      1190     1    15     2    15
 -3.2535889909801835E-01 a      1191     1    15     2    16
 -7.3138025135061246E-01 a      1192     1    15     2    17
 -3.9066617778407814E-01 a      1193     1    15     2    18
 -1.3717749318726544E-01 a      1194     1    15     2    19
  3.5907103348690551E-02 a      1195     1    15     2    20
  3.8828930573186293E-01 a      1196     1    15     2    21
  4.1832738441001421E-01 a      1197     1    15     2    22
  4.1102638176626616E-01 a      1198     1    15     2    23
  3.8745821262105640E-01 a      1199     1    15     2    24
  5.9662361266908126E-01 a      1200     1    15     2    25
  5.3467971959156380E-01 a      1201     1    16     2     1
  2.5213448099314684E-01 a      1202     1    16     2     2
 -8.1641001673125269E-02 a      1203     1    16     2     3
 -2.3211025620534700E-02 a      1204     1    16     2     4
  3.3074197686790630E-01 a      1205     1    16     2     5
 -2.9297474055383760E-01 a      1206     1    16     2     6
 -3.2300740843283750E-02 a      1207     1    16     2     7
  4.4811696748977098E-01 a      1208     1    16     2     8
  4.2598551907208310E-01 a      1209     1    16     2     9
 -2.5916056959048822E-01 a      1210     1    16     2    10
 -5.3485249654591493E-01 a      1211     1    16     2    11
 -2.3307531508767670E-01 a      1212     1    16     2    12
 -5.2424522093779635E-01 a      1213     1    16     2    13
 -2.3801822006185441E-01 a      1214     1    16     2    14
 -3.0586953006707057E-01 a      1215     1    16     2    15
 -1.8097769079453968E-01 a      1216     1    16     2    16
  3.4982539034104843E-01 a      1217     1    16     2    17
 -6.6695329642557444E-01 a      1218     1    16     2    18
  5.2461041097129790E-01 a      1219     1    16     2    19
  2.8860831856096880E-01 a      1220     1    16     2    20
  1.4087238969398666E-01 a      1221     1    16     2    21
 -1.3221851945023647E-01 a      1222     1    16     2    22
  1.2591010550602055E-01 a      1223     1    16     2    23
  1.8892485528098721E-01 a      1224     1    16     2    24
 -5.9074315544067280E-01 a      1225     1    16     2    25
 -6.7551978490445905E-02 a      1226     1    17     2     1
 -3.2178262070921178E-02 a      1227     1    17     2     2
 -3.1701480439856836E-02 a      1228     1    17     2     3
  4.2461119162331823E-01 a      1229     1    17     2     4
 -5.5988275501287099E-01 a      1230     1    17     2     5
 -7.8015840914653478E-01 a      1231     1    17     2     6
 -6.1639267026061588E-02 a      1232     1    17     2     7
 -9.8688768157635082E-02 a      1233     1    17     2     8
  3.6900194829860039E-01 a      1234     1    17     2     9
  9.2951299442593421E-02 a      1235     1    17     2    10
  2.8037353756958239E-01 a      1236     1    17     2    11
  3.7028515090966146E-01 a      1237     1    17     2    12
 -1.7221649383280158E-01 a      1238     1    17     2    13
  6.5793875540991989E-02 a      1239     1    17     2    14
 -6.1619408522393793E-01 a      1240     1    17     2    15
 -8.4120989977358829E-01 a      1241     1    17     2    16
 -4.9261651998295952E-01 a      1242     1    17     2    17
  5.8907692096814879E-01 a      1243     1    17     2    18
  2.3502104994701944E-01 a      1244     1    17     2    19
  1.8540488645833561E-01 a      1245     1    17     2    20
 -7.6673585339376835E-02 a      1246     1    17     2    21
 -4.3285096900049291E-01 a      1247     1    17     2    22
 -2.8565291433233703E-01 a      1248     1    17     2    23
 -1.4679629752720286E-01 a      1249     1    17     2    24
  5.1817610861616259E-01 a      1250     1    17     2    25
 -3.1046516770357185E-01 a      1251     1    18     2     1
  1.3114143681081653E-01 a      1252     1    18     2     2
 -4.8545532153844995E-01 a      1253     1    18     2     3
 -4.7081502513660084E-01 a      1254     1    18     2     4
  3.0386694496698929E-01 a      1255     1    18     2     5
 -6.6215157098554078E-01 a      1256     1    18     2     6
  1.5567438157437666E-01 a      1257     1    18     2     7
 -4.1258366385646658E-02 a      1258     1    18     2     8
 -2.4426069464707359E-01 a      1259     1    18     2     9
 -5.0179533199908655E-01 a      1260     1    18     2    10
 -1.2582753296856106E-01 a      1261     1    18     2    11
 -1.1310960221993975E-01 a      1262     1    18     2    12
  4.7158683942791896E-01 a      1263     1    18     2    13
  2.9016194376837257E-01 a      1264     1    18     2    14
 -1.4847460043110178E-01 a      1265     1    18     2    15
  8.0976528003398407E-01 a      1266     1    18     2    16
  6.0837344211434763E-01 a      1267     1    18     2    17
  4.5856594162340947E-01 a      1268     1    18     2    18
 -4.8580029134672065E-03 a      1269     1    18     2    19
 -5.4550431793242460E-01 a      1270     1    18     2    20
  4.4773944785719766E-01 a      1271     1    18     2    21
 -3.7272363559173949E-01 a      1272     1    18     2    22
  4.5647218862039546E-01 a      1273     1    18     2    23
 -1.9388560325607607E-01 a      1274     1    18     2    24
  3.6039650908025722E-01 a      1275     1    18     2    25
 -1.8767484121617405E-02 a      1276     1    19     2     1
  1.8687305969508343E-02 a      1277     1    19     2     2
  9.9973249856869617E-02 a      1278     1    19     2     3
 -1.8133273105103351E-01 a      1279     1    19     2     4
  5.0188235395928937E-01 a      1280     1    19     2     5
  2.4701992153408559E-02 a      1281     1    19     2     6
  3.1633594799353082E-01 a      1282     1    19     2     7
 -2.6998196866950458E-01 a      1283     1    19     2     8
 -1.3530563392588144E-01 a      1284     1    19     2     9
  3.5742725562285128E-03 a      1285     1    19     2    10
  2.4127058959913969E-01 a      1286     1    19     2    11
  9.2916399115907655E-02 a      1287     1    19     2    12
 -1.3998234598097983E-01 a      1288     1    19     2    13
 -3.0871587849984644E-01 a      1289     1    19     2    14
 -5.0278093538255453E-01 a      1290     1    19     2    15
 -1.6682456602170306E-01 a      1291     1    19     2    16
  1.9612887255611619E-01 a      1292     1    19     2    17
  5.3208567822280117E-01 a      1293     1    19     2    18
  3.8761991708670235E-01 a      1294     1    19     2    19
  8.8403473726109502E-02 a      1295     1    19     2    20
 -6.0771681855745852E-01 a      1296     1    19     2    21
  8.1178110335179909E-01 a      1297     1    19     2    22
 -4.7383848365864339E-01 a      1298     1    19     2    23
 -2.8221100692074282E-02 a      1299     1    19     2    24
  2.4360889815633216E-01 a      1300     1    19     2    25
 -4.0140542073108798E-01 a      1301     1    20     2     1
 -3.7898742317066703E-01 a      1302     1    20     2     2
 -4.6429378079054939E-01 a      1303     1    20     2     3
  4.3367973327231102E-01 a      1304     1    20     2     4
  2.9037978242759965E-01 a      1305     1    20     2     5
  7.9280650708810352E-03 a      1306     1    20     2     6
  2.4707266226929436E-01 a      1307     1    20     2     7
 -4.8895928227521629E-01 a      1308     1    20     2     8
  5.4393866322557716E-01 a      1309     1    20     2     9
  8.5480756993393858E-02 a      1310     1    20     2    10
 -1.2755881193968238E-01 a      1311     1    20     2    11
  2.0088529713524902E-01 a      1312     1    20     2    12
  2.3331895585085628E-02 a      1313     1    20     2    13
 -2.4081169148345710E-01 a      1314     1    20     2    14
  6.4329284842165269E-01 a      1315     1    20     2    15
  3.1491872299050189E-01 a      1316     1    20     2    16
 -1.8158063855892394E-02 a      1317     1    20     2    17
  4.8576453987401713E-01 a      1318     1    20     2    18
  3.3040072568338014E-01 a      1319     1    20     2    19
 -4.5761726028400379E-01 a      1320     1    20     2    20
  3.4706615702118214E-02 a      1321     1    20     2    21
  1.6478739241346704E-01 a      1322     1    20     2    22
  3.9601214690769609E-01 a      1323     1    20     2    23
  5.0954917584662995E-01 a      1324     1    20     2    24
  4.6510721544430964E-02 a      1325     1    20     2    25
  2.2404104567467073E-01 a      1326     1    21     2     1
 -2.3333670322346195E-01 a      1327     1    21     2     2
  3.6754215891508603E-02 a      1328     1    21     2     3
  4.2297202706106324E-01 a      1329     1    21     2     4
  1.1854971805207953E-01 a      1330     1    21     2     5
 -1.3790602559919138E-01 a      1331     1    21     2     6
 -3.7711550534552962E-01 a      1332     1    21     2     7
 -4.1282028060631903E-01 a      1333     1    21     2     8
 -2.4574874484756479E-01 a      1334     1    21     2     9
 -1.2356901626508317E-01 a      1335     1    21     2    10
 -1.8865236627548862E-01 a      1336     1    21     2    11
 -1.8736816097203662E-01 a      1337     1    21     2    12
 -1.8480289464810612E-01 a      1338     1    21     2    13
 -1.7614440080181884E-01 a      1339     1    21     2    14
 -6.6255731060813339E-02 a      1340     1    21     2    15
 -2.0998607878287801E-01 a      1341     1    21     2    16
 -6.4792552303677437E-03 a      1342     1    21     2    17
 -2.5155839538079267E-01 a      1343     1    21     2    18
  1.9212062380025963E-01 a      1344     1    21     2    19
 -1.3757225141477503E-01 a      1345     1    21     2    20
  1.0673490785388595E-01 a      1346     1    21     2    21
  2.4161554248800243E-01 a      1347     1    21     2    22
 -3.8150425753619338E-01 a      1348     1    21     2    23
  1.5068952317977569E-01 a      1349     1    21     2    24
 -1.1895220674268057E-01 a      1350     1    21     2    25
 -2.5998902732069085E-01 a      1351     1    22     2     1
  1.5501605601651727E-01 a      1352     1    22     2     2
  2.9219630981668254E-01 a      1353     1    22     2     3
  2.3763223861399468E-01 a      1354     1    22     2     4
  8.4914995453970776E-01 a      1355     1    22     2     5
  5.8821821259024143E-01 a      1356     1    22     2     6
  2.5966872454786716E-01 a      1357     1    22     2     7
  5.7895167168037109E-01 a      1358     1    22     2     8
 -1.7435110797128989E-01 a      1359     1    22     2     9
  1.0128678375906979E+00 a      1360     1    22     2    10
 -6.2934010625886239E-01 a      1361     1    22     2    11
 -9.3576540049346915E-02 a      1362     1    22     2    12
 -1.6325147576035165E-01 a      1363     1    22     2    13
  4.7916718479472536E-01 a      1364     1    22     2    14
 -5.0463648057336374E-01 a      1365     1    22     2    15
  2.3842261675957047E-01 a      1366     1    22     2    16
  6.6389140580753125E-01 a      1367     1    22     2    17
 -9.1110351840240833E-01 a      1368     1    22     2    18
  1.7316898260725661E-01 a      1369     1    22     2    19
 -3.2203297129532321E-02 a      1370     1    22     2    20
 -7.4489123583386352E-01 a      1371     1    22     2    21
  2.4270429904721169E-01 a      1372     1    22     2    22
  3.3162301494373125E-01 a      1373     1    22     2    23
 -3.1509570408165188E-01 a      1374     1    22     2    24
 -1.8685246180145114E+00 a      1375     1    22     2    25
 -3.0258694619811322E-01 a      1376     1    23     2     1
 -5.7326900744332270E-02 a      1377     1    23     2     2
  1.7338562036792846E-01 a      1378     1    23     2     3
  1.6961296497023448E-01 a      1379     1    23     2     4
  3.1782226533927183E-01 a      1380     1    23     2     5
 -5.7206443155291020E-01 a      1381     1    23     2     6
 -4.5943723882647430E-01 a      1382     1    23     2     7
 -3.0085929371590237E-01 a      1383     1    23     2     8
  5.7329686983733801E-02 a      1384     1    23     2     9
 -7.1544489095038244E-01 a      1385     1    23     2    10
  6.7462031834627856E-01 a      1386     1    23     2    11
 -2.5812150481791879E-01 a      1387     1    23     2    12
 -5.0901502736907828E-02 a      1388     1    23     2    13
 -1.2561742350895619E-01 a      1389     1    23     2    14
 -1.3120036201763674E-01 a      1390     1    23     2    15
  4.5946173733476831E-01 a      1391     1    23     2    16
  4.7063451992429800E-01 a      1392     1    23     2    17
  6.1562937175934940E-01 a      1393     1    23     2    18
 -3.8734992925731299E-01 a      1394     1    23     2    19
 -6.3534719019369978E-01 a      1395     1    23     2    20
  3.3634803353740728E-01 a      1396     1    23     2    21
 -1.9755299444137964E-01 a      1397     1    23     2    22
  1.9940541148897167E-01 a      1398     1    23     2    23
  2.3921304176517694E-01 a      1399     1    23     2    24
  4.5783605094420593E-01 a      1400     1    23     2    25
  8.2700352938542099E-01 a      1401     1    24     2     1
 -3.5883932694465609E-01 a      1402     1    24     2     2
 -1.3117015936066542E-01 a      1403     1    24     2     3
 -5.5744322850902528E-01 a      1404     1    24     2     4
  2.9881937090903332E-01 a      1405     1    24     2     5
 -3.2395834433529602E-01 a      1406     1    24     2     6
  3.9794306968344767E-01 a      1407     1    24     2     7
  6.4689539672775076E-02 a      1408     1    24     2     8
 -3.4563938374777181E-01 a      1409     1    24     2     9
 -5.9338431961709973E-02 a      1410     1    24     2    10
 -4.9701047469479162E-02 a      1411     1    24     2    11
  2.6513063714208207E-01 a      1412     1    24     2    12
 -1.8107600782195449E-01 a      1413     1    24     2    13
 -1.8332588515390674E-01 a      1414     1    24     2    14
 -5.5355275408635318E-01 a      1415     1    24     2    15
  4.6233051901382893E-01 a      1416     1    24     2    16
  4.9807595244677622E-01 a      1417     1    24     2    17
 -1.2760590929086035E-01 a      1418     1    24     2    18
  6.5307616738226049E-01 a      1419     1    24     2    19
  2.2825462174325398E-01 a      1420     1    24     2    20
  5.4523559607717542E-01 a      1421     1    24     2    21
  3.4425872834801391E-01 a      1422     1    24     2    22
 -2.1436167585495591E-01 a      1423     1    24     2    23
 -1.6812418522556920E-02 a      1424     1    24     2    24
  4.1001029704045433E-01 a      1425     1    24     2    25
 -3.8611132923983288E-01 a      1426     1    25     2     1
 -4.8342690790968063E-01 a      1427     1    25     2     2
 -4.1378344104821702E-01 a      1428     1    25     2     3
 -2.2378921617323516E-01 a      1429     1    25     2     4
  2.7483552210295019E-02 a      1430     1    25     2     5
 -7.7866725961324060E-02 a      1431     1    25     2     6
  2.6967624533004325E-01 a      1432     1    25     2     7
  7.3041066561579424E-02 a      1433     1    25     2     8
 -1.8463706834692353E-01 a      1434     1    25     2     9
  1.5221519846570689E-01 a      1435     1    25     2    10
  4.5724320081756875E-01 a      1436     1    25     2    11
 -2.2209588375621567E-01 a      1437     1    25     2    12
  1.8803996626993044E-01 a      1438     1    25     2    13
 -5.9702540398244164E-01 a      1439     1    25     2    14
  1.1562966632023612E+00 a      1440     1    25     2    15
 -2.1142716475666835E-02 a      1441     1    25     2    16
 -4.1534692320522520E-01 a      1442     1    25     2    17
  9.7811107413063897E-02 a      1443     1    25     2    18
  4.9634955852866036E-01 a      1444     1    25     2    19
 -2.0958516725703868E-01 a      1445     1    25     2    20
 -8.4907351646781148E-02 a      1446     1    25     2    21
 -3.5090308111749685E-01 a      1447     1    25     2    22
  5.8090210876183057E-01 a      1448     1    25     2    23
 -9.0432104543648084E-01 a      1449     1    25     2    24
 -1.0596896406554061E-01 a      1450     1    25     2    25
  3.0594564084893239E-01 b      1451     2     1
 -1.1225768615922769E+00 b      1452     2     2
  3.7867363342701556E-02 b      1453     2     3
  6.3832004664367703E-01 b      1454     2     4
 -2.3102766838384084E-01 b      1455     2     5
  8.6203568926514818E-01 b      1456     2     6
  1.1735615117745670E+00 b      1457     2     7
 -1.7070874112752230E+00 b      1458     2     8
  6.0629915768547982E-01 b      1459     2     9
  1.1147891401934091E+00 b      1460     2    10
  1.1974189818142509E+00 b      1461     2    11
 -1.1381226894927465E+00 b      1462     2    12
 -1.0906556075579392E+00 b      1463     2    13
 -9.0951425252609897E-01 b      1464     2    14
  7.2264156002538105E-01 b      1465     2    15
  5.0441522704826003E-01 b      1466     2    16
  8.5389677639166350E-01 b      1467     2    17
  1.0229869060290893E+00 b      1468     2    18
  7.8863728809196476E-01 b      1469     2    19
 -6.7175449093762191E-02 b      1470     2    20
  6.8394737191782584E-01 b      1471     2    21
 -6.4425857287330812E-01 b      1472     2    22
 -5.0751911696834251E-01 b      1473     2    23
  9.1084699843468975E-01 b      1474     2    24
 -6.2190687617097795E-01 b      1475     2    25
 -1.4416756411006335E-01 a      1476     2     1     3     1
  3.2712895114710638E-01 a      1477     2     2     3     1
 -2.6016504524329770E-01 a      1478     2     3     3     1
  1.5824467143144175E-02 a      1479     2     4     3     1
 -7.6630937119865394E-01 a      1480     2     5     3     1
  3.6766141871604202E-01 a      1481     2     6     3     1
 -2.5876835201823145E-01 a      1482     2     7     3     1
  2.0972476143862095E-01 a      1483     2     8     3     1
  3.7793593644460510E-03 a      1484     2     9     3     1
  3.7452448234219532E-01 a      1485     2    10     3     1
  1.0058124758222030E-01 a      1486     2    11     3     1
 -9.5042277064827518E-01 a      1487     2    12     3     1
  8.7434520658925519E-01 a      1488     2    13     3     1
  3.5353368881521374E-01 a      1489     2    14     3     1
 -9.2036869244119601E-01 a      1490     2    15     3     1
  8.1402222875482855E-01 a      1491     2    16     3     1
 -1.0276027762905725E-01 a      1492     2    17     3     1
 -1.2375580894477575E-01 a      1493     2    18     3     1
  2.7402502027216896E-01 a      1494     2    19     3     1
 -1.0070158789950172E+00 a      1495     2    20     3     1
 -1.4206074273071778E+00 a      1496     2    21     3     1
 -6.5091196312860963E-02 a      1497     2    22     3     1
 -4.1164266150626252E-02 a      1498     2    23     3     1
 -1.7582781730235980E-01 a      1499     2    24     3     1
  7.2468204355530319E-01 a      1500     2    25     3     1
  7.2833333586874560E-01 b      1501     3     1
