################################################################################
# Neural network connection values (weights and biases).
################################################################################
# Col  Name       Description
################################################################################
# 1    connection Neural network connection value.
# 2    t          Connection type (a = weight, b = bias).
# 3    index      Index enumerating weights.
# 4    l_s        Starting point layer (end point layer for biases).
# 5    n_s        Starting point neuron in starting layer (end point neuron for biases).
# 6    l_e        End point layer.
# 7    n_e        End point neuron in end layer.
################################################################################
#                      1 2         3     4     5     6     7
#             connection t     index   l_s   n_s   l_e   n_e
############################################################
  8.9617345330709211E-02 a         1     0     1     1     1
  3.0253946360102651E-01 a         2     0     1     1     2
  1.0392498856753432E-01 a         3     0     1     1     3
 -4.0719665690591972E-01 a         4     0     1     1     4
 -1.5741322949520059E-01 a         5     0     1     1     5
 -3.2826700190154978E-01 a         6     0     1     1     6
 -2.4651788893458271E-01 a         7     0     1     1     7
  4.5191695566711226E-01 a         8     0     1     1     8
 -8.0556619740801180E-02 a         9     0     1     1     9
  4.1225669140005361E-01 a        10     0     1     1    10
  1.5944221017312396E-02 a        11     0     1     1    11
 -1.2088760630458333E-01 a        12     0     1     1    12
  7.2221058019630593E-02 a        13     0     1     1    13
  2.0802804356337434E+00 a        14     0     1     1    14
 -6.5281347471371237E-02 a        15     0     1     1    15
  4.3954293266831773E-01 a        16     0     1     1    16
 -9.4706754287352160E-02 a        17     0     1     1    17
 -4.1837298263090267E-01 a        18     0     1     1    18
 -9.0720406057091738E-02 a        19     0     1     1    19
 -5.2293264470299516E-01 a        20     0     1     1    20
  1.4040533208735420E-01 a        21     0     1     1    21
  2.7046312427228769E-01 a        22     0     1     1    22
 -4.0410113899493816E-01 a        23     0     1     1    23
 -6.8949693709587437E-02 a        24     0     1     1    24
  4.9022962227624920E-03 a        25     0     1     1    25
 -1.3618969107884912E-01 a        26     0     2     1     1
 -3.5495598414711338E-01 a        27     0     2     1     2
 -5.8524860345253271E-01 a        28     0     2     1     3
 -6.5279769539623522E-01 a        29     0     2     1     4
  1.8885899180976556E-01 a        30     0     2     1     5
  4.1332427095390845E-01 a        31     0     2     1     6
 -2.4132416143463020E-01 a        32     0     2     1     7
 -2.1203775058691016E-01 a        33     0     2     1     8
 -1.6388853597185213E-01 a        34     0     2     1     9
  1.4194825407234077E-01 a        35     0     2     1    10
  2.2939232992727349E-01 a        36     0     2     1    11
  1.2849553087863794E-01 a        37     0     2     1    12
  4.4406664931473738E-01 a        38     0     2     1    13
 -4.2361827687908515E-01 a        39     0     2     1    14
  2.4091994696373958E-01 a        40     0     2     1    15
 -4.3892515894684503E-01 a        41     0     2     1    16
  3.6732538553673333E-01 a        42     0     2     1    17
  1.0969674543173609E-01 a        43     0     2     1    18
  3.6368556032790871E-02 a        44     0     2     1    19
 -1.2658853119434699E-01 a        45     0     2     1    20
  3.8500479845395558E-01 a        46     0     2     1    21
  3.1174921758720764E-01 a        47     0     2     1    22
 -2.2552229171499766E-01 a        48     0     2     1    23
 -3.1208129659053091E-01 a        49     0     2     1    24
  1.7139885108237585E-01 a        50     0     2     1    25
  5.2752904334297712E-01 a        51     0     3     1     1
 -1.0653836733378880E-01 a        52     0     3     1     2
 -1.9712973960952027E-01 a        53     0     3     1     3
  2.2816057029190753E-01 a        54     0     3     1     4
 -3.3467718181647915E-01 a        55     0     3     1     5
  8.0254599251896241E-01 a        56     0     3     1     6
  9.3883021403280809E-02 a        57     0     3     1     7
 -4.4625866054972513E-01 a        58     0     3     1     8
  3.4272506904061756E-01 a        59     0     3     1     9
  5.7288158616226181E-01 a        60     0     3     1    10
  2.9426424749997615E-01 a        61     0     3     1    11
 -1.3541834360700948E+00 a        62     0     3     1    12
 -8.7873925426085131E-02 a        63     0     3     1    13
 -5.8173550148767494E-01 a        64     0     3     1    14
  8.2854961930828221E-03 a        65     0     3     1    15
  7.6941287999665806E-03 a        66     0     3     1    16
  4.8433740305853334E-01 a        67     0     3     1    17
  5.1198739593226565E-02 a        68     0     3     1    18
  3.7008514831412059E-01 a        69     0     3     1    19
  1.8071735879980035E-02 a        70     0     3     1    20
 -4.4926450248656796E-01 a        71     0     3     1    21
 -3.6114488087363839E-01 a        72     0     3     1    22
 -2.0642406994564630E-01 a        73     0     3     1    23
 -7.5572064455397669E-01 a        74     0     3     1    24
  1.2844436225057893E-02 a        75     0     3     1    25
 -8.5557898719349462E-02 a        76     0     4     1     1
  3.1258242522265522E-01 a        77     0     4     1     2
  8.5601635745941462E-01 a        78     0     4     1     3
  1.6490772383746638E-01 a        79     0     4     1     4
  1.4317592470390154E-02 a        80     0     4     1     5
 -4.6653829634802579E-01 a        81     0     4     1     6
  1.7322850425307562E-01 a        82     0     4     1     7
 -2.1418886379782393E-01 a        83     0     4     1     8
  3.3157384492492475E-01 a        84     0     4     1     9
  4.4555758155435449E-01 a        85     0     4     1    10
 -3.2596651407159771E-01 a        86     0     4     1    11
  2.8214173069086518E-01 a        87     0     4     1    12
  7.7712503829471050E-02 a        88     0     4     1    13
  3.4176026731107612E-01 a        89     0     4     1    14
 -1.0913856188276803E+00 a        90     0     4     1    15
  7.0169714436198827E-01 a        91     0     4     1    16
 -5.6041155816418975E-01 a        92     0     4     1    17
  1.2896181809801652E-01 a        93     0     4     1    18
  3.5601440852046345E-01 a        94     0     4     1    19
 -1.4679574452493158E-01 a        95     0     4     1    20
 -1.1621154550517812E+00 a        96     0     4     1    21
  5.5352488555934354E-01 a        97     0     4     1    22
  6.9947827791331324E-02 a        98     0     4     1    23
 -6.4889681340798333E-01 a        99     0     4     1    24
  1.9693770990022672E-01 a       100     0     4     1    25
 -3.4891799979480953E-01 a       101     0     5     1     1
  1.3124508291879625E-01 a       102     0     5     1     2
 -2.9921332999341210E-01 a       103     0     5     1     3
 -3.0533109849285689E-01 a       104     0     5     1     4
  4.6237936920050543E-01 a       105     0     5     1     5
 -4.7985524487527431E-01 a       106     0     5     1     6
  3.3879287353626458E-01 a       107     0     5     1     7
  4.0759671323397487E-02 a       108     0     5     1     8
  3.7287079027390591E-01 a       109     0     5     1     9
 -8.3301728337546244E-01 a       110     0     5     1    10
 -4.8748531168947604E-02 a       111     0     5     1    11
 -2.8672560101297351E-01 a       112     0     5     1    12
  1.5280830892583380E-01 a       113     0     5     1    13
 -7.8710471625504075E-01 a       114     0     5     1    14
  4.2314661221663841E-01 a       115     0     5     1    15
  7.6718556964747364E-01 a       116     0     5     1    16
 -1.0207939904525871E-01 a       117     0     5     1    17
  2.0178448622046133E-01 a       118     0     5     1    18
  2.7454247041740482E-01 a       119     0     5     1    19
  1.0296775312750779E-01 a       120     0     5     1    20
  1.9741606867354247E-01 a       121     0     5     1    21
  1.0639233582287844E-01 a       122     0     5     1    22
  3.0500132421165177E-01 a       123     0     5     1    23
  1.0845285851543354E+00 a       124     0     5     1    24
  2.5552483978645624E-01 a       125     0     5     1    25
 -3.0794066257695168E-01 a       126     0     6     1     1
  1.0279745331954201E-01 a       127     0     6     1     2
 -4.7841308788979059E-01 a       128     0     6     1     3
 -1.1250824193707903E-01 a       129     0     6     1     4
  6.1416736611186955E-02 a       130     0     6     1     5
  2.9752592974269694E-02 a       131     0     6     1     6
 -1.7117872637136167E-01 a       132     0     6     1     7
 -3.5804699896046516E-01 a       133     0     6     1     8
 -6.3778890127501431E-01 a       134     0     6     1     9
  2.3977278933995713E-01 a       135     0     6     1    10
  1.1859922494350501E-01 a       136     0     6     1    11
  3.4972241237240437E-02 a       137     0     6     1    12
 -1.0288023218680092E-01 a       138     0     6     1    13
 -3.3481828431780064E-01 a       139     0     6     1    14
  4.5008825143400327E-01 a       140     0     6     1    15
 -4.1530934888076776E-01 a       141     0     6     1    16
  1.7752660481277102E-01 a       142     0     6     1    17
  1.5596871170605467E-01 a       143     0     6     1    18
 -1.0634703195226221E-01 a       144     0     6     1    19
 -2.7077983032863978E-01 a       145     0     6     1    20
  5.6366392012726685E-01 a       146     0     6     1    21
  1.8953662335106100E-01 a       147     0     6     1    22
 -3.3170708909852553E-01 a       148     0     6     1    23
 -7.0078338451538758E-01 a       149     0     6     1    24
 -5.3120299874712318E-01 a       150     0     6     1    25
  7.2245254426092231E-01 a       151     0     7     1     1
 -3.4147147911287823E-01 a       152     0     7     1     2
 -2.7693271748854936E-01 a       153     0     7     1     3
 -7.3819715233461355E-02 a       154     0     7     1     4
 -3.0524950581835220E-01 a       155     0     7     1     5
  4.9700107801871796E-01 a       156     0     7     1     6
 -1.2747514902174187E-01 a       157     0     7     1     7
  1.2961214811600480E-01 a       158     0     7     1     8
 -1.7797585595666177E-01 a       159     0     7     1     9
 -1.4502220226120008E-01 a       160     0     7     1    10
  1.6229191531124740E-01 a       161     0     7     1    11
  1.8150892369855251E-01 a       162     0     7     1    12
 -1.0936374105596186E-01 a       163     0     7     1    13
  6.0948291509295915E-01 a       164     0     7     1    14
  3.8249251992097349E-01 a       165     0     7     1    15
 -2.4251870342201498E-01 a       166     0     7     1    16
 -2.2923197654134832E-04 a       167     0     7     1    17
 -2.9361328372577206E-01 a       168     0     7     1    18
  7.3289292594382405E-01 a       169     0     7     1    19
 -4.0839269889491192E-01 a       170     0     7     1    20
  1.9344145269531272E-02 a       171     0     7     1    21
 -4.3065051150889315E-02 a       172     0     7     1    22
 -8.9454711092179895E-02 a       173     0     7     1    23
 -4.2550563702280370E-01 a       174     0     7     1    24
 -5.8511498903454995E-01 a       175     0     7     1    25
  2.7135758959693818E-01 a       176     0     8     1     1
  2.1151291248105430E-01 a       177     0     8     1     2
  3.5193396522798531E-01 a       178     0     8     1     3
  1.8373393330751395E-01 a       179     0     8     1     4
  6.7203416907041424E-01 a       180     0     8     1     5
  3.6269306541144818E-02 a       181     0     8     1     6
  3.8027910163856532E-01 a       182     0     8     1     7
 -3.6837345243589337E-01 a       183     0     8     1     8
  1.8526402935492367E-01 a       184     0     8     1     9
  1.4319975063600920E-01 a       185     0     8     1    10
 -5.9138331645691766E-01 a       186     0     8     1    11
 -1.6103570956312357E-02 a       187     0     8     1    12
 -1.2139681327090490E-01 a       188     0     8     1    13
  1.9239692094901126E-01 a       189     0     8     1    14
 -3.5157890278863069E-01 a       190     0     8     1    15
  1.5068021578811627E-01 a       191     0     8     1    16
 -1.1757012474610071E-01 a       192     0     8     1    17
  4.7130713931835871E-01 a       193     0     8     1    18
  8.6507228919925669E-02 a       194     0     8     1    19
 -1.2003367440891817E-01 a       195     0     8     1    20
 -2.1222045631962255E-01 a       196     0     8     1    21
 -5.4436361071231888E-03 a       197     0     8     1    22
  4.4858939747304954E-03 a       198     0     8     1    23
 -1.5402395903066232E-01 a       199     0     8     1    24
  6.2205699258596525E-01 a       200     0     8     1    25
 -2.3280385736271306E-01 a       201     0     9     1     1
  5.7458686603097324E-02 a       202     0     9     1     2
 -7.2832080643487188E-02 a       203     0     9     1     3
 -7.6195149755392072E-02 a       204     0     9     1     4
 -7.9724692051111268E-02 a       205     0     9     1     5
  5.4716094811435120E-02 a       206     0     9     1     6
  1.0879472764072066E-01 a       207     0     9     1     7
 -3.8731037880588917E-02 a       208     0     9     1     8
  3.8958172137172270E-01 a       209     0     9     1     9
  1.7618658212772420E-01 a       210     0     9     1    10
  3.6789888260435215E-02 a       211     0     9     1    11
 -2.6176746332578643E-01 a       212     0     9     1    12
  1.2494732774001024E-01 a       213     0     9     1    13
 -4.6904880696291437E-02 a       214     0     9     1    14
  1.4139846176620913E-01 a       215     0     9     1    15
  5.2119263290267692E-01 a       216     0     9     1    16
  2.9946740815734479E-01 a       217     0     9     1    17
  8.3982563969209056E-02 a       218     0     9     1    18
 -9.2054649659340335E-02 a       219     0     9     1    19
  1.6700124685243956E-01 a       220     0     9     1    20
 -7.6810130203850691E-02 a       221     0     9     1    21
 -5.1824290039588293E-02 a       222     0     9     1    22
 -3.5117259509635579E-01 a       223     0     9     1    23
 -8.2031515097067922E-02 a       224     0     9     1    24
  3.5471275640758970E-01 a       225     0     9     1    25
 -2.0238862963469065E-01 a       226     0    10     1     1
 -3.5904114448804654E-02 a       227     0    10     1     2
 -1.0423890675208025E-01 a       228     0    10     1     3
  1.1082351562162372E-01 a       229     0    10     1     4
 -3.9621834188606381E-01 a       230     0    10     1     5
  1.0109636507625383E-01 a       231     0    10     1     6
 -2.6415193467506254E-01 a       232     0    10     1     7
  2.3214915796803293E-01 a       233     0    10     1     8
 -8.6561895117905990E-02 a       234     0    10     1     9
  2.8824996087832372E-01 a       235     0    10     1    10
  3.0139464385385627E-02 a       236     0    10     1    11
  3.8593071543309508E-02 a       237     0    10     1    12
 -2.6254511242511491E-01 a       238     0    10     1    13
  2.3176346760253402E-01 a       239     0    10     1    14
  7.8127705966599976E-03 a       240     0    10     1    15
 -4.0373557612669769E-01 a       241     0    10     1    16
 -3.7631565236921682E-02 a       242     0    10     1    17
 -5.0565406738090490E-01 a       243     0    10     1    18
  3.7789014775323183E-02 a       244     0    10     1    19
 -8.0514246988653820E-03 a       245     0    10     1    20
  4.6916251550701511E-02 a       246     0    10     1    21
  3.0487100437150216E-01 a       247     0    10     1    22
  9.5369939875008386E-02 a       248     0    10     1    23
 -1.8443786113630392E-01 a       249     0    10     1    24
 -8.6823267795377537E-02 a       250     0    10     1    25
  6.1255698818372520E-02 a       251     0    11     1     1
 -6.9100831641945804E-02 a       252     0    11     1     2
 -1.9821592382501613E-01 a       253     0    11     1     3
 -8.8858144850837997E-02 a       254     0    11     1     4
  1.7844970544769853E-01 a       255     0    11     1     5
 -5.6863985559117078E-02 a       256     0    11     1     6
 -4.9569948185699486E-02 a       257     0    11     1     7
 -1.0766521819160543E-01 a       258     0    11     1     8
 -8.9401352844049278E-02 a       259     0    11     1     9
 -2.6637246579874851E-01 a       260     0    11     1    10
  6.6724022166858937E-02 a       261     0    11     1    11
  1.5626786759042458E-02 a       262     0    11     1    12
 -2.0452367951108197E-01 a       263     0    11     1    13
 -8.8051350803513367E-02 a       264     0    11     1    14
  1.8325708328229270E-01 a       265     0    11     1    15
 -2.5558471293222779E-01 a       266     0    11     1    16
 -8.4484889801859184E-02 a       267     0    11     1    17
  2.2845706765768023E-01 a       268     0    11     1    18
 -2.9396666232769098E-01 a       269     0    11     1    19
 -7.4683920985093272E-02 a       270     0    11     1    20
 -1.3346063218932863E-01 a       271     0    11     1    21
 -1.2254962170731994E-01 a       272     0    11     1    22
  1.0489106166444721E-01 a       273     0    11     1    23
 -8.1436458326012817E-02 a       274     0    11     1    24
 -1.3857047890338944E-01 a       275     0    11     1    25
  1.8556899781341835E-01 a       276     0    12     1     1
  3.1259292575899333E-01 a       277     0    12     1     2
  2.5948903109974963E-01 a       278     0    12     1     3
  1.4804697202815286E-02 a       279     0    12     1     4
  2.5533376619785281E-01 a       280     0    12     1     5
 -1.3390363967502655E-01 a       281     0    12     1     6
  1.4870985570554460E-01 a       282     0    12     1     7
 -4.6448999110131992E-02 a       283     0    12     1     8
  6.0381671594422863E-02 a       284     0    12     1     9
  2.6174220760004169E-01 a       285     0    12     1    10
 -2.4120365207096817E-01 a       286     0    12     1    11
  4.7243948781750922E-02 a       287     0    12     1    12
  3.4860693056192588E-01 a       288     0    12     1    13
 -3.9505625239357731E-02 a       289     0    12     1    14
 -2.9961534676576407E-01 a       290     0    12     1    15
  6.4191075833648942E-02 a       291     0    12     1    16
  2.7081898700850510E-01 a       292     0    12     1    17
  1.3069529654881037E-01 a       293     0    12     1    18
  1.0891173955730105E-01 a       294     0    12     1    19
 -1.3385724717454285E-02 a       295     0    12     1    20
  3.0367758454653065E-01 a       296     0    12     1    21
  5.9751848038056242E-02 a       297     0    12     1    22
 -2.1726530068808314E-01 a       298     0    12     1    23
  1.5716971473894559E-02 a       299     0    12     1    24
  4.0906746023425705E-01 a       300     0    12     1    25
 -9.0205971859539852E-02 a       301     0    13     1     1
 -2.6366709403384747E-01 a       302     0    13     1     2
  4.5480388460683162E-02 a       303     0    13     1     3
  3.4963035011914339E-03 a       304     0    13     1     4
 -8.8688142622397867E-02 a       305     0    13     1     5
  1.6557354195619767E-01 a       306     0    13     1     6
  1.0967746335222371E-01 a       307     0    13     1     7
  8.7208103530207789E-02 a       308     0    13     1     8
 -5.9959237317299435E-02 a       309     0    13     1     9
  1.1597867279838994E-02 a       310     0    13     1    10
  7.3055115708667365E-02 a       311     0    13     1    11
  2.5250811497430825E-01 a       312     0    13     1    12
  4.1973146132122288E-02 a       313     0    13     1    13
  5.4453257098382321E-02 a       314     0    13     1    14
  1.2363509472678938E-01 a       315     0    13     1    15
  3.5195283866061217E-01 a       316     0    13     1    16
  4.2243325205009646E-02 a       317     0    13     1    17
  1.1290342501367204E-01 a       318     0    13     1    18
  3.1192215287084862E-01 a       319     0    13     1    19
  6.8210542867933002E-02 a       320     0    13     1    20
  1.1684898253269041E-01 a       321     0    13     1    21
 -1.1492455654263041E-01 a       322     0    13     1    22
  1.5917128721597992E-01 a       323     0    13     1    23
 -4.7837542597526074E-02 a       324     0    13     1    24
 -1.1544913379224246E-01 a       325     0    13     1    25
 -3.4763053528558063E-01 a       326     0    14     1     1
  2.4232461291834699E-02 a       327     0    14     1     2
 -1.4208626888398301E-01 a       328     0    14     1     3
  1.6404982585570130E-01 a       329     0    14     1     4
 -7.7476251739085539E-02 a       330     0    14     1     5
  8.3985325883707593E-02 a       331     0    14     1     6
 -1.5228462485269961E-01 a       332     0    14     1     7
  2.0027492972010404E-02 a       333     0    14     1     8
 -1.1955649735209829E-02 a       334     0    14     1     9
  7.1689902327812152E-02 a       335     0    14     1    10
  2.6250136754006194E-03 a       336     0    14     1    11
 -1.9216975944207187E-01 a       337     0    14     1    12
 -1.7207451658887746E-01 a       338     0    14     1    13
 -7.3149966821862103E-02 a       339     0    14     1    14
  7.1998160741510053E-02 a       340     0    14     1    15
 -1.2206050329570589E-01 a       341     0    14     1    16
 -1.0003610938354626E-02 a       342     0    14     1    17
 -1.4224891449681476E-01 a       343     0    14     1    18
 -1.7517468345962625E-01 a       344     0    14     1    19
 -1.7960622571730867E-01 a       345     0    14     1    20
 -2.7748555702817712E-01 a       346     0    14     1    21
  6.3640666875973459E-02 a       347     0    14     1    22
  4.9246836647930239E-02 a       348     0    14     1    23
 -1.2091192965096173E-01 a       349     0    14     1    24
  1.7275137341772832E-02 a       350     0    14     1    25
  4.9064567750353505E-02 a       351     0    15     1     1
 -2.2801642728065138E-01 a       352     0    15     1     2
  6.7513008602799865E-02 a       353     0    15     1     3
 -7.8640694897651867E-02 a       354     0    15     1     4
 -7.4596870752459922E-03 a       355     0    15     1     5
 -6.8839011486272805E-02 a       356     0    15     1     6
  7.5360953837959072E-02 a       357     0    15     1     7
 -3.7034057707211396E-02 a       358     0    15     1     8
 -6.5818631476077250E-02 a       359     0    15     1     9
 -1.5636251904110893E-01 a       360     0    15     1    10
 -1.9361851889754872E-01 a       361     0    15     1    11
  3.0820856598566836E-02 a       362     0    15     1    12
 -2.2391546678497479E-01 a       363     0    15     1    13
  2.2357742679804664E-02 a       364     0    15     1    14
 -1.1333724443124396E-01 a       365     0    15     1    15
 -2.1339572478201851E-03 a       366     0    15     1    16
 -1.3534183368954703E-01 a       367     0    15     1    17
  5.7008187266568082E-02 a       368     0    15     1    18
 -2.1249739151811625E-01 a       369     0    15     1    19
  2.8581599860700108E-01 a       370     0    15     1    20
  2.3092104505032363E-01 a       371     0    15     1    21
  3.8051483853733421E-02 a       372     0    15     1    22
 -8.4268501672158228E-02 a       373     0    15     1    23
  3.7986545946479178E-01 a       374     0    15     1    24
  9.6019250744617757E-02 a       375     0    15     1    25
  4.1924775685678406E-01 a       376     0    16     1     1
  2.1341602795517736E-01 a       377     0    16     1     2
  1.2804567800078923E-01 a       378     0    16     1     3
 -1.1506949985615822E-02 a       379     0    16     1     4
  9.2988621842786025E-03 a       380     0    16     1     5
 -1.1222675104235068E-01 a       381     0    16     1     6
 -1.2527082008077009E-01 a       382     0    16     1     7
  2.0212278156613028E-01 a       383     0    16     1     8
  1.0997950141597568E-01 a       384     0    16     1     9
  9.5497651390206287E-02 a       385     0    16     1    10
  1.6589505357542406E-01 a       386     0    16     1    11
 -1.1275893727897672E-01 a       387     0    16     1    12
  2.7464431878436713E-01 a       388     0    16     1    13
 -9.2712910905264664E-02 a       389     0    16     1    14
  2.1375172799540990E-01 a       390     0    16     1    15
 -2.9267278905594463E-01 a       391     0    16     1    16
  2.1366139239965923E-01 a       392     0    16     1    17
 -8.1689322341821372E-02 a       393     0    16     1    18
  5.0343499142807696E-02 a       394     0    16     1    19
  1.6686138184550617E-01 a       395     0    16     1    20
  1.3257000436759384E-01 a       396     0    16     1    21
  1.6285973000793327E-01 a       397     0    16     1    22
 -1.1854719804360429E-01 a       398     0    16     1    23
 -1.6688131729793770E-01 a       399     0    16     1    24
  2.5322612255763050E-01 a       400     0    16     1    25
 -2.1624496714958304E-02 a       401     0    17     1     1
  2.7647466694085709E-01 a       402     0    17     1     2
 -8.3226606725920541E-02 a       403     0    17     1     3
 -2.3115089241383651E-02 a       404     0    17     1     4
  4.2188467391253238E-02 a       405     0    17     1     5
  5.3267027247204828E-02 a       406     0    17     1     6
  3.5609206959297923E-02 a       407     0    17     1     7
 -1.1763707428880198E-01 a       408     0    17     1     8
  1.8462495150299175E-02 a       409     0    17     1     9
  1.6293555821951345E-02 a       410     0    17     1    10
  6.9447166037129244E-03 a       411     0    17     1    11
  7.6260618223867996E-02 a       412     0    17     1    12
  1.1548739094135735E-01 a       413     0    17     1    13
  1.4978817159732727E-01 a       414     0    17     1    14
 -1.2228964733427669E-01 a       415     0    17     1    15
  5.0636251144436532E-02 a       416     0    17     1    16
 -5.5171897850004349E-02 a       417     0    17     1    17
 -6.6881461838733461E-02 a       418     0    17     1    18
  2.7034094801708108E-01 a       419     0    17     1    19
 -1.8976201634019049E-01 a       420     0    17     1    20
 -2.5570209586852155E-01 a       421     0    17     1    21
 -1.6268670765013418E-01 a       422     0    17     1    22
  1.4685600896060605E-01 a       423     0    17     1    23
 -1.7764180378927669E-01 a       424     0    17     1    24
 -3.3857617854237160E-01 a       425     0    17     1    25
 -2.4349985824002651E-01 a       426     0    18     1     1
  4.2143842431945078E-02 a       427     0    18     1     2
 -6.8364168293706506E-02 a       428     0    18     1     3
  1.6715914496582989E-03 a       429     0    18     1     4
  3.6262739948785212E-02 a       430     0    18     1     5
 -1.1570102333643541E-03 a       431     0    18     1     6
  8.5263948596547533E-03 a       432     0    18     1     7
 -2.0280348488439162E-01 a       433     0    18     1     8
 -1.0124259732947871E-01 a       434     0    18     1     9
 -3.4519443689881253E-02 a       435     0    18     1    10
  7.8858557370274055E-04 a       436     0    18     1    11
 -2.0051665096976982E-02 a       437     0    18     1    12
 -1.1013347834459342E-01 a       438     0    18     1    13
  3.5855213938847295E-02 a       439     0    18     1    14
 -9.0964536761210399E-02 a       440     0    18     1    15
  8.0715409369520888E-02 a       441     0    18     1    16
 -9.8606140326762293E-02 a       442     0    18     1    17
  1.3033235340751306E-01 a       443     0    18     1    18
 -1.8035367178558737E-01 a       444     0    18     1    19
 -1.3371273129091563E-01 a       445     0    18     1    20
 -2.2998309683890145E-01 a       446     0    18     1    21
 -1.0476521163028672E-01 a       447     0    18     1    22
 -4.3429143583387120E-02 a       448     0    18     1    23
 -4.8288932726420548E-02 a       449     0    18     1    24
 -1.1548053055074754E-01 a       450     0    18     1    25
 -4.8532356437529241E-02 a       451     0    19     1     1
 -2.1309600377582816E-01 a       452     0    19     1     2
 -3.9748029177415004E-02 a       453     0    19     1     3
 -3.8695234115142821E-02 a       454     0    19     1     4
 -1.7890771793465450E-03 a       455     0    19     1     5
 -4.6603006962932514E-02 a       456     0    19     1     6
  2.2639049411140335E-02 a       457     0    19     1     7
  9.3364131669565434E-02 a       458     0    19     1     8
 -1.0426252237233680E-01 a       459     0    19     1     9
 -8.9375274397223606E-02 a       460     0    19     1    10
  1.0915431492387337E-01 a       461     0    19     1    11
  3.9902370598647985E-02 a       462     0    19     1    12
 -4.4280244777326346E-02 a       463     0    19     1    13
 -2.4359736214265904E-01 a       464     0    19     1    14
  1.8909303124315803E-03 a       465     0    19     1    15
  1.2491914535921651E-02 a       466     0    19     1    16
  6.5821890689043471E-03 a       467     0    19     1    17
  1.3240393685083920E-01 a       468     0    19     1    18
 -1.8790208252090418E-01 a       469     0    19     1    19
 -7.1757789898035329E-02 a       470     0    19     1    20
  7.7985506934729706E-02 a       471     0    19     1    21
  3.0107084874034861E-02 a       472     0    19     1    22
 -2.4595331342430202E-03 a       473     0    19     1    23
 -6.2946035082408300E-02 a       474     0    19     1    24
  1.6675945801210859E-01 a       475     0    19     1    25
  2.2787209848376688E-01 a       476     0    20     1     1
  1.1177257277972460E-01 a       477     0    20     1     2
  5.6548355901119417E-02 a       478     0    20     1     3
  5.5130226738278415E-02 a       479     0    20     1     4
  7.5369837801004258E-03 a       480     0    20     1     5
  8.2610401334375972E-04 a       481     0    20     1     6
 -9.4754365215640832E-02 a       482     0    20     1     7
  4.0490530733776099E-02 a       483     0    20     1     8
  1.1425037767726105E-01 a       484     0    20     1     9
  1.6358093902091836E-02 a       485     0    20     1    10
  5.5851544830528434E-02 a       486     0    20     1    11
 -1.9797999683042369E-01 a       487     0    20     1    12
  1.0183318310285105E-01 a       488     0    20     1    13
 -1.0979766207515451E-02 a       489     0    20     1    14
  3.5684749685695061E-01 a       490     0    20     1    15
 -2.2576071748351900E-01 a       491     0    20     1    16
  8.5851213005030541E-02 a       492     0    20     1    17
 -1.0655179276429079E-01 a       493     0    20     1    18
  1.3648702707045102E-01 a       494     0    20     1    19
  9.2596787622780535E-02 a       495     0    20     1    20
  2.7424851438007800E-02 a       496     0    20     1    21
  1.4511102162181097E-01 a       497     0    20     1    22
 -5.4501481622925466E-02 a       498     0    20     1    23
 -2.2255263611507738E-02 a       499     0    20     1    24
  4.4067853194019693E-02 a       500     0    20     1    25
 -3.6018297953133654E-01 a       501     0    21     1     1
  1.2029784520090454E-01 a       502     0    21     1     2
 -3.3429672600193661E-01 a       503     0    21     1     3
  8.7393716579609121E-02 a       504     0    21     1     4
 -3.0033727807744409E-02 a       505     0    21     1     5
 -4.8214552959062945E-01 a       506     0    21     1     6
  3.5471847833047654E-01 a       507     0    21     1     7
 -3.8967883528033334E-02 a       508     0    21     1     8
 -2.5094843622926397E-02 a       509     0    21     1     9
  5.9437285650170968E-01 a       510     0    21     1    10
  2.8347564604549075E-01 a       511     0    21     1    11
  1.7345296463592363E-01 a       512     0    21     1    12
  1.9132072820780061E-01 a       513     0    21     1    13
  1.5768763200285921E-01 a       514     0    21     1    14
  3.6163045699265328E-01 a       515     0    21     1    15
 -5.2584377328141774E-01 a       516     0    21     1    16
 -1.8051213215338990E-01 a       517     0    21     1    17
 -9.6049978573551187E-02 a       518     0    21     1    18
 -5.9610231189991458E-01 a       519     0    21     1    19
 -1.8036985086437352E-01 a       520     0    21     1    20
 -4.8072401628892325E-01 a       521     0    21     1    21
 -9.2912811940873918E-02 a       522     0    21     1    22
  2.8166901452027865E-01 a       523     0    21     1    23
  4.5212221703691136E-01 a       524     0    21     1    24
  1.6215818712703695E-01 a       525     0    21     1    25
  5.6944520434251855E-01 a       526     0    22     1     1
  4.5380346909511260E-02 a       527     0    22     1     2
  1.0653327110354276E+00 a       528     0    22     1     3
  4.0647168210366058E-01 a       529     0    22     1     4
  4.1175759346721214E-01 a       530     0    22     1     5
  5.0730021697797800E-01 a       531     0    22     1     6
  6.9638368880014009E-03 a       532     0    22     1     7
 -6.4039011264114487E-01 a       533     0    22     1     8
 -4.2411795028568990E-02 a       534     0    22     1     9
  6.8470982573433570E-01 a       535     0    22     1    10
 -3.9234348223387461E-01 a       536     0    22     1    11
 -6.3601906061334501E-01 a       537     0    22     1    12
 -6.5921617234259144E-01 a       538     0    22     1    13
 -4.8620561810006435E-01 a       539     0    22     1    14
  7.8105096606406549E-02 a       540     0    22     1    15
  3.9825482604094554E-02 a       541     0    22     1    16
 -3.0413349484105845E-01 a       542     0    22     1    17
  2.4139260022702055E-01 a       543     0    22     1    18
  1.3242682451028914E-01 a       544     0    22     1    19
  6.0227681221949984E-02 a       545     0    22     1    20
 -4.0376528097600622E-01 a       546     0    22     1    21
  7.4003838013412482E-01 a       547     0    22     1    22
  6.3942162972311589E-01 a       548     0    22     1    23
 -3.6059571758481751E-01 a       549     0    22     1    24
  3.3234674132157072E-01 a       550     0    22     1    25
 -4.4190097906630244E-01 a       551     0    23     1     1
 -3.2030044402377340E-02 a       552     0    23     1     2
 -8.3704379845152199E-01 a       553     0    23     1     3
 -5.3429012888023732E-03 a       554     0    23     1     4
 -3.6605068952375969E-01 a       555     0    23     1     5
 -3.2738466002755040E-01 a       556     0    23     1     6
  1.7404949567866784E-01 a       557     0    23     1     7
  5.1010638589875612E-01 a       558     0    23     1     8
  1.6226177121129681E-01 a       559     0    23     1     9
 -7.8630285492250140E-01 a       560     0    23     1    10
  3.2876839636903382E-01 a       561     0    23     1    11
  1.1428689586447340E-01 a       562     0    23     1    12
  5.8587339984953113E-01 a       563     0    23     1    13
  4.9863314066179380E-02 a       564     0    23     1    14
 -2.6913222988521274E-01 a       565     0    23     1    15
 -8.5462026861843551E-02 a       566     0    23     1    16
  5.4251448579364381E-01 a       567     0    23     1    17
 -4.5871326979358351E-01 a       568     0    23     1    18
 -5.3181982680662088E-01 a       569     0    23     1    19
  3.0674323906172257E-01 a       570     0    23     1    20
 -1.8847724395961968E-01 a       571     0    23     1    21
 -3.7773166541375086E-01 a       572     0    23     1    22
 -5.5990850078816989E-01 a       573     0    23     1    23
  6.3953021338848048E-01 a       574     0    23     1    24
 -7.4203602452007933E-01 a       575     0    23     1    25
  1.8210473482603580E-02 a       576     0    24     1     1
 -1.6972766822914381E-01 a       577     0    24     1     2
  6.0137661939820886E-01 a       578     0    24     1     3
 -7.0361266711687187E-01 a       579     0    24     1     4
 -3.8694841464837348E-01 a       580     0    24     1     5
  1.3152777703833787E-01 a       581     0    24     1     6
 -1.7093340744489438E-01 a       582     0    24     1     7
 -7.3742768970205999E-02 a       583     0    24     1     8
 -7.1851255233860267E-02 a       584     0    24     1     9
 -5.8277173748439670E-01 a       585     0    24     1    10
  4.0181125815112756E-01 a       586     0    24     1    11
  1.6477851300395144E-01 a       587     0    24     1    12
 -1.6544838735782744E-01 a       588     0    24     1    13
 -2.9511832269776284E-01 a       589     0    24     1    14
 -2.7767032217170579E-01 a       590     0    24     1    15
  7.1911730364308268E-01 a       591     0    24     1    16
  4.1161177491050548E-02 a       592     0    24     1    17
  2.6446029788631781E-01 a       593     0    24     1    18
 -1.4390460736133945E-01 a       594     0    24     1    19
 -8.4295393790136106E-02 a       595     0    24     1    20
  1.6593905089907254E-01 a       596     0    24     1    21
 -5.8539421744524134E-01 a       597     0    24     1    22
 -1.6523647266202202E-02 a       598     0    24     1    23
 -1.3591483812878583E-01 a       599     0    24     1    24
 -1.1746409664030655E-01 a       600     0    24     1    25
 -1.6799568517447683E-01 a       601     0    25     1     1
 -3.0052112586921198E-01 a       602     0    25     1     2
 -7.7821445271143963E-01 a       603     0    25     1     3
  6.4465668373810514E-01 a       604     0    25     1     4
  5.1721475038068912E-02 a       605     0    25     1     5
 -5.7586566412641327E-01 a       606     0    25     1     6
 -2.3438992675446471E-01 a       607     0    25     1     7
  6.1393555136554867E-01 a       608     0    25     1     8
 -7.6467004278860684E-01 a       609     0    25     1     9
  2.7524382707912343E-01 a       610     0    25     1    10
  1.0343726161257196E+00 a       611     0    25     1    11
  1.0678946475216326E-02 a       612     0    25     1    12
  3.3413650434869699E-02 a       613     0    25     1    13
  1.1232714191265627E+00 a       614     0    25     1    14
 -4.8746883020287618E-01 a       615     0    25     1    15
 -1.0798546097006907E+00 a       616     0    25     1    16
  2.6592495319994897E-01 a       617     0    25     1    17
 -1.4883476843946708E-01 a       618     0    25     1    18
  1.9444973562646156E-01 a       619     0    25     1    19
 -2.5644845417708034E-01 a       620     0    25     1    20
  9.0955249142695072E-01 a       621     0    25     1    21
  4.7034681440942860E-01 a       622     0    25     1    22
 -3.5981324486323468E-01 a       623     0    25     1    23
  3.3877098854309717E-01 a       624     0    25     1    24
 -6.1570824155213710E-01 a       625     0    25     1    25
 -8.9680720238182909E-02 a       626     0    26     1     1
  3.5914573970110775E-01 a       627     0    26     1     2
  2.6359581248913910E-01 a       628     0    26     1     3
 -3.1521913947732200E-01 a       629     0    26     1     4
  9.0940197787017854E-02 a       630     0    26     1     5
  9.2681278214926152E-02 a       631     0    26     1     6
 -6.2625052774159495E-01 a       632     0    26     1     7
 -2.6942522294814916E-02 a       633     0    26     1     8
  1.4150746567829334E-01 a       634     0    26     1     9
 -1.2252542728851773E-01 a       635     0    26     1    10
 -2.9420360090145664E-01 a       636     0    26     1    11
  3.8671309029135170E-01 a       637     0    26     1    12
  1.1199308255531119E-01 a       638     0    26     1    13
 -4.6596641239157294E-01 a       639     0    26     1    14
  3.7008714815069593E-01 a       640     0    26     1    15
  4.1516497774714656E-01 a       641     0    26     1    16
 -1.6651393529283101E-01 a       642     0    26     1    17
  1.6224203151177546E-01 a       643     0    26     1    18
  1.4574351838594807E-01 a       644     0    26     1    19
  6.0740615797559322E-04 a       645     0    26     1    20
 -4.1776522739478156E-01 a       646     0    26     1    21
 -8.7632255033619877E-02 a       647     0    26     1    22
  1.7722638143119956E-02 a       648     0    26     1    23
 -5.8201216836565550E-01 a       649     0    26     1    24
 -3.9479095460644612E-02 a       650     0    26     1    25
 -2.9569021984095489E-01 a       651     0    27     1     1
 -9.8264300772649776E-02 a       652     0    27     1     2
  3.9460027251414523E-02 a       653     0    27     1     3
 -6.7660999185491774E-02 a       654     0    27     1     4
 -1.4597236761869492E-01 a       655     0    27     1     5
  2.4960365409662112E-02 a       656     0    27     1     6
 -6.0231290123755533E-02 a       657     0    27     1     7
  2.4134610382609223E-01 a       658     0    27     1     8
  4.8043634869870740E-02 a       659     0    27     1     9
  3.1898773830930005E-01 a       660     0    27     1    10
 -8.0916753353237142E-02 a       661     0    27     1    11
  9.4808850938510617E-02 a       662     0    27     1    12
 -1.0213845050788249E-01 a       663     0    27     1    13
  3.7273404979842016E-02 a       664     0    27     1    14
 -2.0631400890833215E-01 a       665     0    27     1    15
 -4.2766766396223385E-02 a       666     0    27     1    16
  2.4807337312222708E-01 a       667     0    27     1    17
 -8.9264921025339408E-02 a       668     0    27     1    18
  1.5125685829573918E-01 a       669     0    27     1    19
 -2.2225634053260193E-01 a       670     0    27     1    20
  2.4251335337348653E-01 a       671     0    27     1    21
  5.1011186608489620E-02 a       672     0    27     1    22
 -5.0840632481646157E-02 a       673     0    27     1    23
 -6.9562158114691047E-02 a       674     0    27     1    24
  1.4726135274008231E-01 a       675     0    27     1    25
  2.1234736996377340E-01 a       676     0    28     1     1
 -2.9442836923057480E-01 a       677     0    28     1     2
 -7.3729712554963201E-03 a       678     0    28     1     3
  2.2120384261081358E-01 a       679     0    28     1     4
  1.7785780789995173E-01 a       680     0    28     1     5
  9.7278940544733378E-02 a       681     0    28     1     6
 -4.3804857177995669E-02 a       682     0    28     1     7
  1.5285554939458360E-01 a       683     0    28     1     8
  8.1765897937126075E-02 a       684     0    28     1     9
 -1.2943932108335512E-01 a       685     0    28     1    10
 -2.4198209349482053E-01 a       686     0    28     1    11
 -1.3625749869054521E-01 a       687     0    28     1    12
 -7.5253708165113259E-02 a       688     0    28     1    13
  1.7756701263980201E-01 a       689     0    28     1    14
  4.4476596409480887E-02 a       690     0    28     1    15
  2.6478937577325744E-02 a       691     0    28     1    16
 -1.2911659213912799E-01 a       692     0    28     1    17
  5.1235796995393226E-02 a       693     0    28     1    18
  2.0815419902191437E-01 a       694     0    28     1    19
  2.1243637885000832E-01 a       695     0    28     1    20
  1.0695947746409548E-01 a       696     0    28     1    21
  3.2207779598945246E-02 a       697     0    28     1    22
  2.5334811469114499E-01 a       698     0    28     1    23
  3.5475567266948455E-01 a       699     0    28     1    24
 -2.1017983989217326E-01 a       700     0    28     1    25
 -1.1485716198226970E-01 a       701     0    29     1     1
  2.6952437914981558E-01 a       702     0    29     1     2
  1.9738865909376777E-01 a       703     0    29     1     3
 -8.4630047616452625E-02 a       704     0    29     1     4
 -3.0913266404950901E-02 a       705     0    29     1     5
 -1.1930433599042375E-01 a       706     0    29     1     6
 -2.9766152796822826E-01 a       707     0    29     1     7
  1.2271566968710917E-01 a       708     0    29     1     8
 -2.9301270532363655E-01 a       709     0    29     1     9
  4.5443349240847919E-01 a       710     0    29     1    10
 -5.5222512557456797E-02 a       711     0    29     1    11
 -9.8997504682052206E-02 a       712     0    29     1    12
 -5.9611058216197214E-02 a       713     0    29     1    13
 -1.2294765930336554E-01 a       714     0    29     1    14
 -3.1865602981889557E-01 a       715     0    29     1    15
  1.5882776847483540E-01 a       716     0    29     1    16
  1.8525490620516649E-01 a       717     0    29     1    17
  1.4906418553421844E-01 a       718     0    29     1    18
  9.0752498230431800E-02 a       719     0    29     1    19
  7.5411316871148340E-02 a       720     0    29     1    20
  3.5917992277271038E-01 a       721     0    29     1    21
  5.6203379396198946E-02 a       722     0    29     1    22
  2.2109133471584705E-01 a       723     0    29     1    23
 -6.2459503773636869E-02 a       724     0    29     1    24
  4.4568577865607667E-01 a       725     0    29     1    25
  3.8570024586747181E-01 a       726     0    30     1     1
 -4.4497381008864884E-02 a       727     0    30     1     2
 -3.8919807377866078E-01 a       728     0    30     1     3
  4.7226105970410898E-01 a       729     0    30     1     4
  5.1420180392589521E-01 a       730     0    30     1     5
 -1.4632725102470925E-01 a       731     0    30     1     6
  1.3394814496314816E-01 a       732     0    30     1     7
 -2.0567279217801238E-01 a       733     0    30     1     8
 -7.0142294534778285E-02 a       734     0    30     1     9
 -4.2027454254026220E-01 a       735     0    30     1    10
 -2.5542384709364102E-01 a       736     0    30     1    11
 -3.0970340446527533E-02 a       737     0    30     1    12
 -2.2984932577957079E-03 a       738     0    30     1    13
  2.4372900095673639E-01 a       739     0    30     1    14
 -2.7969843780885684E-01 a       740     0    30     1    15
  1.0798346581862397E-01 a       741     0    30     1    16
 -4.9788152339081443E-01 a       742     0    30     1    17
  1.1070028996440291E-01 a       743     0    30     1    18
  2.0962180827192750E-01 a       744     0    30     1    19
  4.1589433068962234E-02 a       745     0    30     1    20
  1.8748279040242576E-02 a       746     0    30     1    21
  4.3500939813374495E-01 a       747     0    30     1    22
  3.0251114800223744E-01 a       748     0    30     1    23
 -2.9638967304932703E-02 a       749     0    30     1    24
 -1.6261159812484982E-01 a       750     0    30     1    25
 -8.0199174933481210E-01 a       751     0    31     1     1
  1.2646961379666569E-01 a       752     0    31     1     2
  6.0197334526080670E-01 a       753     0    31     1     3
 -8.9584702695307206E-01 a       754     0    31     1     4
 -5.5443622496373690E-01 a       755     0    31     1     5
  2.5826003806569453E-01 a       756     0    31     1     6
  1.8658569498646624E-01 a       757     0    31     1     7
 -1.1886923307334746E-01 a       758     0    31     1     8
  2.6656511708809610E-01 a       759     0    31     1     9
 -1.1537972679740236E+00 a       760     0    31     1    10
 -8.3840186824659302E-01 a       761     0    31     1    11
 -1.2874646184388050E-01 a       762     0    31     1    12
  8.5918319561487677E-01 a       763     0    31     1    13
 -9.9480701691382545E-01 a       764     0    31     1    14
  3.3917762037824581E-02 a       765     0    31     1    15
 -5.3653780553529562E-01 a       766     0    31     1    16
 -2.9028514742627193E-01 a       767     0    31     1    17
  3.1604509318361923E-01 a       768     0    31     1    18
 -1.4303733245780031E-01 a       769     0    31     1    19
  2.1368981973377441E-01 a       770     0    31     1    20
  2.3838182817239062E-01 a       771     0    31     1    21
 -1.3100940475615481E+00 a       772     0    31     1    22
  3.3649037589536529E-01 a       773     0    31     1    23
  2.2889782464268740E-01 a       774     0    31     1    24
  7.5119902204255629E-02 a       775     0    31     1    25
  4.7128596156273522E-01 a       776     0    32     1     1
 -2.9158482367559974E-01 a       777     0    32     1     2
 -1.8103903751582656E-01 a       778     0    32     1     3
  3.2256755193948811E-01 a       779     0    32     1     4
  5.1037913227587196E-02 a       780     0    32     1     5
  2.7885262256504062E-02 a       781     0    32     1     6
  3.2852976965426178E-01 a       782     0    32     1     7
  6.1700214004263870E-02 a       783     0    32     1     8
  6.8595186686533603E-03 a       784     0    32     1     9
  4.0068746561444968E-01 a       785     0    32     1    10
  4.2538029844309933E-01 a       786     0    32     1    11
 -6.6869745860196936E-02 a       787     0    32     1    12
 -3.6198011789367440E-01 a       788     0    32     1    13
  3.1486537244648088E-01 a       789     0    32     1    14
  1.7642044633091086E-02 a       790     0    32     1    15
  3.6645648671783770E-02 a       791     0    32     1    16
  1.5954191942014992E-01 a       792     0    32     1    17
 -3.2340505665278567E-02 a       793     0    32     1    18
 -6.4530689242078304E-02 a       794     0    32     1    19
  3.4488877398497236E-02 a       795     0    32     1    20
 -1.6266911415661711E-01 a       796     0    32     1    21
  3.1957308352855551E-01 a       797     0    32     1    22
  1.4357037646383223E-02 a       798     0    32     1    23
  1.6032934606628876E-01 a       799     0    32     1    24
  3.0890293448642459E-01 a       800     0    32     1    25
  7.8890041546576750E-01 b       801     1     1
  4.9853114214215954E-01 b       802     1     2
 -9.2537501864818184E-01 b       803     1     3
  1.5936702194537185E+00 b       804     1     4
  7.1019794960935645E-01 b       805     1     5
 -6.6764990941646607E-01 b       806     1     6
  1.1429261034854615E-01 b       807     1     7
  5.6668039762500311E-01 b       808     1     8
  5.3979155890976815E-01 b       809     1     9
  1.2462114611286401E+00 b       810     1    10
  3.9421920238928837E-01 b       811     1    11
 -1.5174046259739136E+00 b       812     1    12
  1.2586563233418240E+00 b       813     1    13
  1.6059911959750672E+00 b       814     1    14
 -3.2013918727455137E-01 b       815     1    15
  1.4283942176175266E+00 b       816     1    16
 -9.6148564865487596E-01 b       817     1    17
  2.5967716290843362E-01 b       818     1    18
  1.4651232296044636E+00 b       819     1    19
 -8.3193616660131953E-01 b       820     1    20
  8.7798276242979811E-01 b       821     1    21
 -3.7137687519608187E-01 b       822     1    22
 -3.1041587877662646E-01 b       823     1    23
  7.6166180975190428E-02 b       824     1    24
  1.0445195912688028E+00 b       825     1    25
 -3.6668929298304065E-01 a       826     1     1     2     1
  2.5552493763761862E-02 a       827     1     1     2     2
 -1.7264882215926921E-02 a       828     1     1     2     3
 -2.5464995704136123E-01 a       829     1     1     2     4
 -4.5722092683201926E-01 a       830     1     1     2     5
  2.6013509998095879E-01 a       831     1     1     2     6
  4.5605902043501440E-01 a       832     1     1     2     7
  3.5469536068751639E-01 a       833     1     1     2     8
 -7.6591657577848249E-01 a       834     1     1     2     9
 -4.6764099028177492E-01 a       835     1     1     2    10
  2.6633189918417494E-01 a       836     1     1     2    11
  1.2636006281746318E-01 a       837     1     1     2    12
  2.5722533817268972E-01 a       838     1     1     2    13
 -9.9750779851557805E-03 a       839     1     1     2    14
 -1.8069715021953398E-02 a       840     1     1     2    15
 -8.8127279193445152E-01 a       841     1     1     2    16
  1.5154653507703131E-01 a       842     1     1     2    17
 -2.5867598979464007E-01 a       843     1     1     2    18
 -3.7267935530786549E-02 a       844     1     1     2    19
  1.6295557120245371E-01 a       845     1     1     2    20
  3.9260019892036702E-01 a       846     1     1     2    21
 -4.3570455083413440E-01 a       847     1     1     2    22
  1.4954566205922376E-01 a       848     1     1     2    23
  4.5692811043418186E-01 a       849     1     1     2    24
  5.1885393897191967E-01 a       850     1     1     2    25
 -5.0917371807113143E-01 a       851     1     2     2     1
  2.3488026368659431E-01 a       852     1     2     2     2
  3.5251982064167009E-01 a       853     1     2     2     3
  6.6943833008762860E-02 a       854     1     2     2     4
 -3.1878434256049176E-01 a       855     1     2     2     5
 -2.5796453890176080E-01 a       856     1     2     2     6
 -7.0864287234729828E-01 a       857     1     2     2     7
 -5.9525640971916671E-01 a       858     1     2     2     8
 -6.9715810709560455E-01 a       859     1     2     2     9
  4.4492060050050747E-01 a       860     1     2     2    10
  7.2333795553761820E-02 a       861     1     2     2    11
  2.5782356063433753E-01 a       862     1     2     2    12
  2.2431419263686872E-01 a       863     1     2     2    13
  1.5467955506879286E-01 a       864     1     2     2    14
  8.5255514711574595E-02 a       865     1     2     2    15
  3.0904477272973234E-02 a       866     1     2     2    16
  4.4186250345447725E-01 a       867     1     2     2    17
  7.9376625798340608E-02 a       868     1     2     2    18
 -1.7893628626557731E-01 a       869     1     2     2    19
 -1.8724208485422364E-01 a       870     1     2     2    20
 -4.0470103505728983E-01 a       871     1     2     2    21
  3.6839052058507787E-01 a       872     1     2     2    22
  3.9847597804995089E-01 a       873     1     2     2    23
  6.7681215989344967E-01 a       874     1     2     2    24
  1.3336200523326394E-01 a       875     1     2     2    25
 -5.4348277363589624E-02 a       876     1     3     2     1
 -3.5215649631429585E-01 a       877     1     3     2     2
  1.5652651935817383E-01 a       878     1     3     2     3
 -3.3489982126974299E-01 a       879     1     3     2     4
 -6.5835678978561996E-01 a       880     1     3     2     5
  1.6144155954279599E-01 a       881     1     3     2     6
  3.9953960646276321E-01 a       882     1     3     2     7
  2.5111426384641522E-01 a       883     1     3     2     8
  6.5763578840542403E-01 a       884     1     3     2     9
 -2.5355286414071393E-01 a       885     1     3     2    10
 -4.3068630999666452E-01 a       886     1     3     2    11
 -5.2058888355066120E-02 a       887     1     3     2    12
 -1.1477627401184574E-01 a       888     1     3     2    13
  2.3460592977069963E-01 a       889     1     3     2    14
 -4.9078364367088118E-01 a       890     1     3     2    15
  8.7857560773087442E-02 a       891     1     3     2    16
 -4.4743462111042681E-01 a       892     1     3     2    17
 -6.6081592386467569E-01 a       893     1     3     2    18
  6.6844271747707695E-01 a       894     1     3     2    19
  2.4116826845073616E-01 a       895     1     3     2    20
 -2.1181405985913013E-01 a       896     1     3     2    21
 -4.3018025279384958E-01 a       897     1     3     2    22
  3.7019988194752618E-01 a       898     1     3     2    23
  5.6290149778477627E-01 a       899     1     3     2    24
 -2.4472945518181258E-01 a       900     1     3     2    25
 -5.9557340398510727E-01 a       901     1     4     2     1
 -1.6563880854887711E-01 a       902     1     4     2     2
 -1.4560103634395194E-01 a       903     1     4     2     3
  9.4545013400943534E-01 a       904     1     4     2     4
 -1.7859978772272930E-01 a       905     1     4     2     5
  5.2761209184940472E-01 a       906     1     4     2     6
  2.7683285336730612E-01 a       907     1     4     2     7
 -4.4981012514145835E-01 a       908     1     4     2     8
  2.4122751084109059E-01 a       909     1     4     2     9
  6.0572149667161301E-01 a       910     1     4     2    10
  5.3759769189981232E-01 a       911     1     4     2    11
  3.6698719864666340E-01 a       912     1     4     2    12
  7.0219916142817029E-01 a       913     1     4     2    13
 -3.0032293887595093E-02 a       914     1     4     2    14
 -1.9629492871734708E-01 a       915     1     4     2    15
  5.9018808492999741E-01 a       916     1     4     2    16
  2.1506453308572868E-01 a       917     1     4     2    17
  1.6892698663959324E-01 a       918     1     4     2    18
  7.8704458736086080E-01 a       919     1     4     2    19
 -2.0795980773133252E-01 a       920     1     4     2    20
 -1.1045698341500412E-01 a       921     1     4     2    21
  1.1805744612667186E-01 a       922     1     4     2    22
 -1.9809646407600562E-01 a       923     1     4     2    23
  2.4633570346435493E-01 a       924     1     4     2    24
 -3.5354803353783232E-01 a       925     1     4     2    25
  3.6610355242042747E-01 a       926     1     5     2     1
 -3.3659510863895609E-01 a       927     1     5     2     2
  4.8592436164190916E-01 a       928     1     5     2     3
 -1.4915908105727949E-01 a       929     1     5     2     4
  6.8110653959977074E-01 a       930     1     5     2     5
  3.9147177272843753E-01 a       931     1     5     2     6
 -3.0559228623746282E-01 a       932     1     5     2     7
  5.7140255207861612E-01 a       933     1     5     2     8
 -5.9973697169965356E-01 a       934     1     5     2     9
 -5.9637603809895988E-04 a       935     1     5     2    10
  4.1219283303994325E-01 a       936     1     5     2    11
  5.7561341845965097E-01 a       937     1     5     2    12
 -7.3250511457558176E-01 a       938     1     5     2    13
 -1.8536548562599758E-01 a       939     1     5     2    14
  4.3958137460867142E-01 a       940     1     5     2    15
  2.0897504885538365E-01 a       941     1     5     2    16
 -8.1067037025065958E-01 a       942     1     5     2    17
 -6.0223273131809987E-02 a       943     1     5     2    18
 -2.6711168188137596E-02 a       944     1     5     2    19
  2.2308088374888316E-01 a       945     1     5     2    20
  2.0530610459778711E-01 a       946     1     5     2    21
 -1.4922281366499709E-01 a       947     1     5     2    22
 -3.5297809278643116E-01 a       948     1     5     2    23
 -1.6005083644538304E-01 a       949     1     5     2    24
 -4.4785345040901969E-01 a       950     1     5     2    25
 -3.5813512357797500E-01 a       951     1     6     2     1
 -2.8708907532466094E-01 a       952     1     6     2     2
  3.0886576822154799E-01 a       953     1     6     2     3
  3.9894011401087121E-01 a       954     1     6     2     4
 -2.0272451474380077E-01 a       955     1     6     2     5
 -3.0935321593627502E-01 a       956     1     6     2     6
 -2.6692256244409335E-01 a       957     1     6     2     7
  4.4050202411131134E-01 a       958     1     6     2     8
  4.9625736048627184E-01 a       959     1     6     2     9
 -4.6791758904299824E-01 a       960     1     6     2    10
  1.1647718045715118E-01 a       961     1     6     2    11
  5.6381290924566785E-01 a       962     1     6     2    12
  2.6185195519079052E-01 a       963     1     6     2    13
 -4.7736650402084174E-01 a       964     1     6     2    14
 -4.1341005763851985E-01 a       965     1     6     2    15
 -2.9022433943032172E-01 a       966     1     6     2    16
 -3.1596536633122625E-02 a       967     1     6     2    17
 -1.7198971923189499E-01 a       968     1     6     2    18
  6.2002797660455167E-01 a       969     1     6     2    19
  4.8675346981299272E-02 a       970     1     6     2    20
 -2.0422268039286037E-01 a       971     1     6     2    21
 -2.6588675620570673E-01 a       972     1     6     2    22
  4.1132055179013344E-01 a       973     1     6     2    23
  5.6266418934735929E-01 a       974     1     6     2    24
 -1.6808468595617590E-01 a       975     1     6     2    25
 -8.8332558068865308E-02 a       976     1     7     2     1
  5.0994078034994839E-01 a       977     1     7     2     2
 -2.6913517720856223E-01 a       978     1     7     2     3
 -5.9047144881353630E-01 a       979     1     7     2     4
 -2.7171071242247319E-01 a       980     1     7     2     5
 -4.9776896602237580E-02 a       981     1     7     2     6
  6.3456298650725954E-02 a       982     1     7     2     7
 -1.1608305401560537E-01 a       983     1     7     2     8
  4.0858285203290895E-01 a       984     1     7     2     9
 -3.3310068960730216E-01 a       985     1     7     2    10
 -2.8788765218853004E-03 a       986     1     7     2    11
 -4.0910810864045377E-01 a       987     1     7     2    12
 -1.3430545168384875E-01 a       988     1     7     2    13
  4.0942222080397345E-01 a       989     1     7     2    14
  5.1549836518260095E-01 a       990     1     7     2    15
  5.1027874970880316E-01 a       991     1     7     2    16
  2.0126908302951699E-01 a       992     1     7     2    17
 -2.7821600382064582E-01 a       993     1     7     2    18
 -2.4330659894605960E-01 a       994     1     7     2    19
 -6.6264123969515665E-01 a       995     1     7     2    20
  1.1478772934672413E-01 a       996     1     7     2    21
 -7.2279962901841202E-02 a       997     1     7     2    22
 -5.7411520656110726E-01 a       998     1     7     2    23
 -3.7197502357174195E-01 a       999     1     7     2    24
 -3.5725308019385832E-01 a      1000     1     7     2    25
 -1.6447230004088076E-01 a      1001     1     8     2     1
 -3.9533271973331496E-01 a      1002     1     8     2     2
  1.5621268247921918E-01 a      1003     1     8     2     3
 -3.9598226211294280E-01 a      1004     1     8     2     4
  7.1242035234977530E-01 a      1005     1     8     2     5
 -1.4677430971119154E-01 a      1006     1     8     2     6
  4.3633900618854810E-01 a      1007     1     8     2     7
  1.4434959677940451E-01 a      1008     1     8     2     8
 -1.5031617377797760E-01 a      1009     1     8     2     9
  1.1405988743613492E-01 a      1010     1     8     2    10
  1.4428516653492007E-01 a      1011     1     8     2    11
  1.5502363167006455E-01 a      1012     1     8     2    12
 -3.8062241559247778E-01 a      1013     1     8     2    13
  5.3775721188844516E-01 a      1014     1     8     2    14
  1.2208521582402208E-01 a      1015     1     8     2    15
  1.3257543051650531E-03 a      1016     1     8     2    16
 -3.2368534453535125E-01 a      1017     1     8     2    17
 -1.0658155958816885E-01 a      1018     1     8     2    18
 -4.1842541759324781E-01 a      1019     1     8     2    19
 -5.3033283293993960E-01 a      1020     1     8     2    20
 -4.0953785799329304E-02 a      1021     1     8     2    21
 -1.7076043024027768E-01 a      1022     1     8     2    22
  1.3183177152436873E-02 a      1023     1     8     2    23
 -4.8493971889398174E-01 a      1024     1     8     2    24
 -1.7056747426329547E-01 a      1025     1     8     2    25
 -1.9953214620591894E-01 a      1026     1     9     2     1
 -2.0675763175164585E-01 a      1027     1     9     2     2
  2.9731112050274089E-01 a      1028     1     9     2     3
 -2.9516162488331804E-01 a      1029     1     9     2     4
  5.9935923131725310E-01 a      1030     1     9     2     5
  4.2795373659181984E-01 a      1031     1     9     2     6
  3.5709720509780973E-01 a      1032     1     9     2     7
 -5.5908731673412604E-01 a      1033     1     9     2     8
 -4.3445449094927902E-01 a      1034     1     9     2     9
  1.2924180347507574E-01 a      1035     1     9     2    10
 -4.9996197866672626E-01 a      1036     1     9     2    11
  3.5235503283253944E-01 a      1037     1     9     2    12
  3.1966999679292096E-01 a      1038     1     9     2    13
  2.4891569052668572E-01 a      1039     1     9     2    14
 -8.4290111981612265E-02 a      1040     1     9     2    15
 -3.4464316110456927E-01 a      1041     1     9     2    16
  4.9657252969032351E-01 a      1042     1     9     2    17
  2.6561113057611391E-01 a      1043     1     9     2    18
 -3.7743261080428464E-01 a      1044     1     9     2    19
 -5.0213842379584106E-01 a      1045     1     9     2    20
  3.6453618016515810E-02 a      1046     1     9     2    21
  4.5936544757371250E-01 a      1047     1     9     2    22
  2.8138558510725309E-01 a      1048     1     9     2    23
  6.9025823086529570E-01 a      1049     1     9     2    24
 -3.9701883151312445E-01 a      1050     1     9     2    25
 -3.1270178870371851E-01 a      1051     1    10     2     1
  1.5191096621260960E-01 a      1052     1    10     2     2
 -1.7874791484987204E-01 a      1053     1    10     2     3
  4.9183574935962832E-01 a      1054     1    10     2     4
 -1.4293917025181044E-02 a      1055     1    10     2     5
  1.8040275391155580E-01 a      1056     1    10     2     6
 -1.7429872803928931E-01 a      1057     1    10     2     7
  4.8763726528994120E-02 a      1058     1    10     2     8
 -7.3423608234569282E-01 a      1059     1    10     2     9
  2.3840049160661031E-01 a      1060     1    10     2    10
  5.2333211902029497E-01 a      1061     1    10     2    11
  2.2683205509676332E-01 a      1062     1    10     2    12
 -2.0542921107702068E-02 a      1063     1    10     2    13
 -1.1745089696771965E-01 a      1064     1    10     2    14
  1.8276611673307022E-01 a      1065     1    10     2    15
 -4.5017903711443530E-01 a      1066     1    10     2    16
 -7.9736677982740067E-01 a      1067     1    10     2    17
 -2.3042922602224597E-01 a      1068     1    10     2    18
 -7.9244090695942501E-02 a      1069     1    10     2    19
  2.8134758939819787E-01 a      1070     1    10     2    20
 -1.4759342951296153E-01 a      1071     1    10     2    21
 -2.2171563258732374E-01 a      1072     1    10     2    22
  3.6811995338241665E-01 a      1073     1    10     2    23
 -4.3178975296995054E-01 a      1074     1    10     2    24
  1.4813746092197218E-02 a      1075     1    10     2    25
  1.9317072747493075E-01 a      1076     1    11     2     1
 -1.8482720616197737E-01 a      1077     1    11     2     2
  3.5104087227848491E-01 a      1078     1    11     2     3
 -4.4238550654998626E-01 a      1079     1    11     2     4
  5.1295385027281404E-01 a      1080     1    11     2     5
 -3.9575283009587758E-01 a      1081     1    11     2     6
  5.9961203525676143E-01 a      1082     1    11     2     7
  1.4387847814590665E-01 a      1083     1    11     2     8
 -3.2356708896619152E-02 a      1084     1    11     2     9
 -1.5348344031565136E-01 a      1085     1    11     2    10
  2.0223032061985988E-01 a      1086     1    11     2    11
  5.6567746937912877E-01 a      1087     1    11     2    12
 -3.9846418973415476E-01 a      1088     1    11     2    13
 -1.0326929614913585E-01 a      1089     1    11     2    14
  1.0034054782470936E-01 a      1090     1    11     2    15
 -4.9744816267522085E-01 a      1091     1    11     2    16
 -5.0954540023471728E-01 a      1092     1    11     2    17
  3.9172495903963722E-01 a      1093     1    11     2    18
 -1.5762977313975363E-01 a      1094     1    11     2    19
 -6.4514108255310743E-01 a      1095     1    11     2    20
 -3.3855119034239645E-01 a      1096     1    11     2    21
  1.6385782465613657E-01 a      1097     1    11     2    22
 -5.6050903805570020E-02 a      1098     1    11     2    23
 -1.5287901223251688E-01 a      1099     1    11     2    24
  1.7106427907938276E-01 a      1100     1    11     2    25
 -4.4686611858868452E-01 a      1101     1    12     2     1
  4.8344408324074689E-01 a      1102     1    12     2     2
  1.6441488744126259E-01 a      1103     1    12     2     3
 -8.3020221577909475E-02 a      1104     1    12     2     4
  1.7321896560153083E-01 a      1105     1    12     2     5
 -5.6970940410631477E-01 a      1106     1    12     2     6
  1.2793269510048128E-01 a      1107     1    12     2     7
 -2.0351477511194138E-01 a      1108     1    12     2     8
 -7.1182089743122290E-01 a      1109     1    12     2     9
  5.6935503512110219E-01 a      1110     1    12     2    10
  1.0885688387513938E-01 a      1111     1    12     2    11
  2.0520034068933271E-01 a      1112     1    12     2    12
  1.2983726918174235E-01 a      1113     1    12     2    13
 -2.0185691171389117E-01 a      1114     1    12     2    14
  8.1192973403425417E-01 a      1115     1    12     2    15
 -4.3713483125596664E-01 a      1116     1    12     2    16
  4.6441125155660312E-01 a      1117     1    12     2    17
 -1.7312074240164631E-02 a      1118     1    12     2    18
  1.8399666211634869E-01 a      1119     1    12     2    19
  6.5897917479857715E-01 a      1120     1    12     2    20
  2.6281931812159359E-01 a      1121     1    12     2    21
 -7.5801642719555890E-02 a      1122     1    12     2    22
 -4.3448805127093265E-01 a      1123     1    12     2    23
  7.9103574581269320E-01 a      1124     1    12     2    24
 -4.1968173853609830E-01 a      1125     1    12     2    25
 -1.3019564582116730E-01 a      1126     1    13     2     1
  5.7294368419108188E-01 a      1127     1    13     2     2
  3.6934440389009691E-02 a      1128     1    13     2     3
 -6.3218753605846584E-02 a      1129     1    13     2     4
 -2.4395671873926164E-01 a      1130     1    13     2     5
  3.7209726956325867E-01 a      1131     1    13     2     6
 -2.9765242861981740E-04 a      1132     1    13     2     7
  1.1901674270477888E-01 a      1133     1    13     2     8
 -1.3250749245552701E-01 a      1134     1    13     2     9
  2.9008389740455992E-01 a      1135     1    13     2    10
  5.8935274891224609E-01 a      1136     1    13     2    11
 -4.8971794037273864E-01 a      1137     1    13     2    12
 -3.4143947369287581E-01 a      1138     1    13     2    13
  6.8470248571439285E-01 a      1139     1    13     2    14
  2.1555441849137991E-01 a      1140     1    13     2    15
  1.0125451677177319E-01 a      1141     1    13     2    16
  2.3114835857504340E-01 a      1142     1    13     2    17
 -3.4116764591234866E-01 a      1143     1    13     2    18
 -7.3004915787965308E-01 a      1144     1    13     2    19
 -3.5131054261728412E-01 a      1145     1    13     2    20
  4.1560285309631645E-01 a      1146     1    13     2    21
 -7.9997088812345268E-02 a      1147     1    13     2    22
 -5.3193580317429334E-01 a      1148     1    13     2    23
  4.2457991634436831E-01 a      1149     1    13     2    24
 -9.3870031027814493E-02 a      1150     1    13     2    25
  3.4659692733151404E-01 a      1151     1    14     2     1
  6.7313035796365162E-02 a      1152     1    14     2     2
 -2.7268173490003444E-01 a      1153     1    14     2     3
  5.0146323433357176E-01 a      1154     1    14     2     4
  9.2783611205633221E-01 a      1155     1    14     2     5
  3.9688187011460824E-01 a      1156     1    14     2     6
  2.2919423730333641E-01 a      1157     1    14     2     7
  2.9708500866210885E-01 a      1158     1    14     2     8
  1.9694970610958848E-01 a      1159     1    14     2     9
 -7.1130754228802362E-01 a      1160     1    14     2    10
  8.1712529700486802E-01 a      1161     1    14     2    11
  2.9248506120212558E-01 a      1162     1    14     2    12
 -1.0426239397668237E-02 a      1163     1    14     2    13
  4.9820954103456994E-01 a      1164     1    14     2    14
  4.8706675306824443E-01 a      1165     1    14     2    15
 -2.2848963738274986E-02 a      1166     1    14     2    16
 -1.4241053631575993E+00 a      1167     1    14     2    17
 -3.5288924310017747E-02 a      1168     1    14     2    18
 -3.5258325238396060E-01 a      1169     1    14     2    19
  5.8602623431142398E-01 a      1170     1    14     2    20
  5.9765136370101235E-01 a      1171     1    14     2    21
  2.0163753978907741E-03 a      1172     1    14     2    22
 -2.3707037971957337E-01 a      1173     1    14     2    23
 -8.4737752890659956E-01 a      1174     1    14     2    24
  2.1970086384455043E-01 a      1175     1    14     2    25
  3.5743176928965156E-02 a      1176     1    15     2     1
  4.0925721212326229E-03 a      1177     1    15     2     2
 -3.1014638343226114E-01 a      1178     1    15     2     3
  4.8381096082512336E-02 a      1179     1    15     2     4
 -1.2738790508015016E-01 a      1180     1    15     2     5
  3.2667049856762331E-01 a      1181     1    15     2     6
  6.4286044469024861E-01 a      1182     1    15     2     7
  4.1630446888198773E-02 a      1183     1    15     2     8
 -8.3907862278008338E-02 a      1184     1    15     2     9
 -3.6557673123084899E-01 a      1185     1    15     2    10
 -9.0884571080952742E-02 a      1186     1    15     2    11
 -4.6130053226556450E-01 a      1187     1    15     2    12
  5.0477888702147228E-02 a      1188     1    15     2    13
  1.7431522053196802E-01 a      1189     1    15     2    14
 -1.0333681450664041E-01 a      1190     1    15     2    15
  3.0840475378771115E-01 a      1191     1    15     2    16
  7.6615985828614147E-02 a      1192     1    15     2    17
 -3.5300839340007006E-01 a      1193     1    15     2    18
  9.4485438021217671E-02 a      1194     1    15     2    19
  3.8545031631245152E-01 a      1195     1    15     2    20
 -2.0988832430482027E-01 a      1196     1    15     2    21
 -1.5057641530171295E-01 a      1197     1    15     2    22
  1.0021796140122020E-01 a      1198     1    15     2    23
 -2.9188802488759258E-01 a      1199     1    15     2    24
 -4.3345941756834416E-01 a      1200     1    15     2    25
 -2.1066559968084084E-02 a      1201     1    16     2     1
  4.9689306154943214E-02 a      1202     1    16     2     2
  4.8980813690762459E-01 a      1203     1    16     2     3
  4.1561171260192814E-01 a      1204     1    16     2     4
  8.3371259547448284E-02 a      1205     1    16     2     5
  5.1852569939437976E-01 a      1206     1    16     2     6
  9.8089641560049262E-02 a      1207     1    16     2     7
 -5.7029150096120962E-01 a      1208     1    16     2     8
  3.3235856920475126E-01 a      1209     1    16     2     9
  9.9250339428340850E-01 a      1210     1    16     2    10
 -1.4747380147180719E-01 a      1211     1    16     2    11
 -5.5129241036523235E-01 a      1212     1    16     2    12
  2.7306083537032577E-01 a      1213     1    16     2    13
  3.9626036371848411E-01 a      1214     1    16     2    14
  2.1232319438141099E-02 a      1215     1    16     2    15
  1.7449937806701463E-01 a      1216     1    16     2    16
  9.2441877460924093E-01 a      1217     1    16     2    17
  4.8681103042635948E-01 a      1218     1    16     2    18
  1.0087260526303338E-01 a      1219     1    16     2    19
  1.1864619612315691E-01 a      1220     1    16     2    20
  3.8062819876278553E-01 a      1221     1    16     2    21
  4.8202194423685091E-01 a      1222     1    16     2    22
  7.5695018814076476E-02 a      1223     1    16     2    23
  9.6781338685715479E-01 a      1224     1    16     2    24
 -9.5033670005483031E-02 a      1225     1    16     2    25
 -4.7276116234201659E-01 a      1226     1    17     2     1
 -4.1842204796674626E-01 a      1227     1    17     2     2
 -1.1663091815332034E-01 a      1228     1    17     2     3
  1.8107111355726818E-01 a      1229     1    17     2     4
 -5.5264891940214278E-01 a      1230     1    17     2     5
  1.7984994330127793E-01 a      1231     1    17     2     6
  2.7030660026772191E-01 a      1232     1    17     2     7
  2.8089112547708277E-02 a      1233     1    17     2     8
 -4.9475160153162429E-01 a      1234     1    17     2     9
  5.5620258144427441E-03 a      1235     1    17     2    10
 -5.3927500598557876E-01 a      1236     1    17     2    11
 -4.5175228069301510E-01 a      1237     1    17     2    12
 -3.2073529060268247E-01 a      1238     1    17     2    13
 -2.1544073506490141E-01 a      1239     1    17     2    14
 -4.8649877675976005E-01 a      1240     1    17     2    15
  9.6435621342987801E-03 a      1241     1    17     2    16
 -5.3326350513403724E-02 a      1242     1    17     2    17
  2.7140436708785393E-01 a      1243     1    17     2    18
  9.7346351578921103E-02 a      1244     1    17     2    19
 -6.6742464804458002E-02 a      1245     1    17     2    20
  5.3992913578348467E-01 a      1246     1    17     2    21
  6.0778889318505863E-02 a      1247     1    17     2    22
 -2.8607447017910648E-01 a      1248     1    17     2    23
 -6.5555212845642932E-02 a      1249     1    17     2    24
 -4.3268248389369734E-01 a      1250     1    17     2    25
 -3.1536882782141834E-01 a      1251     1    18     2     1
 -8.2824828712272383E-02 a      1252     1    18     2     2
  2.4075607832591203E-01 a      1253     1    18     2     3
  3.8038094774454398E-02 a      1254     1    18     2     4
 -2.5340189671443214E-01 a      1255     1    18     2     5
 -1.4290554775292089E-01 a      1256     1    18     2     6
 -3.0411834698835299E-01 a      1257     1    18     2     7
 -3.0604287206705369E-02 a      1258     1    18     2     8
 -3.0580853369061217E-01 a      1259     1    18     2     9
  1.3151699121704671E-01 a      1260     1    18     2    10
  2.5155033686065292E-01 a      1261     1    18     2    11
  2.3938235873555691E-01 a      1262     1    18     2    12
  1.8002043899779532E-01 a      1263     1    18     2    13
  1.4776706016833097E-01 a      1264     1    18     2    14
  3.8727828862709847E-02 a      1265     1    18     2    15
 -2.9832429788154191E-01 a      1266     1    18     2    16
  2.3863173773384261E-01 a      1267     1    18     2    17
  2.6425387904916728E-03 a      1268     1    18     2    18
 -1.3077812840703057E-01 a      1269     1    18     2    19
 -3.2901036060858574E-01 a      1270     1    18     2    20
 -4.1137577800350561E-01 a      1271     1    18     2    21
 -1.0823815161428864E-01 a      1272     1    18     2    22
 -6.2060901857901352E-01 a      1273     1    18     2    23
  2.9869128218337115E-01 a      1274     1    18     2    24
 -3.7903118804527985E-01 a      1275     1    18     2    25
  2.8975801447470678E-01 a      1276     1    19     2     1
 -2.0626091902809618E-01 a      1277     1    19     2     2
  6.4818455404207398E-01 a      1278     1    19     2     3
 -1.6040949161928114E-01 a      1279     1    19     2     4
 -4.1829398174268151E-01 a      1280     1    19     2     5
 -4.7068686281026983E-01 a      1281     1    19     2     6
 -1.4341355790964927E-01 a      1282     1    19     2     7
 -4.9598493237219138E-01 a      1283     1    19     2     8
 -1.9648594804569777E-01 a      1284     1    19     2     9
  9.1823644160416065E-02 a      1285     1    19     2    10
  7.5503675371696932E-01 a      1286     1    19     2    11
  2.0239549032180698E-01 a      1287     1    19     2    12
 -1.6338008933156958E-01 a      1288     1    19     2    13
 -2.9640548218388735E-01 a      1289     1    19     2    14
 -4.7915631125957042E-01 a      1290     1    19     2    15
 -6.9734348387394041E-01 a      1291     1    19     2    16
  1.0872455310159812E-01 a      1292     1    19     2    17
  7.3086395756690251E-02 a      1293     1    19     2    18
  7.1083266524818989E-01 a      1294     1    19     2    19
  2.4477110544029575E-02 a      1295     1    19     2    20
 -3.1539854300321452E-01 a      1296     1    19     2    21
  2.1243947025818108E-01 a      1297     1    19     2    22
 -3.7490221253393585E-01 a      1298     1    19     2    23
  7.7349825707603870E-01 a      1299     1    19     2    24
 -6.6141297366085117E-01 a      1300     1    19     2    25
  2.8467916610694016E-01 a      1301     1    20     2     1
 -1.0061468276514926E-01 a      1302     1    20     2     2
 -2.7243968132604518E-01 a      1303     1    20     2     3
  1.7728715028289257E-01 a      1304     1    20     2     4
  5.0018179174565164E-02 a      1305     1    20     2     5
  3.0930549588776890E-01 a      1306     1    20     2     6
  4.7111212521617518E-01 a      1307     1    20     2     7
 -4.2734346788423566E-01 a      1308     1    20     2     8
  1.0315704048833209E-01 a      1309     1    20     2     9
  3.4041368433016372E-01 a      1310     1    20     2    10
 -6.0378131493759324E-01 a      1311     1    20     2    11
  3.0051001333403521E-01 a      1312     1    20     2    12
  2.1264534262608240E-01 a      1313     1    20     2    13
 -2.4834423000356179E-01 a      1314     1    20     2    14
 -3.4220083314149163E-01 a      1315     1    20     2    15
  6.0125745218859949E-01 a      1316     1    20     2    16
 -1.2175282046097671E-03 a      1317     1    20     2    17
 -2.1312254024791391E-01 a      1318     1    20     2    18
  2.1119046351513382E-01 a      1319     1    20     2    19
  5.3366912306791237E-01 a      1320     1    20     2    20
 -2.2407111053595843E-01 a      1321     1    20     2    21
  3.3886684032128200E-01 a      1322     1    20     2    22
  3.8639771776365739E-01 a      1323     1    20     2    23
 -2.0985965047573724E-01 a      1324     1    20     2    24
 -7.1442063509554810E-01 a      1325     1    20     2    25
  6.9612680494817170E-02 a      1326     1    21     2     1
  4.8994670981413455E-02 a      1327     1    21     2     2
 -2.5690569363785171E-01 a      1328     1    21     2     3
  2.0479217945477976E-01 a      1329     1    21     2     4
  1.4502666966279837E-01 a      1330     1    21     2     5
 -2.4293762626065407E-01 a      1331     1    21     2     6
 -3.4936745213961917E-01 a      1332     1    21     2     7
 -4.7635659091042809E-01 a      1333     1    21     2     8
 -5.5052369106440346E-01 a      1334     1    21     2     9
 -4.3909161550838093E-02 a      1335     1    21     2    10
 -3.9592793114228109E-01 a      1336     1    21     2    11
 -1.5540337844625302E-01 a      1337     1    21     2    12
  9.2880049238771134E-02 a      1338     1    21     2    13
 -2.0013221256376659E-01 a      1339     1    21     2    14
  1.0509133328920836E-01 a      1340     1    21     2    15
  2.0782940391655461E-01 a      1341     1    21     2    16
  4.6207504034780655E-01 a      1342     1    21     2    17
 -5.9919723543226923E-02 a      1343     1    21     2    18
  4.5344632394321939E-02 a      1344     1    21     2    19
 -3.6026780874076036E-01 a      1345     1    21     2    20
 -3.2348020546086242E-01 a      1346     1    21     2    21
  2.8808084716369325E-01 a      1347     1    21     2    22
 -4.4424213229115889E-01 a      1348     1    21     2    23
 -2.9291967449852258E-01 a      1349     1    21     2    24
  4.4515471061361089E-01 a      1350     1    21     2    25
  2.7420827047509466E-01 a      1351     1    22     2     1
  3.8248176273951234E-01 a      1352     1    22     2     2
 -3.1025932210702623E-01 a      1353     1    22     2     3
 -1.6624044222628609E-01 a      1354     1    22     2     4
 -4.2658882268304621E-01 a      1355     1    22     2     5
 -3.0929910895767349E-01 a      1356     1    22     2     6
  7.3090766447918765E-01 a      1357     1    22     2     7
  2.2860347556072713E-01 a      1358     1    22     2     8
  3.7136533460931165E-01 a      1359     1    22     2     9
  2.0258246330955246E-01 a      1360     1    22     2    10
  1.9871521261149544E-01 a      1361     1    22     2    11
 -2.4716418043597729E-01 a      1362     1    22     2    12
  1.3773378295556957E-01 a      1363     1    22     2    13
 -5.8072649830741258E-02 a      1364     1    22     2    14
  4.7140477064916303E-01 a      1365     1    22     2    15
  1.9075257482997551E-01 a      1366     1    22     2    16
  2.5929110862751392E-01 a      1367     1    22     2    17
 -3.8914099466236540E-01 a      1368     1    22     2    18
  1.0534411937954583E-01 a      1369     1    22     2    19
 -1.2103988603662429E-01 a      1370     1    22     2    20
 -3.8217823599005590E-01 a      1371     1    22     2    21
 -3.3167880228179919E-01 a      1372     1    22     2    22
  3.1649417256217338E-01 a      1373     1    22     2    23
 -3.5838172857133060E-01 a      1374     1    22     2    24
 -4.5023297096186754E-01 a      1375     1    22     2    25
  1.8101674358742614E-01 a      1376     1    23     2     1
 -9.1561980986083924E-02 a      1377     1    23     2     2
 -4.3002617623081363E-01 a      1378     1    23     2     3
  5.0849970439022862E-01 a      1379     1    23     2     4
  8.9547917139692679E-02 a      1380     1    23     2     5
 -1.4849936967588460E-02 a      1381     1    23     2     6
 -9.3041225679986170E-02 a      1382     1    23     2     7
 -2.8204489621546897E-01 a      1383     1    23     2     8
  1.3657187081162184E-01 a      1384     1    23     2     9
  2.3790302281099132E-01 a      1385     1    23     2    10
 -2.5469041982952037E-02 a      1386     1    23     2    11
 -4.2576813991341661E-01 a      1387     1    23     2    12
  2.0991819129452907E-01 a      1388     1    23     2    13
 -1.2901026738812282E-01 a      1389     1    23     2    14
 -3.2896883679069033E-01 a      1390     1    23     2    15
  4.0160129396739480E-01 a      1391     1    23     2    16
  1.4583465663945028E-01 a      1392     1    23     2    17
 -2.8950135258766291E-01 a      1393     1    23     2    18
  1.4106361379672336E-01 a      1394     1    23     2    19
 -8.2743631026744169E-01 a      1395     1    23     2    20
 -5.0383842981187373E-02 a      1396     1    23     2    21
  1.1018422202423209E-01 a      1397     1    23     2    22
  2.1340025066144852E-02 a      1398     1    23     2    23
 -2.0875659260713042E-01 a      1399     1    23     2    24
  4.7476502313904850E-01 a      1400     1    23     2    25
 -3.1193860067263007E-01 a      1401     1    24     2     1
 -6.4856801336786257E-02 a      1402     1    24     2     2
  5.3401236881378766E-01 a      1403     1    24     2     3
 -4.4811705253078827E-03 a      1404     1    24     2     4
  1.5950652242117633E-01 a      1405     1    24     2     5
  4.0598035529161786E-01 a      1406     1    24     2     6
  1.3026658045355213E-01 a      1407     1    24     2     7
 -2.5375223008081614E-02 a      1408     1    24     2     8
 -2.7201678132567247E-01 a      1409     1    24     2     9
  4.2586717288929965E-01 a      1410     1    24     2    10
  3.7381187559777079E-01 a      1411     1    24     2    11
  3.5504553745955875E-01 a      1412     1    24     2    12
 -1.8887003391293702E-01 a      1413     1    24     2    13
 -1.0992714785105776E-02 a      1414     1    24     2    14
  1.6395786698338477E-01 a      1415     1    24     2    15
  5.6072194594267222E-01 a      1416     1    24     2    16
  4.7610471659728461E-02 a      1417     1    24     2    17
  5.5934605500071277E-01 a      1418     1    24     2    18
 -2.0946363096267459E-01 a      1419     1    24     2    19
 -5.3973640419163593E-01 a      1420     1    24     2    20
  6.1598914445327752E-02 a      1421     1    24     2    21
  1.5947434191783610E-01 a      1422     1    24     2    22
  3.5198285170155119E-01 a      1423     1    24     2    23
  3.4635617373237593E-01 a      1424     1    24     2    24
 -4.0224936380901966E-01 a      1425     1    24     2    25
 -7.7681487465758439E-02 a      1426     1    25     2     1
  1.4858414285568439E-01 a      1427     1    25     2     2
 -8.3116152725260892E-02 a      1428     1    25     2     3
 -2.6498217803389523E-01 a      1429     1    25     2     4
 -2.6044423165619185E-01 a      1430     1    25     2     5
  4.9821911223237647E-01 a      1431     1    25     2     6
  3.2911679921009429E-01 a      1432     1    25     2     7
  4.6510181324451443E-02 a      1433     1    25     2     8
 -1.7071832852874710E-01 a      1434     1    25     2     9
 -1.2226608594354704E-01 a      1435     1    25     2    10
  1.2945361738424182E-02 a      1436     1    25     2    11
 -1.6648267362898544E-01 a      1437     1    25     2    12
  2.1323524966079144E-01 a      1438     1    25     2    13
  1.8101464641790983E-02 a      1439     1    25     2    14
 -1.9482068624550325E-01 a      1440     1    25     2    15
 -3.4364573653883479E-01 a      1441     1    25     2    16
  5.1049588369723620E-01 a      1442     1    25     2    17
 -2.5426128609719767E-01 a      1443     1    25     2    18
  3.5463237178961687E-01 a      1444     1    25     2    19
 -1.3097901103467877E-01 a      1445     1    25     2    20
  2.7670311944810960E-01 a      1446     1    25     2    21
  6.4934796507717205E-02 a      1447     1    25     2    22
 -3.0004071408046229E-01 a      1448     1    25     2    23
  7.0101167358250371E-01 a      1449     1    25     2    24
 -7.2681360328649788E-02 a      1450     1    25     2    25
 -1.0707908839717324E+00 b      1451     2     1
 -1.4120554834790038E+00 b      1452     2     2
 -8.3854576147178650E-01 b      1453     2     3
 -6.5614536505343979E-01 b      1454     2     4
 -1.0916241363675523E+00 b      1455     2     5
  5.2010679800079751E-01 b      1456     2     6
 -1.5174687099067214E+00 b      1457     2     7
 -3.4485248646063360E-01 b      1458     2     8
 -4.3553104941077558E-02 b      1459     2     9
  1.5529529167542566E+00 b      1460     2    10
 -1.5203476051241744E+00 b      1461     2    11
 -9.2970377894653433E-01 b      1462     2    12
  3.2689541871491878E-01 b      1463     2    13
 -1.3289611697776660E+00 b      1464     2    14
 -1.5035883652091011E+00 b      1465     2    15
 -1.5387283875843518E+00 b      1466     2    16
  2.7309281779476430E-01 b      1467     2    17
  1.0772794791474463E-01 b      1468     2    18
 -2.7531187776776594E-01 b      1469     2    19
 -5.9198199989066769E-01 b      1470     2    20
  1.4631092641396515E+00 b      1471     2    21
  1.1151704438728463E-01 b      1472     2    22
 -2.7551004765663811E-01 b      1473     2    23
 -4.1457177074999729E-01 b      1474     2    24
 -1.7319729240500917E-01 b      1475     2    25
 -3.2831722996218160E-01 a      1476     2     1     3     1
 -4.1754559086811799E-01 a      1477     2     2     3     1
  8.3533710808801753E-01 a      1478     2     3     3     1
 -1.8497604150827995E-01 a      1479     2     4     3     1
 -5.3581596580938425E-02 a      1480     2     5     3     1
  1.8201058851354393E-01 a      1481     2     6     3     1
  4.0000015576091986E-02 a      1482     2     7     3     1
  7.2916325361819256E-01 a      1483     2     8     3     1
  9.5341618540297457E-01 a      1484     2     9     3     1
  6.3617405500988289E-01 a      1485     2    10     3     1
 -1.3700081442604486E+00 a      1486     2    11     3     1
 -4.0326813868959288E-01 a      1487     2    12     3     1
  5.6692495561252809E-01 a      1488     2    13     3     1
 -5.3901402577145341E-01 a      1489     2    14     3     1
  2.5717053859633038E-01 a      1490     2    15     3     1
 -4.9780579100871636E-01 a      1491     2    16     3     1
 -2.0847639133861615E-01 a      1492     2    17     3     1
 -8.3012803865624807E-01 a      1493     2    18     3     1
 -5.8142556678407165E-01 a      1494     2    19     3     1
  6.0447007666801174E-02 a      1495     2    20     3     1
  1.0495592072822315E+00 a      1496     2    21     3     1
  1.2518811897309030E+00 a      1497     2    22     3     1
 -4.4846696118026164E-02 a      1498     2    23     3     1
 -2.4307474222685654E-01 a      1499     2    24     3     1
 -1.1978833050393314E-02 a      1500     2    25     3     1
  4.6962602658007713E-01 b      1501     3     1
