################################################################################
# Neural network connection values (weights and biases).
################################################################################
# Col  Name       Description
################################################################################
# 1    connection Neural network connection value.
# 2    t          Connection type (a = weight, b = bias).
# 3    index      Index enumerating weights.
# 4    l_s        Starting point layer (end point layer for biases).
# 5    n_s        Starting point neuron in starting layer (end point neuron for biases).
# 6    l_e        End point layer.
# 7    n_e        End point neuron in end layer.
################################################################################
#                      1 2         3     4     5     6     7
#             connection t     index   l_s   n_s   l_e   n_e
############################################################
  4.9691956667469739E-01 a         1     0     1     1     1
 -8.7621180635405159E-03 a         2     0     1     1     2
  3.2683067265401389E-01 a         3     0     1     1     3
  7.0991268979375910E-01 a         4     0     1     1     4
 -6.1109001181484524E-01 a         5     0     1     1     5
  4.5479753255879268E-01 a         6     0     1     1     6
  9.6035334857508348E-01 a         7     0     1     1     7
  5.6824783432333381E-01 a         8     0     1     1     8
  5.3915056000024186E-01 a         9     0     1     1     9
  3.4058424284948674E-01 a        10     0     1     1    10
 -1.9150033964010929E-01 a        11     0     1     1    11
 -1.7994439209765973E-02 a        12     0     1     1    12
  1.7943732709674196E-01 a        13     0     1     1    13
 -4.4141216505512243E-01 a        14     0     1     1    14
 -2.6818074436431999E-01 a        15     0     1     1    15
 -6.4359285385741871E-01 a        16     0     1     1    16
  3.5845752612926156E-02 a        17     0     1     1    17
  5.7571122083103228E-02 a        18     0     1     1    18
 -1.5677709592464548E-01 a        19     0     1     1    19
 -1.1953198031182364E-02 a        20     0     1     1    20
  1.1734533426952551E+00 a        21     0     1     1    21
 -9.2446209021564557E-02 a        22     0     1     1    22
  1.0439119020081149E+00 a        23     0     1     1    23
 -2.2777494969535800E-01 a        24     0     1     1    24
  4.9450854791471216E-01 a        25     0     1     1    25
  2.1204796175644533E-01 a        26     0     2     1     1
 -2.3640594425032097E-01 a        27     0     2     1     2
  2.9307127877049283E-01 a        28     0     2     1     3
 -5.8146856777274103E-01 a        29     0     2     1     4
 -2.5578089579352270E-01 a        30     0     2     1     5
  2.2343250062799161E-01 a        31     0     2     1     6
  1.9425060340022224E-01 a        32     0     2     1     7
  1.1965087455100090E-01 a        33     0     2     1     8
  4.2882533528876982E-01 a        34     0     2     1     9
 -3.8308562853777889E-01 a        35     0     2     1    10
  3.2125802537264497E-01 a        36     0     2     1    11
 -1.3621603539531249E-01 a        37     0     2     1    12
  5.1585848648807386E-01 a        38     0     2     1    13
  5.3766690711061904E-01 a        39     0     2     1    14
  6.9184411744653174E-02 a        40     0     2     1    15
 -2.6797302331023792E-01 a        41     0     2     1    16
 -2.3687227632519114E-01 a        42     0     2     1    17
  1.9524902600348440E-01 a        43     0     2     1    18
  1.6141736661941447E-01 a        44     0     2     1    19
 -2.0693466640457089E-01 a        45     0     2     1    20
 -1.1713634086242911E-01 a        46     0     2     1    21
 -7.3055824881404474E-01 a        47     0     2     1    22
  7.5381669184927003E-02 a        48     0     2     1    23
  3.4952422123527516E-01 a        49     0     2     1    24
 -3.8322354540690734E-01 a        50     0     2     1    25
 -7.4733635978344093E-02 a        51     0     3     1     1
  1.8754772485064253E-01 a        52     0     3     1     2
 -2.0870379077217416E-01 a        53     0     3     1     3
 -9.9973065209291745E-01 a        54     0     3     1     4
 -7.0436294494413509E-01 a        55     0     3     1     5
 -2.3477266398267646E-01 a        56     0     3     1     6
 -1.1105351585676730E-01 a        57     0     3     1     7
 -9.0698359429885400E-01 a        58     0     3     1     8
 -8.8189194483202793E-01 a        59     0     3     1     9
  4.0499659398067278E-01 a        60     0     3     1    10
  2.5785386756516149E-01 a        61     0     3     1    11
  3.2788031991921274E-01 a        62     0     3     1    12
 -2.7660019266779245E-01 a        63     0     3     1    13
  6.8780557251839625E-01 a        64     0     3     1    14
  2.3514947530186120E-01 a        65     0     3     1    15
  1.3839743612437030E-01 a        66     0     3     1    16
  1.1741236831170289E-01 a        67     0     3     1    17
 -2.2742704249251777E-01 a        68     0     3     1    18
  4.6273255733614221E-01 a        69     0     3     1    19
  7.6679031125894925E-01 a        70     0     3     1    20
  4.3946796393976950E-01 a        71     0     3     1    21
  2.6032704278025987E-01 a        72     0     3     1    22
 -2.6792277102401857E-01 a        73     0     3     1    23
  6.9731538776687418E-02 a        74     0     3     1    24
  4.3176350277332148E-01 a        75     0     3     1    25
 -1.6390407422122763E-01 a        76     0     4     1     1
 -8.3162421453811619E-01 a        77     0     4     1     2
 -2.6959366398499256E-02 a        78     0     4     1     3
  5.5109182594232742E-01 a        79     0     4     1     4
  1.8508630867540399E-02 a        80     0     4     1     5
 -8.0029302515372136E-01 a        81     0     4     1     6
  2.7361667725999450E-01 a        82     0     4     1     7
 -3.8416561201304844E-01 a        83     0     4     1     8
 -1.6580590952370636E-01 a        84     0     4     1     9
 -2.0415448328045357E-01 a        85     0     4     1    10
 -6.0557334153826614E-01 a        86     0     4     1    11
  5.7979797811775580E-01 a        87     0     4     1    12
  2.3570619335060763E-01 a        88     0     4     1    13
 -2.2624003200761628E-01 a        89     0     4     1    14
 -2.0686718954976394E-01 a        90     0     4     1    15
  2.7530893858704586E-01 a        91     0     4     1    16
 -9.7910947589965852E-02 a        92     0     4     1    17
 -2.5294041899533970E-01 a        93     0     4     1    18
  3.2731122978865251E-01 a        94     0     4     1    19
 -2.1539676244862280E-01 a        95     0     4     1    20
  4.2455676194920516E-01 a        96     0     4     1    21
  1.1325960189126844E-01 a        97     0     4     1    22
 -2.0032464946443757E-01 a        98     0     4     1    23
 -5.8465809025085780E-01 a        99     0     4     1    24
 -1.8019457093860974E-01 a       100     0     4     1    25
  1.6466384291054070E-01 a       101     0     5     1     1
 -2.6463292905110175E-01 a       102     0     5     1     2
  1.0186951293049593E-01 a       103     0     5     1     3
  9.3595790395516854E-02 a       104     0     5     1     4
  8.2001135139199177E-01 a       105     0     5     1     5
  5.1828880585084081E-01 a       106     0     5     1     6
  2.7604750262789496E-01 a       107     0     5     1     7
  8.6080983725849725E-01 a       108     0     5     1     8
  9.3462084996214251E-02 a       109     0     5     1     9
 -3.1655037468525909E-01 a       110     0     5     1    10
  4.2345212725960063E-01 a       111     0     5     1    11
 -2.5753026893742870E-01 a       112     0     5     1    12
 -2.8819771716703968E-01 a       113     0     5     1    13
 -5.1856810010241705E-01 a       114     0     5     1    14
  9.8384282844774948E-02 a       115     0     5     1    15
  6.1512607870368086E-01 a       116     0     5     1    16
 -1.5127520389268698E-01 a       117     0     5     1    17
  2.0454270878806843E-01 a       118     0     5     1    18
 -8.1787862257260668E-01 a       119     0     5     1    19
 -3.4718409911403764E-01 a       120     0     5     1    20
 -8.9962617099821718E-01 a       121     0     5     1    21
 -6.4469965801449633E-02 a       122     0     5     1    22
 -5.1783415927469056E-01 a       123     0     5     1    23
 -2.2323367645252523E-01 a       124     0     5     1    24
 -1.1397444444582825E+00 a       125     0     5     1    25
  2.9864572807335216E-01 a       126     0     6     1     1
  1.4570761586007244E-01 a       127     0     6     1     2
  1.2137748828452638E-01 a       128     0     6     1     3
  3.2087528822950018E-01 a       129     0     6     1     4
  4.2535991062121653E-01 a       130     0     6     1     5
  2.6080685864933223E-01 a       131     0     6     1     6
 -5.3344514032993928E-01 a       132     0     6     1     7
 -8.9167715888904070E-02 a       133     0     6     1     8
  1.1097256168507746E-01 a       134     0     6     1     9
 -1.7028442640563973E-01 a       135     0     6     1    10
  1.6071121932820329E-01 a       136     0     6     1    11
  2.4253599546578522E-01 a       137     0     6     1    12
 -3.4178803975681436E-04 a       138     0     6     1    13
  3.2214743482899579E-02 a       139     0     6     1    14
  2.0729106269900155E-01 a       140     0     6     1    15
 -1.7472022941784854E-01 a       141     0     6     1    16
 -3.3343143441652919E-03 a       142     0     6     1    17
 -1.0737226375422923E-01 a       143     0     6     1    18
 -1.2197008373425451E-01 a       144     0     6     1    19
 -7.9798529760875453E-02 a       145     0     6     1    20
 -3.5968529400808202E-01 a       146     0     6     1    21
 -2.9702949603730594E-01 a       147     0     6     1    22
  3.0666421510598074E-01 a       148     0     6     1    23
  2.9894096502997636E-01 a       149     0     6     1    24
  1.7970555731835408E-01 a       150     0     6     1    25
 -1.7531989503403730E-01 a       151     0     7     1     1
  5.0020071996208926E-01 a       152     0     7     1     2
  1.9026616246044270E-01 a       153     0     7     1     3
  2.6274972713432493E-01 a       154     0     7     1     4
 -4.9250998075172436E-01 a       155     0     7     1     5
  1.2807130748868126E-01 a       156     0     7     1     6
  5.4780042617621061E-01 a       157     0     7     1     7
 -7.9595755628574616E-01 a       158     0     7     1     8
  1.0819794479718879E-03 a       159     0     7     1     9
 -2.3132969776286025E-01 a       160     0     7     1    10
 -3.2371959654807103E-01 a       161     0     7     1    11
 -2.2868709067306714E-01 a       162     0     7     1    12
  1.9194744219651210E-02 a       163     0     7     1    13
  1.4048176580065153E-01 a       164     0     7     1    14
 -2.4504658407482632E-01 a       165     0     7     1    15
 -1.1057735306204036E-01 a       166     0     7     1    16
  3.1589482926160239E-01 a       167     0     7     1    17
  1.9319426608793536E-01 a       168     0     7     1    18
 -8.2024994234384127E-02 a       169     0     7     1    19
  1.4085080075379103E-01 a       170     0     7     1    20
  7.3347045033095815E-01 a       171     0     7     1    21
  7.5021005744346045E-02 a       172     0     7     1    22
 -1.1266895475818148E-01 a       173     0     7     1    23
  2.3752578866850615E-01 a       174     0     7     1    24
  7.5079578455059504E-01 a       175     0     7     1    25
 -2.5286943385270599E-01 a       176     0     8     1     1
 -5.0615711109491346E-01 a       177     0     8     1     2
 -1.7182520508269858E-01 a       178     0     8     1     3
 -4.3341143693399226E-01 a       179     0     8     1     4
 -1.1397404856781687E-02 a       180     0     8     1     5
 -3.1740631993970386E-01 a       181     0     8     1     6
 -2.4891213160011896E-01 a       182     0     8     1     7
 -1.3309422770715359E-02 a       183     0     8     1     8
 -8.7724824223124574E-03 a       184     0     8     1     9
 -2.0495150032588016E-01 a       185     0     8     1    10
 -2.6477229071578047E-02 a       186     0     8     1    11
 -3.7668039210283455E-01 a       187     0     8     1    12
  6.1457095053514088E-01 a       188     0     8     1    13
  1.5194154175468708E-01 a       189     0     8     1    14
 -1.5066714636411443E-01 a       190     0     8     1    15
  1.2063398040066579E-01 a       191     0     8     1    16
  3.3577411494507020E-02 a       192     0     8     1    17
  5.6783245272612781E-01 a       193     0     8     1    18
 -1.7199769652381652E-01 a       194     0     8     1    19
 -6.7971646777072986E-02 a       195     0     8     1    20
  1.2141200453373455E-01 a       196     0     8     1    21
  1.7068290849456444E-01 a       197     0     8     1    22
  1.1525674247882958E-01 a       198     0     8     1    23
 -2.5532995957664600E-01 a       199     0     8     1    24
  6.4172175425806333E-02 a       200     0     8     1    25
 -9.1531779248164247E-02 a       201     0     9     1     1
  6.8968428373965510E-02 a       202     0     9     1     2
 -8.0678354310133926E-02 a       203     0     9     1     3
 -3.5519503547476905E-01 a       204     0     9     1     4
 -4.6981003023012324E-01 a       205     0     9     1     5
  1.0902868891167380E-01 a       206     0     9     1     6
  4.4512617287533518E-01 a       207     0     9     1     7
  9.3357028735896783E-02 a       208     0     9     1     8
 -3.2015493156897223E-01 a       209     0     9     1     9
  6.0919672545598014E-01 a       210     0     9     1    10
  1.7161792398855666E-01 a       211     0     9     1    11
  1.2862602463839154E-01 a       212     0     9     1    12
 -5.0192965280369661E-01 a       213     0     9     1    13
 -5.9434336856508514E-02 a       214     0     9     1    14
  4.3773174992238301E-01 a       215     0     9     1    15
  2.0849325617943149E-01 a       216     0     9     1    16
 -4.0757999391829564E-01 a       217     0     9     1    17
 -2.9645357397152859E-03 a       218     0     9     1    18
 -8.8780858455407424E-02 a       219     0     9     1    19
  4.1662845382528635E-01 a       220     0     9     1    20
  1.6257397272433435E-01 a       221     0     9     1    21
  1.4358232296373732E-01 a       222     0     9     1    22
  3.3172471623076188E-01 a       223     0     9     1    23
 -2.1653971853478710E-01 a       224     0     9     1    24
 -8.5901276883858638E-02 a       225     0     9     1    25
  1.3886912897354078E-01 a       226     0    10     1     1
  7.3481215511047873E-02 a       227     0    10     1     2
 -2.7074808981598264E-01 a       228     0    10     1     3
  3.3304171712030867E-01 a       229     0    10     1     4
  3.8821641788662103E-01 a       230     0    10     1     5
 -3.5905261376828451E-02 a       231     0    10     1     6
 -3.8888323755569160E-01 a       232     0    10     1     7
  1.0090157212000658E-01 a       233     0    10     1     8
 -2.4377955719941038E-01 a       234     0    10     1     9
  2.8624596284986459E-01 a       235     0    10     1    10
  4.2425233688236155E-02 a       236     0    10     1    11
  6.0683113228768426E-01 a       237     0    10     1    12
  4.6496905639354091E-01 a       238     0    10     1    13
 -7.0447799701830072E-02 a       239     0    10     1    14
  5.1041785494323345E-02 a       240     0    10     1    15
 -2.3286508778880083E-01 a       241     0    10     1    16
 -1.4216811160581110E-02 a       242     0    10     1    17
 -1.9259945862736413E-01 a       243     0    10     1    18
  2.0329407203222288E-01 a       244     0    10     1    19
 -4.6350980653109602E-01 a       245     0    10     1    20
 -1.5811304516004079E-01 a       246     0    10     1    21
 -2.8861937120702952E-01 a       247     0    10     1    22
  3.9653839156120120E-02 a       248     0    10     1    23
  3.2144808093807667E-02 a       249     0    10     1    24
 -1.4533160269845069E-01 a       250     0    10     1    25
 -2.9640555841795063E-01 a       251     0    11     1     1
  1.2360433424144608E-01 a       252     0    11     1     2
 -3.0041667477346299E-02 a       253     0    11     1     3
  1.9038683165416831E-01 a       254     0    11     1     4
  2.6979749922989654E-01 a       255     0    11     1     5
 -2.8032844731366361E-02 a       256     0    11     1     6
 -3.5831114216025978E-01 a       257     0    11     1     7
  4.6281546206890138E-03 a       258     0    11     1     8
  4.7815380016462339E-01 a       259     0    11     1     9
 -4.2762041967130698E-01 a       260     0    11     1    10
 -1.0014585092262565E-01 a       261     0    11     1    11
 -2.2294942719714403E-01 a       262     0    11     1    12
 -1.5723184632976192E-01 a       263     0    11     1    13
 -3.5015301695208272E-02 a       264     0    11     1    14
 -2.3176444900704060E-01 a       265     0    11     1    15
 -9.5700470648796401E-02 a       266     0    11     1    16
  2.8722627645824206E-01 a       267     0    11     1    17
  3.1940560532743290E-01 a       268     0    11     1    18
 -1.4490739971427987E-02 a       269     0    11     1    19
  9.0711347091061073E-02 a       270     0    11     1    20
 -3.3387369395403360E-01 a       271     0    11     1    21
 -6.1719773971509163E-02 a       272     0    11     1    22
 -1.9103007010318057E-01 a       273     0    11     1    23
  1.4909455902349725E-01 a       274     0    11     1    24
 -2.1664162462960226E-02 a       275     0    11     1    25
  2.9863140351598516E-01 a       276     0    12     1     1
 -3.2767333825065925E-01 a       277     0    12     1     2
  3.4703742928664938E-01 a       278     0    12     1     3
 -5.8168282141451810E-02 a       279     0    12     1     4
 -1.2369538497443835E-01 a       280     0    12     1     5
 -3.7359724599226755E-02 a       281     0    12     1     6
 -2.0892651774435433E-01 a       282     0    12     1     7
 -1.8042166401060499E-02 a       283     0    12     1     8
 -4.5054587554739768E-02 a       284     0    12     1     9
 -1.9836454928977873E-01 a       285     0    12     1    10
  1.2183903798486019E-01 a       286     0    12     1    11
  7.4389975769794517E-02 a       287     0    12     1    12
  1.0084215456173334E-01 a       288     0    12     1    13
  1.2271761068162935E-01 a       289     0    12     1    14
 -8.0589681134504348E-02 a       290     0    12     1    15
 -4.4178722766471780E-03 a       291     0    12     1    16
  4.3384815098428661E-02 a       292     0    12     1    17
 -1.3549985035617859E-01 a       293     0    12     1    18
  2.1796336593703149E-02 a       294     0    12     1    19
 -1.0394384763194695E-01 a       295     0    12     1    20
 -1.1167353693904356E-02 a       296     0    12     1    21
  1.9084151622094137E-01 a       297     0    12     1    22
 -1.3790671674740570E-02 a       298     0    12     1    23
 -7.3579531600165074E-02 a       299     0    12     1    24
 -2.0959299616310285E-02 a       300     0    12     1    25
 -6.8156584735278414E-02 a       301     0    13     1     1
  5.9017732844183629E-02 a       302     0    13     1     2
 -8.1814968614634595E-02 a       303     0    13     1     3
 -1.2786987063469935E-01 a       304     0    13     1     4
 -3.1754276947739979E-01 a       305     0    13     1     5
 -5.2559082294551515E-02 a       306     0    13     1     6
  4.5297656612507337E-01 a       307     0    13     1     7
 -3.9384417409052935E-02 a       308     0    13     1     8
  8.7811106533487435E-02 a       309     0    13     1     9
  1.7584819882418326E-01 a       310     0    13     1    10
  8.8977797314932328E-02 a       311     0    13     1    11
 -5.4463184740972614E-02 a       312     0    13     1    12
 -3.5598861341021432E-01 a       313     0    13     1    13
  4.1397081286210308E-02 a       314     0    13     1    14
  3.9818867206532244E-01 a       315     0    13     1    15
  7.9018750393822362E-02 a       316     0    13     1    16
 -3.3339979493832267E-01 a       317     0    13     1    17
  1.3562754911175942E-01 a       318     0    13     1    18
  7.5843125477531442E-02 a       319     0    13     1    19
  5.5964150185061612E-01 a       320     0    13     1    20
  4.3365130423014758E-01 a       321     0    13     1    21
  9.7733612620759594E-02 a       322     0    13     1    22
  4.2448003451522964E-01 a       323     0    13     1    23
  1.5489629529863463E-01 a       324     0    13     1    24
  8.8388298643647209E-02 a       325     0    13     1    25
  2.0366466871806976E-01 a       326     0    14     1     1
 -1.5772511598342174E-02 a       327     0    14     1     2
 -2.8181196812737186E-01 a       328     0    14     1     3
  1.4763278737585296E-02 a       329     0    14     1     4
  2.2673763455609916E-01 a       330     0    14     1     5
 -8.9730834524993391E-02 a       331     0    14     1     6
 -2.1253714233711010E-01 a       332     0    14     1     7
  1.8560539036454676E-01 a       333     0    14     1     8
 -1.8368766270321332E-01 a       334     0    14     1     9
  3.5090464897114038E-01 a       335     0    14     1    10
 -2.8519848053567207E-02 a       336     0    14     1    11
  2.7651069756892255E-01 a       337     0    14     1    12
  2.9399516898494737E-01 a       338     0    14     1    13
  4.8763269701058216E-02 a       339     0    14     1    14
 -1.7865654938875114E-01 a       340     0    14     1    15
 -1.4591228814034854E-01 a       341     0    14     1    16
  1.2026078862753047E-01 a       342     0    14     1    17
 -1.6466459197891387E-01 a       343     0    14     1    18
  4.6257373047272760E-02 a       344     0    14     1    19
 -3.9064113141952034E-01 a       345     0    14     1    20
 -3.2722569921848854E-02 a       346     0    14     1    21
 -1.9641465006698422E-01 a       347     0    14     1    22
 -2.7414257203319875E-01 a       348     0    14     1    23
 -2.1263475058733336E-01 a       349     0    14     1    24
 -2.6069154075541900E-01 a       350     0    14     1    25
 -2.0307782829091220E-01 a       351     0    15     1     1
  8.3179889081190701E-04 a       352     0    15     1     2
 -1.4064761707472484E-02 a       353     0    15     1     3
 -7.9356361089968075E-03 a       354     0    15     1     4
  2.9454812910271272E-01 a       355     0    15     1     5
  1.1701364594291670E-01 a       356     0    15     1     6
 -4.0129677458448629E-02 a       357     0    15     1     7
  3.3498153295748741E-02 a       358     0    15     1     8
 -7.1914473586501743E-02 a       359     0    15     1     9
 -2.5603462531061005E-01 a       360     0    15     1    10
 -1.3235960754674159E-01 a       361     0    15     1    11
 -1.7155783227387783E-01 a       362     0    15     1    12
 -2.2687353702194890E-01 a       363     0    15     1    13
 -1.3186553812228191E-01 a       364     0    15     1    14
 -1.1048182862088499E-01 a       365     0    15     1    15
  2.3655382654436178E-02 a       366     0    15     1    16
  2.0545764000838348E-02 a       367     0    15     1    17
  1.0994593498762389E-01 a       368     0    15     1    18
  2.1445172809741040E-02 a       369     0    15     1    19
 -4.9047003608731050E-02 a       370     0    15     1    20
 -3.6756986853664719E-01 a       371     0    15     1    21
 -1.2914986216308846E-01 a       372     0    15     1    22
  4.3838338228656890E-02 a       373     0    15     1    23
  9.7978217201182591E-02 a       374     0    15     1    24
 -1.2923255713265660E-02 a       375     0    15     1    25
  1.8660939851484579E-01 a       376     0    16     1     1
  3.7441165937241144E-02 a       377     0    16     1     2
  1.3533400992561190E-01 a       378     0    16     1     3
  1.3413877244559780E-01 a       379     0    16     1     4
 -1.0896969064707816E-01 a       380     0    16     1     5
 -9.0945058118639385E-02 a       381     0    16     1     6
 -2.4469386918672170E-01 a       382     0    16     1     7
 -6.0213002605973870E-02 a       383     0    16     1     8
 -1.2148411407527274E-02 a       384     0    16     1     9
  2.2950263202233676E-02 a       385     0    16     1    10
  1.5096862184132259E-01 a       386     0    16     1    11
  1.3013184251614740E-01 a       387     0    16     1    12
  3.5245440171674058E-01 a       388     0    16     1    13
  1.8772430453210091E-02 a       389     0    16     1    14
  5.7449417677939749E-02 a       390     0    16     1    15
 -5.5806852255279683E-02 a       391     0    16     1    16
  3.5935177585614327E-02 a       392     0    16     1    17
  8.7022329407777710E-02 a       393     0    16     1    18
  6.5532242569856739E-03 a       394     0    16     1    19
 -1.3703454427029618E-01 a       395     0    16     1    20
  5.1820364004126637E-02 a       396     0    16     1    21
  1.8157447090289278E-01 a       397     0    16     1    22
 -2.1271683035266456E-02 a       398     0    16     1    23
 -1.5032292777643241E-01 a       399     0    16     1    24
  4.0509470873416761E-02 a       400     0    16     1    25
 -2.1725947348149810E-01 a       401     0    17     1     1
  6.5097726617952822E-02 a       402     0    17     1     2
 -9.3921181863688058E-02 a       403     0    17     1     3
 -2.1041733334454870E-02 a       404     0    17     1     4
 -2.4170948819710961E-01 a       405     0    17     1     5
 -4.2118766702561997E-02 a       406     0    17     1     6
 -1.0654399959968361E-01 a       407     0    17     1     7
 -9.1874420490475589E-02 a       408     0    17     1     8
  2.0771812698471565E-01 a       409     0    17     1     9
  2.0702607840723156E-01 a       410     0    17     1    10
 -9.1337388626460958E-02 a       411     0    17     1    11
  5.5992539792004130E-02 a       412     0    17     1    12
 -7.3581908278525475E-03 a       413     0    17     1    13
  9.3736282679279956E-02 a       414     0    17     1    14
  2.4784229691995771E-02 a       415     0    17     1    15
 -3.3609443541267506E-02 a       416     0    17     1    16
  5.1527854778009946E-02 a       417     0    17     1    17
  1.4265195101472974E-01 a       418     0    17     1    18
 -2.3266106859427493E-01 a       419     0    17     1    19
 -2.5492902086469596E-03 a       420     0    17     1    20
  1.3655288760361536E-01 a       421     0    17     1    21
  9.6587267014834957E-02 a       422     0    17     1    22
 -6.3391632887462815E-02 a       423     0    17     1    23
 -1.9445840575640294E-01 a       424     0    17     1    24
  2.4296853030499638E-01 a       425     0    17     1    25
 -3.0152649413805049E-02 a       426     0    18     1     1
 -7.7038463699728110E-02 a       427     0    18     1     2
 -1.3579502072611547E-02 a       428     0    18     1     3
 -7.1144099684739698E-02 a       429     0    18     1     4
 -1.8027449880485037E-02 a       430     0    18     1     5
  4.4782482588356418E-02 a       431     0    18     1     6
 -5.8040459223162250E-03 a       432     0    18     1     7
  3.8686746208904089E-02 a       433     0    18     1     8
  5.5412418048239348E-02 a       434     0    18     1     9
  1.0823774667139251E-01 a       435     0    18     1    10
 -1.2546402061906456E-01 a       436     0    18     1    11
  9.4345583094980465E-02 a       437     0    18     1    12
 -3.3987761834554298E-01 a       438     0    18     1    13
  5.9982212743918358E-02 a       439     0    18     1    14
 -1.7646841183444104E-01 a       440     0    18     1    15
 -1.4636914653190803E-02 a       441     0    18     1    16
  4.2823439214261801E-02 a       442     0    18     1    17
 -1.3610902443779316E-01 a       443     0    18     1    18
  2.0207158640767938E-02 a       444     0    18     1    19
 -6.9874583523466399E-02 a       445     0    18     1    20
  1.2634056560634667E-02 a       446     0    18     1    21
 -1.0683502052732842E-01 a       447     0    18     1    22
 -1.0044857832763100E-01 a       448     0    18     1    23
 -8.3224627286147372E-03 a       449     0    18     1    24
 -7.8951035919245030E-02 a       450     0    18     1    25
 -1.6649852222448516E-01 a       451     0    19     1     1
 -1.0961445676949128E-01 a       452     0    19     1     2
 -1.1907075085429993E-01 a       453     0    19     1     3
 -3.5042256476976417E-02 a       454     0    19     1     4
  9.3518237023571746E-02 a       455     0    19     1     5
  1.0977873311102450E-02 a       456     0    19     1     6
 -8.3675145992188657E-02 a       457     0    19     1     7
  1.6539641337903493E-01 a       458     0    19     1     8
 -1.4997252081031642E-01 a       459     0    19     1     9
  4.5656035561639566E-02 a       460     0    19     1    10
  7.7608574293919041E-02 a       461     0    19     1    11
  2.9894430165178655E-02 a       462     0    19     1    12
 -1.0593146443946645E-01 a       463     0    19     1    13
 -1.0743821935651589E-03 a       464     0    19     1    14
 -2.7862146637388171E-02 a       465     0    19     1    15
 -7.9183367337083574E-02 a       466     0    19     1    16
  1.5428735923917830E-02 a       467     0    19     1    17
 -2.0815402262432570E-03 a       468     0    19     1    18
  1.0650915266235546E-01 a       469     0    19     1    19
 -9.2804557913150662E-02 a       470     0    19     1    20
 -5.9084090954925263E-02 a       471     0    19     1    21
 -9.7589375492145081E-02 a       472     0    19     1    22
  1.0742614715904795E-02 a       473     0    19     1    23
  1.6434069752105560E-01 a       474     0    19     1    24
 -1.5752136015931592E-01 a       475     0    19     1    25
  4.2357827254015856E-01 a       476     0    20     1     1
  7.8370925225839258E-02 a       477     0    20     1     2
  5.5423184773148836E-05 a       478     0    20     1     3
  1.3231075826353994E-01 a       479     0    20     1     4
 -3.0054996330690843E-02 a       480     0    20     1     5
 -6.3447782367740138E-02 a       481     0    20     1     6
 -6.7213016266084433E-02 a       482     0    20     1     7
 -5.4033022064934301E-02 a       483     0    20     1     8
  1.1614780893254921E-01 a       484     0    20     1     9
 -3.1901864713796427E-02 a       485     0    20     1    10
  7.2332532931454085E-02 a       486     0    20     1    11
 -3.6248608241609533E-02 a       487     0    20     1    12
  3.9782464929673467E-01 a       488     0    20     1    13
 -2.3983485516091980E-02 a       489     0    20     1    14
  1.2002764822783241E-01 a       490     0    20     1    15
  2.9597972035913828E-02 a       491     0    20     1    16
 -2.6666210204729184E-02 a       492     0    20     1    17
 -3.5385586105537267E-03 a       493     0    20     1    18
  3.4683138025392052E-02 a       494     0    20     1    19
 -1.8937545969160415E-02 a       495     0    20     1    20
  2.9482262025027937E-02 a       496     0    20     1    21
  8.3319554165420404E-02 a       497     0    20     1    22
 -9.4792037433990589E-02 a       498     0    20     1    23
 -1.0018291476013018E-02 a       499     0    20     1    24
 -5.6784574099060679E-03 a       500     0    20     1    25
 -2.3400998984240012E-01 a       501     0    21     1     1
 -2.6782590000553164E-01 a       502     0    21     1     2
  2.2159944727985362E-01 a       503     0    21     1     3
  5.2809274490382085E-01 a       504     0    21     1     4
  7.3419339397353611E-01 a       505     0    21     1     5
  2.5987502399354534E-01 a       506     0    21     1     6
  4.8690068857006347E-01 a       507     0    21     1     7
  1.1541269822938999E-01 a       508     0    21     1     8
 -3.0415320185178468E-01 a       509     0    21     1     9
  3.0380856927983074E-01 a       510     0    21     1    10
 -5.5286557769976530E-01 a       511     0    21     1    11
  1.5941165528226744E-02 a       512     0    21     1    12
  2.3634221501696004E-01 a       513     0    21     1    13
  5.7411201669304956E-01 a       514     0    21     1    14
 -6.3616515353145719E-01 a       515     0    21     1    15
 -2.0621844784133381E-01 a       516     0    21     1    16
  5.6903887533982483E-02 a       517     0    21     1    17
 -8.6383594748093628E-01 a       518     0    21     1    18
 -4.1234218108263644E-02 a       519     0    21     1    19
 -4.4844545060030841E-02 a       520     0    21     1    20
 -1.8882232177989006E-01 a       521     0    21     1    21
 -1.6217396918955182E-01 a       522     0    21     1    22
  6.7264365545503713E-01 a       523     0    21     1    23
 -1.6086471615524189E-01 a       524     0    21     1    24
  4.1034843548018368E-02 a       525     0    21     1    25
  1.8641019382786198E-01 a       526     0    22     1     1
 -9.8437086800040485E-01 a       527     0    22     1     2
  5.0448742711052286E-01 a       528     0    22     1     3
 -3.9348686821853945E-01 a       529     0    22     1     4
 -3.9673757372860730E-01 a       530     0    22     1     5
 -8.6801406054854369E-01 a       531     0    22     1     6
 -1.7483805196682672E-01 a       532     0    22     1     7
 -8.5012304371769887E-01 a       533     0    22     1     8
  1.4934289947766757E-01 a       534     0    22     1     9
 -1.5869049385346987E-01 a       535     0    22     1    10
  4.2754924844821041E-01 a       536     0    22     1    11
  3.8797808865940775E-01 a       537     0    22     1    12
  8.1630631621466787E-01 a       538     0    22     1    13
 -7.8085979278944589E-02 a       539     0    22     1    14
  9.4668097687763741E-01 a       540     0    22     1    15
 -5.4378793334187714E-02 a       541     0    22     1    16
 -7.7872755600663021E-02 a       542     0    22     1    17
  7.1968858078040454E-01 a       543     0    22     1    18
  6.1502741018511986E-01 a       544     0    22     1    19
 -4.5432771857473675E-01 a       545     0    22     1    20
  5.7230088815675206E-01 a       546     0    22     1    21
  3.8239752438315106E-01 a       547     0    22     1    22
  1.0783534676742359E-02 a       548     0    22     1    23
 -1.6519233092445290E-01 a       549     0    22     1    24
  1.7875816141408737E-01 a       550     0    22     1    25
 -8.9212303008917346E-02 a       551     0    23     1     1
  9.1734964868286117E-01 a       552     0    23     1     2
 -2.1437853050402619E-01 a       553     0    23     1     3
 -3.4587626758169643E-01 a       554     0    23     1     4
 -2.3833822632833945E-01 a       555     0    23     1     5
  4.4988239921999618E-01 a       556     0    23     1     6
  1.7047420369302790E-01 a       557     0    23     1     7
  6.9905519090377455E-01 a       558     0    23     1     8
  1.2221423005260393E-01 a       559     0    23     1     9
  5.5845143873118208E-01 a       560     0    23     1    10
 -1.8363868815858908E-01 a       561     0    23     1    11
  2.1786493063381141E-03 a       562     0    23     1    12
 -5.6505050812310742E-01 a       563     0    23     1    13
 -2.9636578577481049E-03 a       564     0    23     1    14
 -5.1714530761547217E-01 a       565     0    23     1    15
 -2.7155367391270668E-01 a       566     0    23     1    16
 -3.9759409160653486E-02 a       567     0    23     1    17
 -7.4222568769306030E-01 a       568     0    23     1    18
  1.1853136078015289E-02 a       569     0    23     1    19
  1.1474805938930696E-02 a       570     0    23     1    20
 -3.1863568120429481E-01 a       571     0    23     1    21
 -1.1772403442306787E-02 a       572     0    23     1    22
 -1.2160674663222890E-01 a       573     0    23     1    23
  1.2436152192952367E-01 a       574     0    23     1    24
 -2.8817281378170517E-01 a       575     0    23     1    25
 -2.8460781695408144E-01 a       576     0    24     1     1
  5.3994002915053596E-01 a       577     0    24     1     2
 -2.4163837135324032E-01 a       578     0    24     1     3
 -3.8404466314319424E-01 a       579     0    24     1     4
 -2.6767196180981556E-01 a       580     0    24     1     5
  1.8604557327010784E-01 a       581     0    24     1     6
  2.6519991151701056E-01 a       582     0    24     1     7
 -4.1193727189587449E-02 a       583     0    24     1     8
  1.1438984266808713E-02 a       584     0    24     1     9
 -3.2050263823095526E-03 a       585     0    24     1    10
 -2.8220934847688639E-01 a       586     0    24     1    11
 -5.6508827720083743E-01 a       587     0    24     1    12
  9.0187928814031315E-02 a       588     0    24     1    13
 -9.0270751598634114E-01 a       589     0    24     1    14
 -1.6253238011265284E-01 a       590     0    24     1    15
  1.0952629384385383E-01 a       591     0    24     1    16
 -3.7230092120530783E-01 a       592     0    24     1    17
 -9.8600616663981344E-02 a       593     0    24     1    18
 -6.6432996394161936E-01 a       594     0    24     1    19
  1.6092263999235987E-01 a       595     0    24     1    20
 -2.2946094347258372E-01 a       596     0    24     1    21
 -2.5730558844583495E-01 a       597     0    24     1    22
 -7.8644425961054054E-01 a       598     0    24     1    23
 -1.0373735526926162E-01 a       599     0    24     1    24
 -6.0825204482376286E-02 a       600     0    24     1    25
 -2.7760006973992019E-01 a       601     0    25     1     1
  2.0065761235313370E-01 a       602     0    25     1     2
 -7.2079943961893406E-02 a       603     0    25     1     3
  6.1399299732461687E-01 a       604     0    25     1     4
  2.6365302546804492E-01 a       605     0    25     1     5
 -3.7262898561021796E-01 a       606     0    25     1     6
 -5.8184741621099834E-01 a       607     0    25     1     7
  3.9659570180079307E-01 a       608     0    25     1     8
  4.8088139181434583E-03 a       609     0    25     1     9
 -9.8148040370607281E-01 a       610     0    25     1    10
 -3.3327990651184852E-01 a       611     0    25     1    11
 -5.7582438389337265E-01 a       612     0    25     1    12
 -4.1983205200893436E-01 a       613     0    25     1    13
  1.1051538413876647E+00 a       614     0    25     1    14
 -1.3890217857361412E-01 a       615     0    25     1    15
  1.4734175886770001E-01 a       616     0    25     1    16
  1.2044592376585876E+00 a       617     0    25     1    17
 -1.0770899066942079E-02 a       618     0    25     1    18
 -3.1738000677688510E-01 a       619     0    25     1    19
  3.0293930692699471E-02 a       620     0    25     1    20
  9.9152570766079029E-01 a       621     0    25     1    21
  1.2326438908857085E-01 a       622     0    25     1    22
  5.8806935526039517E-01 a       623     0    25     1    23
  3.7305105305772279E-01 a       624     0    25     1    24
  2.7735611843620850E-01 a       625     0    25     1    25
 -1.6396966487096679E-01 a       626     0    26     1     1
 -4.0569282251823174E-01 a       627     0    26     1     2
  1.5254135651561818E-01 a       628     0    26     1     3
 -7.0474495343678625E-02 a       629     0    26     1     4
 -8.5930757380857939E-02 a       630     0    26     1     5
  4.8116387496310808E-02 a       631     0    26     1     6
 -1.2995045860175511E-01 a       632     0    26     1     7
  2.3795528164187119E-01 a       633     0    26     1     8
  2.4108502914837215E-01 a       634     0    26     1     9
 -5.7947566357181284E-02 a       635     0    26     1    10
  6.5173655063188451E-01 a       636     0    26     1    11
  4.2019572437500530E-01 a       637     0    26     1    12
 -7.0990324001933046E-03 a       638     0    26     1    13
 -2.0591317871723766E-01 a       639     0    26     1    14
 -4.1620649604151405E-02 a       640     0    26     1    15
 -1.9853754691704698E-01 a       641     0    26     1    16
 -8.2282490197737951E-02 a       642     0    26     1    17
  3.2491126897660311E-01 a       643     0    26     1    18
  5.1081338286298926E-02 a       644     0    26     1    19
  6.1373484008165480E-01 a       645     0    26     1    20
 -1.6632423593600465E-01 a       646     0    26     1    21
 -1.2471835589564437E-01 a       647     0    26     1    22
  2.9216866617596822E-02 a       648     0    26     1    23
 -2.5656220741876473E-01 a       649     0    26     1    24
 -1.7212415366600659E-01 a       650     0    26     1    25
  8.1570628401153172E-02 a       651     0    27     1     1
 -1.1045817137211164E-01 a       652     0    27     1     2
 -2.1936981273557574E-01 a       653     0    27     1     3
  3.8070089296058152E-02 a       654     0    27     1     4
 -9.7336858355366790E-02 a       655     0    27     1     5
  2.1271424168394606E-01 a       656     0    27     1     6
 -4.0390507750733551E-01 a       657     0    27     1     7
  1.9629856941212981E-01 a       658     0    27     1     8
 -1.7753269067165703E-01 a       659     0    27     1     9
  2.0904745144736403E-01 a       660     0    27     1    10
  3.8051327885184984E-02 a       661     0    27     1    11
  5.4905056131596859E-02 a       662     0    27     1    12
 -3.5280284341941931E-01 a       663     0    27     1    13
 -5.7728703278241152E-02 a       664     0    27     1    14
 -3.8454837497949576E-02 a       665     0    27     1    15
 -6.0502353866037230E-02 a       666     0    27     1    16
 -8.7007783854741130E-02 a       667     0    27     1    17
  5.0576571200363615E-02 a       668     0    27     1    18
  7.7909895554896455E-02 a       669     0    27     1    19
  1.1715026001121427E-01 a       670     0    27     1    20
 -1.4175667836315725E-01 a       671     0    27     1    21
 -1.4533047022875223E-01 a       672     0    27     1    22
  3.3339347944714026E-01 a       673     0    27     1    23
  1.2363467141897168E-01 a       674     0    27     1    24
  5.7749813556135884E-02 a       675     0    27     1    25
  4.1001530122306723E-01 a       676     0    28     1     1
  2.7029755970656853E-02 a       677     0    28     1     2
  1.0224463701410014E-01 a       678     0    28     1     3
 -4.5302084680646698E-02 a       679     0    28     1     4
  1.9607691133224925E-01 a       680     0    28     1     5
 -3.4947909624345330E-01 a       681     0    28     1     6
 -9.8265604578576179E-02 a       682     0    28     1     7
  2.0705636001757566E-01 a       683     0    28     1     8
  3.6783721966449745E-01 a       684     0    28     1     9
 -3.6901246498144186E-01 a       685     0    28     1    10
  1.5615497141945737E-02 a       686     0    28     1    11
  7.2152469501478425E-02 a       687     0    28     1    12
  2.7240841486174544E-01 a       688     0    28     1    13
  7.2848049043919116E-02 a       689     0    28     1    14
 -6.1419845928647375E-02 a       690     0    28     1    15
 -1.1151813265197900E-01 a       691     0    28     1    16
  1.8884485461810810E-01 a       692     0    28     1    17
 -2.1583095698590914E-02 a       693     0    28     1    18
 -1.8433380685010198E-01 a       694     0    28     1    19
  2.3140183340808979E-01 a       695     0    28     1    20
  1.8658469513868167E-01 a       696     0    28     1    21
 -4.2846776227530421E-02 a       697     0    28     1    22
 -1.6019577170831917E-01 a       698     0    28     1    23
 -1.7109251565887532E-01 a       699     0    28     1    24
 -2.6241098230457165E-02 a       700     0    28     1    25
 -1.6714599007267555E-01 a       701     0    29     1     1
 -3.3283665066324478E-02 a       702     0    29     1     2
  2.0770542551155652E-01 a       703     0    29     1     3
  8.8741577765489077E-02 a       704     0    29     1     4
 -1.1789361966332772E-01 a       705     0    29     1     5
  3.1680485620911375E-01 a       706     0    29     1     6
 -2.0988142183639930E-01 a       707     0    29     1     7
 -5.6858051198977626E-02 a       708     0    29     1     8
 -4.0971123532711495E-01 a       709     0    29     1     9
  1.3759753549817877E-02 a       710     0    29     1    10
  3.9022109421230844E-01 a       711     0    29     1    11
  4.1161071410945754E-01 a       712     0    29     1    12
 -2.0552036287307140E-01 a       713     0    29     1    13
 -4.3498693887076917E-02 a       714     0    29     1    14
 -8.0509713472543806E-02 a       715     0    29     1    15
  1.0216248418623381E-02 a       716     0    29     1    16
 -1.4015658583195897E-01 a       717     0    29     1    17
 -2.2034367804051408E-01 a       718     0    29     1    18
  2.0051137386828197E-01 a       719     0    29     1    19
 -4.3798048910055642E-01 a       720     0    29     1    20
 -7.3081409944243170E-02 a       721     0    29     1    21
 -3.3657358822219249E-02 a       722     0    29     1    22
  5.8793666318985693E-01 a       723     0    29     1    23
 -4.1057680573760316E-02 a       724     0    29     1    24
  5.1181981896392746E-02 a       725     0    29     1    25
  7.8639898005335818E-01 a       726     0    30     1     1
 -1.6387341020808183E-01 a       727     0    30     1     2
 -4.8425725370178759E-04 a       728     0    30     1     3
  2.8339590394027153E-01 a       729     0    30     1     4
  4.0201212760085081E-01 a       730     0    30     1     5
  3.5140033528420245E-01 a       731     0    30     1     6
  2.1607141268961633E-01 a       732     0    30     1     7
 -5.2200983349247987E-01 a       733     0    30     1     8
  1.8302983118787797E-01 a       734     0    30     1     9
 -2.4356782099302374E-01 a       735     0    30     1    10
  1.0308946619818063E-01 a       736     0    30     1    11
  1.3991502225275948E-01 a       737     0    30     1    12
  1.6776918253609976E-01 a       738     0    30     1    13
  2.3132957791958944E-01 a       739     0    30     1    14
  2.5047659510854720E-01 a       740     0    30     1    15
  4.8689636126707247E-01 a       741     0    30     1    16
  1.4077086261369626E-01 a       742     0    30     1    17
  3.2525917854269709E-01 a       743     0    30     1    18
  6.0489158066376253E-02 a       744     0    30     1    19
 -5.7645587282632438E-01 a       745     0    30     1    20
  1.0146665747425451E-02 a       746     0    30     1    21
  1.0674548936124913E-01 a       747     0    30     1    22
 -2.4403604844639765E-01 a       748     0    30     1    23
  3.8561591483149915E-01 a       749     0    30     1    24
  4.2744571759726546E-01 a       750     0    30     1    25
  4.9154805421005859E-01 a       751     0    31     1     1
  7.6273229767443751E-01 a       752     0    31     1     2
 -4.3289743816324516E-01 a       753     0    31     1     3
 -7.0021237052468344E-01 a       754     0    31     1     4
  9.8395882406596604E-03 a       755     0    31     1     5
 -1.7735026358614700E-01 a       756     0    31     1     6
  4.9433883769017573E-01 a       757     0    31     1     7
  2.4024730667222224E-01 a       758     0    31     1     8
  6.8875535881668892E-01 a       759     0    31     1     9
  5.0896220497198008E-01 a       760     0    31     1    10
 -4.4987984204797421E-01 a       761     0    31     1    11
 -4.1562179181540115E-01 a       762     0    31     1    12
 -2.4565845311040668E-01 a       763     0    31     1    13
 -9.8827693988511933E-01 a       764     0    31     1    14
 -4.1797085489396235E-01 a       765     0    31     1    15
 -3.8804379788399840E-01 a       766     0    31     1    16
 -9.4317785461095927E-01 a       767     0    31     1    17
 -8.3840678443964634E-01 a       768     0    31     1    18
  8.9141572140231351E-01 a       769     0    31     1    19
  1.6930708710528822E-01 a       770     0    31     1    20
 -7.9720564355704104E-01 a       771     0    31     1    21
 -2.4689419917893932E-01 a       772     0    31     1    22
 -4.0777049201665905E-01 a       773     0    31     1    23
 -6.2875047033860842E-01 a       774     0    31     1    24
 -3.4378283002205118E-01 a       775     0    31     1    25
  1.7336967344078174E-02 a       776     0    32     1     1
 -1.5716499581336971E-01 a       777     0    32     1     2
  1.6636480550943891E-01 a       778     0    32     1     3
  1.5057174221404687E-01 a       779     0    32     1     4
 -1.0346124961382597E-01 a       780     0    32     1     5
  1.8545390025764590E-02 a       781     0    32     1     6
  1.4161338122062120E-02 a       782     0    32     1     7
 -1.0752511903468648E-01 a       783     0    32     1     8
 -3.8102003752898217E-01 a       784     0    32     1     9
  1.4415119108103908E-01 a       785     0    32     1    10
  1.4195004241856747E-02 a       786     0    32     1    11
 -1.0827701363974972E-01 a       787     0    32     1    12
  1.8329745928817795E-01 a       788     0    32     1    13
  3.2684168878977737E-01 a       789     0    32     1    14
  2.0070750872499282E-01 a       790     0    32     1    15
  5.3963316565253314E-02 a       791     0    32     1    16
  1.9472322515184298E-01 a       792     0    32     1    17
  2.9323535290814517E-01 a       793     0    32     1    18
 -2.2682795493163935E-01 a       794     0    32     1    19
 -8.8750479513751937E-02 a       795     0    32     1    20
  1.4534439123753110E-01 a       796     0    32     1    21
  2.0211302669403067E-01 a       797     0    32     1    22
  2.7324753412191614E-02 a       798     0    32     1    23
  2.1891436831052202E-01 a       799     0    32     1    24
  2.4428044941655913E-01 a       800     0    32     1    25
  1.2446458113728907E+00 b       801     1     1
 -3.2352426145168804E-02 b       802     1     2
 -1.4985949785587191E-01 b       803     1     3
  1.1901318842432957E+00 b       804     1     4
  1.1137751262133908E+00 b       805     1     5
  9.3514146149990018E-01 b       806     1     6
  6.3899810692462222E-01 b       807     1     7
 -4.3056905032315085E-01 b       808     1     8
  8.6266971417412253E-01 b       809     1     9
 -9.7724692779996425E-01 b       810     1    10
  6.1559556298560059E-01 b       811     1    11
 -1.6020632714860263E+00 b       812     1    12
 -1.3666966793493012E+00 b       813     1    13
  7.3490391153485857E-01 b       814     1    14
  2.0949336782551042E-01 b       815     1    15
  5.2931760925430504E-01 b       816     1    16
  1.4408496573248472E-01 b       817     1    17
 -1.1531595877656717E+00 b       818     1    18
 -7.0843229583631095E-01 b       819     1    19
 -1.4347129778146452E+00 b       820     1    20
  1.4944662459006435E+00 b       821     1    21
  8.5281956543638515E-01 b       822     1    22
  8.6867445774396468E-01 b       823     1    23
 -1.3770335739983464E-01 b       824     1    24
  8.8015594954469911E-01 b       825     1    25
  2.3570198881599219E-01 a       826     1     1     2     1
  2.9146608624128628E-01 a       827     1     1     2     2
  1.6477538784693110E-01 a       828     1     1     2     3
  1.1439467635127941E-01 a       829     1     1     2     4
  2.3586374762093615E-01 a       830     1     1     2     5
 -3.9926579343526969E-01 a       831     1     1     2     6
 -2.5674970893832777E-01 a       832     1     1     2     7
  1.4439264714171354E-01 a       833     1     1     2     8
 -8.6533456365474590E-02 a       834     1     1     2     9
 -4.8457945953400687E-02 a       835     1     1     2    10
  2.0203589909610806E-01 a       836     1     1     2    11
  6.8837111635415960E-01 a       837     1     1     2    12
 -3.6850986657986340E-01 a       838     1     1     2    13
 -7.2160257889804222E-02 a       839     1     1     2    14
 -6.5080492528911849E-01 a       840     1     1     2    15
 -1.1690747565860196E-01 a       841     1     1     2    16
  5.2322290137608418E-01 a       842     1     1     2    17
 -3.7237952468758290E-01 a       843     1     1     2    18
 -6.6003788462693680E-01 a       844     1     1     2    19
 -3.3114374736580243E-01 a       845     1     1     2    20
  2.2096076688702532E-01 a       846     1     1     2    21
  3.1608848035584480E-01 a       847     1     1     2    22
  8.7867041468666696E-02 a       848     1     1     2    23
  6.0330433197692712E-01 a       849     1     1     2    24
  4.6473671270304168E-01 a       850     1     1     2    25
  5.7323604396771288E-01 a       851     1     2     2     1
  5.9637213747055079E-02 a       852     1     2     2     2
  4.3243322019092106E-01 a       853     1     2     2     3
 -1.1633917000163886E-01 a       854     1     2     2     4
 -5.1233946333431857E-01 a       855     1     2     2     5
  5.0007884897309829E-01 a       856     1     2     2     6
 -2.7154121382383067E-01 a       857     1     2     2     7
  8.9589899142390073E-02 a       858     1     2     2     8
  2.1480816072840506E-01 a       859     1     2     2     9
  6.2399435645475398E-01 a       860     1     2     2    10
  2.9688884038583963E-01 a       861     1     2     2    11
  3.6503421484043660E-02 a       862     1     2     2    12
 -3.9731699904675633E-01 a       863     1     2     2    13
 -2.2878543557505121E-01 a       864     1     2     2    14
  3.2612402857226108E-01 a       865     1     2     2    15
 -5.6627278134085857E-02 a       866     1     2     2    16
  3.8151416546032224E-01 a       867     1     2     2    17
 -7.6482127228450674E-03 a       868     1     2     2    18
  1.5449490117716369E-02 a       869     1     2     2    19
  1.7451616797904665E-01 a       870     1     2     2    20
 -5.2782147067114930E-03 a       871     1     2     2    21
  8.4349440005442713E-02 a       872     1     2     2    22
  1.2186694851856464E-01 a       873     1     2     2    23
 -3.5711226432879090E-01 a       874     1     2     2    24
  3.1134803126141608E-01 a       875     1     2     2    25
  4.0480181880288119E-01 a       876     1     3     2     1
  1.7020171859834954E-01 a       877     1     3     2     2
  2.9405837498797549E-01 a       878     1     3     2     3
 -5.8273718324349043E-02 a       879     1     3     2     4
 -9.4306058764960538E-02 a       880     1     3     2     5
 -3.7064076296642068E-01 a       881     1     3     2     6
 -4.6657510438423438E-01 a       882     1     3     2     7
 -1.3654879744680751E-01 a       883     1     3     2     8
 -9.6020285879424502E-02 a       884     1     3     2     9
 -7.9090701555905640E-02 a       885     1     3     2    10
 -4.6066266788699778E-01 a       886     1     3     2    11
  1.7382408946052699E-01 a       887     1     3     2    12
  9.7393581809702048E-02 a       888     1     3     2    13
  2.7207920086091186E-01 a       889     1     3     2    14
 -4.7212457972064809E-01 a       890     1     3     2    15
 -1.8376074036621923E-01 a       891     1     3     2    16
 -4.2062450036980753E-01 a       892     1     3     2    17
 -2.6776331753328203E-01 a       893     1     3     2    18
  4.7087471234437467E-01 a       894     1     3     2    19
  3.2792605466075780E-01 a       895     1     3     2    20
  3.5612572438939394E-01 a       896     1     3     2    21
 -2.4398558321403915E-02 a       897     1     3     2    22
 -6.1778704221606820E-02 a       898     1     3     2    23
  8.7032789037994246E-02 a       899     1     3     2    24
  4.8648200671203135E-01 a       900     1     3     2    25
 -1.2243250006777735E-01 a       901     1     4     2     1
  1.4324819239939690E-01 a       902     1     4     2     2
  1.5480354218916495E-01 a       903     1     4     2     3
  8.7385523581921497E-03 a       904     1     4     2     4
  1.5003735481449723E-01 a       905     1     4     2     5
 -1.0947037822711449E-01 a       906     1     4     2     6
 -2.4767762322209408E-01 a       907     1     4     2     7
 -3.5945686534961063E-01 a       908     1     4     2     8
 -3.1378310993609099E-01 a       909     1     4     2     9
 -9.6190125725895054E-02 a       910     1     4     2    10
 -2.2304828815400610E-01 a       911     1     4     2    11
 -3.5853997063036924E-01 a       912     1     4     2    12
 -8.0595012722200085E-02 a       913     1     4     2    13
 -3.8589814059999457E-02 a       914     1     4     2    14
 -8.4742904230411392E-02 a       915     1     4     2    15
  5.6822130423848871E-01 a       916     1     4     2    16
 -4.5821940051747306E-01 a       917     1     4     2    17
  3.3072786730460718E-01 a       918     1     4     2    18
  7.7315555724785948E-02 a       919     1     4     2    19
 -1.5457691627299888E-01 a       920     1     4     2    20
 -9.7173793646452580E-02 a       921     1     4     2    21
 -1.7224034554712256E-01 a       922     1     4     2    22
 -6.4591149280335369E-01 a       923     1     4     2    23
  5.4992416228429297E-01 a       924     1     4     2    24
 -5.1836978523672417E-01 a       925     1     4     2    25
  5.9034801633928924E-01 a       926     1     5     2     1
 -4.9829788147345294E-01 a       927     1     5     2     2
  2.5392368147046018E-01 a       928     1     5     2     3
 -2.6337549378660097E-01 a       929     1     5     2     4
  3.6115118463887957E-01 a       930     1     5     2     5
  8.7019437737375235E-02 a       931     1     5     2     6
 -1.2743054899237849E-01 a       932     1     5     2     7
 -3.1152314130257203E-01 a       933     1     5     2     8
  1.1506314898018403E-02 a       934     1     5     2     9
 -1.5461825302453883E-01 a       935     1     5     2    10
 -1.4813547933453711E-01 a       936     1     5     2    11
  3.7039743426203260E-02 a       937     1     5     2    12
  1.9070309310924849E-01 a       938     1     5     2    13
  1.5348853370876828E-01 a       939     1     5     2    14
  3.9675711546456593E-01 a       940     1     5     2    15
  4.8066182678871505E-01 a       941     1     5     2    16
  7.0177141095512402E-02 a       942     1     5     2    17
  4.1792123215100468E-01 a       943     1     5     2    18
 -1.3647705614764330E-01 a       944     1     5     2    19
  5.2435975850874039E-01 a       945     1     5     2    20
  1.7950021812033562E-01 a       946     1     5     2    21
 -2.5376790918879937E-02 a       947     1     5     2    22
  3.9627982978126480E-01 a       948     1     5     2    23
 -3.3270824067785476E-02 a       949     1     5     2    24
 -9.6527487891533259E-01 a       950     1     5     2    25
  4.1224281550062403E-01 a       951     1     6     2     1
  7.2579624869568593E-01 a       952     1     6     2     2
 -3.9121566229305105E-01 a       953     1     6     2     3
  3.2547641885244831E-02 a       954     1     6     2     4
 -3.5093724599152320E-03 a       955     1     6     2     5
  5.0971538987279075E-02 a       956     1     6     2     6
 -4.9263193849353248E-01 a       957     1     6     2     7
  6.8596282298514222E-01 a       958     1     6     2     8
  4.6040772767901667E-01 a       959     1     6     2     9
  5.6416781409903349E-01 a       960     1     6     2    10
 -3.4163649117035449E-01 a       961     1     6     2    11
 -2.3304796747204645E-01 a       962     1     6     2    12
 -4.6428851149604816E-01 a       963     1     6     2    13
  2.5890876775716037E-01 a       964     1     6     2    14
  3.5117413195184449E-01 a       965     1     6     2    15
  1.8329181808634259E-01 a       966     1     6     2    16
  2.0588959474263158E-01 a       967     1     6     2    17
  8.6084276866125131E-02 a       968     1     6     2    18
 -4.4522129628118456E-01 a       969     1     6     2    19
 -2.1185693215708279E-01 a       970     1     6     2    20
 -3.3983531681645740E-01 a       971     1     6     2    21
  3.0860526204173477E-01 a       972     1     6     2    22
 -5.4380622672936896E-01 a       973     1     6     2    23
  5.5278003370812712E-01 a       974     1     6     2    24
  7.2482088522479060E-01 a       975     1     6     2    25
 -3.0794571242103042E-01 a       976     1     7     2     1
 -2.6723204999931316E-01 a       977     1     7     2     2
  1.1597502908150481E-01 a       978     1     7     2     3
 -5.2670857366534463E-01 a       979     1     7     2     4
 -1.6778520835871757E-01 a       980     1     7     2     5
  1.1705354413416291E-01 a       981     1     7     2     6
  2.2303768116808873E-01 a       982     1     7     2     7
 -6.9820953935589847E-02 a       983     1     7     2     8
 -1.8546043777369718E-03 a       984     1     7     2     9
 -1.7478194898980018E-02 a       985     1     7     2    10
  1.3021257928947552E-01 a       986     1     7     2    11
 -1.6772706104425214E-01 a       987     1     7     2    12
  3.1547841453456915E-01 a       988     1     7     2    13
  5.0607843877924948E-03 a       989     1     7     2    14
 -2.8328075523132252E-03 a       990     1     7     2    15
 -1.3901089000890007E-01 a       991     1     7     2    16
  1.5552710892308317E-02 a       992     1     7     2    17
 -2.8072736006031573E-01 a       993     1     7     2    18
 -9.5260525295572906E-01 a       994     1     7     2    19
 -4.6693448659050318E-01 a       995     1     7     2    20
 -1.4265354744550435E-01 a       996     1     7     2    21
  2.9098071753382686E-02 a       997     1     7     2    22
  2.9126529618273372E-01 a       998     1     7     2    23
  2.6834432455300772E-01 a       999     1     7     2    24
  2.9293640664619308E-01 a      1000     1     7     2    25
  2.0617281292989678E-01 a      1001     1     8     2     1
  4.0362523875713992E-02 a      1002     1     8     2     2
 -6.1888812947238359E-01 a      1003     1     8     2     3
 -6.6455352735412265E-01 a      1004     1     8     2     4
  1.5110691515461518E-02 a      1005     1     8     2     5
 -4.2040681539602098E-01 a      1006     1     8     2     6
 -8.1535344561086798E-02 a      1007     1     8     2     7
  1.4341012975043956E-02 a      1008     1     8     2     8
  2.5007910149482582E-01 a      1009     1     8     2     9
  1.1109906035749342E-02 a      1010     1     8     2    10
  3.7517798054746415E-01 a      1011     1     8     2    11
 -1.2439444658063060E-01 a      1012     1     8     2    12
  4.9520071828612300E-01 a      1013     1     8     2    13
  4.9860377486283958E-01 a      1014     1     8     2    14
 -5.2613519158134936E-01 a      1015     1     8     2    15
  3.9034856780520832E-01 a      1016     1     8     2    16
 -6.7098884320721552E-01 a      1017     1     8     2    17
 -2.4536058703460165E-01 a      1018     1     8     2    18
 -2.7568465294268324E-01 a      1019     1     8     2    19
  4.2314419391417302E-01 a      1020     1     8     2    20
 -8.0700003660729241E-02 a      1021     1     8     2    21
  3.3102715823082007E-01 a      1022     1     8     2    22
 -3.5884724310203792E-01 a      1023     1     8     2    23
 -2.5994594070821486E-01 a      1024     1     8     2    24
 -1.2477002211713853E-01 a      1025     1     8     2    25
 -2.9687006647481895E-01 a      1026     1     9     2     1
  2.4317824385209916E-01 a      1027     1     9     2     2
 -5.3509614861861754E-01 a      1028     1     9     2     3
 -2.7794785126112320E-01 a      1029     1     9     2     4
 -7.8368867725969779E-02 a      1030     1     9     2     5
  3.5798946752305723E-02 a      1031     1     9     2     6
  1.5030182375120935E-01 a      1032     1     9     2     7
  2.9581654309366323E-01 a      1033     1     9     2     8
  3.2473844390949846E-03 a      1034     1     9     2     9
 -1.6062510505210623E-01 a      1035     1     9     2    10
  3.1248861800896627E-01 a      1036     1     9     2    11
 -1.1745812207401833E-01 a      1037     1     9     2    12
  2.8584366598980648E-01 a      1038     1     9     2    13
 -1.2128079789369968E-01 a      1039     1     9     2    14
  9.6612057567345880E-02 a      1040     1     9     2    15
  1.1052687192449779E-02 a      1041     1     9     2    16
  4.7522732931145223E-01 a      1042     1     9     2    17
  4.1855869461776640E-01 a      1043     1     9     2    18
 -3.7958979307747220E-01 a      1044     1     9     2    19
 -4.9535509852096477E-01 a      1045     1     9     2    20
 -1.8512171919067538E-01 a      1046     1     9     2    21
  6.8352300584843695E-01 a      1047     1     9     2    22
  2.4687935468119265E-01 a      1048     1     9     2    23
  4.5092685455505016E-01 a      1049     1     9     2    24
  2.1997964304749124E-01 a      1050     1     9     2    25
  3.5865641584408503E-01 a      1051     1    10     2     1
 -9.5607508089133125E-02 a      1052     1    10     2     2
 -8.0610976124426484E-02 a      1053     1    10     2     3
 -5.5440524998765761E-01 a      1054     1    10     2     4
  2.0197010794239009E-01 a      1055     1    10     2     5
 -2.1175771999184032E-01 a      1056     1    10     2     6
 -3.2179929875123782E-02 a      1057     1    10     2     7
  5.1194888350940559E-01 a      1058     1    10     2     8
 -5.1340247141143946E-01 a      1059     1    10     2     9
 -5.8866480139417476E-01 a      1060     1    10     2    10
  6.0518829314402367E-01 a      1061     1    10     2    11
  1.2590821896753088E-01 a      1062     1    10     2    12
  1.2126356614420264E-01 a      1063     1    10     2    13
  3.1651438512164516E-02 a      1064     1    10     2    14
  4.5140821088121064E-01 a      1065     1    10     2    15
 -9.8841837912724065E-02 a      1066     1    10     2    16
 -6.8274954611260330E-01 a      1067     1    10     2    17
 -2.2089527883948412E-01 a      1068     1    10     2    18
  2.5596743522527726E-01 a      1069     1    10     2    19
 -3.9061133957061116E-02 a      1070     1    10     2    20
 -2.0028263393355367E-01 a      1071     1    10     2    21
  2.0240502321467554E-02 a      1072     1    10     2    22
  4.4626639092194435E-02 a      1073     1    10     2    23
  1.3006529917287293E-01 a      1074     1    10     2    24
  5.1002888522993695E-01 a      1075     1    10     2    25
  1.9627958697254452E-01 a      1076     1    11     2     1
  6.2753017317663695E-01 a      1077     1    11     2     2
 -6.3960214501650695E-02 a      1078     1    11     2     3
  7.0213876108620799E-01 a      1079     1    11     2     4
 -9.6228561740382742E-03 a      1080     1    11     2     5
 -2.4786447505303119E-01 a      1081     1    11     2     6
  2.5699038538001906E-01 a      1082     1    11     2     7
  4.9748263945241900E-01 a      1083     1    11     2     8
 -5.0261410596595635E-01 a      1084     1    11     2     9
  7.6405032570666512E-02 a      1085     1    11     2    10
  5.9087012499455005E-01 a      1086     1    11     2    11
 -1.2659732368709548E-01 a      1087     1    11     2    12
 -3.0736385149082779E-01 a      1088     1    11     2    13
 -3.7514892934608984E-01 a      1089     1    11     2    14
 -4.5600943970100871E-01 a      1090     1    11     2    15
 -5.7017561383424753E-01 a      1091     1    11     2    16
  8.3462586901437452E-01 a      1092     1    11     2    17
  4.4000221876402329E-01 a      1093     1    11     2    18
 -3.8789233556657748E-01 a      1094     1    11     2    19
 -1.0792471714769053E-02 a      1095     1    11     2    20
 -4.1444634731782398E-01 a      1096     1    11     2    21
  7.0179548591756469E-01 a      1097     1    11     2    22
  7.9941347469763765E-03 a      1098     1    11     2    23
  3.3319213029426342E-01 a      1099     1    11     2    24
  3.1451128425261204E-01 a      1100     1    11     2    25
  4.4987602821828154E-01 a      1101     1    12     2     1
  1.8058700922681475E-01 a      1102     1    12     2     2
 -2.2602883732434124E-03 a      1103     1    12     2     3
  1.2750140232875470E-01 a      1104     1    12     2     4
  4.8168826743998189E-01 a      1105     1    12     2     5
 -1.9381771384145663E-01 a      1106     1    12     2     6
  9.1903301463009512E-02 a      1107     1    12     2     7
 -4.2563756202286945E-01 a      1108     1    12     2     8
  5.7349978272780511E-01 a      1109     1    12     2     9
 -3.8623730090368763E-01 a      1110     1    12     2    10
  4.8064256530390836E-01 a      1111     1    12     2    11
  1.0489396860771692E-01 a      1112     1    12     2    12
  8.0931110999024489E-02 a      1113     1    12     2    13
  4.9452617413381167E-01 a      1114     1    12     2    14
 -4.8440078396927616E-01 a      1115     1    12     2    15
  4.4232549196682086E-01 a      1116     1    12     2    16
 -1.3611613686514851E-01 a      1117     1    12     2    17
 -5.3615916092767024E-01 a      1118     1    12     2    18
  7.8380003150988850E-02 a      1119     1    12     2    19
 -8.7792188832312670E-02 a      1120     1    12     2    20
  1.9410810953708013E-01 a      1121     1    12     2    21
  5.1130430703654062E-01 a      1122     1    12     2    22
  4.6229395019798381E-01 a      1123     1    12     2    23
  3.6474437012080646E-01 a      1124     1    12     2    24
  5.6454164743064444E-02 a      1125     1    12     2    25
 -4.8198214969567282E-01 a      1126     1    13     2     1
  3.1572118083617912E-01 a      1127     1    13     2     2
 -5.2828438696352265E-01 a      1128     1    13     2     3
  3.4162432955939109E-01 a      1129     1    13     2     4
 -4.2278700590965618E-01 a      1130     1    13     2     5
  1.7305236435807825E-01 a      1131     1    13     2     6
 -5.5220659199009559E-01 a      1132     1    13     2     7
 -4.1754049587911091E-01 a      1133     1    13     2     8
 -1.0130316140878191E-02 a      1134     1    13     2     9
 -2.7207770148337135E-01 a      1135     1    13     2    10
 -9.8461168143849176E-01 a      1136     1    13     2    11
 -1.4731286960163020E-02 a      1137     1    13     2    12
  4.8675038779125074E-01 a      1138     1    13     2    13
  2.7281985519419193E-02 a      1139     1    13     2    14
  1.4937421944900071E-02 a      1140     1    13     2    15
  2.1615731658156007E-01 a      1141     1    13     2    16
  2.6762990271506998E-01 a      1142     1    13     2    17
  1.2614731567339230E-01 a      1143     1    13     2    18
  4.5336600751262468E-01 a      1144     1    13     2    19
  6.6354922115585746E-01 a      1145     1    13     2    20
  6.1525086033337473E-01 a      1146     1    13     2    21
  4.2220906788220680E-01 a      1147     1    13     2    22
 -2.8666780825201299E-01 a      1148     1    13     2    23
 -3.7640570408957486E-01 a      1149     1    13     2    24
  2.0518480587369181E-01 a      1150     1    13     2    25
  4.1734155702925727E-02 a      1151     1    14     2     1
 -1.4551462732132606E-01 a      1152     1    14     2     2
  3.6594140940625847E-01 a      1153     1    14     2     3
  3.8028949237222853E-01 a      1154     1    14     2     4
 -6.6088652377845489E-02 a      1155     1    14     2     5
  4.2986532840994163E-01 a      1156     1    14     2     6
  1.3046430332641815E-01 a      1157     1    14     2     7
  3.0202849253187691E-01 a      1158     1    14     2     8
  2.4499219049722015E-01 a      1159     1    14     2     9
  8.7477011942610605E-01 a      1160     1    14     2    10
  6.0648802844430993E-01 a      1161     1    14     2    11
  3.1240867306345791E-02 a      1162     1    14     2    12
 -4.5380335268386990E-01 a      1163     1    14     2    13
  3.2017469127690254E-02 a      1164     1    14     2    14
  7.6513044843373001E-01 a      1165     1    14     2    15
  4.8027006954213936E-01 a      1166     1    14     2    16
  1.9992018272406731E-01 a      1167     1    14     2    17
 -2.1941644498587454E-01 a      1168     1    14     2    18
 -1.7323602708444458E-01 a      1169     1    14     2    19
  3.4210646374209563E-01 a      1170     1    14     2    20
  2.2275957601121951E-01 a      1171     1    14     2    21
  3.7321448493419423E-01 a      1172     1    14     2    22
 -1.0817059646642083E-01 a      1173     1    14     2    23
 -2.7294821176920575E-01 a      1174     1    14     2    24
 -8.8423139897455039E-01 a      1175     1    14     2    25
 -1.0499307580238715E-01 a      1176     1    15     2     1
 -3.4259959772726861E-01 a      1177     1    15     2     2
  5.6788794859995784E-01 a      1178     1    15     2     3
  1.3252838588255703E-01 a      1179     1    15     2     4
 -4.0919831582511262E-01 a      1180     1    15     2     5
  5.5818657680334970E-02 a      1181     1    15     2     6
 -3.5148663411686898E-01 a      1182     1    15     2     7
  4.0157733274147323E-01 a      1183     1    15     2     8
  2.1603605142613311E-01 a      1184     1    15     2     9
 -1.4963636621287767E-02 a      1185     1    15     2    10
 -5.0648809352604580E-02 a      1186     1    15     2    11
 -5.2840377812814343E-01 a      1187     1    15     2    12
  4.1166995735676221E-01 a      1188     1    15     2    13
 -6.9444253831664610E-02 a      1189     1    15     2    14
  5.9830762853872316E-02 a      1190     1    15     2    15
  1.0787416212132749E-01 a      1191     1    15     2    16
  4.2075551004494283E-01 a      1192     1    15     2    17
 -3.9744214951724016E-01 a      1193     1    15     2    18
 -3.1439369770238490E-01 a      1194     1    15     2    19
 -1.4667615889018487E-01 a      1195     1    15     2    20
  1.0193682401748873E-01 a      1196     1    15     2    21
  1.7709489681134563E-01 a      1197     1    15     2    22
  3.6524543016296110E-02 a      1198     1    15     2    23
 -2.8318900504363281E-01 a      1199     1    15     2    24
  1.6402819884280428E-01 a      1200     1    15     2    25
  4.1104562632445163E-01 a      1201     1    16     2     1
 -4.1379767616522772E-01 a      1202     1    16     2     2
 -2.6948405535958359E-01 a      1203     1    16     2     3
  4.9974725326196284E-01 a      1204     1    16     2     4
 -3.1749532802514874E-01 a      1205     1    16     2     5
 -3.2278307965339237E-01 a      1206     1    16     2     6
 -3.0189469177571199E-01 a      1207     1    16     2     7
 -4.1501220429108193E-01 a      1208     1    16     2     8
 -3.3235973665425539E-01 a      1209     1    16     2     9
 -3.5914472139840553E-01 a      1210     1    16     2    10
 -2.1748616776373603E-01 a      1211     1    16     2    11
 -2.1715838541288038E-01 a      1212     1    16     2    12
  2.6672319912715320E-01 a      1213     1    16     2    13
  5.2853057473992618E-02 a      1214     1    16     2    14
 -6.5623083292543849E-01 a      1215     1    16     2    15
 -1.4976932297961973E-03 a      1216     1    16     2    16
 -3.0337025888480229E-01 a      1217     1    16     2    17
  2.3032727922793931E-02 a      1218     1    16     2    18
  3.0589205358172694E-01 a      1219     1    16     2    19
  2.5677179578468023E-01 a      1220     1    16     2    20
  3.1096257367958350E-02 a      1221     1    16     2    21
  6.6622018734763799E-01 a      1222     1    16     2    22
  1.0118031052329413E-01 a      1223     1    16     2    23
  2.1344045555687546E-01 a      1224     1    16     2    24
 -7.3155196902943043E-01 a      1225     1    16     2    25
 -3.5685238619573822E-01 a      1226     1    17     2     1
 -7.5148272988351794E-01 a      1227     1    17     2     2
 -9.7870997702631080E-02 a      1228     1    17     2     3
 -6.2536841961051204E-01 a      1229     1    17     2     4
 -3.6484798213843811E-01 a      1230     1    17     2     5
  5.9653518830987029E-01 a      1231     1    17     2     6
 -5.4858969200047869E-01 a      1232     1    17     2     7
 -1.8016674970341076E-01 a      1233     1    17     2     8
  2.5815556125691430E-01 a      1234     1    17     2     9
  3.2950291065823162E-01 a      1235     1    17     2    10
  4.5455664112990646E-01 a      1236     1    17     2    11
 -1.7989922470332095E-01 a      1237     1    17     2    12
  3.1289845539308364E-01 a      1238     1    17     2    13
 -2.2148260932911343E-01 a      1239     1    17     2    14
  5.3686142043054896E-01 a      1240     1    17     2    15
  5.9950827308879640E-01 a      1241     1    17     2    16
 -3.3472359367906440E-01 a      1242     1    17     2    17
  3.4709384334387507E-02 a      1243     1    17     2    18
 -6.2795247812570662E-02 a      1244     1    17     2    19
 -3.3836197335269735E-01 a      1245     1    17     2    20
  5.3604272339307557E-01 a      1246     1    17     2    21
 -4.6703147295860148E-01 a      1247     1    17     2    22
  2.4790117011912253E-02 a      1248     1    17     2    23
  5.3447994457978980E-02 a      1249     1    17     2    24
  2.9296650005698338E-01 a      1250     1    17     2    25
  1.8018230915957823E-02 a      1251     1    18     2     1
  1.2532436661550933E-01 a      1252     1    18     2     2
  1.4242038782622621E-01 a      1253     1    18     2     3
 -3.4980521503173032E-02 a      1254     1    18     2     4
  6.4222471280627729E-03 a      1255     1    18     2     5
 -5.4916346734774163E-02 a      1256     1    18     2     6
 -3.9828727365885364E-01 a      1257     1    18     2     7
  1.3264123154339091E-01 a      1258     1    18     2     8
 -9.8277900987586639E-02 a      1259     1    18     2     9
 -5.2918809381922727E-01 a      1260     1    18     2    10
  1.1752804327404855E-01 a      1261     1    18     2    11
  4.9555073327834903E-01 a      1262     1    18     2    12
  1.6695361772395201E-01 a      1263     1    18     2    13
  1.1146087253222613E-01 a      1264     1    18     2    14
 -2.4729624943383030E-01 a      1265     1    18     2    15
 -3.1132815181119999E-01 a      1266     1    18     2    16
 -3.7942226255272010E-01 a      1267     1    18     2    17
 -5.6173339586071669E-01 a      1268     1    18     2    18
 -4.4282473906762476E-01 a      1269     1    18     2    19
  1.0406827314866604E-01 a      1270     1    18     2    20
  5.8023713945380051E-01 a      1271     1    18     2    21
 -4.3482135520711901E-01 a      1272     1    18     2    22
  2.9645134456699379E-01 a      1273     1    18     2    23
  1.9504152094642072E-01 a      1274     1    18     2    24
 -3.6852354796720710E-03 a      1275     1    18     2    25
 -2.5208113886340239E-01 a      1276     1    19     2     1
 -1.5116072446088294E-01 a      1277     1    19     2     2
 -7.9954351675915070E-01 a      1278     1    19     2     3
  1.8389942937473014E-01 a      1279     1    19     2     4
 -6.4800053296090043E-01 a      1280     1    19     2     5
  4.1574569833062784E-02 a      1281     1    19     2     6
 -4.7507722824437348E-01 a      1282     1    19     2     7
 -5.7648784598137115E-01 a      1283     1    19     2     8
 -4.5864354786418643E-01 a      1284     1    19     2     9
 -4.6021187868221880E-01 a      1285     1    19     2    10
 -1.9841623974738218E-01 a      1286     1    19     2    11
 -2.4671477516948237E-01 a      1287     1    19     2    12
  2.6048553905332861E-01 a      1288     1    19     2    13
  6.8115839826519531E-02 a      1289     1    19     2    14
  1.2022899170501894E-01 a      1290     1    19     2    15
 -1.3293430417005665E-02 a      1291     1    19     2    16
  1.2136315498828844E-01 a      1292     1    19     2    17
  3.3986932627417865E-01 a      1293     1    19     2    18
 -3.9948489895475497E-01 a      1294     1    19     2    19
 -7.5860502201085159E-02 a      1295     1    19     2    20
  4.2963746154465549E-01 a      1296     1    19     2    21
  8.0943543619730635E-02 a      1297     1    19     2    22
 -1.5895783375918432E-01 a      1298     1    19     2    23
  4.5590065210163805E-01 a      1299     1    19     2    24
  2.7956722862897809E-01 a      1300     1    19     2    25
 -2.6634647375505804E-01 a      1301     1    20     2     1
 -1.0363792258773771E-01 a      1302     1    20     2     2
 -4.1807144011343900E-01 a      1303     1    20     2     3
  1.0421980547040642E-01 a      1304     1    20     2     4
  9.2360123044247483E-02 a      1305     1    20     2     5
  2.9090474300834895E-01 a      1306     1    20     2     6
 -1.4587690987325455E-01 a      1307     1    20     2     7
 -3.1455417004638653E-01 a      1308     1    20     2     8
 -2.9055628730677829E-01 a      1309     1    20     2     9
  2.1861991554589056E-02 a      1310     1    20     2    10
 -8.7702710334197143E-01 a      1311     1    20     2    11
  4.0765761610016582E-01 a      1312     1    20     2    12
 -3.9653532633404454E-01 a      1313     1    20     2    13
 -5.0246617523343562E-01 a      1314     1    20     2    14
  1.7864195123304405E-01 a      1315     1    20     2    15
 -3.2288714003663987E-01 a      1316     1    20     2    16
 -5.1508276460631042E-01 a      1317     1    20     2    17
 -4.8096335584254113E-01 a      1318     1    20     2    18
  4.0888214895462688E-01 a      1319     1    20     2    19
 -1.8281522866647770E-01 a      1320     1    20     2    20
 -7.3531009460821684E-01 a      1321     1    20     2    21
 -4.1481609875851450E-01 a      1322     1    20     2    22
 -1.8924464624868356E-01 a      1323     1    20     2    23
 -5.1043179794743965E-01 a      1324     1    20     2    24
  2.9262322543803293E-01 a      1325     1    20     2    25
  5.8515878763824164E-02 a      1326     1    21     2     1
  4.6935191882962822E-02 a      1327     1    21     2     2
  1.3971709756049408E-02 a      1328     1    21     2     3
 -1.6591446874939295E-01 a      1329     1    21     2     4
  5.4742227133346077E-01 a      1330     1    21     2     5
  2.5175054061869567E-01 a      1331     1    21     2     6
 -1.4778595592834673E-01 a      1332     1    21     2     7
 -3.5388044129068202E-01 a      1333     1    21     2     8
  2.6122792753234925E-01 a      1334     1    21     2     9
 -9.0147184379160750E-01 a      1335     1    21     2    10
 -2.6755661203377729E-01 a      1336     1    21     2    11
 -3.3226849979508724E-04 a      1337     1    21     2    12
 -3.1479566797756453E-01 a      1338     1    21     2    13
 -1.5154071617447396E-01 a      1339     1    21     2    14
  3.2821055921300790E-01 a      1340     1    21     2    15
  8.5051537996707161E-01 a      1341     1    21     2    16
  5.7748051898208874E-01 a      1342     1    21     2    17
  2.6862923366495745E-01 a      1343     1    21     2    18
  5.3998597932455650E-02 a      1344     1    21     2    19
 -3.6100419761199026E-01 a      1345     1    21     2    20
  3.9148408209147134E-01 a      1346     1    21     2    21
 -3.5856332270269126E-01 a      1347     1    21     2    22
  9.3808529508714600E-02 a      1348     1    21     2    23
  3.7454765474684854E-01 a      1349     1    21     2    24
  3.2144374090474015E-01 a      1350     1    21     2    25
  2.5301763236684671E-01 a      1351     1    22     2     1
  8.8114789496835910E-01 a      1352     1    22     2     2
 -2.6493358460849803E-01 a      1353     1    22     2     3
 -3.9310341534953219E-02 a      1354     1    22     2     4
  2.8011647661222711E-01 a      1355     1    22     2     5
 -3.3686490433315758E-01 a      1356     1    22     2     6
  9.5525233961183875E-01 a      1357     1    22     2     7
  2.4657271272796136E-01 a      1358     1    22     2     8
  6.1763744570081114E-01 a      1359     1    22     2     9
 -3.2175123558399049E-01 a      1360     1    22     2    10
  2.7629059133616463E-01 a      1361     1    22     2    11
  2.0901270977154418E-01 a      1362     1    22     2    12
  3.1531023621545090E-01 a      1363     1    22     2    13
  3.9806295914092793E-01 a      1364     1    22     2    14
 -9.3640018576731737E-02 a      1365     1    22     2    15
  1.0458606882988732E-01 a      1366     1    22     2    16
  9.1413955032728408E-02 a      1367     1    22     2    17
  2.9988203589279910E-01 a      1368     1    22     2    18
  2.0495011353285858E-01 a      1369     1    22     2    19
  3.8266511655067093E-01 a      1370     1    22     2    20
 -5.0097465440749600E-01 a      1371     1    22     2    21
 -3.9866326749641195E-01 a      1372     1    22     2    22
 -1.7440855503698883E-02 a      1373     1    22     2    23
 -9.8389352082023027E-02 a      1374     1    22     2    24
 -3.5494270846188963E-01 a      1375     1    22     2    25
  1.7800850960740619E-01 a      1376     1    23     2     1
  1.0538637469460425E-02 a      1377     1    23     2     2
 -2.2344211855660290E-01 a      1378     1    23     2     3
 -8.0083485328629508E-02 a      1379     1    23     2     4
 -2.1117409161019712E-01 a      1380     1    23     2     5
  2.1570428525776467E-02 a      1381     1    23     2     6
 -2.7841496938478261E-01 a      1382     1    23     2     7
 -4.4011470672732150E-01 a      1383     1    23     2     8
  7.2065825394284355E-02 a      1384     1    23     2     9
  6.2149351095275740E-01 a      1385     1    23     2    10
 -6.5519874245987442E-01 a      1386     1    23     2    11
  2.6295022104358590E-01 a      1387     1    23     2    12
 -5.2643280568753270E-01 a      1388     1    23     2    13
  1.0053454128670213E-02 a      1389     1    23     2    14
 -2.2069029657209257E-03 a      1390     1    23     2    15
  3.6908759529561136E-01 a      1391     1    23     2    16
 -2.7067561938154155E-02 a      1392     1    23     2    17
 -2.4123721091943920E-01 a      1393     1    23     2    18
  4.3608826808574019E-01 a      1394     1    23     2    19
 -2.3122653465729318E-01 a      1395     1    23     2    20
  5.4541174395100811E-01 a      1396     1    23     2    21
 -4.9740520493700641E-03 a      1397     1    23     2    22
 -3.6970360765061172E-01 a      1398     1    23     2    23
 -2.0181374676615169E-01 a      1399     1    23     2    24
 -4.0337112598920588E-01 a      1400     1    23     2    25
  4.8213203606065685E-01 a      1401     1    24     2     1
 -5.4665469703154290E-01 a      1402     1    24     2     2
 -1.9323088399426805E-01 a      1403     1    24     2     3
  2.3882156304150356E-02 a      1404     1    24     2     4
  3.3303756940809126E-01 a      1405     1    24     2     5
  3.4689369505867990E-01 a      1406     1    24     2     6
  1.3015373957187290E-02 a      1407     1    24     2     7
  2.0100536495913892E-02 a      1408     1    24     2     8
  5.1358899735555720E-02 a      1409     1    24     2     9
 -6.8843126755347116E-03 a      1410     1    24     2    10
  2.9846437291334094E-01 a      1411     1    24     2    11
  2.1744148532886834E-01 a      1412     1    24     2    12
  4.7974402178831373E-02 a      1413     1    24     2    13
 -1.2757819204814100E-01 a      1414     1    24     2    14
  3.7963859856135068E-01 a      1415     1    24     2    15
  2.0541560707069659E-01 a      1416     1    24     2    16
 -2.8761307938038000E-01 a      1417     1    24     2    17
 -3.4590541426147980E-01 a      1418     1    24     2    18
 -1.9077568929455065E-02 a      1419     1    24     2    19
  6.8749824553198524E-01 a      1420     1    24     2    20
  7.7606902163076821E-02 a      1421     1    24     2    21
 -5.1480457385782608E-01 a      1422     1    24     2    22
  3.2088663670295736E-01 a      1423     1    24     2    23
 -3.6659339431513571E-01 a      1424     1    24     2    24
 -5.0097904813055538E-01 a      1425     1    24     2    25
  3.2996787686478424E-01 a      1426     1    25     2     1
 -2.2745500638555119E-01 a      1427     1    25     2     2
  1.6102602745776029E-01 a      1428     1    25     2     3
  2.0659003356703395E-01 a      1429     1    25     2     4
 -2.4166513356154742E-01 a      1430     1    25     2     5
  1.8920200818980126E-01 a      1431     1    25     2     6
 -7.7922024239638260E-02 a      1432     1    25     2     7
 -3.2618391177965067E-01 a      1433     1    25     2     8
 -2.4572118373767857E-01 a      1434     1    25     2     9
 -2.9102873604658613E-01 a      1435     1    25     2    10
  4.1457428943778241E-01 a      1436     1    25     2    11
 -2.8187117119810906E-01 a      1437     1    25     2    12
  1.8831383822912226E-01 a      1438     1    25     2    13
 -2.5202537481851411E-01 a      1439     1    25     2    14
  2.1757567956275692E-01 a      1440     1    25     2    15
  3.6009868702787418E-01 a      1441     1    25     2    16
  2.3065631349630977E-01 a      1442     1    25     2    17
 -3.1793241667325145E-01 a      1443     1    25     2    18
 -2.9709506040270572E-01 a      1444     1    25     2    19
 -5.3226580523193079E-01 a      1445     1    25     2    20
 -1.9010143987629549E-01 a      1446     1    25     2    21
  5.7610214366151780E-01 a      1447     1    25     2    22
 -2.3046794431613191E-01 a      1448     1    25     2    23
  1.1327487872060421E-01 a      1449     1    25     2    24
 -1.2800687308143285E-01 a      1450     1    25     2    25
  1.0465571549231225E+00 b      1451     2     1
  1.1925893431311827E+00 b      1452     2     2
  4.0234679613243068E-01 b      1453     2     3
  2.6379372619879460E-01 b      1454     2     4
  7.1506095075182519E-01 b      1455     2     5
  7.2310983508775672E-01 b      1456     2     6
  8.6226637717202970E-01 b      1457     2     7
  1.2330258652540131E+00 b      1458     2     8
  3.7924105123396762E-01 b      1459     2     9
  6.1932847409186509E-01 b      1460     2    10
  1.2657092293436574E+00 b      1461     2    11
 -6.1011516086825079E-01 b      1462     2    12
 -7.1909123290972365E-01 b      1463     2    13
  4.6348711677811814E-02 b      1464     2    14
  1.3992601783002165E-01 b      1465     2    15
 -1.3709201832883016E+00 b      1466     2    16
 -9.2703085761106918E-01 b      1467     2    17
  9.1779279936712321E-01 b      1468     2    18
 -1.0374526690270243E+00 b      1469     2    19
 -1.5777444276225503E+00 b      1470     2    20
  2.3168954160719415E-01 b      1471     2    21
  9.7325409696137188E-01 b      1472     2    22
 -9.0080908052493347E-01 b      1473     2    23
  8.4567975584841082E-01 b      1474     2    24
 -1.3172894164503142E+00 b      1475     2    25
 -4.1872698135029675E-02 a      1476     2     1     3     1
 -8.3497727410646772E-01 a      1477     2     2     3     1
 -8.2609503599712739E-02 a      1478     2     3     3     1
 -6.3078456893889745E-02 a      1479     2     4     3     1
  4.6320616252453067E-01 a      1480     2     5     3     1
 -5.6160393807296527E-01 a      1481     2     6     3     1
 -1.1180230630489649E+00 a      1482     2     7     3     1
 -7.4070631957790356E-01 a      1483     2     8     3     1
  7.1893882762743311E-01 a      1484     2     9     3     1
 -8.3147914940885292E-01 a      1485     2    10     3     1
  4.9238235553554283E-01 a      1486     2    11     3     1
 -1.1795084197532510E+00 a      1487     2    12     3     1
 -2.8154242504839291E-02 a      1488     2    13     3     1
 -5.2279764936450213E-01 a      1489     2    14     3     1
  2.4361050033781412E-01 a      1490     2    15     3     1
 -4.0664105510271031E-01 a      1491     2    16     3     1
 -9.7635978540396640E-01 a      1492     2    17     3     1
  6.6424445576463195E-02 a      1493     2    18     3     1
  1.6591330322367345E-01 a      1494     2    19     3     1
  3.7737760116784469E-01 a      1495     2    20     3     1
  1.5609005202166953E-01 a      1496     2    21     3     1
  8.6054171805866686E-01 a      1497     2    22     3     1
 -5.4503726276832876E-01 a      1498     2    23     3     1
  1.7903827707590403E-01 a      1499     2    24     3     1
 -3.8606249527883268E-01 a      1500     2    25     3     1
 -3.3322556045044732E-01 b      1501     3     1
