################################################################################
# Neural network connection values (weights and biases).
################################################################################
# Col  Name       Description
################################################################################
# 1    connection Neural network connection value.
# 2    t          Connection type (a = weight, b = bias).
# 3    index      Index enumerating weights.
# 4    l_s        Starting point layer (end point layer for biases).
# 5    n_s        Starting point neuron in starting layer (end point neuron for biases).
# 6    l_e        End point layer.
# 7    n_e        End point neuron in end layer.
################################################################################
#                      1 2         3     4     5     6     7
#             connection t     index   l_s   n_s   l_e   n_e
############################################################
  7.3907897782222398E-02 a         1     0     1     1     1
  3.6228494229708674E-01 a         2     0     1     1     2
 -3.9187734283694731E-01 a         3     0     1     1     3
 -3.8447270305891906E-01 a         4     0     1     1     4
 -4.2503467516500204E-01 a         5     0     1     1     5
 -2.6791800914511243E-01 a         6     0     1     1     6
 -6.3409916432891855E-01 a         7     0     1     1     7
  1.7165968808466014E-01 a         8     0     1     1     8
 -4.2090911557384793E-02 a         9     0     1     1     9
  7.3791875039426053E-02 a        10     0     1     1    10
 -3.9073150927315572E-02 a        11     0     1     1    11
 -7.9495072865102392E-02 a        12     0     1     1    12
 -3.7488427832227944E-01 a        13     0     1     1    13
  6.2895569225800266E-02 a        14     0     1     1    14
 -7.2327975841591374E-01 a        15     0     1     1    15
  1.0218922295550530E-01 a        16     0     1     1    16
  3.0434717136157207E-02 a        17     0     1     1    17
 -2.0481220322494798E-01 a        18     0     1     1    18
  2.3935157549232858E-01 a        19     0     1     1    19
  3.4488210126501817E-01 a        20     0     1     1    20
  5.0687320151749415E-01 a        21     0     1     1    21
  8.5895934425555653E-02 a        22     0     1     1    22
 -2.6922439003871074E-01 a        23     0     1     1    23
  6.4060220477313551E-02 a        24     0     1     1    24
 -3.4455413099599169E-01 a        25     0     1     1    25
  2.4421883604605638E-01 a        26     0     2     1     1
  3.7691428037664382E-01 a        27     0     2     1     2
  1.8623258669873152E-01 a        28     0     2     1     3
 -1.1121040252314881E-02 a        29     0     2     1     4
  5.8737753538006954E-01 a        30     0     2     1     5
 -3.5439307934051195E-01 a        31     0     2     1     6
  2.6977520927983517E-01 a        32     0     2     1     7
  2.1958076036087756E-01 a        33     0     2     1     8
  4.7577959141063936E-01 a        34     0     2     1     9
  2.1448892360774072E-01 a        35     0     2     1    10
 -6.9706867362721692E-01 a        36     0     2     1    11
  1.7174930940257540E-02 a        37     0     2     1    12
  1.2309120346757371E-01 a        38     0     2     1    13
 -2.5705451855118622E-01 a        39     0     2     1    14
 -2.6384005118922549E-01 a        40     0     2     1    15
 -4.8485148265338403E-02 a        41     0     2     1    16
 -2.5044232263143412E-01 a        42     0     2     1    17
  4.3909824501266836E-01 a        43     0     2     1    18
  4.4074439857925091E-01 a        44     0     2     1    19
 -8.0002158965444062E-02 a        45     0     2     1    20
 -3.1738649017778081E-01 a        46     0     2     1    21
  2.9910801238745956E-03 a        47     0     2     1    22
  3.3395876343944997E-01 a        48     0     2     1    23
 -3.5333516016876448E-01 a        49     0     2     1    24
 -8.4756912120755742E-02 a        50     0     2     1    25
 -8.0000237388544643E-02 a        51     0     3     1     1
 -3.3818501951187169E-01 a        52     0     3     1     2
  4.9073040791943845E-01 a        53     0     3     1     3
 -2.1001163910814077E-02 a        54     0     3     1     4
  1.4310497648207332E-01 a        55     0     3     1     5
  2.5260388103711551E-01 a        56     0     3     1     6
  7.4297350574016563E-01 a        57     0     3     1     7
 -4.2217758046554138E-01 a        58     0     3     1     8
  5.0232239603337303E-01 a        59     0     3     1     9
  2.9303568763924548E-01 a        60     0     3     1    10
 -4.1542744723410741E-01 a        61     0     3     1    11
  2.9297324863879914E-01 a        62     0     3     1    12
  1.9235530649388968E-01 a        63     0     3     1    13
 -5.1612962049268940E-01 a        64     0     3     1    14
 -3.2367208822193505E-01 a        65     0     3     1    15
  2.1302249079249125E-01 a        66     0     3     1    16
 -4.0858538330932354E-01 a        67     0     3     1    17
 -2.6513129387473156E-01 a        68     0     3     1    18
 -3.4127584302081609E-01 a        69     0     3     1    19
 -2.3809371660806036E-01 a        70     0     3     1    20
 -3.7834617582347591E-01 a        71     0     3     1    21
  5.4234056763487482E-01 a        72     0     3     1    22
 -5.8026714371881095E-02 a        73     0     3     1    23
  4.1133124567133256E-01 a        74     0     3     1    24
 -2.0690146984128804E-01 a        75     0     3     1    25
 -4.0120226966748218E-01 a        76     0     4     1     1
  3.5492750404832529E-01 a        77     0     4     1     2
  1.8009370694901261E-01 a        78     0     4     1     3
  6.4857416705912468E-02 a        79     0     4     1     4
 -9.0001275928640112E-01 a        80     0     4     1     5
 -4.5049289372498758E-01 a        81     0     4     1     6
  3.8243583875845516E-01 a        82     0     4     1     7
 -1.2521666843331955E-01 a        83     0     4     1     8
 -3.4137052937835277E-01 a        84     0     4     1     9
 -4.6565457325692738E-01 a        85     0     4     1    10
  6.7895491133078878E-01 a        86     0     4     1    11
  2.2473996145558936E-01 a        87     0     4     1    12
 -6.2546196701148866E-03 a        88     0     4     1    13
  1.8533401458699136E-01 a        89     0     4     1    14
  2.6099850405095687E-01 a        90     0     4     1    15
  2.7756869690525626E-01 a        91     0     4     1    16
  8.2183218177533199E-02 a        92     0     4     1    17
  1.2349220746434597E-01 a        93     0     4     1    18
  8.1464603713160361E-02 a        94     0     4     1    19
 -4.8972788360971847E-01 a        95     0     4     1    20
  1.0892947118073991E-01 a        96     0     4     1    21
 -5.3762750996496778E-01 a        97     0     4     1    22
 -8.7565079744215624E-01 a        98     0     4     1    23
  7.2472031571264250E-01 a        99     0     4     1    24
 -4.4114661176429087E-01 a       100     0     4     1    25
  9.4911664513259852E-01 a       101     0     5     1     1
 -3.1231286684662379E-01 a       102     0     5     1     2
 -3.7996997936821864E-01 a       103     0     5     1     3
 -3.0336301894403006E-01 a       104     0     5     1     4
 -9.8828817492866802E-02 a       105     0     5     1     5
  4.5799239211360455E-02 a       106     0     5     1     6
 -3.5594528642641615E-01 a       107     0     5     1     7
  4.6250693211102289E-01 a       108     0     5     1     8
 -1.0289346520165345E-01 a       109     0     5     1     9
 -1.4641637798673521E-01 a       110     0     5     1    10
  3.1571046164276156E-01 a       111     0     5     1    11
  2.8817065820735205E-01 a       112     0     5     1    12
  1.2346035863139231E-01 a       113     0     5     1    13
  7.2295923324751199E-01 a       114     0     5     1    14
  8.5346180644231495E-01 a       115     0     5     1    15
 -5.1264589139104755E-01 a       116     0     5     1    16
  7.6306853971651545E-01 a       117     0     5     1    17
 -4.0549954666522880E-01 a       118     0     5     1    18
 -1.9891240192546242E-01 a       119     0     5     1    19
  7.9329021976431505E-02 a       120     0     5     1    20
 -4.6995817543701990E-01 a       121     0     5     1    21
  3.5388129175487099E-01 a       122     0     5     1    22
  2.5640945825002903E-01 a       123     0     5     1    23
 -5.3272300487568947E-01 a       124     0     5     1    24
  2.7620141293090911E-01 a       125     0     5     1    25
  2.7921682430418460E-01 a       126     0     6     1     1
  1.1806454203871478E-01 a       127     0     6     1     2
  4.0837499665836219E-02 a       128     0     6     1     3
  2.3973286603129793E-01 a       129     0     6     1     4
 -3.3141545201692997E-02 a       130     0     6     1     5
 -4.7263565181536515E-01 a       131     0     6     1     6
 -2.4499790433911445E-02 a       132     0     6     1     7
  2.4573028427019739E-01 a       133     0     6     1     8
  3.1260446242318335E-01 a       134     0     6     1     9
 -7.1777201706817631E-02 a       135     0     6     1    10
  3.5479025873604741E-01 a       136     0     6     1    11
  3.8684546752406963E-02 a       137     0     6     1    12
  4.6325769027209869E-02 a       138     0     6     1    13
 -3.1094143910849893E-02 a       139     0     6     1    14
 -3.9886777850768035E-01 a       140     0     6     1    15
  1.2036033777949955E-01 a       141     0     6     1    16
 -5.5676342935739809E-01 a       142     0     6     1    17
  5.7473736041375588E-02 a       143     0     6     1    18
  3.5005589192656594E-01 a       144     0     6     1    19
  4.4543448292898491E-01 a       145     0     6     1    20
 -1.3145151134415894E-01 a       146     0     6     1    21
  3.2354419884022406E-01 a       147     0     6     1    22
  1.4201777079156555E-01 a       148     0     6     1    23
 -6.3640642677235537E-01 a       149     0     6     1    24
  4.0054203771834601E-01 a       150     0     6     1    25
 -5.8331745907316568E-01 a       151     0     7     1     1
  8.8738237904018191E-02 a       152     0     7     1     2
  2.3732826240389299E-01 a       153     0     7     1     3
 -1.6034397356192223E-01 a       154     0     7     1     4
  2.6413949102928785E-01 a       155     0     7     1     5
 -1.5770504869218459E-02 a       156     0     7     1     6
 -4.8519623038273431E-02 a       157     0     7     1     7
 -5.9668309252485741E-01 a       158     0     7     1     8
  3.4636725896460968E-01 a       159     0     7     1     9
  6.7315916490809546E-01 a       160     0     7     1    10
 -3.2911989108347001E-01 a       161     0     7     1    11
 -3.7859459821056790E-01 a       162     0     7     1    12
 -3.3832165180764423E-01 a       163     0     7     1    13
 -3.4531691097271888E-01 a       164     0     7     1    14
 -6.9267125175173572E-01 a       165     0     7     1    15
  1.3966022619984386E-01 a       166     0     7     1    16
 -6.9990848511817638E-01 a       167     0     7     1    17
 -1.4590863138251853E-01 a       168     0     7     1    18
 -1.2567617254027966E-01 a       169     0     7     1    19
  6.3955051088112125E-01 a       170     0     7     1    20
 -7.6203613742572840E-02 a       171     0     7     1    21
  5.5346063452031125E-01 a       172     0     7     1    22
 -2.7816080719851072E-01 a       173     0     7     1    23
  4.2189183627774379E-01 a       174     0     7     1    24
 -2.3567651556653557E-01 a       175     0     7     1    25
 -1.7705770389699060E-01 a       176     0     8     1     1
  1.8726780973615412E-02 a       177     0     8     1     2
  3.1902729354433439E-02 a       178     0     8     1     3
  2.6276781021084616E-01 a       179     0     8     1     4
 -3.9099359601842615E-01 a       180     0     8     1     5
  1.9319338591296253E-01 a       181     0     8     1     6
 -7.9074813165615834E-02 a       182     0     8     1     7
  7.4642351894255859E-02 a       183     0     8     1     8
 -3.3664878323534875E-02 a       184     0     8     1     9
 -1.2211409918617364E-01 a       185     0     8     1    10
 -1.9702618481778900E-01 a       186     0     8     1    11
  2.3776955084995882E-01 a       187     0     8     1    12
  2.4599157484138454E-01 a       188     0     8     1    13
 -1.5170451495307216E-01 a       189     0     8     1    14
 -1.3743785666693870E-01 a       190     0     8     1    15
  1.0746395138856660E-01 a       191     0     8     1    16
  3.8458477511977507E-01 a       192     0     8     1    17
  5.7871836968561567E-02 a       193     0     8     1    18
 -3.0424587672669850E-02 a       194     0     8     1    19
 -1.7381324581980015E-01 a       195     0     8     1    20
  5.2202018104638337E-01 a       196     0     8     1    21
 -6.2882817470813634E-01 a       197     0     8     1    22
 -1.1424210183914499E-01 a       198     0     8     1    23
  4.8008689211535638E-01 a       199     0     8     1    24
  2.8073203754815462E-02 a       200     0     8     1    25
  3.4413055008998411E-01 a       201     0     9     1     1
  1.1100101866062084E-01 a       202     0     9     1     2
 -2.3544411928325248E-03 a       203     0     9     1     3
 -4.5983640599593911E-01 a       204     0     9     1     4
 -5.3985462179960246E-03 a       205     0     9     1     5
  1.8811837397442069E-01 a       206     0     9     1     6
  2.7326497217284890E-01 a       207     0     9     1     7
  2.0636809747430876E-01 a       208     0     9     1     8
 -1.4442625336857701E-01 a       209     0     9     1     9
  3.2364896185786263E-01 a       210     0     9     1    10
  4.3543353231967383E-02 a       211     0     9     1    11
  4.6365787759921834E-01 a       212     0     9     1    12
  4.0417927978047119E-01 a       213     0     9     1    13
  2.2114827091827563E-01 a       214     0     9     1    14
  2.3598570839455243E-01 a       215     0     9     1    15
  8.6613349816045977E-03 a       216     0     9     1    16
  2.6226054615064404E-01 a       217     0     9     1    17
 -4.7980484710400179E-01 a       218     0     9     1    18
 -8.9190708328209398E-02 a       219     0     9     1    19
 -6.4643065452946652E-02 a       220     0     9     1    20
 -8.2399670966556052E-02 a       221     0     9     1    21
  4.5067933895523088E-01 a       222     0     9     1    22
  4.7857598993643349E-02 a       223     0     9     1    23
 -4.2758225264045713E-01 a       224     0     9     1    24
 -4.0370172916658686E-01 a       225     0     9     1    25
  3.1405082872300810E-01 a       226     0    10     1     1
 -3.6439276087689654E-02 a       227     0    10     1     2
 -2.8742864863374668E-01 a       228     0    10     1     3
  2.9755211071286480E-01 a       229     0    10     1     4
 -1.5101932765689960E-01 a       230     0    10     1     5
 -4.6692981733233063E-01 a       231     0    10     1     6
  2.1743082494575661E-01 a       232     0    10     1     7
 -1.2677906004819831E-02 a       233     0    10     1     8
  1.5093648044335403E-01 a       234     0    10     1     9
 -4.4325215114888022E-01 a       235     0    10     1    10
  4.1606805408504560E-01 a       236     0    10     1    11
 -1.7394358681513508E-01 a       237     0    10     1    12
 -2.9870131662805161E-01 a       238     0    10     1    13
 -1.5323982725952778E-01 a       239     0    10     1    14
 -1.3540815861360619E-01 a       240     0    10     1    15
  1.3132551501032058E-01 a       241     0    10     1    16
 -4.8993551431045923E-01 a       242     0    10     1    17
  2.3547288414652653E-01 a       243     0    10     1    18
  3.2648956306214000E-01 a       244     0    10     1    19
  1.7758534243590474E-01 a       245     0    10     1    20
  7.7470570530934105E-02 a       246     0    10     1    21
 -2.3688789834163507E-02 a       247     0    10     1    22
  4.5583891203154932E-02 a       248     0    10     1    23
 -6.3059235167893427E-02 a       249     0    10     1    24
 -2.3116278405246796E-01 a       250     0    10     1    25
 -1.8139008221249342E-01 a       251     0    11     1     1
 -1.8550658197559169E-01 a       252     0    11     1     2
  1.0988348863942586E-01 a       253     0    11     1     3
  1.6517712592345588E-01 a       254     0    11     1     4
  2.1648310407035579E-02 a       255     0    11     1     5
  6.8362974043780153E-02 a       256     0    11     1     6
 -8.3000805437353206E-02 a       257     0    11     1     7
 -1.5689854995088065E-01 a       258     0    11     1     8
  1.3331626921397008E-01 a       259     0    11     1     9
  1.1862550216278135E-01 a       260     0    11     1    10
 -2.6787155768716731E-01 a       261     0    11     1    11
 -3.4942259963896910E-01 a       262     0    11     1    12
 -1.7648030252191069E-01 a       263     0    11     1    13
  1.9430696062349498E-02 a       264     0    11     1    14
 -2.3284999399282749E-01 a       265     0    11     1    15
  2.2512776976668984E-02 a       266     0    11     1    16
  6.3272838276558094E-02 a       267     0    11     1    17
  2.4068986573913304E-01 a       268     0    11     1    18
 -1.0694279220979519E-01 a       269     0    11     1    19
 -2.5689721409738414E-01 a       270     0    11     1    20
  1.7783907834960158E-01 a       271     0    11     1    21
  2.3837847578158111E-01 a       272     0    11     1    22
 -1.8383436215672078E-01 a       273     0    11     1    23
 -1.1996553808630434E-02 a       274     0    11     1    24
  2.6445423308732330E-01 a       275     0    11     1    25
 -2.7762348012094307E-01 a       276     0    12     1     1
  4.4059521043960312E-02 a       277     0    12     1     2
 -5.0638461680740602E-03 a       278     0    12     1     3
  2.3834495480332998E-01 a       279     0    12     1     4
 -1.0448676473162367E-01 a       280     0    12     1     5
  8.8280103326955170E-02 a       281     0    12     1     6
 -4.8923878215008265E-01 a       282     0    12     1     7
 -1.0294965857602146E-03 a       283     0    12     1     8
 -1.0515612833841162E-01 a       284     0    12     1     9
  1.3797390166984641E-01 a       285     0    12     1    10
 -6.8018714659250579E-02 a       286     0    12     1    11
  4.3289638271953823E-01 a       287     0    12     1    12
  3.0861657942893983E-01 a       288     0    12     1    13
  1.7940026715884788E-01 a       289     0    12     1    14
  1.4617725770604442E-01 a       290     0    12     1    15
 -5.6202008176661267E-02 a       291     0    12     1    16
  1.6684811334706315E-01 a       292     0    12     1    17
  1.2623040638375271E-01 a       293     0    12     1    18
  6.6866761930640716E-03 a       294     0    12     1    19
  1.4560751241306344E-01 a       295     0    12     1    20
  1.5786015992849223E-02 a       296     0    12     1    21
 -2.0704941743528429E-01 a       297     0    12     1    22
  4.1975988076399823E-02 a       298     0    12     1    23
  1.0964887070563988E-01 a       299     0    12     1    24
  2.6658316008979044E-01 a       300     0    12     1    25
  2.4719160795701672E-01 a       301     0    13     1     1
  2.1791892062596682E-01 a       302     0    13     1     2
  1.1727474736360245E-01 a       303     0    13     1     3
 -2.2889936572369773E-01 a       304     0    13     1     4
  3.6555248737179274E-02 a       305     0    13     1     5
 -7.1560445805355269E-02 a       306     0    13     1     6
  9.3469195550830539E-02 a       307     0    13     1     7
  1.4831042384542939E-01 a       308     0    13     1     8
 -6.8655813848776906E-02 a       309     0    13     1     9
 -6.0654928796119723E-02 a       310     0    13     1    10
  7.6406243410835906E-03 a       311     0    13     1    11
 -1.2107080067602909E-01 a       312     0    13     1    12
  1.0823683145799340E-01 a       313     0    13     1    13
  5.7023202067196722E-02 a       314     0    13     1    14
 -5.2386093301837938E-02 a       315     0    13     1    15
  2.4430012747863325E-01 a       316     0    13     1    16
  4.3239681339073383E-02 a       317     0    13     1    17
 -4.0047389166746983E-01 a       318     0    13     1    18
  4.0723547476156655E-02 a       319     0    13     1    19
 -1.3853394472222388E-04 a       320     0    13     1    20
 -2.0319872277430821E-02 a       321     0    13     1    21
  1.7869507862885434E-01 a       322     0    13     1    22
 -9.4494841111654820E-02 a       323     0    13     1    23
  3.3178545945370674E-02 a       324     0    13     1    24
 -5.2548565108803513E-01 a       325     0    13     1    25
  1.1153253078104534E-01 a       326     0    14     1     1
 -3.6700074982953074E-01 a       327     0    14     1     2
  7.7151559463333144E-02 a       328     0    14     1     3
 -4.8037605169149206E-02 a       329     0    14     1     4
 -6.9897787481292106E-02 a       330     0    14     1     5
 -6.1739750663323489E-02 a       331     0    14     1     6
  8.2249532681017465E-02 a       332     0    14     1     7
 -5.2805526727965745E-03 a       333     0    14     1     8
  2.3526017437789974E-02 a       334     0    14     1     9
 -7.1392545904842106E-02 a       335     0    14     1    10
  7.8138778445348139E-02 a       336     0    14     1    11
  3.8974693052131089E-02 a       337     0    14     1    12
 -1.8619510274244155E-01 a       338     0    14     1    13
 -1.4548030365857753E-01 a       339     0    14     1    14
  3.2188339220878104E-02 a       340     0    14     1    15
 -1.8146844592555490E-02 a       341     0    14     1    16
 -3.4918478367721317E-01 a       342     0    14     1    17
 -4.3685071054467478E-02 a       343     0    14     1    18
  1.9095989558777193E-01 a       344     0    14     1    19
  1.1051183584567537E-01 a       345     0    14     1    20
  5.4635001688403319E-03 a       346     0    14     1    21
 -1.7551936064656151E-01 a       347     0    14     1    22
  4.4297518580648440E-02 a       348     0    14     1    23
 -1.4384594543108012E-01 a       349     0    14     1    24
  1.0100515627095913E-01 a       350     0    14     1    25
 -9.7699966741312524E-02 a       351     0    15     1     1
 -9.4258424729178739E-02 a       352     0    15     1     2
  1.8875386998017423E-02 a       353     0    15     1     3
 -9.9035383646102634E-02 a       354     0    15     1     4
  1.7641046335199032E-02 a       355     0    15     1     5
 -2.7814644487223924E-02 a       356     0    15     1     6
  1.9677192693218229E-01 a       357     0    15     1     7
 -1.5184834862768337E-01 a       358     0    15     1     8
 -7.3158306491294296E-03 a       359     0    15     1     9
  4.1790911518053003E-02 a       360     0    15     1    10
 -3.8011338940057032E-03 a       361     0    15     1    11
  1.6724688094794796E-01 a       362     0    15     1    12
 -2.3580442145157685E-02 a       363     0    15     1    13
  1.3732210490389934E-01 a       364     0    15     1    14
  4.4182964690897596E-03 a       365     0    15     1    15
 -6.4400172677068837E-02 a       366     0    15     1    16
  1.4294369039645871E-02 a       367     0    15     1    17
  9.2241063700128273E-02 a       368     0    15     1    18
 -4.8108831073515226E-02 a       369     0    15     1    19
 -1.9248295988815020E-01 a       370     0    15     1    20
  5.1201699719441815E-02 a       371     0    15     1    21
  3.7395741847719666E-01 a       372     0    15     1    22
 -1.3916291638637598E-01 a       373     0    15     1    23
 -9.9687033170743067E-02 a       374     0    15     1    24
  2.0072364040488472E-01 a       375     0    15     1    25
 -1.8725749347024492E-01 a       376     0    16     1     1
  1.3515426207682379E-01 a       377     0    16     1     2
 -1.7150124803703759E-01 a       378     0    16     1     3
  3.2029418533023613E-01 a       379     0    16     1     4
 -1.0032972087114149E-01 a       380     0    16     1     5
  9.3242440636315427E-02 a       381     0    16     1     6
 -5.6314714198941962E-01 a       382     0    16     1     7
  3.4372098810739354E-02 a       383     0    16     1     8
  1.9611025190411392E-02 a       384     0    16     1     9
  1.1659969707106456E-01 a       385     0    16     1    10
 -2.2431647548107621E-02 a       386     0    16     1    11
  1.2166816209487982E-01 a       387     0    16     1    12
  2.7219609449733062E-01 a       388     0    16     1    13
  6.0074542797429714E-02 a       389     0    16     1    14
 -1.0741322842802905E-02 a       390     0    16     1    15
 -1.3402730970250312E-02 a       391     0    16     1    16
  1.3988054297432639E-01 a       392     0    16     1    17
  3.5470435885532547E-01 a       393     0    16     1    18
 -3.7375594013891046E-02 a       394     0    16     1    19
 -6.1968321829379363E-04 a       395     0    16     1    20
 -1.1893603709946084E-02 a       396     0    16     1    21
 -3.1176167128455795E-01 a       397     0    16     1    22
  1.6317474145696720E-01 a       398     0    16     1    23
  4.5984021154588474E-02 a       399     0    16     1    24
  8.4830094155177949E-02 a       400     0    16     1    25
  7.0867621046289547E-02 a       401     0    17     1     1
  1.5329222907524914E-01 a       402     0    17     1     2
 -1.2990682832383488E-02 a       403     0    17     1     3
  2.0813422194712914E-02 a       404     0    17     1     4
  6.3593624587476194E-02 a       405     0    17     1     5
  2.3426037725043196E-03 a       406     0    17     1     6
  3.6062753485336739E-02 a       407     0    17     1     7
  1.6124582254857295E-01 a       408     0    17     1     8
 -2.7993424923402541E-02 a       409     0    17     1     9
 -1.0555994852166821E-03 a       410     0    17     1    10
  4.4573098084999936E-02 a       411     0    17     1    11
 -1.5360445115162896E-01 a       412     0    17     1    12
  2.1247318422009272E-02 a       413     0    17     1    13
 -4.1937593256171177E-02 a       414     0    17     1    14
 -5.4524663760423309E-02 a       415     0    17     1    15
  1.6188671099028210E-01 a       416     0    17     1    16
  4.4398584862272231E-03 a       417     0    17     1    17
 -1.5871702547614228E-01 a       418     0    17     1    18
  3.2097979585599797E-02 a       419     0    17     1    19
  4.7025281926195740E-02 a       420     0    17     1    20
 -9.4587145442385240E-03 a       421     0    17     1    21
 -1.6221139106604154E-01 a       422     0    17     1    22
  9.1681785010124372E-03 a       423     0    17     1    23
  8.4164883812741578E-02 a       424     0    17     1    24
 -1.8103611069783374E-01 a       425     0    17     1    25
  1.0958768888603619E-01 a       426     0    18     1     1
 -4.8629101681176387E-02 a       427     0    18     1     2
 -2.3484289335685488E-02 a       428     0    18     1     3
 -4.5114598424560920E-02 a       429     0    18     1     4
  3.1949707337893082E-02 a       430     0    18     1     5
 -5.5318012105347834E-02 a       431     0    18     1     6
  2.9325286097582803E-01 a       432     0    18     1     7
 -1.4857384870771727E-02 a       433     0    18     1     8
  4.2623983612125119E-02 a       434     0    18     1     9
 -9.1734531344198331E-02 a       435     0    18     1    10
  7.4606418803351100E-03 a       436     0    18     1    11
 -2.9929997174181201E-02 a       437     0    18     1    12
 -2.7797281649032535E-01 a       438     0    18     1    13
 -1.3691793956438719E-01 a       439     0    18     1    14
  6.5088655306372215E-02 a       440     0    18     1    15
 -1.2084135040693177E-01 a       441     0    18     1    16
 -8.6202354946710705E-02 a       442     0    18     1    17
 -1.2145899557102713E-01 a       443     0    18     1    18
 -5.5401922375749911E-03 a       444     0    18     1    19
  2.7213067015300497E-02 a       445     0    18     1    20
 -9.9945360283952511E-02 a       446     0    18     1    21
  6.9993514625191697E-02 a       447     0    18     1    22
  1.1268865005216452E-02 a       448     0    18     1    23
  6.7108534059828404E-02 a       449     0    18     1    24
 -3.0292510593617556E-02 a       450     0    18     1    25
 -8.8628417963753744E-02 a       451     0    19     1     1
 -5.8541666550924361E-02 a       452     0    19     1     2
  1.1077193135786623E-01 a       453     0    19     1     3
 -2.3059087185507735E-01 a       454     0    19     1     4
 -1.3161703206758859E-02 a       455     0    19     1     5
  1.5004004486421241E-01 a       456     0    19     1     6
  2.1228878230443832E-01 a       457     0    19     1     7
 -1.3492758004360964E-01 a       458     0    19     1     8
  5.0315996083903504E-02 a       459     0    19     1     9
  7.5311030006156521E-02 a       460     0    19     1    10
  4.5524159918837417E-02 a       461     0    19     1    11
 -7.8108290547462350E-02 a       462     0    19     1    12
  8.8119341580662147E-02 a       463     0    19     1    13
 -2.7747465387977756E-02 a       464     0    19     1    14
  9.0008945351068882E-03 a       465     0    19     1    15
 -1.4654024223470496E-01 a       466     0    19     1    16
  7.0611726697889621E-02 a       467     0    19     1    17
  1.6035790692611357E-01 a       468     0    19     1    18
 -1.3958401317514818E-01 a       469     0    19     1    19
  4.2082452783133674E-03 a       470     0    19     1    20
  2.4930440995639666E-01 a       471     0    19     1    21
  2.5513533322413562E-01 a       472     0    19     1    22
 -3.0621498343519668E-02 a       473     0    19     1    23
 -1.8471786550884903E-01 a       474     0    19     1    24
  7.7508796525235790E-02 a       475     0    19     1    25
 -2.7964591966905341E-02 a       476     0    20     1     1
 -1.3610536110933277E-01 a       477     0    20     1     2
 -1.6807857848680652E-02 a       478     0    20     1     3
  1.9268290200889590E-01 a       479     0    20     1     4
 -1.2553668400735732E-01 a       480     0    20     1     5
  5.1112262021720430E-02 a       481     0    20     1     6
 -4.3253335496305106E-01 a       482     0    20     1     7
  5.5140044487415905E-02 a       483     0    20     1     8
  3.8370090288270813E-02 a       484     0    20     1     9
  2.8999668456873855E-03 a       485     0    20     1    10
 -2.6655247336415361E-02 a       486     0    20     1    11
 -2.9685030226411120E-03 a       487     0    20     1    12
  5.1626396759081213E-02 a       488     0    20     1    13
 -2.9080218091369187E-03 a       489     0    20     1    14
  4.8015840950148955E-03 a       490     0    20     1    15
 -5.6960632531691681E-02 a       491     0    20     1    16
 -8.7890741899671845E-02 a       492     0    20     1    17
  1.4651334809240940E-01 a       493     0    20     1    18
  8.2369533797628833E-02 a       494     0    20     1    19
  3.9592261785215299E-02 a       495     0    20     1    20
 -8.2115628091402548E-02 a       496     0    20     1    21
 -3.5264596467734749E-01 a       497     0    20     1    22
  8.1517246405719293E-02 a       498     0    20     1    23
  3.5607666488912962E-02 a       499     0    20     1    24
  1.8383906078361203E-01 a       500     0    20     1    25
 -5.0889565938719661E-01 a       501     0    21     1     1
 -3.3077125810612268E-01 a       502     0    21     1     2
 -4.2125794464869198E-01 a       503     0    21     1     3
  3.6901584788374286E-01 a       504     0    21     1     4
  2.8874284842769682E-01 a       505     0    21     1     5
  1.1104187807295414E-02 a       506     0    21     1     6
  7.8333024772991200E-02 a       507     0    21     1     7
 -8.9770420888963878E-02 a       508     0    21     1     8
 -4.8685441883367297E-01 a       509     0    21     1     9
 -5.3297728099463371E-01 a       510     0    21     1    10
  2.3463168167668549E-01 a       511     0    21     1    11
 -2.7105991618538527E-01 a       512     0    21     1    12
 -1.3495295229454221E-01 a       513     0    21     1    13
 -1.1561370794938165E-01 a       514     0    21     1    14
  2.3920666834857396E-01 a       515     0    21     1    15
  1.4577897992109218E-01 a       516     0    21     1    16
  1.7918898895945168E-01 a       517     0    21     1    17
  1.5833943114524746E-01 a       518     0    21     1    18
  3.1632977298134668E-01 a       519     0    21     1    19
 -5.4936411046372147E-01 a       520     0    21     1    20
  5.8917356756833204E-02 a       521     0    21     1    21
 -8.5634479565788690E-01 a       522     0    21     1    22
 -2.7400446293661690E-01 a       523     0    21     1    23
 -4.2619271237421558E-01 a       524     0    21     1    24
  4.1411756513370163E-01 a       525     0    21     1    25
 -4.3867029015346887E-01 a       526     0    22     1     1
  1.3721970996925130E+00 a       527     0    22     1     2
  9.2526851965501800E-01 a       528     0    22     1     3
  3.9392483403775325E-01 a       529     0    22     1     4
 -3.7929217345685573E-01 a       530     0    22     1     5
  2.6279852754010891E-01 a       531     0    22     1     6
  1.4493032919236690E-01 a       532     0    22     1     7
  6.1603656225168180E-01 a       533     0    22     1     8
  2.0532979993167880E-01 a       534     0    22     1     9
 -1.7142905332744970E-02 a       535     0    22     1    10
 -3.7971243574496955E-01 a       536     0    22     1    11
  3.2570134777344023E-01 a       537     0    22     1    12
  6.0949093778161290E-01 a       538     0    22     1    13
 -4.0528044832037216E-02 a       539     0    22     1    14
 -2.7427280024786815E-01 a       540     0    22     1    15
 -1.9899354423532070E-01 a       541     0    22     1    16
  9.1309006737253218E-01 a       542     0    22     1    17
  5.5187017083557122E-01 a       543     0    22     1    18
 -1.1914867953959299E-01 a       544     0    22     1    19
 -6.7494628655926148E-02 a       545     0    22     1    20
  7.2513131342071857E-01 a       546     0    22     1    21
  3.7906085570765097E-01 a       547     0    22     1    22
  2.1138164852328870E-01 a       548     0    22     1    23
  5.4334759291472445E-01 a       549     0    22     1    24
  2.3833050904429831E-01 a       550     0    22     1    25
  4.4000937692976583E-01 a       551     0    23     1     1
 -6.9991254468534536E-01 a       552     0    23     1     2
 -5.6226856236230038E-01 a       553     0    23     1     3
 -5.7802226871987539E-01 a       554     0    23     1     4
  8.2669274146244487E-01 a       555     0    23     1     5
  4.5995466868770485E-01 a       556     0    23     1     6
  2.4196003656820875E-01 a       557     0    23     1     7
 -2.5221140090024241E-01 a       558     0    23     1     8
 -2.8789445621887116E-01 a       559     0    23     1     9
 -2.2365967560544109E-01 a       560     0    23     1    10
  3.2356963187158937E-02 a       561     0    23     1    11
 -5.2607374303368459E-01 a       562     0    23     1    12
 -7.0331277251030644E-01 a       563     0    23     1    13
 -3.8740090148008111E-02 a       564     0    23     1    14
  5.5146171095486918E-01 a       565     0    23     1    15
 -3.0984606099967260E-01 a       566     0    23     1    16
 -1.8807631214220569E-01 a       567     0    23     1    17
 -9.7951104602174058E-02 a       568     0    23     1    18
 -1.7744947841938544E-01 a       569     0    23     1    19
  3.6340576205756675E-02 a       570     0    23     1    20
 -4.8855485787753089E-01 a       571     0    23     1    21
  9.9548929793360441E-02 a       572     0    23     1    22
  1.6746449465380400E-01 a       573     0    23     1    23
  1.7017331767959973E-01 a       574     0    23     1    24
 -6.7556111872429866E-02 a       575     0    23     1    25
  5.5066975613315761E-01 a       576     0    24     1     1
  3.2893468291569061E-01 a       577     0    24     1     2
 -1.1494972699500193E-01 a       578     0    24     1     3
 -7.4165036477798751E-01 a       579     0    24     1     4
 -2.7811002941655993E-01 a       580     0    24     1     5
 -5.6628944313728453E-02 a       581     0    24     1     6
  3.9828038916682351E-01 a       582     0    24     1     7
  8.3365912432726563E-02 a       583     0    24     1     8
  2.1657895089591744E-01 a       584     0    24     1     9
  2.7576085977879045E-01 a       585     0    24     1    10
  5.5665689127647844E-01 a       586     0    24     1    11
 -5.6385645940144136E-01 a       587     0    24     1    12
  2.5004637560512694E-01 a       588     0    24     1    13
 -2.8168673422758267E-01 a       589     0    24     1    14
  4.7166845246864808E-01 a       590     0    24     1    15
  4.3284936437227867E-01 a       591     0    24     1    16
 -4.2598016862581789E-01 a       592     0    24     1    17
  4.4753479382687998E-02 a       593     0    24     1    18
  6.8454348095559822E-02 a       594     0    24     1    19
  2.4770250171396888E-01 a       595     0    24     1    20
 -1.8633314432604980E-01 a       596     0    24     1    21
  4.3587035893604842E-01 a       597     0    24     1    22
  2.3811222585995126E-01 a       598     0    24     1    23
 -1.0727939949507580E-01 a       599     0    24     1    24
 -2.0897354318249814E-01 a       600     0    24     1    25
 -8.7650140493184070E-01 a       601     0    25     1     1
 -1.1117727326463154E+00 a       602     0    25     1     2
 -8.9165567655983768E-02 a       603     0    25     1     3
  2.8733546508471053E-01 a       604     0    25     1     4
  1.1565629396752375E-01 a       605     0    25     1     5
 -7.5441365756317713E-01 a       606     0    25     1     6
 -1.8420990711825577E-01 a       607     0    25     1     7
 -9.5849903824374749E-01 a       608     0    25     1     8
  1.3878429228939820E-01 a       609     0    25     1     9
  2.1761960627539964E-01 a       610     0    25     1    10
  1.8424718054333539E-01 a       611     0    25     1    11
  1.9185858497964897E-01 a       612     0    25     1    12
 -7.2301019407412026E-01 a       613     0    25     1    13
  7.4397434285861541E-01 a       614     0    25     1    14
 -1.8555370990852109E+00 a       615     0    25     1    15
 -9.2290436678519217E-02 a       616     0    25     1    16
 -9.8390987759056148E-01 a       617     0    25     1    17
 -1.6931846292821592E-01 a       618     0    25     1    18
 -2.8982071432991174E-01 a       619     0    25     1    19
  2.7056824581234151E-01 a       620     0    25     1    20
  1.8160420767219485E-01 a       621     0    25     1    21
 -5.9621164336749792E-02 a       622     0    25     1    22
 -6.7502619406744513E-02 a       623     0    25     1    23
 -7.9303801061868809E-02 a       624     0    25     1    24
  5.0168441124668346E-02 a       625     0    25     1    25
  2.3532598378965225E-01 a       626     0    26     1     1
  2.0669750430467876E-01 a       627     0    26     1     2
  1.8103318337227246E-02 a       628     0    26     1     3
  2.2328823567847389E-01 a       629     0    26     1     4
 -2.0603318865025463E-01 a       630     0    26     1     5
  3.6658779922428752E-03 a       631     0    26     1     6
 -3.3837073790607347E-01 a       632     0    26     1     7
  2.8630762579129412E-02 a       633     0    26     1     8
  7.5274975688326556E-02 a       634     0    26     1     9
  1.1463119978634322E-01 a       635     0    26     1    10
 -1.3719958836207749E-01 a       636     0    26     1    11
  1.6539145298269950E-01 a       637     0    26     1    12
  2.3893085432623851E-01 a       638     0    26     1    13
  8.1589545651685788E-02 a       639     0    26     1    14
  4.0913550323801379E-01 a       640     0    26     1    15
 -1.8066846693941643E-01 a       641     0    26     1    16
  2.1264258440279965E-01 a       642     0    26     1    17
 -1.1378412399267247E-01 a       643     0    26     1    18
  1.5200433146348938E-01 a       644     0    26     1    19
 -1.0640445580299071E-01 a       645     0    26     1    20
 -5.0407422735650229E-02 a       646     0    26     1    21
 -1.6132301889269382E-01 a       647     0    26     1    22
 -4.4534144669730998E-02 a       648     0    26     1    23
  2.4386717118728778E-03 a       649     0    26     1    24
  3.8086303476609445E-01 a       650     0    26     1    25
  1.3320906868308063E-01 a       651     0    27     1     1
 -1.0119760367066804E-02 a       652     0    27     1     2
 -8.3161367374383982E-02 a       653     0    27     1     3
  1.2694716959069677E-01 a       654     0    27     1     4
 -5.3809802716958906E-02 a       655     0    27     1     5
 -1.9880170860084265E-01 a       656     0    27     1     6
 -5.0044574157712962E-02 a       657     0    27     1     7
 -1.0222910584043876E-01 a       658     0    27     1     8
 -1.5956866181051526E-03 a       659     0    27     1     9
 -3.0438593996772750E-01 a       660     0    27     1    10
 -8.4632503313625457E-02 a       661     0    27     1    11
 -3.1340305973068078E-01 a       662     0    27     1    12
  1.2041155691267528E-03 a       663     0    27     1    13
 -5.4656843185364110E-03 a       664     0    27     1    14
 -9.1598683223378968E-02 a       665     0    27     1    15
  2.6128739115939437E-01 a       666     0    27     1    16
  1.7700768986941171E-01 a       667     0    27     1    17
 -3.9161553144338432E-02 a       668     0    27     1    18
 -3.3007657842988999E-03 a       669     0    27     1    19
  5.4861677803757884E-02 a       670     0    27     1    20
 -1.0896547052685619E-01 a       671     0    27     1    21
 -2.8401786048164485E-02 a       672     0    27     1    22
  4.4505538196839250E-02 a       673     0    27     1    23
  9.0351641320057102E-02 a       674     0    27     1    24
 -8.8989841922292062E-02 a       675     0    27     1    25
 -2.3051584660470944E-03 a       676     0    28     1     1
 -2.5226971318382557E-01 a       677     0    28     1     2
  2.7537490789988223E-01 a       678     0    28     1     3
 -9.6650824865414889E-02 a       679     0    28     1     4
 -9.3465787012169288E-02 a       680     0    28     1     5
 -7.1259574503609535E-02 a       681     0    28     1     6
 -3.1837377470705852E-01 a       682     0    28     1     7
  2.1758431609767320E-01 a       683     0    28     1     8
  6.0104745272774811E-02 a       684     0    28     1     9
  6.1056613046962423E-02 a       685     0    28     1    10
  5.3885399727495009E-02 a       686     0    28     1    11
 -2.2133576895913051E-01 a       687     0    28     1    12
 -7.2631450251937832E-02 a       688     0    28     1    13
 -7.9467115841315911E-02 a       689     0    28     1    14
 -1.9631171657633864E-01 a       690     0    28     1    15
  1.0016917518755858E-01 a       691     0    28     1    16
 -9.9304579619436548E-02 a       692     0    28     1    17
  2.1596163208638297E-01 a       693     0    28     1    18
 -4.2128297223709303E-02 a       694     0    28     1    19
  8.7424471528413525E-02 a       695     0    28     1    20
 -6.8385194684531803E-02 a       696     0    28     1    21
 -1.1225801185559549E-01 a       697     0    28     1    22
  7.4124889999391735E-02 a       698     0    28     1    23
 -8.4573274863531542E-02 a       699     0    28     1    24
 -3.9200715212449005E-01 a       700     0    28     1    25
 -4.0842427412864951E-02 a       701     0    29     1     1
  1.9053565108056680E-01 a       702     0    29     1     2
 -2.7295542691589231E-01 a       703     0    29     1     3
  2.9032429349463640E-01 a       704     0    29     1     4
  7.1571236419882209E-02 a       705     0    29     1     5
 -5.2164654328394885E-02 a       706     0    29     1     6
 -2.5526105512247982E-01 a       707     0    29     1     7
 -3.9760198752287318E-01 a       708     0    29     1     8
  8.5665503311439600E-02 a       709     0    29     1     9
 -1.3195086751684429E-01 a       710     0    29     1    10
 -9.7376986344263533E-02 a       711     0    29     1    11
  3.4109266537164223E-01 a       712     0    29     1    12
  2.4700499115426608E-01 a       713     0    29     1    13
  1.2074584121865831E-01 a       714     0    29     1    14
 -8.3919983475912230E-02 a       715     0    29     1    15
 -2.8565046364809410E-01 a       716     0    29     1    16
  2.0529773508266705E-01 a       717     0    29     1    17
  3.9888071803870512E-01 a       718     0    29     1    18
 -1.9985053795544719E-01 a       719     0    29     1    19
 -2.6542739618362038E-01 a       720     0    29     1    20
  7.9744505358655390E-02 a       721     0    29     1    21
  1.9020542448350219E-01 a       722     0    29     1    22
 -2.6890124010431053E-02 a       723     0    29     1    23
 -1.0473814745908680E-01 a       724     0    29     1    24
 -9.1846154581330344E-02 a       725     0    29     1    25
 -5.5728878638785206E-01 a       726     0    30     1     1
  5.5364679403706540E-01 a       727     0    30     1     2
  2.0514769358725979E-01 a       728     0    30     1     3
  8.6997636778238310E-02 a       729     0    30     1     4
  5.0900782203575312E-01 a       730     0    30     1     5
  2.6126347198658306E-01 a       731     0    30     1     6
  1.1528157253228206E-01 a       732     0    30     1     7
  2.4760573092977418E-02 a       733     0    30     1     8
 -9.5260809996428386E-02 a       734     0    30     1     9
 -2.3999050587722467E-01 a       735     0    30     1    10
  2.5399653767384062E-01 a       736     0    30     1    11
 -1.9344258135747425E-01 a       737     0    30     1    12
  5.9512340178500593E-02 a       738     0    30     1    13
  2.6800790484078113E-01 a       739     0    30     1    14
  1.5264474082283785E-01 a       740     0    30     1    15
 -6.2606693417506087E-01 a       741     0    30     1    16
  3.9344126713561758E-02 a       742     0    30     1    17
 -6.3429330193695455E-02 a       743     0    30     1    18
 -1.3428129783244900E-02 a       744     0    30     1    19
  5.0115955668540102E-01 a       745     0    30     1    20
  4.2275242360868388E-02 a       746     0    30     1    21
 -2.7666807118019077E-01 a       747     0    30     1    22
 -9.5863941372267003E-02 a       748     0    30     1    23
  4.4772280382037698E-02 a       749     0    30     1    24
  1.5234605420595382E-01 a       750     0    30     1    25
  8.3485126797316378E-01 a       751     0    31     1     1
 -1.7940273721321742E-01 a       752     0    31     1     2
 -1.1119426928661529E-01 a       753     0    31     1     3
 -6.7602470273990611E-01 a       754     0    31     1     4
 -1.0889680772876373E-01 a       755     0    31     1     5
  4.9105113699810454E-01 a       756     0    31     1     6
  2.2170203534304264E-01 a       757     0    31     1     7
  2.0480851874770470E-01 a       758     0    31     1     8
 -6.9360010560397989E-01 a       759     0    31     1     9
 -1.1905435413669509E-01 a       760     0    31     1    10
 -1.2602110870331054E+00 a       761     0    31     1    11
  8.6369301871933035E-01 a       762     0    31     1    12
  1.0113373477670509E-01 a       763     0    31     1    13
 -2.7173391416079784E-01 a       764     0    31     1    14
  1.2937495225332647E+00 a       765     0    31     1    15
 -3.1809411352772049E-01 a       766     0    31     1    16
  7.4770168712896723E-01 a       767     0    31     1    17
  3.2360155780366093E-02 a       768     0    31     1    18
  7.9559816855769624E-03 a       769     0    31     1    19
 -9.6898098132515631E-01 a       770     0    31     1    20
 -6.1390243343690420E-01 a       771     0    31     1    21
 -7.6445122190519063E-02 a       772     0    31     1    22
 -8.2500510306567923E-02 a       773     0    31     1    23
  2.2598766891967872E-01 a       774     0    31     1    24
  2.8312210512058988E-01 a       775     0    31     1    25
 -3.2290167811433113E-01 a       776     0    32     1     1
  3.0460460892982283E-03 a       777     0    32     1     2
  1.5107203803606969E-01 a       778     0    32     1     3
  1.4954679734997348E-01 a       779     0    32     1     4
  1.1687924317909655E-01 a       780     0    32     1     5
 -9.8660728245960144E-02 a       781     0    32     1     6
 -2.0268002989768197E-01 a       782     0    32     1     7
  8.3727041573046279E-02 a       783     0    32     1     8
  1.4823042457807675E-01 a       784     0    32     1     9
  1.7405959692226516E-01 a       785     0    32     1    10
  3.5501644243223601E-01 a       786     0    32     1    11
 -1.3422414882737113E-01 a       787     0    32     1    12
 -5.7489079865819019E-02 a       788     0    32     1    13
 -2.1121829026490188E-01 a       789     0    32     1    14
 -2.4902049427297890E-01 a       790     0    32     1    15
  2.9906224048216767E-01 a       791     0    32     1    16
 -1.1374505978824687E-01 a       792     0    32     1    17
 -3.8319659072964876E-03 a       793     0    32     1    18
 -4.4567808804871427E-02 a       794     0    32     1    19
  1.1358560756109884E-01 a       795     0    32     1    20
  1.0744965886063117E-01 a       796     0    32     1    21
  1.0166058929744230E-01 a       797     0    32     1    22
  1.1328102846289327E-01 a       798     0    32     1    23
 -1.6053855559523308E-01 a       799     0    32     1    24
 -2.8222328937846047E-01 a       800     0    32     1    25
  9.5603409007163700E-02 b       801     1     1
  1.3319519299970237E+00 b       802     1     2
  2.1568243639789283E-01 b       803     1     3
 -6.1765958331255222E-01 b       804     1     4
  9.4185015355964852E-01 b       805     1     5
 -2.8021806428644119E-01 b       806     1     6
 -7.9786130256838617E-01 b       807     1     7
  1.5253606439153733E+00 b       808     1     8
 -3.9415412475777301E-01 b       809     1     9
  5.2853137193463531E-03 b       810     1    10
  1.6074572514780774E+00 b       811     1    11
  8.2044128671748473E-01 b       812     1    12
  2.7131159374147475E-02 b       813     1    13
  5.9852356361529624E-01 b       814     1    14
 -8.3555246083494505E-01 b       815     1    15
  4.8605808261573863E-01 b       816     1    16
  7.4987761407692621E-01 b       817     1    17
  7.2162291767114384E-01 b       818     1    18
 -7.9154948956760263E-01 b       819     1    19
 -1.2038926051951317E+00 b       820     1    20
  1.6266775834140705E+00 b       821     1    21
 -1.1055563370486541E+00 b       822     1    22
 -2.9494731930812351E-02 b       823     1    23
 -2.3445901145628364E-01 b       824     1    24
  3.7179989659972507E-01 b       825     1    25
 -2.1225083349731325E-01 a       826     1     1     2     1
 -8.1943409907738088E-02 a       827     1     1     2     2
  2.8734091749238629E-02 a       828     1     1     2     3
  1.4241713300451103E-01 a       829     1     1     2     4
 -1.8652769009105524E-01 a       830     1     1     2     5
 -5.7212146973466693E-01 a       831     1     1     2     6
 -3.4835039090408504E-01 a       832     1     1     2     7
 -2.8093803949417125E-02 a       833     1     1     2     8
  6.6379479513400252E-01 a       834     1     1     2     9
  4.1527031853243734E-01 a       835     1     1     2    10
 -4.4612190099708501E-02 a       836     1     1     2    11
  8.9350817974290578E-02 a       837     1     1     2    12
 -5.1596236898173253E-01 a       838     1     1     2    13
 -2.7399832630683568E-01 a       839     1     1     2    14
 -6.2793472411370607E-02 a       840     1     1     2    15
  1.0483940503659143E-01 a       841     1     1     2    16
 -2.6168077673458010E-02 a       842     1     1     2    17
 -5.2123813515934392E-01 a       843     1     1     2    18
  5.6078484384725125E-01 a       844     1     1     2    19
  6.9546457936265860E-01 a       845     1     1     2    20
 -1.0712170772065868E+00 a       846     1     1     2    21
  5.6674735637721196E-01 a       847     1     1     2    22
  1.6999579907199788E-01 a       848     1     1     2    23
  5.4383540011304166E-01 a       849     1     1     2    24
  9.0629010552889044E-01 a       850     1     1     2    25
  3.3529541201840762E-02 a       851     1     2     2     1
 -4.2660178664495624E-01 a       852     1     2     2     2
  1.9667579240283561E-01 a       853     1     2     2     3
 -1.9602397354170961E-01 a       854     1     2     2     4
 -2.3268318034917063E-01 a       855     1     2     2     5
 -4.3520701401984191E-01 a       856     1     2     2     6
  1.3384381711956958E-01 a       857     1     2     2     7
 -1.4810798155869298E-01 a       858     1     2     2     8
  1.4610544305172815E-01 a       859     1     2     2     9
  4.1838773962946590E-01 a       860     1     2     2    10
 -4.9866725987175925E-01 a       861     1     2     2    11
 -2.4193002162985533E-02 a       862     1     2     2    12
 -7.8618261962740621E-01 a       863     1     2     2    13
  1.8411700573945761E-01 a       864     1     2     2    14
  9.1343551015177216E-02 a       865     1     2     2    15
 -2.9780239764992417E-01 a       866     1     2     2    16
  1.7279620880505836E-01 a       867     1     2     2    17
 -1.5421621325556656E-01 a       868     1     2     2    18
 -6.4727738020525810E-02 a       869     1     2     2    19
  6.7321256860695969E-02 a       870     1     2     2    20
 -6.2066959846532133E-01 a       871     1     2     2    21
  1.4810317082499891E-01 a       872     1     2     2    22
  4.3916231285047264E-01 a       873     1     2     2    23
 -5.9950009910626056E-01 a       874     1     2     2    24
 -5.8822945619416367E-01 a       875     1     2     2    25
 -1.2568401339065748E-02 a       876     1     3     2     1
  8.2754042988790258E-02 a       877     1     3     2     2
 -3.3425904861533677E-02 a       878     1     3     2     3
 -2.4869795712704545E-01 a       879     1     3     2     4
  3.6562493103699939E-01 a       880     1     3     2     5
  1.7620842434978976E-01 a       881     1     3     2     6
 -1.4462374817114512E-01 a       882     1     3     2     7
  1.6990415598788455E-01 a       883     1     3     2     8
  1.8745002378277181E-01 a       884     1     3     2     9
  3.0063795441623170E-01 a       885     1     3     2    10
  1.2391950367306762E-01 a       886     1     3     2    11
 -3.9452592179721463E-01 a       887     1     3     2    12
 -5.2633784343989121E-01 a       888     1     3     2    13
  3.1467180266557654E-01 a       889     1     3     2    14
  5.3524246591419278E-01 a       890     1     3     2    15
  3.4238247789719478E-01 a       891     1     3     2    16
  1.9405300364326256E-01 a       892     1     3     2    17
  1.3425415217511172E-01 a       893     1     3     2    18
  8.2364031389050157E-02 a       894     1     3     2    19
 -3.2628457612394929E-01 a       895     1     3     2    20
 -9.3322893293962067E-02 a       896     1     3     2    21
  2.2297947220174325E-01 a       897     1     3     2    22
  5.8433571742808423E-02 a       898     1     3     2    23
  3.3750423475513019E-01 a       899     1     3     2    24
  3.8223757935900204E-01 a       900     1     3     2    25
  1.8207152326184958E-01 a       901     1     4     2     1
  4.8633665743345530E-03 a       902     1     4     2     2
  2.1260904140754314E-01 a       903     1     4     2     3
 -8.1058797058876964E-01 a       904     1     4     2     4
  3.9622825523035421E-01 a       905     1     4     2     5
 -3.0464359387051299E-01 a       906     1     4     2     6
 -5.1664058081491798E-02 a       907     1     4     2     7
  3.0352732801483134E-01 a       908     1     4     2     8
  7.5813858203242671E-02 a       909     1     4     2     9
 -2.0021020963581295E-02 a       910     1     4     2    10
  4.1871752990471446E-02 a       911     1     4     2    11
 -4.7151781450757796E-01 a       912     1     4     2    12
  2.0897279179555728E-01 a       913     1     4     2    13
  6.1652207823424610E-01 a       914     1     4     2    14
  3.7829572085541879E-01 a       915     1     4     2    15
  4.4772070600810315E-01 a       916     1     4     2    16
  6.9577560684604189E-02 a       917     1     4     2    17
  3.4326466093134467E-01 a       918     1     4     2    18
 -6.3565534124164502E-01 a       919     1     4     2    19
 -7.3098926922271323E-01 a       920     1     4     2    20
 -6.2094645442015683E-01 a       921     1     4     2    21
  2.6946922378045784E-01 a       922     1     4     2    22
  2.4196597768615993E-01 a       923     1     4     2    23
 -3.7341428826737949E-01 a       924     1     4     2    24
  6.9457221497249888E-01 a       925     1     4     2    25
  2.0998276720592554E-01 a       926     1     5     2     1
 -3.9590513829844348E-01 a       927     1     5     2     2
  4.9397468578981191E-01 a       928     1     5     2     3
  1.6692363793254597E-03 a       929     1     5     2     4
 -4.1495803788981808E-02 a       930     1     5     2     5
  4.4661934018561378E-01 a       931     1     5     2     6
  4.4094303473905622E-01 a       932     1     5     2     7
 -2.6642955727489820E-01 a       933     1     5     2     8
 -6.6359163273592647E-02 a       934     1     5     2     9
 -7.5911237407962606E-01 a       935     1     5     2    10
  4.3746592057773026E-01 a       936     1     5     2    11
  5.6120713794180921E-01 a       937     1     5     2    12
 -2.6694841467645076E-02 a       938     1     5     2    13
 -4.4881820804622180E-01 a       939     1     5     2    14
  4.5509471346886557E-02 a       940     1     5     2    15
  5.6880639573521052E-01 a       941     1     5     2    16
  4.6239343770829694E-01 a       942     1     5     2    17
 -6.0347113705079292E-01 a       943     1     5     2    18
 -2.6419761650079854E-01 a       944     1     5     2    19
  6.3786137756922201E-01 a       945     1     5     2    20
  2.6384350653212513E-01 a       946     1     5     2    21
 -3.9036948803875227E-01 a       947     1     5     2    22
 -6.2669748462291763E-01 a       948     1     5     2    23
  3.5445325219193941E-01 a       949     1     5     2    24
  9.6039061654358870E-01 a       950     1     5     2    25
 -2.6309713598584578E-01 a       951     1     6     2     1
  6.6421292801590415E-01 a       952     1     6     2     2
  3.7411908835637209E-01 a       953     1     6     2     3
  1.9750788039564524E-01 a       954     1     6     2     4
  2.7051031050178709E-01 a       955     1     6     2     5
  1.5972477709353133E-01 a       956     1     6     2     6
 -4.1403302225763405E-01 a       957     1     6     2     7
  1.2633564385721768E-01 a       958     1     6     2     8
 -3.4069357845658149E-01 a       959     1     6     2     9
 -4.7585490436809957E-01 a       960     1     6     2    10
 -3.8161432320371280E-01 a       961     1     6     2    11
 -3.6740385341883508E-01 a       962     1     6     2    12
  8.4343697103133039E-02 a       963     1     6     2    13
  1.3154564689124787E-01 a       964     1     6     2    14
  4.5295110643379427E-01 a       965     1     6     2    15
  5.6451407597073455E-01 a       966     1     6     2    16
  6.0756536440499187E-01 a       967     1     6     2    17
  2.1628520032038309E-01 a       968     1     6     2    18
  4.2408654662348844E-01 a       969     1     6     2    19
  4.2530485552194136E-01 a       970     1     6     2    20
 -1.0392949099518300E-01 a       971     1     6     2    21
  6.2027292442816892E-02 a       972     1     6     2    22
  2.5326179728959697E-01 a       973     1     6     2    23
 -2.2636719851787215E-01 a       974     1     6     2    24
  6.3643219660207390E-02 a       975     1     6     2    25
  5.2509508658208019E-02 a       976     1     7     2     1
 -3.2474995485635211E-01 a       977     1     7     2     2
 -2.0157344703021637E-01 a       978     1     7     2     3
  4.3882605434740811E-02 a       979     1     7     2     4
 -5.0482790126776193E-02 a       980     1     7     2     5
  5.4483844133458130E-02 a       981     1     7     2     6
  1.4473148080793610E-01 a       982     1     7     2     7
  3.4927697007040868E-02 a       983     1     7     2     8
 -2.4579372103742811E-01 a       984     1     7     2     9
  2.6295479943973332E-01 a       985     1     7     2    10
  3.9028164276788124E-01 a       986     1     7     2    11
 -1.5827686239677363E-01 a       987     1     7     2    12
  3.1782531008486292E-01 a       988     1     7     2    13
  2.4236511847193173E-01 a       989     1     7     2    14
 -1.9224730960922076E-01 a       990     1     7     2    15
 -3.8644532504131857E-01 a       991     1     7     2    16
  2.1389643732604105E-01 a       992     1     7     2    17
  2.5939965170263785E-01 a       993     1     7     2    18
 -2.8222577327096077E-01 a       994     1     7     2    19
 -8.6013903985766943E-02 a       995     1     7     2    20
  3.1754044068875636E-02 a       996     1     7     2    21
 -3.1085976611921412E-01 a       997     1     7     2    22
 -7.0402575815955515E-01 a       998     1     7     2    23
 -2.0891401871364620E-01 a       999     1     7     2    24
 -3.8584633152579412E-01 a      1000     1     7     2    25
 -1.3551558310363324E-01 a      1001     1     8     2     1
  1.9535008820318675E-01 a      1002     1     8     2     2
 -3.4678153585946953E-01 a      1003     1     8     2     3
  3.1311409220387604E-01 a      1004     1     8     2     4
  1.6170325584583459E-01 a      1005     1     8     2     5
  2.9982771236105266E-01 a      1006     1     8     2     6
  1.1931686053072170E-01 a      1007     1     8     2     7
 -1.2820532644796750E-01 a      1008     1     8     2     8
  1.0168591665996989E-01 a      1009     1     8     2     9
  5.9670563458176373E-01 a      1010     1     8     2    10
  5.8316146943588075E-02 a      1011     1     8     2    11
  3.7519777368884411E-01 a      1012     1     8     2    12
  2.2954450769409551E-01 a      1013     1     8     2    13
  5.8110244248689580E-01 a      1014     1     8     2    14
  4.3312886036137210E-01 a      1015     1     8     2    15
  2.6231943537890157E-01 a      1016     1     8     2    16
 -5.0432072476691858E-01 a      1017     1     8     2    17
  7.1056246684597746E-01 a      1018     1     8     2    18
 -8.3589375577905245E-02 a      1019     1     8     2    19
 -1.9804461402215784E-01 a      1020     1     8     2    20
 -9.5288521269708437E-01 a      1021     1     8     2    21
 -6.2409045280521125E-01 a      1022     1     8     2    22
  5.4882149640697209E-01 a      1023     1     8     2    23
  8.2735864573889900E-02 a      1024     1     8     2    24
  3.9703594534073589E-01 a      1025     1     8     2    25
 -3.9369749547250232E-01 a      1026     1     9     2     1
 -1.3137850788340294E-01 a      1027     1     9     2     2
  2.9017549208413312E-01 a      1028     1     9     2     3
  1.9855845326326538E-01 a      1029     1     9     2     4
  2.3734512653830289E-01 a      1030     1     9     2     5
 -3.8791046544252200E-01 a      1031     1     9     2     6
 -4.0997246558585670E-01 a      1032     1     9     2     7
 -3.1176351386313716E-01 a      1033     1     9     2     8
 -6.2327276913481400E-01 a      1034     1     9     2     9
  7.9788026233119369E-02 a      1035     1     9     2    10
  3.1867067630950563E-01 a      1036     1     9     2    11
 -3.1696845386227052E-01 a      1037     1     9     2    12
  5.3782229998676956E-01 a      1038     1     9     2    13
  1.3087654383801986E-02 a      1039     1     9     2    14
 -4.4316269465864616E-01 a      1040     1     9     2    15
  1.0827210765200400E-01 a      1041     1     9     2    16
 -3.9688253016560826E-01 a      1042     1     9     2    17
  7.3948486373571737E-02 a      1043     1     9     2    18
 -7.8823820523093591E-01 a      1044     1     9     2    19
  1.2306148310523070E-01 a      1045     1     9     2    20
 -2.1115111616160154E-01 a      1046     1     9     2    21
  5.0205819747782121E-01 a      1047     1     9     2    22
  5.6696911459237131E-01 a      1048     1     9     2    23
 -7.6817580138271613E-01 a      1049     1     9     2    24
  3.6688258388487932E-01 a      1050     1     9     2    25
  2.8115463708425620E-01 a      1051     1    10     2     1
  1.4383058010039568E-01 a      1052     1    10     2     2
 -2.0227265602973396E-01 a      1053     1    10     2     3
 -3.8789984847681291E-01 a      1054     1    10     2     4
  2.6418478038338622E-01 a      1055     1    10     2     5
 -3.1128558334052375E-01 a      1056     1    10     2     6
  5.0867399959369036E-02 a      1057     1    10     2     7
 -1.9099608721264064E-01 a      1058     1    10     2     8
  3.4385712901418553E-01 a      1059     1    10     2     9
  4.5613932117622874E-01 a      1060     1    10     2    10
  3.8001172192117288E-01 a      1061     1    10     2    11
 -3.1448606312448163E-01 a      1062     1    10     2    12
 -5.4489053229441409E-01 a      1063     1    10     2    13
  5.4961119514191803E-01 a      1064     1    10     2    14
 -3.1888566153998751E-02 a      1065     1    10     2    15
 -4.4333049093758736E-01 a      1066     1    10     2    16
  1.1768100686884551E-01 a      1067     1    10     2    17
 -1.8319151362535357E-01 a      1068     1    10     2    18
  8.5809090164477853E-03 a      1069     1    10     2    19
  5.6941486731428981E-01 a      1070     1    10     2    20
 -2.8411265080509862E-01 a      1071     1    10     2    21
  3.9865782587689175E-01 a      1072     1    10     2    22
 -8.2584433304323379E-01 a      1073     1    10     2    23
 -9.0528687491374257E-02 a      1074     1    10     2    24
  4.1084770094257461E-01 a      1075     1    10     2    25
  2.0457604822677669E-01 a      1076     1    11     2     1
  3.9295626111902487E-01 a      1077     1    11     2     2
 -8.7218458873566441E-04 a      1078     1    11     2     3
  8.5858530705898728E-01 a      1079     1    11     2     4
 -6.7602708272186951E-02 a      1080     1    11     2     5
 -4.2376342258437483E-01 a      1081     1    11     2     6
 -4.1020868039698560E-01 a      1082     1    11     2     7
  1.1518648238486394E-01 a      1083     1    11     2     8
 -6.5801829780451593E-01 a      1084     1    11     2     9
  4.1650936786582476E-01 a      1085     1    11     2    10
 -9.9051151917468838E-01 a      1086     1    11     2    11
  3.7888504928979450E-01 a      1087     1    11     2    12
  1.1858612876318987E-01 a      1088     1    11     2    13
  1.2628650693668797E-01 a      1089     1    11     2    14
 -1.9339831478355443E-01 a      1090     1    11     2    15
  2.3500348670034593E-01 a      1091     1    11     2    16
 -6.7538174557471653E-01 a      1092     1    11     2    17
  4.1350095428974976E-01 a      1093     1    11     2    18
 -1.7074975002307452E-01 a      1094     1    11     2    19
  6.0335389861615574E-01 a      1095     1    11     2    20
 -7.3196420803317508E-01 a      1096     1    11     2    21
  9.8579019318396194E-04 a      1097     1    11     2    22
 -1.1378106581077092E-01 a      1098     1    11     2    23
 -2.2709112714324334E-01 a      1099     1    11     2    24
  1.9215736482878204E-01 a      1100     1    11     2    25
  1.6367470742258994E-01 a      1101     1    12     2     1
  3.9958474658393522E-01 a      1102     1    12     2     2
  5.2523673331574139E-01 a      1103     1    12     2     3
 -2.4047206500900527E-02 a      1104     1    12     2     4
  3.2576224322364555E-01 a      1105     1    12     2     5
  2.3479292222143389E-01 a      1106     1    12     2     6
  1.7836028315681213E-01 a      1107     1    12     2     7
  3.8469663919558306E-02 a      1108     1    12     2     8
 -5.6954551927181594E-02 a      1109     1    12     2     9
 -1.1190004180209849E-01 a      1110     1    12     2    10
 -1.9545481362981196E-01 a      1111     1    12     2    11
 -3.3022819324724162E-01 a      1112     1    12     2    12
  4.5706707238254096E-02 a      1113     1    12     2    13
  6.4131919519742375E-01 a      1114     1    12     2    14
  4.5351038265653404E-01 a      1115     1    12     2    15
  4.0941354362881205E-01 a      1116     1    12     2    16
 -1.3638649577892291E-02 a      1117     1    12     2    17
  7.0159363538974145E-02 a      1118     1    12     2    18
 -1.6346107140386920E-01 a      1119     1    12     2    19
 -4.8228126440002839E-01 a      1120     1    12     2    20
 -1.2237709138246516E-01 a      1121     1    12     2    21
 -3.2870258214487946E-01 a      1122     1    12     2    22
 -2.2552820877223925E-01 a      1123     1    12     2    23
  2.3555425972562125E-01 a      1124     1    12     2    24
 -1.7638119197681437E-01 a      1125     1    12     2    25
 -4.6305951928853761E-01 a      1126     1    13     2     1
 -5.8201733181273887E-03 a      1127     1    13     2     2
  6.6758830304768957E-01 a      1128     1    13     2     3
  3.7107520419724516E-01 a      1129     1    13     2     4
 -1.0097729954255805E-01 a      1130     1    13     2     5
 -4.3123815203338406E-01 a      1131     1    13     2     6
 -4.3053919804950130E-01 a      1132     1    13     2     7
 -3.5156184539736651E-02 a      1133     1    13     2     8
  6.9613510637657361E-01 a      1134     1    13     2     9
  1.7271219934414089E-01 a      1135     1    13     2    10
  3.8495212093582176E-01 a      1136     1    13     2    11
  5.1899210197957311E-03 a      1137     1    13     2    12
  5.9585521252312521E-02 a      1138     1    13     2    13
  1.0285694660746027E-01 a      1139     1    13     2    14
 -2.8394049316818293E-01 a      1140     1    13     2    15
  2.7157270754094309E-01 a      1141     1    13     2    16
 -2.8414490367137567E-02 a      1142     1    13     2    17
  6.0677370670580676E-03 a      1143     1    13     2    18
 -4.0643241917634781E-01 a      1144     1    13     2    19
  3.7582912877311314E-01 a      1145     1    13     2    20
 -7.5983566596244168E-01 a      1146     1    13     2    21
  8.1404773730810107E-03 a      1147     1    13     2    22
  4.6108349221515715E-01 a      1148     1    13     2    23
 -2.3596525457735568E-02 a      1149     1    13     2    24
 -1.5174815284332718E-01 a      1150     1    13     2    25
 -1.4545747654601571E-01 a      1151     1    14     2     1
 -3.5819627550113758E-01 a      1152     1    14     2     2
 -3.4031960172905629E-01 a      1153     1    14     2     3
  6.2730863336586762E-01 a      1154     1    14     2     4
 -3.0925972211939873E-01 a      1155     1    14     2     5
 -2.9729971376086706E-01 a      1156     1    14     2     6
 -3.3876148362687819E-01 a      1157     1    14     2     7
  2.1975938971312897E-01 a      1158     1    14     2     8
 -1.8131146275107915E-01 a      1159     1    14     2     9
 -6.6181793335511789E-03 a      1160     1    14     2    10
 -1.4386564007420197E-01 a      1161     1    14     2    11
  4.5320861352157077E-01 a      1162     1    14     2    12
 -3.8222065602311867E-01 a      1163     1    14     2    13
 -4.6190544145841748E-02 a      1164     1    14     2    14
 -4.1473755857560662E-01 a      1165     1    14     2    15
 -1.4471567161779589E-01 a      1166     1    14     2    16
  2.1092723691329143E-01 a      1167     1    14     2    17
 -1.7075183539635413E-01 a      1168     1    14     2    18
 -3.7064742747793661E-01 a      1169     1    14     2    19
  1.7607180369271982E-01 a      1170     1    14     2    20
  1.5047239068781745E-01 a      1171     1    14     2    21
  3.3390470507537956E-01 a      1172     1    14     2    22
 -8.5764224494177019E-02 a      1173     1    14     2    23
  4.5782575166660892E-02 a      1174     1    14     2    24
 -9.3511902122128232E-02 a      1175     1    14     2    25
 -3.0105346915607684E-01 a      1176     1    15     2     1
 -1.6306719010119564E-01 a      1177     1    15     2     2
 -5.4141143161533650E-02 a      1178     1    15     2     3
 -3.1263191710504179E-01 a      1179     1    15     2     4
  1.9674709973269935E-01 a      1180     1    15     2     5
 -3.6894983735569059E-01 a      1181     1    15     2     6
 -5.9242028977165309E-02 a      1182     1    15     2     7
  2.7090321526594124E-01 a      1183     1    15     2     8
  1.2053709236578197E-01 a      1184     1    15     2     9
  4.8071534640387736E-01 a      1185     1    15     2    10
  2.5480712301468617E-01 a      1186     1    15     2    11
  8.2378558030079174E-01 a      1187     1    15     2    12
  2.4466283100918432E-01 a      1188     1    15     2    13
 -1.0317287023371585E-01 a      1189     1    15     2    14
 -1.1248430596814145E-01 a      1190     1    15     2    15
  1.5610059802035019E-02 a      1191     1    15     2    16
 -2.2492761670285547E-01 a      1192     1    15     2    17
  2.2380841891252806E-01 a      1193     1    15     2    18
  4.8327147328828973E-01 a      1194     1    15     2    19
  5.4326149530659129E-01 a      1195     1    15     2    20
 -1.1953527214141753E+00 a      1196     1    15     2    21
  1.9332898506274190E-01 a      1197     1    15     2    22
 -2.6215702259165429E-02 a      1198     1    15     2    23
  3.3183933775674879E-01 a      1199     1    15     2    24
 -7.7531260949594538E-01 a      1200     1    15     2    25
 -2.4669200593903901E-01 a      1201     1    16     2     1
 -1.4343848406917251E-01 a      1202     1    16     2     2
 -2.3513519137050767E-01 a      1203     1    16     2     3
 -5.5830409779698831E-01 a      1204     1    16     2     4
  5.5148376153124019E-02 a      1205     1    16     2     5
  4.2378991213034239E-01 a      1206     1    16     2     6
  5.5235463121415884E-01 a      1207     1    16     2     7
  1.0516001408575949E-01 a      1208     1    16     2     8
 -5.9693995990479154E-01 a      1209     1    16     2     9
  5.9166335443312612E-01 a      1210     1    16     2    10
 -2.0263312935759231E-01 a      1211     1    16     2    11
  2.9941226733343201E-01 a      1212     1    16     2    12
  2.1632425287058093E-02 a      1213     1    16     2    13
  3.5366199314074914E-01 a      1214     1    16     2    14
 -2.7199585292033529E-01 a      1215     1    16     2    15
  2.3032233245689402E-02 a      1216     1    16     2    16
 -6.4659260050596845E-01 a      1217     1    16     2    17
 -4.9082386998239330E-01 a      1218     1    16     2    18
 -3.9634908592145185E-01 a      1219     1    16     2    19
  4.1939049275766205E-01 a      1220     1    16     2    20
  5.1241941769568911E-01 a      1221     1    16     2    21
  5.5909063877441302E-02 a      1222     1    16     2    22
  1.1943915946006685E-01 a      1223     1    16     2    23
 -3.0374591740384305E-01 a      1224     1    16     2    24
 -2.5318648482617589E-01 a      1225     1    16     2    25
  5.6775833775852158E-01 a      1226     1    17     2     1
  3.2291247837642095E-01 a      1227     1    17     2     2
 -2.7356446276310964E-01 a      1228     1    17     2     3
  1.9199065689662342E-01 a      1229     1    17     2     4
  2.6070166072039963E-01 a      1230     1    17     2     5
  1.1089204457486120E-01 a      1231     1    17     2     6
 -3.3853521127912151E-01 a      1232     1    17     2     7
  1.1685156128967141E-02 a      1233     1    17     2     8
 -1.5269933641252739E-01 a      1234     1    17     2     9
  2.6317508879294227E-01 a      1235     1    17     2    10
 -1.6537073730111587E-01 a      1236     1    17     2    11
  2.2415693563937220E-01 a      1237     1    17     2    12
 -4.5819178134103794E-01 a      1238     1    17     2    13
  2.2818526351480325E-01 a      1239     1    17     2    14
  2.3480618780870638E-01 a      1240     1    17     2    15
 -4.3320987899193664E-01 a      1241     1    17     2    16
 -3.6077715944764041E-02 a      1242     1    17     2    17
  5.0263792035556543E-01 a      1243     1    17     2    18
  1.2452654512201453E-01 a      1244     1    17     2    19
 -2.9223615308289741E-01 a      1245     1    17     2    20
 -3.1829084584255657E-01 a      1246     1    17     2    21
 -5.2375271775602361E-01 a      1247     1    17     2    22
  1.2043119931431782E-01 a      1248     1    17     2    23
 -3.9226853688193578E-02 a      1249     1    17     2    24
 -2.6681911483378479E-01 a      1250     1    17     2    25
 -1.7432211114029369E-02 a      1251     1    18     2     1
  1.7235047467848358E-01 a      1252     1    18     2     2
 -1.5444644202464686E-01 a      1253     1    18     2     3
 -2.0589463289139562E-01 a      1254     1    18     2     4
  7.5303231534162643E-02 a      1255     1    18     2     5
  1.3739940224728470E-01 a      1256     1    18     2     6
  7.1908271702363358E-01 a      1257     1    18     2     7
 -1.1700473960347271E-01 a      1258     1    18     2     8
  2.4309812964725566E-01 a      1259     1    18     2     9
  2.4678708299197921E-01 a      1260     1    18     2    10
  3.1062029332012370E-01 a      1261     1    18     2    11
  1.3791180567986047E-01 a      1262     1    18     2    12
  1.2348164376608035E-01 a      1263     1    18     2    13
 -7.9791992797708988E-02 a      1264     1    18     2    14
 -1.5364590371662112E-01 a      1265     1    18     2    15
 -4.2755852911018627E-01 a      1266     1    18     2    16
 -3.5448303879325216E-01 a      1267     1    18     2    17
 -2.6438491489939209E-01 a      1268     1    18     2    18
 -4.1996878393508130E-01 a      1269     1    18     2    19
 -4.9790613542244810E-01 a      1270     1    18     2    20
  9.0525954178965848E-02 a      1271     1    18     2    21
  1.1233587998978185E-01 a      1272     1    18     2    22
  7.7177947174086559E-01 a      1273     1    18     2    23
  4.6290960081637023E-02 a      1274     1    18     2    24
 -1.0953463885032916E-01 a      1275     1    18     2    25
  6.2042473292288541E-02 a      1276     1    19     2     1
 -7.6726239014315148E-02 a      1277     1    19     2     2
  3.2667497747621982E-01 a      1278     1    19     2     3
  2.8644112138499711E-01 a      1279     1    19     2     4
 -9.3135262395347085E-02 a      1280     1    19     2     5
  1.4804635955626003E-01 a      1281     1    19     2     6
 -1.2371262165598579E-01 a      1282     1    19     2     7
 -2.4203023170988069E-01 a      1283     1    19     2     8
 -3.5332535129549481E-01 a      1284     1    19     2     9
  1.2526581315424359E-01 a      1285     1    19     2    10
  3.5711812237873358E-01 a      1286     1    19     2    11
  1.3548041241587425E-01 a      1287     1    19     2    12
  2.5724082524281389E-01 a      1288     1    19     2    13
 -1.7252311342605170E-01 a      1289     1    19     2    14
 -5.1544669273652234E-02 a      1290     1    19     2    15
  5.9971509043855464E-01 a      1291     1    19     2    16
  4.3468228506319562E-01 a      1292     1    19     2    17
  4.4966644879146789E-01 a      1293     1    19     2    18
  1.0450204537190637E-01 a      1294     1    19     2    19
 -4.9925997618240930E-01 a      1295     1    19     2    20
 -7.5885999099150831E-03 a      1296     1    19     2    21
 -7.6277714418255049E-01 a      1297     1    19     2    22
  4.6488515691814469E-01 a      1298     1    19     2    23
 -1.8897834350244866E-01 a      1299     1    19     2    24
 -8.1395165472479869E-01 a      1300     1    19     2    25
 -2.5178297863353205E-01 a      1301     1    20     2     1
  2.6447445657868395E-02 a      1302     1    20     2     2
  2.8325238106663292E-01 a      1303     1    20     2     3
 -1.4550501897208851E-01 a      1304     1    20     2     4
  2.2663225241726812E-01 a      1305     1    20     2     5
  3.0574318529489780E-01 a      1306     1    20     2     6
 -7.8247333444943146E-01 a      1307     1    20     2     7
 -4.9098801623746952E-01 a      1308     1    20     2     8
  4.3932486948357651E-03 a      1309     1    20     2     9
 -7.0337174263100835E-02 a      1310     1    20     2    10
 -7.4733109022461530E-01 a      1311     1    20     2    11
 -3.7609372744303682E-01 a      1312     1    20     2    12
  8.0288124374856846E-03 a      1313     1    20     2    13
 -2.9618644816793571E-01 a      1314     1    20     2    14
 -2.8954963770519981E-02 a      1315     1    20     2    15
 -5.6904798320441097E-01 a      1316     1    20     2    16
  1.6681270928658196E-01 a      1317     1    20     2    17
 -3.3298581388254800E-01 a      1318     1    20     2    18
 -5.7916355174146539E-01 a      1319     1    20     2    19
  1.4791772400604228E-01 a      1320     1    20     2    20
  1.2354388715072995E-01 a      1321     1    20     2    21
 -6.9883061170321920E-02 a      1322     1    20     2    22
 -1.4440639626845264E-01 a      1323     1    20     2    23
  4.4487373791652624E-01 a      1324     1    20     2    24
  2.6114244600015968E-01 a      1325     1    20     2    25
  5.9956235003485403E-01 a      1326     1    21     2     1
  4.2266914491990264E-02 a      1327     1    21     2     2
  2.3210939730233852E-02 a      1328     1    21     2     3
 -4.7734370641791390E-01 a      1329     1    21     2     4
 -1.3576433432510543E-01 a      1330     1    21     2     5
 -2.8343233742348195E-01 a      1331     1    21     2     6
  3.7259026509547616E-01 a      1332     1    21     2     7
  4.1224899305539375E-01 a      1333     1    21     2     8
 -1.2903594003461756E-02 a      1334     1    21     2     9
 -4.2744338659739284E-01 a      1335     1    21     2    10
  1.3640704052250827E-01 a      1336     1    21     2    11
  7.1022919414262708E-01 a      1337     1    21     2    12
 -8.7862481943081461E-01 a      1338     1    21     2    13
  3.8648253993345294E-01 a      1339     1    21     2    14
 -1.3860177056950657E-01 a      1340     1    21     2    15
 -6.1762853968842409E-02 a      1341     1    21     2    16
 -9.4456071669739627E-02 a      1342     1    21     2    17
 -2.3170968021066046E-01 a      1343     1    21     2    18
 -3.8697462557962842E-01 a      1344     1    21     2    19
 -3.5914116838529098E-01 a      1345     1    21     2    20
  3.3113419410081041E-01 a      1346     1    21     2    21
 -7.3891593897523658E-02 a      1347     1    21     2    22
 -1.9328832421674730E-01 a      1348     1    21     2    23
 -8.8348213298070855E-02 a      1349     1    21     2    24
  2.0128203730671212E-02 a      1350     1    21     2    25
 -2.3696167594523389E-02 a      1351     1    22     2     1
 -4.9881710304779942E-01 a      1352     1    22     2     2
  3.9639134724591835E-01 a      1353     1    22     2     3
 -4.9025395836055813E-01 a      1354     1    22     2     4
 -2.1836014618169092E-01 a      1355     1    22     2     5
 -5.6995493948020604E-01 a      1356     1    22     2     6
 -5.7574039742850569E-01 a      1357     1    22     2     7
  3.4461806573414099E-02 a      1358     1    22     2     8
 -2.4621876644290464E-01 a      1359     1    22     2     9
  3.9888001320224379E-03 a      1360     1    22     2    10
  4.2006262646664316E-01 a      1361     1    22     2    11
 -1.2380447838921009E-01 a      1362     1    22     2    12
  1.6227096304764357E-01 a      1363     1    22     2    13
 -4.6311774470143835E-01 a      1364     1    22     2    14
 -3.9184591723246304E-01 a      1365     1    22     2    15
  4.1992081286958532E-01 a      1366     1    22     2    16
  5.9319681313473249E-01 a      1367     1    22     2    17
 -5.6421171192837360E-01 a      1368     1    22     2    18
  4.2151104725030297E-01 a      1369     1    22     2    19
 -3.9950118640762367E-01 a      1370     1    22     2    20
 -3.5903302211620308E-01 a      1371     1    22     2    21
  2.0654391883832474E-02 a      1372     1    22     2    22
  2.2503184103004176E-01 a      1373     1    22     2    23
 -2.3345017316649189E-01 a      1374     1    22     2    24
  7.0637404963160066E-02 a      1375     1    22     2    25
 -1.8325810378012179E-02 a      1376     1    23     2     1
  1.3473157507195382E-01 a      1377     1    23     2     2
  1.0990137347516650E-01 a      1378     1    23     2     3
  4.9131263301347788E-01 a      1379     1    23     2     4
 -4.3613103239119688E-01 a      1380     1    23     2     5
 -1.1737895813512665E-01 a      1381     1    23     2     6
  3.7918308573081055E-01 a      1382     1    23     2     7
  2.0906968625407030E-01 a      1383     1    23     2     8
 -2.9831306164755983E-01 a      1384     1    23     2     9
  6.1005954928161621E-01 a      1385     1    23     2    10
  6.3102784407381063E-01 a      1386     1    23     2    11
  1.6965299802665798E-01 a      1387     1    23     2    12
 -5.3749050133016785E-01 a      1388     1    23     2    13
  2.5809843838514296E-01 a      1389     1    23     2    14
  1.4749612892743295E-02 a      1390     1    23     2    15
 -7.1932088484869827E-01 a      1391     1    23     2    16
  5.2669211659412719E-02 a      1392     1    23     2    17
 -5.8989427017866281E-01 a      1393     1    23     2    18
  4.7725542077704791E-01 a      1394     1    23     2    19
 -1.7824687577139273E-01 a      1395     1    23     2    20
  2.4846781583198302E-01 a      1396     1    23     2    21
 -4.3236735158997681E-02 a      1397     1    23     2    22
  1.9402348687122231E-01 a      1398     1    23     2    23
  6.1361842032365099E-01 a      1399     1    23     2    24
 -2.8714662220624770E-01 a      1400     1    23     2    25
 -1.1759338386661636E-02 a      1401     1    24     2     1
  4.7736524555488108E-01 a      1402     1    24     2     2
  4.7591723715074619E-01 a      1403     1    24     2     3
 -4.6473174557725386E-02 a      1404     1    24     2     4
  3.5853686499027482E-01 a      1405     1    24     2     5
  7.1900313576113456E-02 a      1406     1    24     2     6
 -2.3264613349926447E-01 a      1407     1    24     2     7
 -8.5959519649217872E-02 a      1408     1    24     2     8
  3.5270649056339826E-01 a      1409     1    24     2     9
  2.1898308123357782E-01 a      1410     1    24     2    10
  1.9801590289125190E-01 a      1411     1    24     2    11
 -3.9261248357945050E-01 a      1412     1    24     2    12
 -2.2117924589819771E-01 a      1413     1    24     2    13
 -6.6907766573491179E-01 a      1414     1    24     2    14
  8.8258722887605848E-02 a      1415     1    24     2    15
  5.2565799737026320E-01 a      1416     1    24     2    16
 -1.0831902352931369E-02 a      1417     1    24     2    17
 -3.1684259651509528E-01 a      1418     1    24     2    18
 -3.4719213996849924E-01 a      1419     1    24     2    19
  4.4683161296806634E-01 a      1420     1    24     2    20
  2.9316776137094336E-01 a      1421     1    24     2    21
  1.0234559434976838E-01 a      1422     1    24     2    22
 -1.2531895406503152E-01 a      1423     1    24     2    23
  4.4361758634138132E-01 a      1424     1    24     2    24
 -3.6125215903632174E-01 a      1425     1    24     2    25
 -6.9018447572937069E-02 a      1426     1    25     2     1
 -2.7538130948407236E-01 a      1427     1    25     2     2
  9.6032090785452186E-03 a      1428     1    25     2     3
  6.8398051523612141E-02 a      1429     1    25     2     4
 -1.6616447390554595E-01 a      1430     1    25     2     5
  2.1101771742585762E-02 a      1431     1    25     2     6
  6.0151794307985162E-01 a      1432     1    25     2     7
  6.0315965233635735E-02 a      1433     1    25     2     8
  3.4435650071156826E-01 a      1434     1    25     2     9
  1.4237211153489751E-01 a      1435     1    25     2    10
 -1.7569502381168181E-01 a      1436     1    25     2    11
  3.7937704325559518E-01 a      1437     1    25     2    12
  2.5039447218989858E-01 a      1438     1    25     2    13
  4.0209594307278962E-01 a      1439     1    25     2    14
 -1.7838692647407839E-01 a      1440     1    25     2    15
  2.9118773972894868E-01 a      1441     1    25     2    16
 -1.3068378924697543E-01 a      1442     1    25     2    17
 -5.5878142390699881E-01 a      1443     1    25     2    18
 -1.6100177648027267E-01 a      1444     1    25     2    19
  1.9115429268407681E-02 a      1445     1    25     2    20
  1.4481202691073799E-02 a      1446     1    25     2    21
  2.6643109534255919E-02 a      1447     1    25     2    22
 -5.2994058405708055E-01 a      1448     1    25     2    23
 -5.2026118833544521E-01 a      1449     1    25     2    24
  3.6919504886473353E-01 a      1450     1    25     2    25
 -1.3505087433996137E+00 b      1451     2     1
  1.5658606525272598E-01 b      1452     2     2
  1.1471103266761014E+00 b      1453     2     3
  9.8658089704212659E-01 b      1454     2     4
 -4.0329743270519813E-01 b      1455     2     5
 -4.6516588014095489E-01 b      1456     2     6
 -2.2585034794682188E-01 b      1457     2     7
  8.8303362375255590E-01 b      1458     2     8
  1.2943762192307211E+00 b      1459     2     9
  1.3392525229666612E+00 b      1460     2    10
  9.6103285580953351E-03 b      1461     2    11
 -6.0605724664177552E-01 b      1462     2    12
  1.2732855311238744E-01 b      1463     2    13
  1.5322648516602668E+00 b      1464     2    14
 -3.6737861629659951E-01 b      1465     2    15
  1.5700812897625398E+00 b      1466     2    16
 -1.0849712598070670E-01 b      1467     2    17
 -9.9071902770352993E-02 b      1468     2    18
  1.2342877200903051E+00 b      1469     2    19
  1.5721016446501912E+00 b      1470     2    20
  2.9068656805245968E-01 b      1471     2    21
  5.2664355238182636E-01 b      1472     2    22
 -6.0634004324160173E-01 b      1473     2    23
  9.1497855122686836E-02 b      1474     2    24
  9.8864346255839131E-01 b      1475     2    25
 -5.4097239784835083E-01 a      1476     2     1     3     1
 -1.2014864765701613E-01 a      1477     2     2     3     1
 -4.1432892531825399E-01 a      1478     2     3     3     1
  1.2415923249295102E+00 a      1479     2     4     3     1
  8.8019386395430221E-01 a      1480     2     5     3     1
 -8.8682285554603324E-01 a      1481     2     6     3     1
  2.4624738759877110E-01 a      1482     2     7     3     1
 -8.2190463365952782E-01 a      1483     2     8     3     1
 -4.0006300665813310E-01 a      1484     2     9     3     1
 -4.3056189189166605E-01 a      1485     2    10     3     1
  1.5687627586061079E-01 a      1486     2    11     3     1
  9.7174929619834083E-01 a      1487     2    12     3     1
 -9.4800698227063529E-01 a      1488     2    13     3     1
 -1.9461369612929011E-01 a      1489     2    14     3     1
  6.0258020857044414E-01 a      1490     2    15     3     1
  9.5335917242390711E-02 a      1491     2    16     3     1
 -4.7781844738957829E-01 a      1492     2    17     3     1
 -2.8486919534184341E-01 a      1493     2    18     3     1
 -1.1452414685939183E-01 a      1494     2    19     3     1
 -1.3409508774305087E-01 a      1495     2    20     3     1
  2.3152458332627812E-01 a      1496     2    21     3     1
 -5.7955893545997661E-01 a      1497     2    22     3     1
  4.9162864711693056E-03 a      1498     2    23     3     1
 -1.9077003232741318E-02 a      1499     2    24     3     1
 -6.0032732782098686E-01 a      1500     2    25     3     1
  8.7493180683363614E-01 b      1501     3     1
