################################################################################
# Neural network connection values (weights and biases).
################################################################################
# Col  Name       Description
################################################################################
# 1    connection Neural network connection value.
# 2    t          Connection type (a = weight, b = bias).
# 3    index      Index enumerating weights.
# 4    l_s        Starting point layer (end point layer for biases).
# 5    n_s        Starting point neuron in starting layer (end point neuron for biases).
# 6    l_e        End point layer.
# 7    n_e        End point neuron in end layer.
################################################################################
#                      1 2         3     4     5     6     7
#             connection t     index   l_s   n_s   l_e   n_e
############################################################
  1.0929566082511985E-01 a         1     0     1     1     1
 -4.8148851430898137E-01 a         2     0     1     1     2
  7.0754468229154266E-02 a         3     0     1     1     3
  2.3834572629761511E-01 a         4     0     1     1     4
 -4.1656069231780102E-01 a         5     0     1     1     5
  3.2774096319840612E-01 a         6     0     1     1     6
 -6.4591846415469861E-02 a         7     0     1     1     7
 -5.1108203664995611E-01 a         8     0     1     1     8
  1.4308479218901438E-01 a         9     0     1     1     9
  5.9127026604693877E-01 a        10     0     1     1    10
  1.6824278133867274E-01 a        11     0     1     1    11
 -2.3658357119814349E-01 a        12     0     1     1    12
  4.0823990649193315E-01 a        13     0     1     1    13
  4.2957111203358218E-02 a        14     0     1     1    14
 -2.0216560988832388E-01 a        15     0     1     1    15
  4.0172790905150324E-01 a        16     0     1     1    16
 -2.1344395750411016E-01 a        17     0     1     1    17
  4.7172237440139081E-01 a        18     0     1     1    18
 -4.3647455608184965E-01 a        19     0     1     1    19
 -2.7996591385427777E-01 a        20     0     1     1    20
  3.2136022108729304E-02 a        21     0     1     1    21
 -2.0385183809148263E-01 a        22     0     1     1    22
  9.3596239936116054E-03 a        23     0     1     1    23
 -2.0672115953968245E-01 a        24     0     1     1    24
  3.1535423943070889E-01 a        25     0     1     1    25
 -1.0357771763778559E-02 a        26     0     2     1     1
  9.7105003229106313E-02 a        27     0     2     1     2
  1.1427868254375527E-01 a        28     0     2     1     3
 -4.5157661464469250E-03 a        29     0     2     1     4
  1.8219855843653709E-01 a        30     0     2     1     5
 -2.5895463494857779E-01 a        31     0     2     1     6
  3.3384948043989254E-01 a        32     0     2     1     7
  7.4867544178935166E-02 a        33     0     2     1     8
 -6.4515913102844505E-02 a        34     0     2     1     9
 -4.8957308678180206E-03 a        35     0     2     1    10
 -4.3615841140517801E-02 a        36     0     2     1    11
  9.7880962794639675E-02 a        37     0     2     1    12
 -3.9684373488503892E-02 a        38     0     2     1    13
 -6.2832150267899151E-02 a        39     0     2     1    14
  3.1864224245570572E-01 a        40     0     2     1    15
  5.4082852575729723E-01 a        41     0     2     1    16
 -3.8346922660396976E-01 a        42     0     2     1    17
  3.7620105003445325E-01 a        43     0     2     1    18
 -3.5530219191355478E-01 a        44     0     2     1    19
 -1.9434998672086523E-01 a        45     0     2     1    20
  4.0647634536938604E-01 a        46     0     2     1    21
 -4.2790310759717454E-02 a        47     0     2     1    22
 -1.3033731538880320E-02 a        48     0     2     1    23
 -1.9319530892371808E-01 a        49     0     2     1    24
 -1.1309943478112543E-01 a        50     0     2     1    25
 -2.1385336862014534E-02 a        51     0     3     1     1
  1.7384604405161017E-01 a        52     0     3     1     2
  2.8118305812464084E-01 a        53     0     3     1     3
  1.0183312717630046E+00 a        54     0     3     1     4
 -3.1768629802486820E-01 a        55     0     3     1     5
  2.5012968629641685E-01 a        56     0     3     1     6
 -1.7580877211017412E-03 a        57     0     3     1     7
  6.1770019362243611E-01 a        58     0     3     1     8
 -6.3510735168895316E-01 a        59     0     3     1     9
 -1.5904116590664760E-01 a        60     0     3     1    10
 -2.6947937475067058E-01 a        61     0     3     1    11
  2.5545825940393208E-01 a        62     0     3     1    12
  9.3678214511394825E-02 a        63     0     3     1    13
  2.5786129952910330E-01 a        64     0     3     1    14
  6.2931588431753460E-01 a        65     0     3     1    15
 -1.0609985768481628E-01 a        66     0     3     1    16
  1.6599590103498255E-01 a        67     0     3     1    17
 -2.0027793980655192E-01 a        68     0     3     1    18
 -5.0361971555213925E-01 a        69     0     3     1    19
  1.6832055912782298E-01 a        70     0     3     1    20
  2.0296255949869194E-01 a        71     0     3     1    21
  2.4061844580650957E-01 a        72     0     3     1    22
  1.7369618532853107E-01 a        73     0     3     1    23
  3.6848703950010764E-01 a        74     0     3     1    24
 -2.9315119674955870E-01 a        75     0     3     1    25
 -3.2350482129725083E-01 a        76     0     4     1     1
  6.5973348612593671E-02 a        77     0     4     1     2
 -4.8891035701582303E-01 a        78     0     4     1     3
  9.1957241326468139E-02 a        79     0     4     1     4
  5.5839498575420227E-02 a        80     0     4     1     5
  2.6960799193853363E-01 a        81     0     4     1     6
 -5.2631735451443021E-02 a        82     0     4     1     7
 -1.5819087650331107E-01 a        83     0     4     1     8
 -3.0685152008562123E-02 a        84     0     4     1     9
  2.3163618301242103E-01 a        85     0     4     1    10
  3.0218450079788589E-01 a        86     0     4     1    11
  6.9820952007663681E-02 a        87     0     4     1    12
 -1.7258741849148834E-01 a        88     0     4     1    13
 -1.4802918864439929E-01 a        89     0     4     1    14
  5.5413876749369387E-02 a        90     0     4     1    15
 -1.2876998451285360E-01 a        91     0     4     1    16
  4.5683855186203104E-01 a        92     0     4     1    17
 -3.2314405209266384E-01 a        93     0     4     1    18
  2.2317782908553541E-01 a        94     0     4     1    19
  1.9970197807255952E-01 a        95     0     4     1    20
 -4.0863354513842215E-01 a        96     0     4     1    21
  4.2481462058841113E-01 a        97     0     4     1    22
  7.2058684771276069E-02 a        98     0     4     1    23
  2.7575137872773947E-01 a        99     0     4     1    24
  1.1057103777671534E-01 a       100     0     4     1    25
 -1.3888959034960206E-02 a       101     0     5     1     1
 -1.3390074846756306E-02 a       102     0     5     1     2
  9.2497030304804106E-02 a       103     0     5     1     3
  2.6959555904770249E-01 a       104     0     5     1     4
 -6.3424299271151363E-01 a       105     0     5     1     5
 -3.0723813066713773E-01 a       106     0     5     1     6
 -3.2396921803398548E-01 a       107     0     5     1     7
 -6.3428370810073831E-01 a       108     0     5     1     8
  1.5161016956359993E-01 a       109     0     5     1     9
  5.9399677897699499E-01 a       110     0     5     1    10
  2.0460337594996436E-02 a       111     0     5     1    11
 -1.5399386811282048E-01 a       112     0     5     1    12
  1.3172946451499098E-01 a       113     0     5     1    13
 -5.2608712905225031E-03 a       114     0     5     1    14
  1.6441597690662715E-01 a       115     0     5     1    15
 -1.8925115084822128E-01 a       116     0     5     1    16
 -4.0711574860490690E-01 a       117     0     5     1    17
  7.7489126194635383E-01 a       118     0     5     1    18
 -2.0417564638163802E-01 a       119     0     5     1    19
 -2.1176532935718370E-01 a       120     0     5     1    20
 -2.1624036656876153E-01 a       121     0     5     1    21
 -3.2104396867658680E-01 a       122     0     5     1    22
  2.5987356311560544E-01 a       123     0     5     1    23
 -5.7334654610118596E-01 a       124     0     5     1    24
 -2.4921175359500156E-01 a       125     0     5     1    25
  3.4565255113259585E-02 a       126     0     6     1     1
  1.8257747334912514E-01 a       127     0     6     1     2
 -3.6332961843253159E-02 a       128     0     6     1     3
 -8.8286666718826720E-02 a       129     0     6     1     4
  4.9007449522335111E-01 a       130     0     6     1     5
  1.0177531072766192E-01 a       131     0     6     1     6
 -4.4459386199664219E-01 a       132     0     6     1     7
 -2.0595410712242766E-02 a       133     0     6     1     8
  5.3347230011607946E-02 a       134     0     6     1     9
 -3.0961297870783527E-01 a       135     0     6     1    10
 -3.4110219946997944E-01 a       136     0     6     1    11
 -1.1479383527342212E-01 a       137     0     6     1    12
  4.1398476695626663E-01 a       138     0     6     1    13
  3.7618401895163855E-01 a       139     0     6     1    14
 -5.0736284538805465E-01 a       140     0     6     1    15
 -1.3824109508149407E-01 a       141     0     6     1    16
 -1.7098601637009378E-01 a       142     0     6     1    17
 -5.5368622584662719E-01 a       143     0     6     1    18
 -2.2886699633153343E-01 a       144     0     6     1    19
  3.1548275507259088E-01 a       145     0     6     1    20
 -2.1742151388424752E-01 a       146     0     6     1    21
  3.9302279304928583E-01 a       147     0     6     1    22
  1.5975002318695916E-01 a       148     0     6     1    23
  3.6626121457913746E-01 a       149     0     6     1    24
 -3.4397132890987059E-02 a       150     0     6     1    25
 -1.9812992630842111E-01 a       151     0     7     1     1
 -2.0870984581908483E-01 a       152     0     7     1     2
  3.3845697528069485E-01 a       153     0     7     1     3
  1.0513809406158046E+00 a       154     0     7     1     4
 -1.4700726298767291E-02 a       155     0     7     1     5
  2.8813131856289059E-01 a       156     0     7     1     6
 -5.7023804756647638E-02 a       157     0     7     1     7
  1.3352135686031666E-01 a       158     0     7     1     8
 -6.1089354187467093E-01 a       159     0     7     1     9
 -3.1890386242948998E-01 a       160     0     7     1    10
 -3.3080645522746122E-01 a       161     0     7     1    11
  3.7098585355126806E-01 a       162     0     7     1    12
  3.3109828569029870E-01 a       163     0     7     1    13
  5.0245435181297859E-01 a       164     0     7     1    14
  3.8947608654231708E-01 a       165     0     7     1    15
 -1.0479531696184893E-01 a       166     0     7     1    16
  8.2277206562679617E-02 a       167     0     7     1    17
  3.5755345642744824E-01 a       168     0     7     1    18
 -3.1233969076280965E-01 a       169     0     7     1    19
  2.2855501157507666E-01 a       170     0     7     1    20
  6.3566776959978699E-02 a       171     0     7     1    21
  5.7869995565081121E-02 a       172     0     7     1    22
  1.0827410716277745E-01 a       173     0     7     1    23
 -2.6391270634923059E-01 a       174     0     7     1    24
 -2.1855477800487980E-01 a       175     0     7     1    25
  1.3861916101103886E-01 a       176     0     8     1     1
  3.0497681178203656E-01 a       177     0     8     1     2
 -1.1098139799115504E-01 a       178     0     8     1     3
 -5.4876569807497666E-01 a       179     0     8     1     4
  5.3749451462601661E-01 a       180     0     8     1     5
  3.3675927017625773E-01 a       181     0     8     1     6
 -3.5445486403135784E-01 a       182     0     8     1     7
 -2.4806123889676948E-01 a       183     0     8     1     8
  2.3372732666785957E-02 a       184     0     8     1     9
 -2.6541256668030067E-01 a       185     0     8     1    10
  3.7051788008281222E-01 a       186     0     8     1    11
  8.7226153574864893E-02 a       187     0     8     1    12
  1.1544886328176179E-01 a       188     0     8     1    13
 -2.9420579201553532E-01 a       189     0     8     1    14
  2.2459541246434994E-01 a       190     0     8     1    15
  4.8800444367117796E-01 a       191     0     8     1    16
 -3.7384595572444723E-02 a       192     0     8     1    17
  9.9970499925019288E-02 a       193     0     8     1    18
  1.1137262910702531E-01 a       194     0     8     1    19
  2.9032969066185332E-01 a       195     0     8     1    20
  2.4885480200337701E-01 a       196     0     8     1    21
 -6.7454571369657754E-02 a       197     0     8     1    22
 -2.8773614863918329E-01 a       198     0     8     1    23
  1.2047588923359086E-01 a       199     0     8     1    24
  8.5932977197509350E-02 a       200     0     8     1    25
  2.8217547611800164E-01 a       201     0     9     1     1
  1.9102084541799877E-01 a       202     0     9     1     2
  1.8257346149709217E-01 a       203     0     9     1     3
  1.6963800163015616E-01 a       204     0     9     1     4
 -4.4467440865803948E-01 a       205     0     9     1     5
 -4.1270596625547142E-02 a       206     0     9     1     6
 -1.1807772001804649E-01 a       207     0     9     1     7
 -1.6756942849310935E-01 a       208     0     9     1     8
  4.4413890899238528E-02 a       209     0     9     1     9
  2.4637993164947739E-01 a       210     0     9     1    10
  2.1753658081983637E-01 a       211     0     9     1    11
 -4.5020211973130275E-01 a       212     0     9     1    12
  2.9855490798748197E-01 a       213     0     9     1    13
 -1.4304401424768504E-01 a       214     0     9     1    14
  3.8496152386541832E-02 a       215     0     9     1    15
 -2.7528094502332656E-01 a       216     0     9     1    16
  2.1062517832876018E-01 a       217     0     9     1    17
  3.5490325024897890E-01 a       218     0     9     1    18
 -4.3913768764974154E-01 a       219     0     9     1    19
  6.8560920275738207E-02 a       220     0     9     1    20
 -1.9133256564840265E-01 a       221     0     9     1    21
  2.9682276179136580E-01 a       222     0     9     1    22
  3.1434215817584804E-01 a       223     0     9     1    23
  3.2412865331953233E-01 a       224     0     9     1    24
  7.3783718491258116E-02 a       225     0     9     1    25
  4.2225019823208076E-01 a       226     0    10     1     1
  8.8411852380862702E-02 a       227     0    10     1     2
 -3.6685921292796875E-01 a       228     0    10     1     3
 -1.3001041478594851E-02 a       229     0    10     1     4
  2.4838511588900639E-01 a       230     0    10     1     5
  1.0604984839544450E-01 a       231     0    10     1     6
  3.0773159760589669E-01 a       232     0    10     1     7
  2.6246565509830216E-01 a       233     0    10     1     8
  6.2587289574629168E-02 a       234     0    10     1     9
  1.7160753656151756E-01 a       235     0    10     1    10
 -8.3162453982647239E-02 a       236     0    10     1    11
  1.6028140417945083E-01 a       237     0    10     1    12
  3.1141847947447920E-01 a       238     0    10     1    13
 -3.4449726603920455E-02 a       239     0    10     1    14
 -6.9434540981222884E-02 a       240     0    10     1    15
  2.9727793153911236E-01 a       241     0    10     1    16
 -4.5266972797497550E-02 a       242     0    10     1    17
 -4.3252937008908238E-01 a       243     0    10     1    18
  2.1726960408762361E-01 a       244     0    10     1    19
  2.6674902538050205E-01 a       245     0    10     1    20
  1.6393415820032345E-01 a       246     0    10     1    21
  3.7050000095011176E-01 a       247     0    10     1    22
  1.0898132348027038E-01 a       248     0    10     1    23
 -2.6342883942960721E-01 a       249     0    10     1    24
  3.6590357762785553E-01 a       250     0    10     1    25
  6.4772515378231796E-02 a       251     0    11     1     1
 -3.6208223554807156E-01 a       252     0    11     1     2
  3.7267783844664754E-01 a       253     0    11     1     3
  4.6924740313464885E-01 a       254     0    11     1     4
  1.8935791110098998E-01 a       255     0    11     1     5
 -1.2138722501452352E-01 a       256     0    11     1     6
  2.5071321827130098E-02 a       257     0    11     1     7
 -3.6135754339109968E-02 a       258     0    11     1     8
 -1.8134378740868221E-01 a       259     0    11     1     9
 -1.4060796825029062E-01 a       260     0    11     1    10
 -7.8957883881316179E-02 a       261     0    11     1    11
  5.3915168447772088E-01 a       262     0    11     1    12
  3.6529108999896576E-01 a       263     0    11     1    13
  1.3064215005419089E-01 a       264     0    11     1    14
 -3.3075245398230552E-01 a       265     0    11     1    15
  1.1070273881933476E-01 a       266     0    11     1    16
 -1.7711038445227625E-01 a       267     0    11     1    17
  2.9068125623948288E-01 a       268     0    11     1    18
 -1.2436339654811983E-01 a       269     0    11     1    19
 -9.2009611091642823E-02 a       270     0    11     1    20
 -4.4571011104209121E-02 a       271     0    11     1    21
 -1.8946278152404084E-01 a       272     0    11     1    22
 -6.1169773454279118E-02 a       273     0    11     1    23
 -1.8620690046515287E-01 a       274     0    11     1    24
 -2.8869235727106252E-01 a       275     0    11     1    25
 -8.5102542033410361E-02 a       276     0    12     1     1
  2.2276008423553051E-01 a       277     0    12     1     2
 -3.8925370457347142E-01 a       278     0    12     1     3
 -3.7554147190430615E-01 a       279     0    12     1     4
 -9.7118055067530740E-02 a       280     0    12     1     5
  1.2843020378923917E-01 a       281     0    12     1     6
  3.5227492990090932E-02 a       282     0    12     1     7
 -1.1358812718797758E-01 a       283     0    12     1     8
  3.6968558890977227E-01 a       284     0    12     1     9
  2.7068050534644762E-02 a       285     0    12     1    10
  2.3644887254681037E-02 a       286     0    12     1    11
 -1.3557631132913583E-01 a       287     0    12     1    12
  1.0229365872228946E-01 a       288     0    12     1    13
  6.9965102994211534E-02 a       289     0    12     1    14
 -3.2849645440509773E-01 a       290     0    12     1    15
 -2.2309769160673515E-01 a       291     0    12     1    16
 -5.9811172760406865E-02 a       292     0    12     1    17
 -2.5288051438848741E-01 a       293     0    12     1    18
 -5.6570726228298160E-02 a       294     0    12     1    19
 -4.3424363619338180E-01 a       295     0    12     1    20
  2.2213214380815461E-02 a       296     0    12     1    21
  1.6740060299097440E-01 a       297     0    12     1    22
 -9.9430056481678533E-02 a       298     0    12     1    23
  3.7279560522245508E-01 a       299     0    12     1    24
 -6.6841100513864118E-02 a       300     0    12     1    25
 -1.3129894538016074E-01 a       301     0    13     1     1
  4.8554774320320522E-02 a       302     0    13     1     2
  2.5307930695999660E-02 a       303     0    13     1     3
  1.3647733931676139E-02 a       304     0    13     1     4
  1.2186250897051182E-01 a       305     0    13     1     5
  1.1309839106675137E-01 a       306     0    13     1     6
 -1.2691348282968909E-01 a       307     0    13     1     7
 -9.0190459782583915E-02 a       308     0    13     1     8
 -2.9117957815444651E-01 a       309     0    13     1     9
 -3.0776014530192475E-01 a       310     0    13     1    10
  2.2511711705616899E-01 a       311     0    13     1    11
 -1.1623138561655946E-01 a       312     0    13     1    12
 -2.5615430537285599E-01 a       313     0    13     1    13
  5.1009373816626749E-02 a       314     0    13     1    14
  4.5566288201357724E-01 a       315     0    13     1    15
 -1.6793831635281520E-02 a       316     0    13     1    16
  2.6746718087463989E-01 a       317     0    13     1    17
  1.2535871333493764E-01 a       318     0    13     1    18
 -3.7932271384861643E-01 a       319     0    13     1    19
 -1.4973297309019470E-01 a       320     0    13     1    20
 -2.3058892009548018E-01 a       321     0    13     1    21
 -7.5010104435971073E-02 a       322     0    13     1    22
 -7.7414165443128249E-02 a       323     0    13     1    23
  7.5518405586233364E-02 a       324     0    13     1    24
  9.5698717378745926E-02 a       325     0    13     1    25
  3.5439558839967944E-01 a       326     0    14     1     1
 -1.4238421892515685E-01 a       327     0    14     1     2
 -1.2855844410548001E-01 a       328     0    14     1     3
 -2.8603435138127159E-02 a       329     0    14     1     4
 -1.6000322212876328E-01 a       330     0    14     1     5
  3.6841308792130090E-01 a       331     0    14     1     6
  2.2519516697563424E-01 a       332     0    14     1     7
 -1.4879560639731670E-01 a       333     0    14     1     8
  2.8051293314960157E-01 a       334     0    14     1     9
 -1.0483904270201298E-01 a       335     0    14     1    10
  1.5947277912130184E-01 a       336     0    14     1    11
  1.6292172061572602E-01 a       337     0    14     1    12
 -4.7432288097458850E-02 a       338     0    14     1    13
 -1.3611210488185757E-01 a       339     0    14     1    14
 -3.3751265966797389E-01 a       340     0    14     1    15
  3.5100197015319842E-02 a       341     0    14     1    16
 -2.1455114425324200E-02 a       342     0    14     1    17
 -2.3970429285010775E-01 a       343     0    14     1    18
  1.4160509494977014E-01 a       344     0    14     1    19
  1.6938013342796093E-01 a       345     0    14     1    20
 -1.2411048053316454E-01 a       346     0    14     1    21
 -2.4273141470613126E-02 a       347     0    14     1    22
  2.7812389194155895E-01 a       348     0    14     1    23
 -3.7305411715746956E-01 a       349     0    14     1    24
  3.4426584770470559E-01 a       350     0    14     1    25
 -1.6755901448194485E-02 a       351     0    15     1     1
 -1.8708767412896682E-01 a       352     0    15     1     2
  6.2542644276305223E-02 a       353     0    15     1     3
  5.2625187106168973E-02 a       354     0    15     1     4
  2.7138216070492638E-01 a       355     0    15     1     5
 -7.8278356691278750E-02 a       356     0    15     1     6
 -2.4504042427383407E-02 a       357     0    15     1     7
  1.8573936688348263E-02 a       358     0    15     1     8
  2.5143377807723960E-01 a       359     0    15     1     9
  1.2003225923367299E-01 a       360     0    15     1    10
 -2.6330673386161962E-01 a       361     0    15     1    11
  1.8079463627720635E-01 a       362     0    15     1    12
  8.5127964592531830E-02 a       363     0    15     1    13
 -1.4722782708292154E-01 a       364     0    15     1    14
 -2.0432529566584406E-01 a       365     0    15     1    15
  7.0075196211635729E-02 a       366     0    15     1    16
 -1.4504517034820755E-01 a       367     0    15     1    17
  1.4402419238889133E-01 a       368     0    15     1    18
 -8.2721793837212771E-05 a       369     0    15     1    19
  3.0763381569036158E-01 a       370     0    15     1    20
  4.2215633831625229E-02 a       371     0    15     1    21
  5.6448037649347416E-02 a       372     0    15     1    22
  3.0873856591066917E-01 a       373     0    15     1    23
  3.6802355661538455E-01 a       374     0    15     1    24
 -2.3996769848629926E-01 a       375     0    15     1    25
 -5.7748587713089022E-02 a       376     0    16     1     1
  2.9712438554679882E-01 a       377     0    16     1     2
  4.8550646099936291E-02 a       378     0    16     1     3
 -6.2210001176611580E-02 a       379     0    16     1     4
 -1.4765322340709910E-01 a       380     0    16     1     5
  1.9886988425996593E-02 a       381     0    16     1     6
  2.1237899458652473E-01 a       382     0    16     1     7
  1.0069530148824792E-01 a       383     0    16     1     8
  9.2596021154116942E-02 a       384     0    16     1     9
  3.0938698211389054E-01 a       385     0    16     1    10
 -6.0694623104721915E-02 a       386     0    16     1    11
 -2.4172820551582577E-01 a       387     0    16     1    12
  6.5525831891602007E-02 a       388     0    16     1    13
  1.3480735965255577E-01 a       389     0    16     1    14
  3.0980122645749127E-02 a       390     0    16     1    15
 -2.2599757023098521E-01 a       391     0    16     1    16
 -1.4752815166209108E-02 a       392     0    16     1    17
  4.8587751154987362E-02 a       393     0    16     1    18
  2.4943066030818667E-02 a       394     0    16     1    19
 -2.6318377128302078E-01 a       395     0    16     1    20
  1.6825009396752408E-01 a       396     0    16     1    21
  1.7701243479546225E-01 a       397     0    16     1    22
 -4.4954029728446027E-01 a       398     0    16     1    23
 -1.2927653891786170E-01 a       399     0    16     1    24
 -1.0240797493985827E-02 a       400     0    16     1    25
 -7.4964476750298589E-02 a       401     0    17     1     1
  1.3517098755644108E-01 a       402     0    17     1     2
 -1.5445546992614548E-01 a       403     0    17     1     3
 -3.5890016813637259E-02 a       404     0    17     1     4
 -1.2040983075628285E-01 a       405     0    17     1     5
 -9.0429963623368345E-02 a       406     0    17     1     6
 -8.9297667509633277E-02 a       407     0    17     1     7
  1.1070587153995672E-01 a       408     0    17     1     8
 -1.7052928890203020E-01 a       409     0    17     1     9
  7.0127803122361377E-03 a       410     0    17     1    10
 -2.3012396157453339E-02 a       411     0    17     1    11
  1.5119416736894001E-02 a       412     0    17     1    12
 -2.4083456343838985E-01 a       413     0    17     1    13
  1.1220690756787458E-01 a       414     0    17     1    14
  3.4227939687687581E-01 a       415     0    17     1    15
  6.5479894197835412E-02 a       416     0    17     1    16
 -2.6069606763496084E-02 a       417     0    17     1    17
 -4.2494861029661289E-02 a       418     0    17     1    18
 -4.1885447980700700E-02 a       419     0    17     1    19
 -2.1661175553413942E-01 a       420     0    17     1    20
  6.1513420424257365E-02 a       421     0    17     1    21
  6.1097452755780823E-02 a       422     0    17     1    22
 -3.0763622328203649E-01 a       423     0    17     1    23
  1.0296315496439508E-01 a       424     0    17     1    24
 -3.2375618268124184E-02 a       425     0    17     1    25
  1.7139909970037315E-01 a       426     0    18     1     1
 -1.8657969324666590E-01 a       427     0    18     1     2
 -3.7882142387575139E-02 a       428     0    18     1     3
  2.4812232732597556E-02 a       429     0    18     1     4
  1.1526122419657381E-01 a       430     0    18     1     5
 -1.0361543524962151E-01 a       431     0    18     1     6
 -1.8010295859144529E-01 a       432     0    18     1     7
 -1.6595104130515670E-01 a       433     0    18     1     8
  2.5835490557342251E-02 a       434     0    18     1     9
 -3.6793667099601707E-01 a       435     0    18     1    10
 -3.7251558735653346E-03 a       436     0    18     1    11
 -1.5138537275285878E-02 a       437     0    18     1    12
  1.9869242809674822E-01 a       438     0    18     1    13
 -5.8536838579387211E-03 a       439     0    18     1    14
 -1.4756412204484959E-01 a       440     0    18     1    15
  2.1292031359020067E-01 a       441     0    18     1    16
  2.0865706211544205E-01 a       442     0    18     1    17
 -1.2327898885795370E-01 a       443     0    18     1    18
  2.7065463486637156E-02 a       444     0    18     1    19
  2.2904328698200421E-01 a       445     0    18     1    20
 -1.6903897491101519E-01 a       446     0    18     1    21
 -1.4996184979324792E-01 a       447     0    18     1    22
  5.4140534486337577E-01 a       448     0    18     1    23
  3.9161695257735946E-01 a       449     0    18     1    24
  1.6138821258111138E-01 a       450     0    18     1    25
 -2.2551030711834752E-01 a       451     0    19     1     1
 -8.0232706672295942E-02 a       452     0    19     1     2
 -2.0017106688208441E-01 a       453     0    19     1     3
 -2.3704556318080782E-02 a       454     0    19     1     4
  1.2723629916779004E-02 a       455     0    19     1     5
 -1.1741386819665080E-01 a       456     0    19     1     6
 -1.0055308081358932E-01 a       457     0    19     1     7
  5.8710760117984255E-02 a       458     0    19     1     8
 -1.5564078367885859E-01 a       459     0    19     1     9
  1.5378076062517704E-02 a       460     0    19     1    10
  1.6515810562600926E-03 a       461     0    19     1    11
 -3.8297130367556602E-02 a       462     0    19     1    12
  9.5660183604779306E-02 a       463     0    19     1    13
 -1.0197067671277839E-01 a       464     0    19     1    14
  2.2425930940438227E-01 a       465     0    19     1    15
 -4.7623827196476128E-02 a       466     0    19     1    16
 -8.2850708521272159E-02 a       467     0    19     1    17
  4.5900486321411409E-03 a       468     0    19     1    18
  6.4525725277355520E-02 a       469     0    19     1    19
  2.5196747764776584E-01 a       470     0    19     1    20
  2.6429779120666762E-02 a       471     0    19     1    21
 -1.7318058434170611E-01 a       472     0    19     1    22
  1.4432663658175171E-01 a       473     0    19     1    23
 -1.8511646705379806E-01 a       474     0    19     1    24
 -1.2160053821222611E-01 a       475     0    19     1    25
 -4.4044358208824765E-03 a       476     0    20     1     1
  1.3556082661331073E-01 a       477     0    20     1     2
 -3.3507653582877890E-02 a       478     0    20     1     3
  9.3810152660877735E-02 a       479     0    20     1     4
 -1.0171759719071143E-01 a       480     0    20     1     5
 -8.3901548607361792E-02 a       481     0    20     1     6
  1.3257287959893188E-01 a       482     0    20     1     7
 -5.9403881051979099E-03 a       483     0    20     1     8
  5.7834345652720213E-02 a       484     0    20     1     9
  1.7171542884252969E-01 a       485     0    20     1    10
  1.1808916362016804E-01 a       486     0    20     1    11
 -2.3646501938955861E-01 a       487     0    20     1    12
  3.9717410373026882E-02 a       488     0    20     1    13
  4.5944198879365759E-02 a       489     0    20     1    14
 -1.9391117428376958E-01 a       490     0    20     1    15
 -2.0996506610107121E-01 a       491     0    20     1    16
  4.7732711013986726E-02 a       492     0    20     1    17
 -1.1452004334937194E-01 a       493     0    20     1    18
  1.2500897937119287E-01 a       494     0    20     1    19
  3.4707553609753750E-02 a       495     0    20     1    20
  4.5694030711072503E-02 a       496     0    20     1    21
  1.3545957235832537E-01 a       497     0    20     1    22
  5.4628538692289473E-02 a       498     0    20     1    23
 -3.4533442625893929E-01 a       499     0    20     1    24
  1.2682001886556521E-01 a       500     0    20     1    25
  1.2723031408046845E-01 a       501     0    21     1     1
 -3.8056455336046324E-01 a       502     0    21     1     2
  9.8018376072528474E-02 a       503     0    21     1     3
 -1.4594715678622245E+00 a       504     0    21     1     4
  7.7751454084984961E-01 a       505     0    21     1     5
  2.8148322924418012E-01 a       506     0    21     1     6
  2.5536520554380554E-01 a       507     0    21     1     7
  1.1697404363862691E+00 a       508     0    21     1     8
 -1.1677873914992708E-02 a       509     0    21     1     9
 -6.5975217107512352E-01 a       510     0    21     1    10
  1.0758031963139101E+00 a       511     0    21     1    11
  2.1116059056425607E-01 a       512     0    21     1    12
 -8.6086318791646507E-02 a       513     0    21     1    13
 -1.1904699911681587E+00 a       514     0    21     1    14
  7.5158523707415908E-02 a       515     0    21     1    15
 -1.5814809151267087E-01 a       516     0    21     1    16
  3.6961781099576840E-01 a       517     0    21     1    17
 -7.1143948896383868E-01 a       518     0    21     1    18
  1.7343473244957209E-02 a       519     0    21     1    19
  5.5843640757898527E-01 a       520     0    21     1    20
  1.8573089223800046E-01 a       521     0    21     1    21
  2.8262304161635814E-02 a       522     0    21     1    22
 -8.7594190385881376E-01 a       523     0    21     1    23
 -2.7139511311475939E-01 a       524     0    21     1    24
  3.9578819899911205E-01 a       525     0    21     1    25
  3.2211281539232739E-01 a       526     0    22     1     1
  1.7155557211766807E-02 a       527     0    22     1     2
  1.2879463669797181E-01 a       528     0    22     1     3
  3.4539456710039595E-01 a       529     0    22     1     4
 -7.4363563329108850E-01 a       530     0    22     1     5
 -5.9823267245972804E-02 a       531     0    22     1     6
 -7.6606712872788044E-02 a       532     0    22     1     7
 -1.5699160104460305E-01 a       533     0    22     1     8
  7.8924094466381944E-01 a       534     0    22     1     9
  1.3151185796032122E-01 a       535     0    22     1    10
 -9.7785626231792122E-01 a       536     0    22     1    11
 -4.2799159756118232E-01 a       537     0    22     1    12
 -2.4007053515179306E-03 a       538     0    22     1    13
  5.1618205047214416E-01 a       539     0    22     1    14
  3.6392492765808199E-01 a       540     0    22     1    15
 -2.1593839323784764E-01 a       541     0    22     1    16
  1.0521678005862492E-01 a       542     0    22     1    17
  1.9708011565827402E-01 a       543     0    22     1    18
 -6.6633580468507381E-01 a       544     0    22     1    19
 -7.7001002354456075E-02 a       545     0    22     1    20
 -1.2166110038570173E-01 a       546     0    22     1    21
 -1.9591760500564187E-02 a       547     0    22     1    22
  6.7892101373787775E-02 a       548     0    22     1    23
 -5.7705620655554279E-01 a       549     0    22     1    24
  3.9094658344436112E-01 a       550     0    22     1    25
 -2.4338010751704059E-01 a       551     0    23     1     1
  3.1778327419612648E-03 a       552     0    23     1     2
 -3.8078693904312666E-01 a       553     0    23     1     3
 -2.6327598387394502E-01 a       554     0    23     1     4
  6.3005509465438904E-03 a       555     0    23     1     5
 -3.5279027960113984E-01 a       556     0    23     1     6
  1.3751614655798683E-01 a       557     0    23     1     7
  3.1318131274076851E-02 a       558     0    23     1     8
 -6.1285158447265053E-01 a       559     0    23     1     9
 -2.7300267161870845E-01 a       560     0    23     1    10
 -5.5100338211847774E-02 a       561     0    23     1    11
 -3.0144101833244252E-01 a       562     0    23     1    12
  1.2816708259415049E-01 a       563     0    23     1    13
 -1.2490847355749905E-01 a       564     0    23     1    14
 -7.4268891510113899E-02 a       565     0    23     1    15
  6.5406179626708555E-02 a       566     0    23     1    16
  2.1362056780279465E-01 a       567     0    23     1    17
 -2.9076571139631149E-02 a       568     0    23     1    18
  1.3879174574802621E-02 a       569     0    23     1    19
 -1.5722374017118321E-01 a       570     0    23     1    20
  2.1621963231296593E-01 a       571     0    23     1    21
  2.9040817778222017E-01 a       572     0    23     1    22
  3.4522220368122569E-01 a       573     0    23     1    23
  4.8990686180422799E-01 a       574     0    23     1    24
 -1.0363686964955837E-01 a       575     0    23     1    25
  1.5797536654733671E-01 a       576     0    24     1     1
  1.6018294906776898E-01 a       577     0    24     1     2
  4.0928016211638968E-01 a       578     0    24     1     3
  7.3719497619174168E-01 a       579     0    24     1     4
  5.5690736903942406E-01 a       580     0    24     1     5
  2.8135359656811060E-01 a       581     0    24     1     6
  6.4943591555781915E-02 a       582     0    24     1     7
 -7.1470468279493425E-03 a       583     0    24     1     8
 -4.3851957143367530E-02 a       584     0    24     1     9
 -7.6090324738014220E-02 a       585     0    24     1    10
 -2.7668195392827449E-01 a       586     0    24     1    11
  2.6737385346046916E-01 a       587     0    24     1    12
  4.1176438860269171E-01 a       588     0    24     1    13
  9.9698298965840371E-01 a       589     0    24     1    14
 -1.1978726349161370E-01 a       590     0    24     1    15
  5.5545528691982016E-01 a       591     0    24     1    16
  3.2989225384900526E-03 a       592     0    24     1    17
  3.0780477269440096E-02 a       593     0    24     1    18
  5.9608159283451445E-01 a       594     0    24     1    19
 -4.7799630069585930E-01 a       595     0    24     1    20
 -7.5490148862906081E-01 a       596     0    24     1    21
  9.7708209949717628E-02 a       597     0    24     1    22
  5.5397828658434754E-02 a       598     0    24     1    23
 -2.1884456921439852E-01 a       599     0    24     1    24
  7.1815977831882316E-02 a       600     0    24     1    25
 -3.8515682048412442E-01 a       601     0    25     1     1
 -1.2433809267250617E+00 a       602     0    25     1     2
  2.9823992541923539E-01 a       603     0    25     1     3
 -7.8189122110895992E-01 a       604     0    25     1     4
 -2.0176786442506855E-01 a       605     0    25     1     5
  1.0339994993313598E-01 a       606     0    25     1     6
  1.6790705778956166E-01 a       607     0    25     1     7
 -3.9156513111497682E-01 a       608     0    25     1     8
  5.1996491352620544E-01 a       609     0    25     1     9
 -1.6423222197914245E-01 a       610     0    25     1    10
  6.6723788107730914E-02 a       611     0    25     1    11
 -5.2223628327974847E-01 a       612     0    25     1    12
 -3.8533550760632029E-01 a       613     0    25     1    13
 -5.0499833059210208E-01 a       614     0    25     1    14
 -3.0476054492868682E-02 a       615     0    25     1    15
  4.7463549678695236E-03 a       616     0    25     1    16
  3.0184486387139409E-01 a       617     0    25     1    17
  1.5286174476451292E-01 a       618     0    25     1    18
 -4.2254837715011356E-01 a       619     0    25     1    19
 -5.3348997312792890E-01 a       620     0    25     1    20
  8.1214591134649061E-01 a       621     0    25     1    21
  1.0826497729737056E-01 a       622     0    25     1    22
  4.5327759645364374E-01 a       623     0    25     1    23
  1.5511736100024331E-01 a       624     0    25     1    24
 -4.0818074342722566E-01 a       625     0    25     1    25
 -8.5365498212117401E-03 a       626     0    26     1     1
  1.7766170963679964E-01 a       627     0    26     1     2
  3.8536816033970162E-01 a       628     0    26     1     3
  6.5026757570228022E-01 a       629     0    26     1     4
  3.0284409686690278E-01 a       630     0    26     1     5
 -2.3302182568486846E-01 a       631     0    26     1     6
 -3.2860100895710842E-01 a       632     0    26     1     7
  7.5195688262073471E-02 a       633     0    26     1     8
  1.3006240686354809E-01 a       634     0    26     1     9
  1.4304904403878246E-01 a       635     0    26     1    10
  2.6606339618940505E-01 a       636     0    26     1    11
  5.4508261842363848E-01 a       637     0    26     1    12
  3.1485767925276265E-01 a       638     0    26     1    13
 -2.6068854172983247E-01 a       639     0    26     1    14
 -3.1786895500812040E-01 a       640     0    26     1    15
 -3.9096253089407879E-01 a       641     0    26     1    16
 -2.2270124115556736E-01 a       642     0    26     1    17
 -4.9961947987790262E-01 a       643     0    26     1    18
  1.0231146519744204E-01 a       644     0    26     1    19
  4.1828526966021162E-01 a       645     0    26     1    20
 -2.9239938639744267E-01 a       646     0    26     1    21
  2.2249193593174343E-01 a       647     0    26     1    22
 -3.3183365270378384E-01 a       648     0    26     1    23
  4.2385007626758259E-01 a       649     0    26     1    24
  7.1178688344298177E-02 a       650     0    26     1    25
 -1.8696167914557035E-01 a       651     0    27     1     1
  7.1347541568662476E-01 a       652     0    27     1     2
 -4.8947783639125642E-01 a       653     0    27     1     3
  8.7656828949994825E-02 a       654     0    27     1     4
 -2.8424333045882244E-01 a       655     0    27     1     5
  1.5318471082809493E-01 a       656     0    27     1     6
 -3.2628606338224436E-01 a       657     0    27     1     7
 -1.6399405900916061E-01 a       658     0    27     1     8
 -5.6429230082976511E-01 a       659     0    27     1     9
 -3.5299385759674062E-01 a       660     0    27     1    10
  4.9782787189921035E-01 a       661     0    27     1    11
  1.2672798034251209E-02 a       662     0    27     1    12
  1.8279703024062607E-01 a       663     0    27     1    13
 -2.1358886632340329E-01 a       664     0    27     1    14
 -1.5056089439704096E-01 a       665     0    27     1    15
  1.1553155379617812E-01 a       666     0    27     1    16
  1.5497449722078774E-01 a       667     0    27     1    17
 -2.5189579038308857E-01 a       668     0    27     1    18
  1.7015509690483124E-01 a       669     0    27     1    19
  3.1214758480172633E-01 a       670     0    27     1    20
  3.5941253052048339E-01 a       671     0    27     1    21
  4.0264636973419815E-01 a       672     0    27     1    22
 -2.2490273306372717E-03 a       673     0    27     1    23
 -6.6112028625825647E-01 a       674     0    27     1    24
 -3.5786266719218976E-04 a       675     0    27     1    25
 -2.3396467072242833E-01 a       676     0    28     1     1
 -9.9232061755245948E-01 a       677     0    28     1     2
  5.2006855738572177E-01 a       678     0    28     1     3
 -3.3249950391776451E-01 a       679     0    28     1     4
 -2.2418278062545971E-01 a       680     0    28     1     5
 -1.5508418328964119E-01 a       681     0    28     1     6
  1.8779502079329574E-01 a       682     0    28     1     7
  2.0819244451596364E-01 a       683     0    28     1     8
  1.1435123434036600E-01 a       684     0    28     1     9
 -8.2525538777630955E-02 a       685     0    28     1    10
 -3.6278060791886807E-01 a       686     0    28     1    11
  1.5009455279121967E-01 a       687     0    28     1    12
 -3.2298955324678025E-01 a       688     0    28     1    13
  6.4053327576253438E-01 a       689     0    28     1    14
 -2.3249847160689584E-02 a       690     0    28     1    15
  3.4711247233943171E-01 a       691     0    28     1    16
 -1.9000660287303001E-01 a       692     0    28     1    17
  4.2721313791798993E-01 a       693     0    28     1    18
  2.8917407850658376E-02 a       694     0    28     1    19
 -9.5737831226904144E-02 a       695     0    28     1    20
 -6.3954548824706592E-01 a       696     0    28     1    21
 -5.5697288782952503E-01 a       697     0    28     1    22
 -2.5630499670371593E-01 a       698     0    28     1    23
  6.4200944166008217E-02 a       699     0    28     1    24
 -2.1422947266919742E-01 a       700     0    28     1    25
 -1.8572065573666546E-01 a       701     0    29     1     1
  3.0282328662894248E-01 a       702     0    29     1     2
 -5.2742740869091442E-01 a       703     0    29     1     3
  2.1079813277792867E-01 a       704     0    29     1     4
  2.4530453002226124E-01 a       705     0    29     1     5
 -1.4530845107860269E-01 a       706     0    29     1     6
 -1.3678953826070434E-01 a       707     0    29     1     7
 -1.2753968464884727E-01 a       708     0    29     1     8
 -4.1927938890967610E-02 a       709     0    29     1     9
 -3.7468903253235313E-02 a       710     0    29     1    10
  9.4498810231656155E-02 a       711     0    29     1    11
 -2.4123477231585860E-01 a       712     0    29     1    12
 -2.2236626360308892E-01 a       713     0    29     1    13
 -9.9246707699688047E-02 a       714     0    29     1    14
 -8.4486552538671961E-02 a       715     0    29     1    15
 -8.0293592799932523E-01 a       716     0    29     1    16
 -2.2629326551656458E-02 a       717     0    29     1    17
 -4.3625564690662827E-01 a       718     0    29     1    18
  3.3037975486649704E-02 a       719     0    29     1    19
  5.3175290715269496E-02 a       720     0    29     1    20
  5.3398528228797232E-02 a       721     0    29     1    21
 -4.1226419479010512E-01 a       722     0    29     1    22
 -1.0240802862246495E-01 a       723     0    29     1    23
  2.8337213064881595E-01 a       724     0    29     1    24
  7.8204101481231802E-02 a       725     0    29     1    25
  2.9428768253032284E-01 a       726     0    30     1     1
 -1.0004128685922745E-01 a       727     0    30     1     2
 -4.3020006430035500E-03 a       728     0    30     1     3
 -3.9618821608174759E-02 a       729     0    30     1     4
 -2.0846649463712194E-01 a       730     0    30     1     5
 -4.1035809476243973E-01 a       731     0    30     1     6
  3.3694213003934254E-01 a       732     0    30     1     7
 -4.8010827883568696E-02 a       733     0    30     1     8
  7.5997344235594899E-02 a       734     0    30     1     9
  3.4962095760385359E-01 a       735     0    30     1    10
  3.0449777267319605E-01 a       736     0    30     1    11
  3.3022227345985672E-01 a       737     0    30     1    12
 -2.3019752611212624E-01 a       738     0    30     1    13
 -1.4101751550020428E-01 a       739     0    30     1    14
  2.7463582226365119E-01 a       740     0    30     1    15
  1.6587341918130960E-01 a       741     0    30     1    16
 -6.5044659383064019E-01 a       742     0    30     1    17
  2.2537057925878703E-02 a       743     0    30     1    18
  2.5808340359116311E-01 a       744     0    30     1    19
 -4.2305727298146900E-01 a       745     0    30     1    20
  4.9489805923130709E-01 a       746     0    30     1    21
  2.7713623089347529E-02 a       747     0    30     1    22
  1.5445235714339070E-01 a       748     0    30     1    23
 -1.0133714124408612E-01 a       749     0    30     1    24
  1.4064365558524888E-01 a       750     0    30     1    25
  3.1484884058689405E-01 a       751     0    31     1     1
  1.2506424326503469E+00 a       752     0    31     1     2
 -6.8448251552567496E-01 a       753     0    31     1     3
 -5.5882486089252681E-01 a       754     0    31     1     4
 -9.4517433110730895E-02 a       755     0    31     1     5
 -1.5860379753518204E-02 a       756     0    31     1     6
 -3.2951424679740920E-01 a       757     0    31     1     7
 -3.7217387310162792E-01 a       758     0    31     1     8
 -6.5208065823788783E-02 a       759     0    31     1     9
 -1.3145249027832839E-01 a       760     0    31     1    10
 -1.9352598895345580E-01 a       761     0    31     1    11
  2.4589058259288496E-01 a       762     0    31     1    12
 -1.6384665333271109E-01 a       763     0    31     1    13
 -5.4668153453352863E-01 a       764     0    31     1    14
 -1.4009493152001018E-01 a       765     0    31     1    15
  7.0407013408890451E-01 a       766     0    31     1    16
  8.0199762522308848E-01 a       767     0    31     1    17
  6.3463900466486256E-01 a       768     0    31     1    18
 -4.7156210723066708E-02 a       769     0    31     1    19
  6.6926989409610907E-02 a       770     0    31     1    20
  5.9684453752355190E-02 a       771     0    31     1    21
 -3.9972660268671195E-01 a       772     0    31     1    22
 -6.4156266567296028E-01 a       773     0    31     1    23
  4.3373657369040741E-01 a       774     0    31     1    24
 -2.4607091323676475E-01 a       775     0    31     1    25
 -8.0549032967187142E-02 a       776     0    32     1     1
 -4.5977390512020121E-02 a       777     0    32     1     2
 -5.4944460204263357E-02 a       778     0    32     1     3
 -1.6574718377948794E-01 a       779     0    32     1     4
 -4.3891124173934992E-01 a       780     0    32     1     5
  3.9341879418690667E-01 a       781     0    32     1     6
  6.7802948171708191E-02 a       782     0    32     1     7
 -6.1736841487372608E-03 a       783     0    32     1     8
 -1.9635804360948445E-01 a       784     0    32     1     9
  4.1785211680541529E-02 a       785     0    32     1    10
 -1.3818929931502619E-01 a       786     0    32     1    11
 -4.2961106409889305E-01 a       787     0    32     1    12
 -1.0842181887518323E-01 a       788     0    32     1    13
  4.0902897766708535E-01 a       789     0    32     1    14
 -2.0410374522932109E-02 a       790     0    32     1    15
 -1.6746930205734686E-01 a       791     0    32     1    16
 -1.4969493854866209E-01 a       792     0    32     1    17
  6.2946902944654881E-02 a       793     0    32     1    18
 -1.6598738034199753E-01 a       794     0    32     1    19
 -1.7555104110916347E-01 a       795     0    32     1    20
  5.5720282817759134E-02 a       796     0    32     1    21
  1.1757794533326701E-02 a       797     0    32     1    22
 -4.2545097541907329E-02 a       798     0    32     1    23
 -5.1579881034864307E-02 a       799     0    32     1    24
  5.2157855910078529E-02 a       800     0    32     1    25
  3.3819779622750845E-01 b       801     1     1
 -1.2603058405805374E+00 b       802     1     2
 -1.1196863054061719E+00 b       803     1     3
  6.3130030189222563E-01 b       804     1     4
  1.0362328747088756E-01 b       805     1     5
  1.0628636528608090E-01 b       806     1     6
  9.1693803970577969E-01 b       807     1     7
 -6.0145896681680167E-01 b       808     1     8
  8.5986159096370085E-01 b       809     1     9
 -1.1013483240497619E+00 b       810     1    10
 -7.9105968192824908E-02 b       811     1    11
  1.2276764068782763E-01 b       812     1    12
  4.7663998825191081E-02 b       813     1    13
 -6.1299218504775599E-01 b       814     1    14
  1.0448479311541246E+00 b       815     1    15
  1.5752562068987632E+00 b       816     1    16
  2.0237647306235210E-01 b       817     1    17
 -8.6288053649791352E-01 b       818     1    18
 -1.3671848263694517E-01 b       819     1    19
 -5.9280431391047404E-02 b       820     1    20
 -4.3182041905825680E-01 b       821     1    21
  8.9348972204324051E-01 b       822     1    22
 -1.0211321502792965E+00 b       823     1    23
  1.3326405962187371E+00 b       824     1    24
  3.1902185349155253E-02 b       825     1    25
  6.5495089398551132E-01 a       826     1     1     2     1
  3.2760742973399332E-01 a       827     1     1     2     2
 -4.6777718002327218E-01 a       828     1     1     2     3
 -3.0014665294694112E-02 a       829     1     1     2     4
  4.7690610560110641E-01 a       830     1     1     2     5
  3.8434883274333270E-01 a       831     1     1     2     6
  4.7009529487498192E-01 a       832     1     1     2     7
  1.7148999648385935E-01 a       833     1     1     2     8
 -1.6016451202004833E-01 a       834     1     1     2     9
  1.0951741433496970E-01 a       835     1     1     2    10
 -5.4957342043479984E-01 a       836     1     1     2    11
  6.5457192467738373E-02 a       837     1     1     2    12
  2.8501080509991822E-01 a       838     1     1     2    13
 -4.5794966610569054E-01 a       839     1     1     2    14
 -1.9661767121259996E-01 a       840     1     1     2    15
  2.2541323385487910E-01 a       841     1     1     2    16
  4.3508622063102444E-02 a       842     1     1     2    17
 -1.8180532433512608E-01 a       843     1     1     2    18
 -5.0230802059429189E-02 a       844     1     1     2    19
 -2.2855975396891137E-01 a       845     1     1     2    20
  4.7240169548423011E-01 a       846     1     1     2    21
  3.2791234073859482E-01 a       847     1     1     2    22
 -5.7841795429234533E-01 a       848     1     1     2    23
  4.0392567926915857E-01 a       849     1     1     2    24
  4.3406686997203864E-01 a       850     1     1     2    25
  3.5641337989981747E-01 a       851     1     2     2     1
  3.0551928785244042E-01 a       852     1     2     2     2
  4.7413272966046662E-03 a       853     1     2     2     3
 -5.2520525143418895E-01 a       854     1     2     2     4
 -7.0672190979021521E-01 a       855     1     2     2     5
  5.6889327386317090E-01 a       856     1     2     2     6
  2.1367104955015850E-01 a       857     1     2     2     7
 -1.4858916991002249E-01 a       858     1     2     2     8
 -3.2525956610620399E-01 a       859     1     2     2     9
 -2.6142714711072473E-01 a       860     1     2     2    10
  1.8021156881532702E-01 a       861     1     2     2    11
 -4.4726916015909318E-01 a       862     1     2     2    12
  6.3223561655565474E-01 a       863     1     2     2    13
  3.1208167430988698E-01 a       864     1     2     2    14
  4.2095389804742828E-01 a       865     1     2     2    15
  3.2094783252128506E-01 a       866     1     2     2    16
  1.6235043928545692E-01 a       867     1     2     2    17
  1.3282272219964580E-01 a       868     1     2     2    18
 -3.4425678945144048E-02 a       869     1     2     2    19
  2.6915352947211418E-01 a       870     1     2     2    20
  1.5827376414346883E-01 a       871     1     2     2    21
  1.7948147594430650E-01 a       872     1     2     2    22
  2.3228649792177392E-01 a       873     1     2     2    23
 -2.6681886748466643E-01 a       874     1     2     2    24
  2.3488079423633532E-01 a       875     1     2     2    25
  4.4846180151347248E-01 a       876     1     3     2     1
  2.2669518339160072E-01 a       877     1     3     2     2
 -2.4986465711290115E-01 a       878     1     3     2     3
 -1.6541812751254550E-01 a       879     1     3     2     4
  1.3590833797732682E-01 a       880     1     3     2     5
 -5.6174724700351486E-01 a       881     1     3     2     6
  2.0188096506090730E-01 a       882     1     3     2     7
 -2.4079347803750842E-01 a       883     1     3     2     8
 -6.2034828869041969E-01 a       884     1     3     2     9
 -4.7616734429939872E-01 a       885     1     3     2    10
 -7.2209411484358541E-02 a       886     1     3     2    11
  1.3921692909668051E-01 a       887     1     3     2    12
  1.5798194101315935E-01 a       888     1     3     2    13
 -3.7113866368155335E-01 a       889     1     3     2    14
  2.1106664386520171E-01 a       890     1     3     2    15
 -5.6140954279980582E-01 a       891     1     3     2    16
 -1.1722180570188007E-01 a       892     1     3     2    17
  2.2614074556043495E-01 a       893     1     3     2    18
 -4.7691058165777456E-01 a       894     1     3     2    19
  5.8790107338401301E-02 a       895     1     3     2    20
 -1.5612963321622522E-01 a       896     1     3     2    21
 -1.7821224676813927E-01 a       897     1     3     2    22
  1.3183684265006698E-01 a       898     1     3     2    23
  1.7695664261076918E-01 a       899     1     3     2    24
  1.1442045576796088E-01 a       900     1     3     2    25
 -1.3672869823299433E-01 a       901     1     4     2     1
 -1.2363007915669946E+00 a       902     1     4     2     2
 -3.8798632439840441E-01 a       903     1     4     2     3
  7.6474165716766768E-02 a       904     1     4     2     4
  3.1849049195841228E-01 a       905     1     4     2     5
  2.7554837548098669E-02 a       906     1     4     2     6
 -3.7372684782899668E-01 a       907     1     4     2     7
  6.9569205531884212E-02 a       908     1     4     2     8
 -6.3541565574145809E-01 a       909     1     4     2     9
  1.4509066829410508E-01 a       910     1     4     2    10
  1.2578783084483119E-01 a       911     1     4     2    11
  8.7464945756098617E-02 a       912     1     4     2    12
 -2.4521330608050890E-01 a       913     1     4     2    13
 -2.7210380366351450E-01 a       914     1     4     2    14
  1.5872969929204317E-01 a       915     1     4     2    15
  2.6705261219233073E-01 a       916     1     4     2    16
 -4.3252144183350449E-01 a       917     1     4     2    17
 -7.0116273181453437E-01 a       918     1     4     2    18
 -5.7392105206087463E-01 a       919     1     4     2    19
 -1.5266034964945638E-01 a       920     1     4     2    20
 -3.3388658876359500E-01 a       921     1     4     2    21
 -1.0893735484943382E-01 a       922     1     4     2    22
 -4.8915529197413610E-01 a       923     1     4     2    23
 -2.0716887847421595E-01 a       924     1     4     2    24
  6.2025625977923837E-01 a       925     1     4     2    25
  1.6537664948697436E-01 a       926     1     5     2     1
 -8.8507078736768191E-02 a       927     1     5     2     2
  4.5311079722211511E-01 a       928     1     5     2     3
 -4.7458390239285025E-01 a       929     1     5     2     4
  1.0540741336330253E-01 a       930     1     5     2     5
 -5.2229876468963876E-02 a       931     1     5     2     6
  9.6738072440263792E-02 a       932     1     5     2     7
  2.1122041154370491E-01 a       933     1     5     2     8
  4.8134875962694329E-01 a       934     1     5     2     9
 -5.1594744620119748E-01 a       935     1     5     2    10
 -1.9548276643360479E-01 a       936     1     5     2    11
  3.9053659320167033E-01 a       937     1     5     2    12
  4.4125169032458211E-01 a       938     1     5     2    13
  2.8536444714466203E-01 a       939     1     5     2    14
 -2.2665571624976712E-02 a       940     1     5     2    15
 -3.6198628250410847E-01 a       941     1     5     2    16
  2.1501255583956572E-01 a       942     1     5     2    17
  3.0131017488821205E-01 a       943     1     5     2    18
 -3.2173712371997626E-01 a       944     1     5     2    19
 -2.4873254219424167E-02 a       945     1     5     2    20
 -3.2514834086657757E-02 a       946     1     5     2    21
  1.3871945851636430E-01 a       947     1     5     2    22
 -4.9881027427518543E-01 a       948     1     5     2    23
  3.7653578366840651E-01 a       949     1     5     2    24
  7.0181452086282375E-02 a       950     1     5     2    25
 -3.9492802702198898E-01 a       951     1     6     2     1
 -2.7665413972025121E-01 a       952     1     6     2     2
  2.6378225783569798E-01 a       953     1     6     2     3
 -3.4452060739969259E-01 a       954     1     6     2     4
  8.9564492350572816E-02 a       955     1     6     2     5
  4.4595682843253028E-02 a       956     1     6     2     6
 -4.2763868705444369E-01 a       957     1     6     2     7
 -1.7317370832607340E-01 a       958     1     6     2     8
  2.7603599329826195E-01 a       959     1     6     2     9
 -4.5485302267114958E-01 a       960     1     6     2    10
  4.3574776569476109E-01 a       961     1     6     2    11
  3.0034673879060125E-01 a       962     1     6     2    12
 -3.0015696789372737E-01 a       963     1     6     2    13
 -2.8070660546840676E-01 a       964     1     6     2    14
  8.9887346108459151E-02 a       965     1     6     2    15
 -4.0807530122065235E-02 a       966     1     6     2    16
 -1.2062172598756190E-02 a       967     1     6     2    17
  5.4789929420934906E-02 a       968     1     6     2    18
  5.0630136018179617E-01 a       969     1     6     2    19
 -1.2061268637239150E-02 a       970     1     6     2    20
 -4.4484414476201461E-01 a       971     1     6     2    21
 -2.4861031761683117E-01 a       972     1     6     2    22
  1.1465757310420172E-01 a       973     1     6     2    23
 -3.1931011451491603E-02 a       974     1     6     2    24
  5.8452358473411747E-01 a       975     1     6     2    25
 -3.7030662205863452E-01 a       976     1     7     2     1
  1.6062024707214842E-01 a       977     1     7     2     2
  4.3001125620066000E-02 a       978     1     7     2     3
  3.5674374083018484E-01 a       979     1     7     2     4
  2.9768311779612316E-01 a       980     1     7     2     5
 -7.8462407671673895E-02 a       981     1     7     2     6
 -5.6758116083580085E-02 a       982     1     7     2     7
 -2.9071526280869214E-01 a       983     1     7     2     8
  2.0588987572464487E-01 a       984     1     7     2     9
  3.2750341030812552E-01 a       985     1     7     2    10
 -4.9034312986251927E-01 a       986     1     7     2    11
  4.7540312024199760E-01 a       987     1     7     2    12
 -3.3270845295028295E-01 a       988     1     7     2    13
  1.1582569084046743E-01 a       989     1     7     2    14
 -2.1844819552235988E-02 a       990     1     7     2    15
  4.2596933077031635E-01 a       991     1     7     2    16
  1.0398850354709452E-01 a       992     1     7     2    17
 -6.8862376479461709E-02 a       993     1     7     2    18
  7.4886350401021307E-01 a       994     1     7     2    19
  3.6509998525083004E-01 a       995     1     7     2    20
 -6.2593874199267999E-02 a       996     1     7     2    21
  4.3319988897243994E-01 a       997     1     7     2    22
 -1.1232411329872294E-01 a       998     1     7     2    23
 -3.3874048583882826E-01 a       999     1     7     2    24
 -2.8130957682999980E-01 a      1000     1     7     2    25
  3.2897891357215642E-01 a      1001     1     8     2     1
  1.4473390530093722E-02 a      1002     1     8     2     2
  4.0584913284633578E-01 a      1003     1     8     2     3
  9.8461425597858365E-02 a      1004     1     8     2     4
 -2.8696302398531509E-01 a      1005     1     8     2     5
 -7.4188958910187175E-02 a      1006     1     8     2     6
 -1.2963644954423517E-01 a      1007     1     8     2     7
  2.4064444405541860E-01 a      1008     1     8     2     8
  4.1573418454248756E-01 a      1009     1     8     2     9
 -3.2735430182535880E-01 a      1010     1     8     2    10
 -3.5661651052876067E-02 a      1011     1     8     2    11
  5.7941865684016947E-01 a      1012     1     8     2    12
  2.9202303145126736E-02 a      1013     1     8     2    13
  3.6948970837985823E-01 a      1014     1     8     2    14
 -9.7441418056952819E-02 a      1015     1     8     2    15
 -2.1266229284850419E-01 a      1016     1     8     2    16
  5.5242608540342171E-03 a      1017     1     8     2    17
  7.2031285351163779E-03 a      1018     1     8     2    18
 -4.5805306285531822E-01 a      1019     1     8     2    19
 -1.0517356821462241E-02 a      1020     1     8     2    20
 -4.6222802154836329E-01 a      1021     1     8     2    21
  5.4697902105056595E-01 a      1022     1     8     2    22
  3.9084963972839837E-02 a      1023     1     8     2    23
 -1.1178722764525902E-01 a      1024     1     8     2    24
 -1.7296725305325114E-01 a      1025     1     8     2    25
 -8.0077430928801138E-02 a      1026     1     9     2     1
 -2.2535343605605876E-01 a      1027     1     9     2     2
  3.2146896781137341E-01 a      1028     1     9     2     3
  3.6678575275166658E-01 a      1029     1     9     2     4
 -6.4020146415088874E-01 a      1030     1     9     2     5
  5.3396976042881006E-01 a      1031     1     9     2     6
 -3.2275202904650180E-01 a      1032     1     9     2     7
 -3.4014724941645386E-01 a      1033     1     9     2     8
  1.2634204004939187E-01 a      1034     1     9     2     9
 -1.8605512483327649E-01 a      1035     1     9     2    10
  2.8769052206426932E-01 a      1036     1     9     2    11
  3.1425598691536089E-01 a      1037     1     9     2    12
 -9.6751168468484847E-02 a      1038     1     9     2    13
  5.8836914557264930E-01 a      1039     1     9     2    14
  2.8524668777540108E-01 a      1040     1     9     2    15
  4.3755392794736059E-01 a      1041     1     9     2    16
 -6.4138467603308144E-02 a      1042     1     9     2    17
 -3.1852809376778463E-01 a      1043     1     9     2    18
 -3.8016916477587576E-01 a      1044     1     9     2    19
 -1.0807665185905567E-01 a      1045     1     9     2    20
  1.8093217700253081E-01 a      1046     1     9     2    21
 -4.8897733212242206E-01 a      1047     1     9     2    22
 -1.0181183521243656E-02 a      1048     1     9     2    23
 -1.4077523640514658E-01 a      1049     1     9     2    24
  3.4767244352094231E-02 a      1050     1     9     2    25
 -7.5981715202539907E-02 a      1051     1    10     2     1
  3.6631097909712584E-01 a      1052     1    10     2     2
  5.8105734265239928E-01 a      1053     1    10     2     3
 -3.2243354820262948E-01 a      1054     1    10     2     4
 -1.4026289504956344E-01 a      1055     1    10     2     5
  4.7765747431478656E-01 a      1056     1    10     2     6
 -5.0199067914721431E-02 a      1057     1    10     2     7
  3.8774863311796337E-01 a      1058     1    10     2     8
  7.9725556003467826E-02 a      1059     1    10     2     9
 -4.9893527647825936E-01 a      1060     1    10     2    10
  4.9191729717778437E-01 a      1061     1    10     2    11
 -2.1670992614809720E-01 a      1062     1    10     2    12
  3.0983159680052913E-01 a      1063     1    10     2    13
  1.4320620738012207E-01 a      1064     1    10     2    14
 -6.5137140391518092E-02 a      1065     1    10     2    15
  3.8579009598838604E-01 a      1066     1    10     2    16
  1.1764032564711896E-01 a      1067     1    10     2    17
  2.6155819408308967E-01 a      1068     1    10     2    18
 -7.9161110442312485E-02 a      1069     1    10     2    19
  3.4022378374032725E-01 a      1070     1    10     2    20
  3.3541301743395519E-01 a      1071     1    10     2    21
 -4.3758598062388515E-01 a      1072     1    10     2    22
  1.0596005022492183E+00 a      1073     1    10     2    23
  4.6429415324811196E-01 a      1074     1    10     2    24
  4.5968295754837663E-01 a      1075     1    10     2    25
  4.3184028321984264E-01 a      1076     1    11     2     1
  7.1135130748066699E-01 a      1077     1    11     2     2
 -4.2131979858928809E-01 a      1078     1    11     2     3
 -2.9876618791600568E-01 a      1079     1    11     2     4
  4.3217601376079717E-02 a      1080     1    11     2     5
  1.5482828458911491E-01 a      1081     1    11     2     6
  4.1677444214325265E-01 a      1082     1    11     2     7
  4.6726611490279812E-01 a      1083     1    11     2     8
  2.1298875542706758E-01 a      1084     1    11     2     9
  8.4437300151750036E-02 a      1085     1    11     2    10
  2.4630364535834778E-01 a      1086     1    11     2    11
  1.5864805624639219E-01 a      1087     1    11     2    12
  4.4073048410326626E-01 a      1088     1    11     2    13
 -3.9295112848962151E-02 a      1089     1    11     2    14
 -4.4188684850379994E-01 a      1090     1    11     2    15
  2.3470918500722107E-01 a      1091     1    11     2    16
 -5.2043519506131196E-02 a      1092     1    11     2    17
 -2.8924830990963285E-01 a      1093     1    11     2    18
  3.9233373736617916E-01 a      1094     1    11     2    19
  2.0701994869946838E-01 a      1095     1    11     2    20
 -9.2799294129949049E-03 a      1096     1    11     2    21
 -2.7173726751326949E-01 a      1097     1    11     2    22
 -5.8526595380410007E-01 a      1098     1    11     2    23
  3.4537130477172157E-01 a      1099     1    11     2    24
  4.6877572711047544E-01 a      1100     1    11     2    25
  6.6100862620932466E-01 a      1101     1    12     2     1
 -3.9597391675612986E-01 a      1102     1    12     2     2
  4.1515006098565288E-01 a      1103     1    12     2     3
 -3.8664573531129987E-01 a      1104     1    12     2     4
  1.4414713376294999E-01 a      1105     1    12     2     5
 -4.4328610275971569E-01 a      1106     1    12     2     6
  1.0835129613945181E-01 a      1107     1    12     2     7
  2.9947045648702292E-01 a      1108     1    12     2     8
 -2.4969653155335972E-01 a      1109     1    12     2     9
  1.1938155656334676E-01 a      1110     1    12     2    10
 -4.5359160960632527E-01 a      1111     1    12     2    11
 -1.5885486581484965E-02 a      1112     1    12     2    12
 -6.4333667231548486E-02 a      1113     1    12     2    13
  6.5755403829419390E-01 a      1114     1    12     2    14
  2.6678876712107513E-01 a      1115     1    12     2    15
  2.1101162097111947E-01 a      1116     1    12     2    16
 -4.3768220081199027E-01 a      1117     1    12     2    17
 -4.3671434119993119E-01 a      1118     1    12     2    18
  8.9456177492009056E-02 a      1119     1    12     2    19
  3.0805244104608002E-02 a      1120     1    12     2    20
 -2.4806494484229633E-01 a      1121     1    12     2    21
  3.2629508369990257E-01 a      1122     1    12     2    22
  1.3984423980944047E-01 a      1123     1    12     2    23
  2.0515526526589073E-01 a      1124     1    12     2    24
 -2.7202585281319080E-01 a      1125     1    12     2    25
 -1.5076988322515347E-01 a      1126     1    13     2     1
 -1.6404664199310739E-01 a      1127     1    13     2     2
  5.1133099892783906E-01 a      1128     1    13     2     3
 -3.4534161980651018E-01 a      1129     1    13     2     4
 -2.3049177083795463E-01 a      1130     1    13     2     5
 -3.2872847742816930E-01 a      1131     1    13     2     6
 -3.8828541735759126E-01 a      1132     1    13     2     7
 -2.9036395542837534E-01 a      1133     1    13     2     8
  3.8765266720345543E-01 a      1134     1    13     2     9
  3.4306553209646196E-01 a      1135     1    13     2    10
 -4.4559797401510348E-01 a      1136     1    13     2    11
  4.7793873003779985E-01 a      1137     1    13     2    12
 -1.1674434293958671E-01 a      1138     1    13     2    13
  3.5605116226853067E-01 a      1139     1    13     2    14
  2.8069736205203721E-01 a      1140     1    13     2    15
 -3.3633516073434144E-01 a      1141     1    13     2    16
  1.4563552429907942E-01 a      1142     1    13     2    17
  5.3834446769138911E-01 a      1143     1    13     2    18
 -7.4584661130789223E-02 a      1144     1    13     2    19
  6.4655120457377369E-02 a      1145     1    13     2    20
 -2.9395213590632946E-01 a      1146     1    13     2    21
 -2.7529271343375159E-02 a      1147     1    13     2    22
  4.6772051952691990E-01 a      1148     1    13     2    23
 -2.9957645831458567E-02 a      1149     1    13     2    24
  4.9659249608364558E-01 a      1150     1    13     2    25
 -3.2746980374985524E-01 a      1151     1    14     2     1
  6.6596813702574653E-01 a      1152     1    14     2     2
  3.3944960937486723E-01 a      1153     1    14     2     3
  4.2495365674113252E-02 a      1154     1    14     2     4
  6.3627150118774112E-01 a      1155     1    14     2     5
 -5.6264914229783791E-01 a      1156     1    14     2     6
 -2.2931120951085152E-01 a      1157     1    14     2     7
 -2.7010615642738983E-01 a      1158     1    14     2     8
  1.1708160735073571E-01 a      1159     1    14     2     9
 -3.3523635786759043E-01 a      1160     1    14     2    10
  3.4448834796774505E-02 a      1161     1    14     2    11
  5.2888410557346932E-01 a      1162     1    14     2    12
  5.6761847039258595E-01 a      1163     1    14     2    13
  4.1663083569696879E-01 a      1164     1    14     2    14
  1.1231427784864652E-01 a      1165     1    14     2    15
  1.4610092380233039E-01 a      1166     1    14     2    16
 -8.5142892716792221E-02 a      1167     1    14     2    17
  4.4913534634535901E-01 a      1168     1    14     2    18
 -2.9604033962474180E-01 a      1169     1    14     2    19
 -3.6283201683650462E-01 a      1170     1    14     2    20
 -7.1857729116908498E-01 a      1171     1    14     2    21
  4.0530717869412985E-01 a      1172     1    14     2    22
  2.0391913060427427E-01 a      1173     1    14     2    23
 -1.2923766898414107E-01 a      1174     1    14     2    24
  2.1975158641485426E-01 a      1175     1    14     2    25
  3.5732302326944930E-02 a      1176     1    15     2     1
 -2.2228650590666688E-01 a      1177     1    15     2     2
  2.2704074735167221E-01 a      1178     1    15     2     3
  2.0595064606199373E-01 a      1179     1    15     2     4
  5.0149200066935067E-02 a      1180     1    15     2     5
  3.8063504237522133E-01 a      1181     1    15     2     6
  7.4386159353496571E-03 a      1182     1    15     2     7
  3.3022366535628689E-01 a      1183     1    15     2     8
 -4.0316984189457139E-01 a      1184     1    15     2     9
  3.6602829741581344E-01 a      1185     1    15     2    10
  1.7529536355799660E-01 a      1186     1    15     2    11
 -4.7387261297059180E-01 a      1187     1    15     2    12
 -3.9390554399452916E-02 a      1188     1    15     2    13
  1.8244926713086287E-01 a      1189     1    15     2    14
 -3.8832139541349997E-01 a      1190     1    15     2    15
 -2.9440549581696179E-01 a      1191     1    15     2    16
  6.3557660468334054E-02 a      1192     1    15     2    17
 -2.1582268171032482E-01 a      1193     1    15     2    18
  2.3977261270352318E-01 a      1194     1    15     2    19
  4.1968033914967484E-01 a      1195     1    15     2    20
 -2.0089382362656663E-01 a      1196     1    15     2    21
 -3.2347357865588328E-01 a      1197     1    15     2    22
 -8.4749594902556971E-02 a      1198     1    15     2    23
 -9.5275666127511441E-02 a      1199     1    15     2    24
 -1.7473298156521939E-02 a      1200     1    15     2    25
  2.6447882679479923E-01 a      1201     1    16     2     1
  2.5409388751704232E-01 a      1202     1    16     2     2
 -1.3817374117999578E-01 a      1203     1    16     2     3
  4.0230680144058797E-02 a      1204     1    16     2     4
 -5.5347623780486654E-01 a      1205     1    16     2     5
  6.9428030755502157E-01 a      1206     1    16     2     6
  5.5422439268278223E-01 a      1207     1    16     2     7
 -2.9199373087089370E-01 a      1208     1    16     2     8
  4.8204055158217912E-01 a      1209     1    16     2     9
  5.5748706870302189E-01 a      1210     1    16     2    10
 -3.5202701512026313E-01 a      1211     1    16     2    11
 -9.5849020552050113E-01 a      1212     1    16     2    12
 -9.3144636915052093E-02 a      1213     1    16     2    13
  4.8922768837190056E-01 a      1214     1    16     2    14
 -1.9246168383235118E-01 a      1215     1    16     2    15
  4.5651056863430917E-01 a      1216     1    16     2    16
  6.8354260708924452E-01 a      1217     1    16     2    17
 -2.0839082972519377E-01 a      1218     1    16     2    18
  2.4393263140357527E-01 a      1219     1    16     2    19
 -5.3468401586712389E-01 a      1220     1    16     2    20
 -3.6789194991196761E-02 a      1221     1    16     2    21
  6.4496658185004785E-01 a      1222     1    16     2    22
 -2.6672673223665552E-02 a      1223     1    16     2    23
 -1.3860272288305625E-01 a      1224     1    16     2    24
 -1.9550997397387324E-01 a      1225     1    16     2    25
  2.6647663698707480E-01 a      1226     1    17     2     1
  1.3894162408521235E-01 a      1227     1    17     2     2
 -2.2302005178953563E-01 a      1228     1    17     2     3
  3.3375581958878109E-01 a      1229     1    17     2     4
  3.9340819634868812E-01 a      1230     1    17     2     5
  2.4652493198731495E-01 a      1231     1    17     2     6
  1.8980958662649017E-01 a      1232     1    17     2     7
  3.0326377759971192E-02 a      1233     1    17     2     8
 -5.8328930759658748E-01 a      1234     1    17     2     9
 -1.9066742255340702E-01 a      1235     1    17     2    10
 -7.0668567548147820E-01 a      1236     1    17     2    11
 -5.5733629880722413E-01 a      1237     1    17     2    12
 -1.2197068388068691E-01 a      1238     1    17     2    13
  3.0273919870452942E-01 a      1239     1    17     2    14
 -2.5289729598697236E-01 a      1240     1    17     2    15
  6.4836313248861105E-02 a      1241     1    17     2    16
 -5.2838207107762791E-01 a      1242     1    17     2    17
 -2.8450349931780278E-01 a      1243     1    17     2    18
  2.5640616889001616E-01 a      1244     1    17     2    19
 -1.5039505755623078E-01 a      1245     1    17     2    20
  2.9384062418986523E-01 a      1246     1    17     2    21
  2.8687428629901521E-02 a      1247     1    17     2    22
 -1.6657752124138510E-02 a      1248     1    17     2    23
 -2.2766247407254603E-01 a      1249     1    17     2    24
  3.9864535538176737E-01 a      1250     1    17     2    25
 -3.2081137546356847E-01 a      1251     1    18     2     1
  1.9323863489711016E-01 a      1252     1    18     2     2
 -3.2457135065608322E-01 a      1253     1    18     2     3
  2.3274450143715042E-01 a      1254     1    18     2     4
 -3.0272515170005265E-01 a      1255     1    18     2     5
  3.2931049966389675E-01 a      1256     1    18     2     6
 -6.0781296271138326E-02 a      1257     1    18     2     7
  2.9254094591069235E-01 a      1258     1    18     2     8
  3.6993639097776232E-01 a      1259     1    18     2     9
 -8.8369617712070303E-02 a      1260     1    18     2    10
 -5.7196148295849747E-01 a      1261     1    18     2    11
  4.6504485647843963E-01 a      1262     1    18     2    12
 -3.6167749223333218E-01 a      1263     1    18     2    13
 -4.7110617375387898E-01 a      1264     1    18     2    14
 -2.3786883617563229E-01 a      1265     1    18     2    15
 -4.2562968654168426E-01 a      1266     1    18     2    16
  3.5890479703281458E-01 a      1267     1    18     2    17
  3.6413400296012893E-01 a      1268     1    18     2    18
  2.7107477359420762E-01 a      1269     1    18     2    19
 -5.1332904482893883E-02 a      1270     1    18     2    20
  4.6990658953271036E-01 a      1271     1    18     2    21
 -5.6040833857630201E-01 a      1272     1    18     2    22
  6.1176283844249901E-01 a      1273     1    18     2    23
  1.6661809593665533E-02 a      1274     1    18     2    24
 -1.1112515974065091E-02 a      1275     1    18     2    25
 -7.7106919261981056E-03 a      1276     1    19     2     1
  1.2458227960154609E-01 a      1277     1    19     2     2
  3.6579937551259967E-01 a      1278     1    19     2     3
 -2.7576126982734078E-01 a      1279     1    19     2     4
 -1.0269480623794186E-01 a      1280     1    19     2     5
  3.2474579271712456E-01 a      1281     1    19     2     6
 -3.6641362557316198E-01 a      1282     1    19     2     7
  2.9310243302376532E-01 a      1283     1    19     2     8
 -1.1369604013139745E-02 a      1284     1    19     2     9
  4.0359671146211429E-01 a      1285     1    19     2    10
  5.9122225151172014E-01 a      1286     1    19     2    11
 -9.9384221859546734E-02 a      1287     1    19     2    12
 -5.5616555975762660E-01 a      1288     1    19     2    13
  1.4524505107030403E-01 a      1289     1    19     2    14
 -2.5184247840126001E-01 a      1290     1    19     2    15
  3.8539096027029507E-01 a      1291     1    19     2    16
  3.3534154752167693E-02 a      1292     1    19     2    17
 -3.8210466320514214E-01 a      1293     1    19     2    18
  2.3752574561826120E-01 a      1294     1    19     2    19
 -1.5768941367573083E-01 a      1295     1    19     2    20
 -3.8644268426055223E-01 a      1296     1    19     2    21
  1.1159190993019845E-01 a      1297     1    19     2    22
 -5.5456900332271013E-02 a      1298     1    19     2    23
  5.8297972802173637E-02 a      1299     1    19     2    24
  2.8122702472828764E-01 a      1300     1    19     2    25
  1.9417585346293834E-01 a      1301     1    20     2     1
 -2.2759221335694371E-01 a      1302     1    20     2     2
  8.7399178629686144E-02 a      1303     1    20     2     3
 -2.0697430724776347E-01 a      1304     1    20     2     4
  1.8117534544558339E-01 a      1305     1    20     2     5
 -4.3265859323535666E-01 a      1306     1    20     2     6
  6.4034598740900948E-03 a      1307     1    20     2     7
 -2.4176647299545917E-01 a      1308     1    20     2     8
 -4.9625243638482247E-01 a      1309     1    20     2     9
 -6.8020145571368026E-02 a      1310     1    20     2    10
 -4.2197593254061866E-01 a      1311     1    20     2    11
  4.9400152389690888E-01 a      1312     1    20     2    12
 -3.6434675657377791E-01 a      1313     1    20     2    13
  1.2128217787862018E-01 a      1314     1    20     2    14
  3.3862898408526892E-01 a      1315     1    20     2    15
 -4.4360438391404927E-01 a      1316     1    20     2    16
 -1.6783590410271895E-01 a      1317     1    20     2    17
  2.8016960224827553E-01 a      1318     1    20     2    18
 -2.1832934740549365E-01 a      1319     1    20     2    19
 -5.9039878481957087E-01 a      1320     1    20     2    20
 -1.8141915667013980E-01 a      1321     1    20     2    21
  3.7620373522299927E-01 a      1322     1    20     2    22
 -8.1138481961719300E-02 a      1323     1    20     2    23
  5.2520749910670857E-02 a      1324     1    20     2    24
  4.6759194729681536E-01 a      1325     1    20     2    25
  5.0671921727211272E-03 a      1326     1    21     2     1
 -3.6523797718830237E-01 a      1327     1    21     2     2
 -3.8369896185490131E-04 a      1328     1    21     2     3
  2.2753639802440845E-01 a      1329     1    21     2     4
  4.1957597609791103E-01 a      1330     1    21     2     5
  9.6092239398046925E-02 a      1331     1    21     2     6
 -3.2067081010704818E-01 a      1332     1    21     2     7
 -3.5944216410490049E-01 a      1333     1    21     2     8
 -1.1121639588537140E-01 a      1334     1    21     2     9
 -2.4558733577841371E-01 a      1335     1    21     2    10
 -9.4810504138951548E-02 a      1336     1    21     2    11
  3.1823968414545695E-01 a      1337     1    21     2    12
  1.4525727616028730E-01 a      1338     1    21     2    13
 -8.3249872037476384E-04 a      1339     1    21     2    14
  1.1648717399931723E-01 a      1340     1    21     2    15
 -2.9601107782961383E-01 a      1341     1    21     2    16
 -3.8682022798100119E-01 a      1342     1    21     2    17
  7.6353911409558894E-01 a      1343     1    21     2    18
  2.4928364069591349E-01 a      1344     1    21     2    19
 -7.9977565159038158E-02 a      1345     1    21     2    20
 -5.1932100357346113E-02 a      1346     1    21     2    21
 -2.6961245990377219E-01 a      1347     1    21     2    22
 -6.9794560334944411E-01 a      1348     1    21     2    23
 -1.4824034221572802E-01 a      1349     1    21     2    24
 -3.5665055522904464E-02 a      1350     1    21     2    25
 -2.5250782574590425E-01 a      1351     1    22     2     1
  1.6743708776675656E-01 a      1352     1    22     2     2
  1.5036791296124480E-01 a      1353     1    22     2     3
  2.7986706924401505E-01 a      1354     1    22     2     4
 -9.8864645148683691E-02 a      1355     1    22     2     5
 -1.1688622672140309E-01 a      1356     1    22     2     6
 -1.1996394249150256E-01 a      1357     1    22     2     7
  2.7015597258371077E-01 a      1358     1    22     2     8
  1.4231222383818576E-01 a      1359     1    22     2     9
 -3.6566684825379348E-01 a      1360     1    22     2    10
  2.5890912834867713E-01 a      1361     1    22     2    11
 -3.2126155083063501E-01 a      1362     1    22     2    12
  4.5025706308693930E-01 a      1363     1    22     2    13
  3.7357648631188528E-01 a      1364     1    22     2    14
 -3.4150423673873465E-01 a      1365     1    22     2    15
 -1.4151893950773309E-01 a      1366     1    22     2    16
  1.9472301599055167E-01 a      1367     1    22     2    17
  2.7724693833314305E-02 a      1368     1    22     2    18
 -6.9802058370472519E-01 a      1369     1    22     2    19
  6.6829256244495028E-01 a      1370     1    22     2    20
 -1.9957063768623415E-01 a      1371     1    22     2    21
  3.4782702999166443E-01 a      1372     1    22     2    22
  3.2792438317332105E-02 a      1373     1    22     2    23
 -2.4247391318787317E-01 a      1374     1    22     2    24
  9.5295783738438569E-02 a      1375     1    22     2    25
  1.7801950644580156E-01 a      1376     1    23     2     1
 -2.5677820102263477E-01 a      1377     1    23     2     2
 -2.2265291928317971E-01 a      1378     1    23     2     3
 -3.0380973116977200E-01 a      1379     1    23     2     4
  1.6354993024845960E-01 a      1380     1    23     2     5
  1.7521187147439884E-01 a      1381     1    23     2     6
 -2.6019265217455667E-01 a      1382     1    23     2     7
 -2.3511946987403842E-01 a      1383     1    23     2     8
  4.0636410954505092E-01 a      1384     1    23     2     9
 -3.4424299634986044E-01 a      1385     1    23     2    10
 -1.2127578236046160E-01 a      1386     1    23     2    11
  8.5331303181729212E-02 a      1387     1    23     2    12
  1.2637099684658032E-01 a      1388     1    23     2    13
 -1.5427359986689024E-01 a      1389     1    23     2    14
  1.4668008312051775E-01 a      1390     1    23     2    15
 -4.6007851797854449E-01 a      1391     1    23     2    16
 -3.1047602139405828E-01 a      1392     1    23     2    17
  4.8026118755074049E-01 a      1393     1    23     2    18
  1.0767455848566447E-01 a      1394     1    23     2    19
 -3.9342071610830670E-01 a      1395     1    23     2    20
  1.0451505090241804E-01 a      1396     1    23     2    21
 -1.8922240681406038E-01 a      1397     1    23     2    22
  7.7363703853386034E-01 a      1398     1    23     2    23
  1.1838223289381723E-01 a      1399     1    23     2    24
  3.0428491027914184E-01 a      1400     1    23     2    25
 -8.8404899062008657E-01 a      1401     1    24     2     1
 -3.6228440292956698E-01 a      1402     1    24     2     2
 -2.7096380840820322E-01 a      1403     1    24     2     3
 -5.0509862706125563E-01 a      1404     1    24     2     4
  1.2498089336612856E-02 a      1405     1    24     2     5
 -4.7786731021042070E-02 a      1406     1    24     2     6
 -3.1202942712496917E-01 a      1407     1    24     2     7
  1.9499811972905542E-01 a      1408     1    24     2     8
 -2.7411127426772980E-01 a      1409     1    24     2     9
  1.0141135228894586E-01 a      1410     1    24     2    10
  8.7839736378536329E-02 a      1411     1    24     2    11
  1.8447992119566861E-01 a      1412     1    24     2    12
 -3.9514415160590693E-01 a      1413     1    24     2    13
 -3.3952414950083770E-01 a      1414     1    24     2    14
 -1.7380800278607758E-01 a      1415     1    24     2    15
 -2.5834158793632478E-01 a      1416     1    24     2    16
 -3.9740287417360698E-01 a      1417     1    24     2    17
 -3.9517254138201613E-01 a      1418     1    24     2    18
 -3.9112141372826204E-01 a      1419     1    24     2    19
 -1.6023537172493926E-01 a      1420     1    24     2    20
 -7.1744028434037421E-01 a      1421     1    24     2    21
 -1.1041764492236732E-01 a      1422     1    24     2    22
 -5.1894327862593437E-01 a      1423     1    24     2    23
  7.8985110161667232E-02 a      1424     1    24     2    24
 -5.4241383039328607E-02 a      1425     1    24     2    25
 -4.1295505693318579E-01 a      1426     1    25     2     1
  2.1580021472128438E-01 a      1427     1    25     2     2
  4.9727799994873095E-01 a      1428     1    25     2     3
 -3.1183663451846255E-01 a      1429     1    25     2     4
 -3.9877203957034224E-01 a      1430     1    25     2     5
  1.2566746446885599E-01 a      1431     1    25     2     6
  1.8041954272531099E-01 a      1432     1    25     2     7
  5.5140286781874148E-01 a      1433     1    25     2     8
 -4.2536838892129808E-01 a      1434     1    25     2     9
  7.7889800859247266E-03 a      1435     1    25     2    10
 -5.2951048274239292E-02 a      1436     1    25     2    11
 -4.2826318612781272E-01 a      1437     1    25     2    12
  3.5044454640134393E-02 a      1438     1    25     2    13
  4.8170642246744361E-01 a      1439     1    25     2    14
  1.7975680130729693E-01 a      1440     1    25     2    15
 -2.9231652481539049E-02 a      1441     1    25     2    16
  1.2069444934316303E-01 a      1442     1    25     2    17
  5.0416890103407130E-01 a      1443     1    25     2    18
  2.4154317380931503E-01 a      1444     1    25     2    19
 -5.3081760214998386E-01 a      1445     1    25     2    20
  3.2210385113702894E-01 a      1446     1    25     2    21
 -4.9764664460208559E-02 a      1447     1    25     2    22
 -7.4039385856174547E-02 a      1448     1    25     2    23
  2.9875982810878177E-01 a      1449     1    25     2    24
 -3.1640123701535694E-01 a      1450     1    25     2    25
 -1.5447603025445740E+00 b      1451     2     1
 -1.3319022064996573E+00 b      1452     2     2
  8.8659167254460458E-01 b      1453     2     3
 -8.8975310525196338E-01 b      1454     2     4
  1.6640366386994210E+00 b      1455     2     5
  1.2915429066050482E-01 b      1456     2     6
 -3.2104861309815369E-01 b      1457     2     7
  1.2687287423950171E+00 b      1458     2     8
 -9.4538113115380973E-01 b      1459     2     9
  1.4624812526028905E+00 b      1460     2    10
  8.4474391303015572E-01 b      1461     2    11
 -7.0557502368316294E-01 b      1462     2    12
 -1.2536451721632254E+00 b      1463     2    13
  1.3726215632239720E+00 b      1464     2    14
  4.0967195592352318E-02 b      1465     2    15
 -4.6297937244846943E-01 b      1466     2    16
  8.7890681003250182E-01 b      1467     2    17
 -1.0748843673996156E-01 b      1468     2    18
 -1.3934681033956475E+00 b      1469     2    19
 -9.2016915557729229E-01 b      1470     2    20
  4.8776930402614616E-01 b      1471     2    21
  1.2247657302050492E+00 b      1472     2    22
  7.4244931950346316E-01 b      1473     2    23
  3.2735668475168833E-01 b      1474     2    24
 -4.8635113603367125E-01 b      1475     2    25
  3.4630965852050816E-01 a      1476     2     1     3     1
  1.0089343149476495E+00 a      1477     2     2     3     1
  1.7746881301107273E-01 a      1478     2     3     3     1
 -1.8631260106265379E-01 a      1479     2     4     3     1
 -6.1179442729874056E-01 a      1480     2     5     3     1
 -2.7627633092474645E-02 a      1481     2     6     3     1
  1.6857380886011339E-01 a      1482     2     7     3     1
 -4.0950447123670847E-01 a      1483     2     8     3     1
 -5.3738780440045007E-02 a      1484     2     9     3     1
 -2.8292295399622142E-01 a      1485     2    10     3     1
  1.3498204837101376E-02 a      1486     2    11     3     1
  1.1582765348873394E+00 a      1487     2    12     3     1
  4.2147320309673214E-01 a      1488     2    13     3     1
 -1.1316341419815374E+00 a      1489     2    14     3     1
 -5.4003124099961297E-01 a      1490     2    15     3     1
 -6.1134786842165440E-03 a      1491     2    16     3     1
 -4.2773263435532766E-01 a      1492     2    17     3     1
 -6.2809418337500000E-01 a      1493     2    18     3     1
  4.8517408943176540E-03 a      1494     2    19     3     1
  3.1805163951502055E-02 a      1495     2    20     3     1
  1.3471283009497581E-01 a      1496     2    21     3     1
  7.7734675385832663E-01 a      1497     2    22     3     1
 -4.1866187596479831E-01 a      1498     2    23     3     1
 -2.9799175561559416E-01 a      1499     2    24     3     1
 -1.4493462158351796E-02 a      1500     2    25     3     1
 -6.0856856608766419E-01 b      1501     3     1
